{"learner":{"attributes":{"scikit_learn":"{\"_estimator_type\": \"ranker\"}"},"feature_names":[],"feature_types":[],"gradient_booster":{"model":{"gbtree_model_param":{"num_parallel_tree":"1","num_trees":"100"},"iteration_indptr":[0,1,2,3,4,5,6,7,8,9,10,11,12,13,14,15,16,17,18,19,20,21,22,23,24,25,26,27,28,29,30,31,32,33,34,35,36,37,38,39,40,41,42,43,44,45,46,47,48,49,50,51,52,53,54,55,56,57,58,59,60,61,62,63,64,65,66,67,68,69,70,71,72,73,74,75,76,77,78,79,80,81,82,83,84,85,86,87,88,89,90,91,92,93,94,95,96,97,98,99,100],"tree_info":[0,0,0,0,0,0,0,0,0,0,0,0,0,0,0,0,0,0,0,0,0,0,0,0,0,0,0,0,0,0,0,0,0,0,0,0,0,0,0,0,0,0,0,0,0,0,0,0,0,0,0,0,0,0,0,0,0,0,0,0,0,0,0,0,0,0,0,0,0,0,0,0,0,0,0,0,0,0,0,0,0,0,0,0,0,0,0,0,0,0,0,0,0,0,0,0,0,0,0,0],"trees":[{"base_weights":[-3.376165E-2,-2.4658509E-1,8.1401247E-1,-5.7720125E-1,6.9068316E-3,3.1618707E-2,8.9299254E-2,-6.561498E-1,-4.7225836E-3,4.0220982E-1,-5.1645577E-1,-7.352414E-2,-8.585043E-3,5.750706E-1,-6.1437417E-2,1.9739829E-2,-7.250572E-2,1.1781979E-2,7.122793E-2,-5.086682E-2,4.3299112E-2],"categories":[],"categories_nodes":[],"categories_segments":[],"categories_sizes":[],"default_left":[0,0,0,0,0,0,0,0,0,0,0,0,0,0,0,0,0,0,0,0,0],"id":0,"left_children":[1,3,5,7,9,-1,-1,11,-1,13,15,-1,-1,17,19,-1,-1,-1,-1,-1,-1],"loss_changes":[1.02984915E1,3.8175528E0,1.6834831E-1,7.9576206E-1,5.7406845E0,0E0,0E0,7.0909023E-1,0E0,1.3014963E0,1.9219794E0,0E0,0E0,6.441164E-1,1.3687402E0,0E0,0E0,0E0,0E0,0E0,0E0],"parents":[2147483647,0,0,1,1,2,2,3,3,4,4,7,7,9,9,10,10,13,13,14,14],"right_children":[2,4,6,8,10,-1,-1,12,-1,14,16,-1,-1,18,20,-1,-1,-1,-1,-1,-1],"split_conditions":[3.0806416E1,-3.8004157E-1,3.3661346E1,-1.5773451E1,-1.9419533E1,3.1618707E-2,8.9299254E-2,5.2755218E-2,-4.7225836E-3,2.1087019E-2,-8.446967E-2,-7.352414E-2,-8.585043E-3,6.858972E-1,-1.9510506E1,1.9739829E-2,-7.250572E-2,1.1781979E-2,7.122793E-2,-5.086682E-2,4.3299112E-2],"split_indices":[4,2,0,14,16,0,0,40,0,28,3,0,0,24,16,0,0,0,0,0,0],"split_type":[0,0,0,0,0,0,0,0,0,0,0,0,0,0,0,0,0,0,0,0,0],"sum_hessian":[5.4966198E1,4.4503315E1,1.0462881E1,1.8759407E1,2.5743908E1,2.1177433E0,8.345138E0,1.6119993E1,2.6394138E0,1.479815E1,1.0945758E1,1.3902689E1,2.2173045E0,1.0604262E1,4.193887E0,2.4873872E0,8.458371E0,2.8766053E0,7.7276573E0,2.1869245E0,2.0069628E0],"tree_param":{"num_deleted":"0","num_feature":"48","num_nodes":"21","size_leaf_vector":"1"}},{"base_weights":[2.488888E-2,-1.823643E-1,9.113439E-2,-3.4474337E-1,4.0854323E-1,-2.7904797E-3,-4.500883E-1,7.3705155E-1,-3.9293882E-1,2.0861919E-1,-6.481062E-2,-6.449342E-1,-2.217893E-1,8.4993035E-1,-2.3938052E-2,7.138809E-2,-7.505596E-2,-2.797133E-1,5.754255E-1,1.4003354E-1,-7.260209E-1,6.359996E-2,-5.967352E-1,8.910381E-2,2.9860685E-2,6.0223676E-3,-6.12969E-2,7.513614E-2,-3.7914943E-2,-3.7437197E-2,6.2075507E-2,-8.039761E-2,-1.4498564E-2,5.597346E-2,-3.99754E-2,-8.0918156E-2,-9.080869E-3],"categories":[],"categories_nodes":[],"categories_segments":[],"categories_sizes":[],"default_left":[0,0,0,0,0,0,0,0,0,0,0,0,0,0,0,0,0,0,0,0,0,0,0,0,0,0,0,0,0,0,0,0,0,0,0,0,0],"id":1,"left_children":[1,3,-1,5,7,9,11,13,15,17,-1,19,21,23,-1,-1,-1,25,27,29,31,33,35,-1,-1,-1,-1,-1,-1,-1,-1,-1,-1,-1,-1,-1,-1],"loss_changes":[3.977343E1,1.6986488E1,0E0,4.979372E0,1.0374441E1,4.714889E0,4.5585327E0,3.236127E0,5.201563E0,4.825657E0,0E0,3.6979542E0,5.4088697E0,2.9788208E-1,0E0,0E0,0E0,1.3786037E0,2.837367E0,1.7478416E0,2.2103252E0,6.983274E0,2.2684627E0,0E0,0E0,0E0,0E0,0E0,0E0,0E0,0E0,0E0,0E0,0E0,0E0,0E0,0E0],"parents":[2147483647,0,0,1,1,3,3,4,4,5,5,6,6,7,7,8,8,9,9,11,11,12,12,13,13,17,17,18,18,19,19,20,20,21,21,22,22],"right_children":[2,4,-1,6,8,10,12,14,16,18,-1,20,22,24,-1,-1,-1,26,28,30,32,34,36,-1,-1,-1,-1,-1,-1,-1,-1,-1,-1,-1,-1,-1,-1],"split_conditions":[2.3072632E1,1.990323E0,9.113439E-2,-3.8698547E-2,-7.583434E-1,-1.2383658E-3,7.6039024E-3,2.3295853E-2,-1.417596E0,2.1730419E-1,-6.481062E-2,-5.8518257E-2,-1.9338428E1,5.2624192E-2,-2.3938052E-2,7.138809E-2,-7.505596E-2,9.162789E-3,2.151226E-2,1.7572923E-2,2.3017662E1,2.2304034E-2,5.6696394E-3,8.910381E-2,2.9860685E-2,6.0223676E-3,-6.12969E-2,7.513614E-2,-3.7914943E-2,-3.7437197E-2,6.2075507E-2,-8.039761E-2,-1.4498564E-2,5.597346E-2,-3.99754E-2,-8.0918156E-2,-9.080869E-3],"split_indices":[18,3,0,34,15,40,41,27,6,5,0,30,18,36,0,0,0,42,37,12,4,1,30,0,0,0,0,0,0,0,0,0,0,0,0,0,0],"split_type":[0,0,0,0,0,0,0,0,0,0,0,0,0,0,0,0,0,0,0,0,0,0,0,0,0,0,0,0,0,0,0,0,0,0,0,0,0],"sum_hessian":[2.1458406E2,1.7456503E2,4.0019028E1,1.3726244E2,3.7302593E1,3.2568985E1,1.0469345E2,2.6515085E1,1.078751E1,2.5041834E1,7.527152E0,5.5500553E1,4.9192898E1,2.3883615E1,2.6314697E0,2.3910685E0,8.396441E0,1.084338E1,1.4198453E1,5.1283264E0,5.0372227E1,2.8403791E1,2.0789108E1,2.165295E1,2.2306638E0,5.773459E0,5.069921E0,1.21685705E1,2.0298824E0,2.5842395E0,2.544087E0,4.407514E1,6.297088E0,1.3616241E1,1.478755E1,1.4218948E1,6.57016E0],"tree_param":{"num_deleted":"0","num_feature":"48","num_nodes":"37","size_leaf_vector":"1"}},{"base_weights":[-2.8955733E-2,3.5712576E-1,-1.2444886E-1,-4.5624307E-1,8.419846E-2,-2.7488372E-1,3.3001456E-1,-1.1940605E-3,-6.45338E-1,-4.459374E-1,7.7604083E-3,6.28791E-1,-5.5399406E-1,-2.5171474E-2,-7.327568E-2,1.0942922E-1,-5.9131134E-1,3.3802912E-1,-6.736578E-1,7.843479E-1,-2.7931733E-2,-6.225475E-3,-7.2552554E-2,6.5565485E-1,-5.176764E-1,-3.694004E-2,-6.503912E-1,1.05682045E-1,7.8767054E-2,-1.613301E-2,-7.561344E-2,8.30069E-2,2.761525E-2,-6.062099E-2,6.0870748E-2,2.5110548E-2,7.567924E-2,-6.753508E-2,-1.9068783E-2,4.82099E-2,-4.8378456E-2,-7.021248E-2,-2.1175345E-2,-1.5860863E-2,5.1090457E-2],"categories":[],"categories_nodes":[],"categories_segments":[],"categories_sizes":[],"default_left":[0,0,0,0,0,0,0,0,0,0,0,0,0,0,0,0,0,0,0,0,0,0,0,0,0,0,0,0,0,0,0,0,0,0,0,0,0,0,0,0,0,0,0,0,0],"id":2,"left_children":[1,3,5,7,-1,9,11,-1,13,15,17,19,21,-1,-1,23,25,27,29,31,33,-1,-1,35,37,39,41,43,-1,-1,-1,-1,-1,-1,-1,-1,-1,-1,-1,-1,-1,-1,-1,-1,-1],"loss_changes":[5.8757005E0,1.2854715E1,8.810513E0,1.039E0,0E0,4.662685E0,8.846129E0,0E0,1.1561966E-1,4.9131727E0,8.625805E0,2.5263042E0,6.851964E-1,0E0,0E0,4.8960314E0,1.5399265E0,2.6121767E0,4.0688467E-1,2.3210144E-1,2.4529045E0,0E0,0E0,1.1891031E-1,2.1931112E-1,1.5457225E0,8.291836E-1,2.0264707E0,0E0,0E0,0E0,0E0,0E0,0E0,0E0,0E0,0E0,0E0,0E0,0E0,0E0,0E0,0E0,0E0,0E0],"parents":[2147483647,0,0,1,1,2,2,3,3,5,5,6,6,8,8,9,9,10,10,11,11,12,12,15,15,16,16,17,17,18,18,19,19,20,20,23,23,24,24,25,25,26,26,27,27],"right_children":[2,4,6,8,-1,10,12,-1,14,16,18,20,22,-1,-1,24,26,28,30,32,34,-1,-1,36,38,40,42,44,-1,-1,-1,-1,-1,-1,-1,-1,-1,-1,-1,-1,-1,-1,-1,-1,-1],"split_conditions":[-8.0690825E-1,-1.5773451E1,5.270164E-1,-3.6765456E-2,8.419846E-2,8.033729E0,-7.2838783E-1,-1.1940605E-3,-1.9386835E-2,-5.1075704E-2,-1.258913E-1,3.1767763E-2,2.043695E0,-2.5171474E-2,-7.327568E-2,-5.481659E-1,-5.0170716E-2,1.9807072E1,3.761847E-1,2.3295853E-2,2.8878774E-2,-6.225475E-3,-7.2552554E-2,-2.6819026E-2,3.6453987E-3,-5.1467656E-3,5.4182954E-2,-3.9995995E-1,7.8767054E-2,-1.613301E-2,-7.561344E-2,8.30069E-2,2.761525E-2,-6.062099E-2,6.0870748E-2,2.5110548E-2,7.567924E-2,-6.753508E-2,-1.9068783E-2,4.82099E-2,-4.8378456E-2,-7.021248E-2,-2.1175345E-2,-1.5860863E-2,5.1090457E-2],"split_indices":[2,14,3,47,0,14,15,0,13,12,3,32,2,0,0,20,7,0,15,27,31,0,0,38,11,31,35,2,0,0,0,0,0,0,0,0,0,0,0,0,0,0,0,0,0],"split_type":[0,0,0,0,0,0,0,0,0,0,0,0,0,0,0,0,0,0,0,0,0,0,0,0,0,0,0,0,0,0,0,0,0,0,0,0,0,0,0,0,0,0,0,0,0],"sum_hessian":[1.5716524E2,3.0621561E1,1.2654368E2,1.1458506E1,1.9163055E1,9.536984E1,3.117384E1,3.7382233E0,7.7202826E0,5.9053474E1,3.6316364E1,2.3514977E1,7.6588635E0,2.1079886E0,5.612294E0,1.2302385E1,4.675109E1,2.4800184E1,1.1516182E1,1.8854582E1,4.660394E0,2.3331673E0,5.325696E0,6.550874E0,5.751511E0,4.6590004E0,4.209209E1,1.7165264E1,7.6349187E0,2.0067484E0,9.509434E0,1.6717209E1,2.137372E0,2.4671793E0,2.193215E0,2.0067406E0,4.5441337E0,3.1616118E0,2.589899E0,2.1188831E0,2.5401173E0,3.71141E1,4.9779897E0,1.0757615E1,6.407649E0],"tree_param":{"num_deleted":"0","num_feature":"48","num_nodes":"45","size_leaf_vector":"1"}},{"base_weights":[-2.6501963E-2,-2.0625763E-1,8.03184E-2,-3.554537E-1,2.3439625E-1,-4.5372924E-1,7.6687194E-2,5.2491504E-1,-5.2217036E-1,-2.1817996E-1,-5.9817E-1,4.024177E-1,-2.0922577E-1,7.006963E-1,-3.7981205E-2,-6.4162575E-3,-6.629851E-2,2.0348439E-1,-5.7241666E-1,2.2807928E-2,-6.4802176E-1,6.0685784E-2,1.9932785E-3,-2.0061822E-4,-2.8675204E-2,7.6450415E-2,1.6372249E-2,4.9985107E-2,-1.9908523E-2,-5.115612E-4,-6.618533E-2,-6.838083E-2,-3.927121E-3],"categories":[],"categories_nodes":[],"categories_segments":[],"categories_sizes":[],"default_left":[0,0,0,0,0,0,0,0,0,0,0,0,0,0,0,0,0,0,0,0,0,0,0,0,0,0,0,0,0,0,0,0,0],"id":3,"left_children":[1,3,-1,5,7,9,11,13,15,17,19,21,23,25,-1,-1,-1,27,29,-1,31,-1,-1,-1,-1,-1,-1,-1,-1,-1,-1,-1,-1],"loss_changes":[2.0941988E1,7.663286E0,0E0,3.7096357E0,6.816425E0,2.272953E0,1.6569601E0,3.76576E0,5.2242064E-1,4.3625274E0,1.9278622E0,6.319394E-1,1.5447545E-1,5.1819324E-1,0E0,0E0,0E0,1.7359287E0,7.937374E-1,0E0,8.6670876E-1,0E0,0E0,0E0,0E0,0E0,0E0,0E0,0E0,0E0,0E0,0E0,0E0],"parents":[2147483647,0,0,1,1,3,3,4,4,5,5,6,6,7,7,8,8,9,9,10,10,11,11,12,12,13,13,17,17,18,18,20,20],"right_children":[2,4,-1,6,8,10,12,14,16,18,20,22,24,26,-1,-1,-1,28,30,-1,32,-1,-1,-1,-1,-1,-1,-1,-1,-1,-1,-1,-1],"split_conditions":[3.8558147E1,5.2532077E-1,8.03184E-2,2.6816109E1,-7.5303864E-1,-3.0265847E-1,-2.668348E-2,3.6606204E-2,-2.424954E-2,-1.5849615E1,-9.799148E-2,4.2181867E-1,-2.4321595E-2,2.3295853E-2,-3.7981205E-2,-6.4162575E-3,-6.629851E-2,6.73522E-1,-1.3406875E0,2.2807928E-2,8.323182E-2,6.0685784E-2,1.9932785E-3,-2.0061822E-4,-2.8675204E-2,7.6450415E-2,1.6372249E-2,4.9985107E-2,-1.9908523E-2,-5.115612E-4,-6.618533E-2,-6.838083E-2,-3.927121E-3],"split_indices":[4,3,0,4,15,1,27,28,27,14,30,15,44,27,0,0,0,22,6,0,29,0,0,0,0,0,0,0,0,0,0,0,0],"split_type":[0,0,0,0,0,0,0,0,0,0,0,0,0,0,0,0,0,0,0,0,0,0,0,0,0,0,0,0,0,0,0,0,0],"sum_hessian":[1.3830684E2,1.1429553E2,2.4011303E1,8.5530174E1,2.8765354E1,6.964244E1,1.5887732E1,2.1005507E1,7.7598486E0,2.742658E1,4.2215862E1,7.2362475E0,8.651484E0,1.7777077E1,3.2284288E0,2.16705E0,5.5927987E0,1.2715866E1,1.4710714E1,2.198728E0,4.0017136E1,4.3334026E0,2.9028451E0,2.6348045E0,6.016679E0,1.5510286E1,2.2667909E0,7.1848316E0,5.5310345E0,2.1473258E0,1.2563389E1,3.7678814E1,2.3383195E0],"tree_param":{"num_deleted":"0","num_feature":"48","num_nodes":"33","size_leaf_vector":"1"}},{"base_weights":[7.097548E-4,-1.4258477E-1,7.590139E-2,3.591793E-1,-2.7027717E-1,5.867505E-1,-4.521699E-2,-1.2193177E-2,-3.845403E-1,6.90844E-2,7.5259507E-3,3.3394676E-1,-4.148116E-1,-4.7915915E-1,-8.640208E-3,6.105614E-1,-9.236401E-2,4.747753E-2,-6.2006887E-2,-2.768675E-2,-5.594625E-1,2.884368E-1,-1.9003965E-1,7.402757E-2,9.759296E-3,4.3634873E-2,-4.2866603E-2,3.6089186E-2,-4.4988915E-2,-6.042595E-2,1.41478E-2,4.7768548E-2,-1.5484102E-3,-2.9413214E-2,1.0244256E-2],"categories":[],"categories_nodes":[],"categories_segments":[],"categories_sizes":[],"default_left":[0,0,0,0,0,0,0,0,0,0,0,0,0,0,0,0,0,0,0,0,0,0,0,0,0,0,0,0,0,0,0,0,0,0,0],"id":4,"left_children":[1,3,-1,5,7,9,-1,11,13,-1,-1,15,17,19,21,23,25,-1,-1,27,29,31,33,-1,-1,-1,-1,-1,-1,-1,-1,-1,-1,-1,-1],"loss_changes":[1.4256255E1,7.167473E0,0E0,4.477955E0,2.6061978E0,9.198532E-1,0E0,4.0688324E0,2.1773462E0,0E0,0E0,1.9099995E0,2.7563844E0,1.760334E0,7.7436644E-1,5.7082224E-1,1.4413352E0,0E0,0E0,1.548461E0,1.3896265E0,3.2139692E-1,3.0088186E-1,0E0,0E0,0E0,0E0,0E0,0E0,0E0,0E0,0E0,0E0,0E0,0E0],"parents":[2147483647,0,0,1,1,3,3,4,4,5,5,7,7,8,8,11,11,12,12,13,13,14,14,15,15,16,16,19,19,20,20,21,21,22,22],"right_children":[2,4,-1,6,8,10,-1,12,14,-1,-1,16,18,20,22,24,26,-1,-1,28,30,32,34,-1,-1,-1,-1,-1,-1,-1,-1,-1,-1,-1,-1],"split_conditions":[2.3331526E1,-3.651086E1,7.590139E-2,1.6589165E1,-3.2707974E-2,3.6606204E-2,-4.521699E-2,-2.2249823E-3,1.6693691E1,6.90844E-2,7.5259507E-3,-7.698071E-1,-9.7319424E-2,-4.86762E-2,-2.1494227E-2,7.1819496E-1,-4.5708243E-2,4.747753E-2,-6.2006887E-2,-5.432004E-1,1.083431E0,4.3047258E-1,2.7190192E-2,7.402757E-2,9.759296E-3,4.3634873E-2,-4.2866603E-2,3.6089186E-2,-4.4988915E-2,-6.042595E-2,1.41478E-2,4.7768548E-2,-1.5484102E-3,-2.9413214E-2,1.0244256E-2],"split_indices":[18,0,0,18,29,28,0,13,18,0,0,15,47,12,27,9,36,0,0,20,5,15,26,0,0,0,0,0,0,0,0,0,0,0,0],"split_type":[0,0,0,0,0,0,0,0,0,0,0,0,0,0,0,0,0,0,0,0,0,0,0,0,0,0,0,0,0,0,0,0,0,0,0],"sum_hessian":[1.292036E2,1.093517E2,1.9851902E1,2.1815481E1,8.753622E1,1.7253075E1,4.5624065E0,2.720208E1,6.0334137E1,1.4044278E1,3.2087958E0,1.4718675E1,1.2483406E1,4.7981804E1,1.2352332E1,8.6644745E0,6.0541997E0,2.0941713E0,1.0389235E1,7.448797E0,4.0533005E1,4.4592977E0,7.893035E0,6.562016E0,2.1024585E0,2.2381039E0,3.8160958E0,3.9544718E0,3.4943256E0,3.8227802E1,2.3052025E0,2.3957462E0,2.0635514E0,5.8171196E0,2.0759156E0],"tree_param":{"num_deleted":"0","num_feature":"48","num_nodes":"35","size_leaf_vector":"1"}},{"base_weights":[2.1804236E-4,-1.821324E-1,7.0185685E-1,2.1173973E-2,-4.7350803E-1,2.604782E-2,7.336993E-2,3.6896574E-1,-3.0054823E-1,-5.55123E-1,1.1684832E-2,5.950414E-1,-4.4625044E-2,2.4312952E-1,-4.4630066E-1,-2.1628688E-1,-6.120393E-1,1.7383179E-2,-1.6948864E-2,6.8510465E-2,1.2762548E-2,-4.3267492E-2,1.418437E-1,6.3526385E-2,-3.0173529E-2,-5.8703977E-1,2.9217316E-2,-4.642683E-2,1.2353352E-2,-6.630682E-2,-2.4849968E-1,4.2119402E-2,-3.059032E-2,-6.31088E-2,-1.29129365E-2,-5.8924494E-4,-4.1248616E-2],"categories":[],"categories_nodes":[],"categories_segments":[],"categories_sizes":[],"default_left":[0,0,0,0,0,0,0,0,0,0,0,0,0,0,0,0,0,0,0,0,0,0,0,0,0,0,0,0,0,0,0,0,0,0,0,0,0],"id":5,"left_children":[1,3,5,7,9,-1,-1,11,13,15,17,19,21,23,25,27,29,-1,-1,-1,-1,-1,31,-1,-1,33,-1,-1,-1,-1,35,-1,-1,-1,-1,-1,-1],"loss_changes":[1.53532915E1,5.6523266E0,1.5679073E-1,6.4953914E0,1.5582857E0,0E0,0E0,2.6322587E0,2.5009646E0,5.149517E-1,2.2399706E-1,6.740241E-1,8.413632E-1,1.6937466E0,2.682671E0,5.944749E-1,3.582163E-1,0E0,0E0,0E0,0E0,0E0,1.1337123E0,0E0,0E0,3.3454132E-1,0E0,0E0,0E0,0E0,1.9925728E-1,0E0,0E0,0E0,0E0,0E0,0E0],"parents":[2147483647,0,0,1,1,2,2,3,3,4,4,7,7,8,8,9,9,10,10,11,11,12,12,13,13,14,14,15,15,16,16,22,22,25,25,30,30],"right_children":[2,4,6,8,10,-1,-1,12,14,16,18,20,22,24,26,28,30,-1,-1,-1,-1,-1,32,-1,-1,34,-1,-1,-1,-1,36,-1,-1,-1,-1,-1,-1],"split_conditions":[2.3014166E1,5.361072E-2,7.57569E-1,-7.5303864E-1,-1.5773451E1,2.604782E-2,7.336993E-2,-7.6768594E-3,-5.7440296E-2,-1.5651916E0,-1.5943197E-3,2.4956629E-2,3.8597998E-1,3.761847E-1,4.471452E-2,-1.558497E0,5.4545056E-2,1.7383179E-2,-1.6948864E-2,6.8510465E-2,1.2762548E-2,-4.3267492E-2,8.621139E-3,6.3526385E-2,-3.0173529E-2,7.585827E-2,2.9217316E-2,-4.642683E-2,1.2353352E-2,-6.630682E-2,-3.1239372E-2,4.2119402E-2,-3.059032E-2,-6.31088E-2,-1.29129365E-2,-5.8924494E-4,-4.1248616E-2],"split_indices":[18,1,20,15,14,0,0,13,7,5,37,25,23,15,35,23,11,0,0,0,0,0,43,0,0,13,0,0,0,0,12,0,0,0,0,0,0],"split_type":[0,0,0,0,0,0,0,0,0,0,0,0,0,0,0,0,0,0,0,0,0,0,0,0,0,0,0,0,0,0,0,0,0,0,0,0,0],"sum_hessian":[1.1800085E2,9.424716E1,2.3753683E1,5.6059307E1,3.818786E1,2.216079E0,2.1537603E1,2.6867668E1,2.9191637E1,3.2565796E1,5.622063E0,1.7088234E1,9.779434E0,6.0301604E0,2.3161476E1,5.373891E0,2.7191904E1,2.988201E0,2.6338623E0,1.3937066E1,3.1511679E0,2.7455206E0,7.0339136E0,3.4100602E0,2.6201003E0,1.9626165E1,3.535312E0,2.8950403E0,2.4788506E0,2.3122372E1,4.069533E0,4.368007E0,2.6659064E0,1.755891E1,2.067254E0,2.059125E0,2.0104077E0],"tree_param":{"num_deleted":"0","num_feature":"48","num_nodes":"37","size_leaf_vector":"1"}},{"base_weights":[-1.7255368E-2,-2.0421222E-1,5.293052E-1,-3.717043E-1,2.4898276E-1,1.8160889E-1,7.014133E-2,-5.234229E-1,-1.6733155E-1,5.2672464E-1,-3.960566E-1,1.4461753E-2,4.461792E-2,-5.799605E-1,-1.5858701E-1,-5.028419E-1,4.521734E-2,6.269136E-2,-5.1974067E-3,-3.046403E-3,-5.3657938E-2,1.5424776E-2,-1.3312163E-2,-1.1084342E-2,-6.3493496E-1,2.3200411E-2,-4.785116E-2,5.124095E-4,-6.485059E-2,-2.7187422E-1,3.7643903E-1,-6.633434E-2,-2.2449508E-2,-1.0332087E-3,-4.7119956E-2,1.8892186E-3,6.2053975E-2],"categories":[],"categories_nodes":[],"categories_segments":[],"categories_sizes":[],"default_left":[0,0,0,0,0,0,0,0,0,0,0,0,0,0,0,0,0,0,0,0,0,0,0,0,0,0,0,0,0,0,0,0,0,0,0,0,0],"id":6,"left_children":[1,3,5,7,9,11,-1,13,15,17,19,21,-1,23,25,27,29,-1,-1,-1,-1,-1,-1,-1,31,-1,-1,-1,-1,33,35,-1,-1,-1,-1,-1,-1],"loss_changes":[1.0876386E1,6.10771E0,1.4965854E0,1.718935E0,4.146945E0,4.50574E-1,0E0,5.880594E-1,1.8977624E0,9.4839954E-1,3.5289383E-1,1.725153E-1,0E0,6.5606976E-1,8.3576536E-1,7.6393056E-1,1.889242E0,0E0,0E0,0E0,0E0,0E0,0E0,0E0,1.4260674E-1,0E0,0E0,0E0,0E0,4.7854346E-1,7.511468E-1,0E0,0E0,0E0,0E0,0E0,0E0],"parents":[2147483647,0,0,1,1,2,2,3,3,4,4,5,5,7,7,8,8,9,9,10,10,11,11,13,13,14,14,15,15,16,16,24,24,29,29,30,30],"right_children":[2,4,6,8,10,12,-1,14,16,18,20,22,-1,24,26,28,30,-1,-1,-1,-1,-1,-1,-1,32,-1,-1,-1,-1,34,36,-1,-1,-1,-1,-1,-1],"split_conditions":[2.6865238E1,5.2532077E-1,1.9807072E1,-3.8004157E-1,-7.5303864E-1,-3.7262195E-1,7.014133E-2,5.7628054E-2,-3.6350487E1,3.6606204E-2,-2.8819706E-2,3.0188483E-1,4.461792E-2,-7.1611814E-2,-8.189975E-1,-2.8034674E1,5.0319886E-1,6.269136E-2,-5.1974067E-3,-3.046403E-3,-5.3657938E-2,1.5424776E-2,-1.3312163E-2,-1.1084342E-2,6.9889106E-2,2.3200411E-2,-4.785116E-2,5.124095E-4,-6.485059E-2,-7.4548493E-3,2.1794562E-3,-6.633434E-2,-2.2449508E-2,-1.0332087E-3,-4.7119956E-2,1.8892186E-3,6.2053975E-2],"split_indices":[4,3,0,2,15,2,0,40,0,28,26,6,0,39,15,4,24,0,0,0,0,0,0,0,44,0,0,0,0,7,19,0,0,0,0,0,0],"split_type":[0,0,0,0,0,0,0,0,0,0,0,0,0,0,0,0,0,0,0,0,0,0,0,0,0,0,0,0,0,0,0,0,0,0,0,0,0],"sum_hessian":[1.0438219E2,7.824428E1,2.6137915E1,5.7261387E1,2.0982887E1,9.334784E0,1.6803131E1,3.196825E1,2.5293137E1,1.4795601E1,6.1872873E0,6.366986E0,2.9677982E0,2.716839E1,4.7998595E0,9.279536E0,1.6013601E1,1.2541074E1,2.2545273E0,2.0557399E0,4.1315475E0,3.2466815E0,3.120304E0,3.1662104E0,2.400218E1,2.2849789E0,2.5148804E0,2.2829962E0,6.99654E0,8.272852E0,7.7407494E0,2.1872133E1,2.130046E0,4.03293E0,4.239922E0,3.5777013E0,4.163048E0],"tree_param":{"num_deleted":"0","num_feature":"48","num_nodes":"37","size_leaf_vector":"1"}},{"base_weights":[2.1253615E-3,-1.2928861E-1,6.7413494E-2,-2.7659976E-1,3.0304253E-1,-3.426508E-1,1.11693524E-1,5.1520586E-1,-2.7985603E-1,-4.8060754E-1,-1.1160616E-1,2.677968E-1,-1.288487E-2,6.220914E-2,1.3972673E-2,-5.2784193E-2,1.1396924E-2,-2.0712705E-1,-5.300699E-1,2.4229847E-1,-4.6969253E-1,4.22189E-2,9.86355E-4,7.654376E-3,-4.1231763E-2,-2.4392933E-2,-6.0624506E-2,3.9755236E-2,-2.7758053E-2,9.360123E-3,-6.1468232E-2],"categories":[],"categories_nodes":[],"categories_segments":[],"categories_sizes":[],"default_left":[0,0,0,0,0,0,0,0,0,0,0,0,0,0,0,0,0,0,0,0,0,0,0,0,0,0,0,0,0,0,0],"id":7,"left_children":[1,3,-1,5,7,9,11,13,15,17,19,21,-1,-1,-1,-1,-1,23,25,27,29,-1,-1,-1,-1,-1,-1,-1,-1,-1,-1],"loss_changes":[8.691706E0,5.327579E0,0E0,1.6267023E0,2.7909896E0,1.6413021E0,4.0090925E-1,5.569358E-1,6.812186E-1,3.3650208E-1,2.7983077E0,2.4442795E-1,0E0,0E0,0E0,0E0,0E0,4.2123055E-1,4.471345E-1,1.0234984E0,9.452801E-1,0E0,0E0,0E0,0E0,0E0,0E0,0E0,0E0,0E0,0E0],"parents":[2147483647,0,0,1,1,3,3,4,4,5,5,6,6,7,7,8,8,9,9,10,10,11,11,17,17,18,18,19,19,20,20],"right_children":[2,4,-1,6,8,10,12,14,16,18,20,22,-1,-1,-1,-1,-1,24,26,28,30,-1,-1,-1,-1,-1,-1,-1,-1,-1,-1],"split_conditions":[2.3331526E1,5.270164E-1,6.7413494E-2,2.183351E1,-7.5303864E-1,-1.15301564E-1,2.7297032E-1,1.8048557E-2,1.3671196E0,-5.072495E-2,-1.5862095E1,4.130006E-1,-1.288487E-2,6.220914E-2,1.3972673E-2,-5.2784193E-2,1.1396924E-2,2.129136E-2,-8.149559E-1,9.5402896E-1,-5.7440296E-2,4.22189E-2,9.86355E-4,7.654376E-3,-4.1231763E-2,-2.4392933E-2,-6.0624506E-2,3.9755236E-2,-2.7758053E-2,9.360123E-3,-6.1468232E-2],"split_indices":[18,3,0,18,15,3,21,11,24,46,14,15,0,0,0,0,0,9,2,24,7,0,0,0,0,0,0,0,0,0,0],"split_type":[0,0,0,0,0,0,0,0,0,0,0,0,0,0,0,0,0,0,0,0,0,0,0,0,0,0,0,0,0,0,0],"sum_hessian":[9.643411E1,8.1336136E1,1.5097977E1,6.093392E1,2.0402216E1,5.217601E1,8.75791E0,1.5042998E1,5.359218E0,3.19929E1,2.0183111E1,5.242446E0,3.515464E0,1.1198415E1,3.8445833E0,3.0796893E0,2.2795289E0,5.6946087E0,2.6298292E1,1.0313452E1,9.869659E0,2.8810866E0,2.3613591E0,2.6533632E0,3.0412455E0,6.4125867E0,1.9885706E1,8.122953E0,2.1904976E0,2.0929306E0,7.7767286E0],"tree_param":{"num_deleted":"0","num_feature":"48","num_nodes":"31","size_leaf_vector":"1"}},{"base_weights":[-3.9454922E-2,-1.9344665E-1,6.262152E-2,-3.1320348E-1,1.3408281E-1,-3.7516183E-1,6.0424652E-2,2.9994228E-1,-4.041555E-2,-4.3801928E-1,-3.2817463E-3,2.0048441E-1,-1.3813215E-2,-3.41849E-2,4.480352E-1,-1.4125217E-1,-5.0334173E-1,3.6713403E-2,-3.4535043E-2,3.3787698E-2,-8.005022E-4,-1.0597286E-2,5.557589E-1,1.6115846E-2,-4.546305E-2,-1.468839E-3,-5.439824E-2,1.3699666E-2,6.7822E-2],"categories":[],"categories_nodes":[],"categories_segments":[],"categories_sizes":[],"default_left":[0,0,0,0,0,0,0,0,0,0,0,0,0,0,0,0,0,0,0,0,0,0,0,0,0,0,0,0,0],"id":8,"left_children":[1,3,-1,5,7,9,11,13,-1,15,17,19,-1,-1,21,23,25,-1,-1,-1,-1,-1,27,-1,-1,-1,-1,-1,-1],"loss_changes":[9.211823E0,2.8969402E0,0E0,1.2634268E0,1.9234438E0,1.0764685E0,2.6366264E-1,1.674489E0,0E0,6.934285E-1,1.0992535E0,1.5691161E-1,0E0,0E0,8.6088634E-1,8.7926495E-1,6.26174E-1,0E0,0E0,0E0,0E0,0E0,4.9225402E-1,0E0,0E0,0E0,0E0,0E0,0E0],"parents":[2147483647,0,0,1,1,3,3,4,4,5,5,6,6,7,7,9,9,10,10,11,11,14,14,15,15,16,16,22,22],"right_children":[2,4,-1,6,8,10,12,14,-1,16,18,20,-1,-1,22,24,26,-1,-1,-1,-1,-1,28,-1,-1,-1,-1,-1,-1],"split_conditions":[2.3014166E1,4.9485752E-1,6.262152E-2,2.6816109E1,1.5066274E1,6.0422007E-2,3.1629217E-1,-1.9385914E1,-4.041555E-2,-4.7041576E-2,-9.0442365E-3,2.8692105E-1,-1.3813215E-2,-3.41849E-2,-4.4264883E-2,-1.728335E-2,-7.364861E-2,3.6713403E-2,-3.4535043E-2,3.3787698E-2,-8.005022E-4,-1.0597286E-2,-1.6127771E0,1.6115846E-2,-4.546305E-2,-1.468839E-3,-5.439824E-2,1.3699666E-2,6.7822E-2],"split_indices":[18,3,0,4,4,41,6,18,0,30,40,8,0,0,35,31,38,0,0,0,0,0,1,0,0,0,0,0,0],"split_type":[0,0,0,0,0,0,0,0,0,0,0,0,0,0,0,0,0,0,0,0,0,0,0,0,0,0,0,0,0],"sum_hessian":[8.768295E1,7.178587E1,1.5897076E1,5.259789E1,1.9187986E1,4.511278E1,7.485108E0,1.5006446E1,4.18154E0,3.843792E1,6.674863E0,4.383399E0,3.101709E0,2.5682154E0,1.24382305E1,7.504868E0,3.093305E1,3.1694674E0,3.5053954E0,2.2681286E0,2.1152704E0,2.0274727E0,1.0410758E1,4.066463E0,3.438405E0,2.4796581E0,2.8453392E1,2.8350046E0,7.5757537E0],"tree_param":{"num_deleted":"0","num_feature":"48","num_nodes":"29","size_leaf_vector":"1"}},{"base_weights":[-3.657086E-3,-1.2830368E-1,6.373612E-2,-3.7313902E-1,7.886335E-2,-4.6233025E-1,3.4049717E-3,3.4043017E-1,-2.0945418E-1,-2.9985923E-1,-6.0790766E-2,1.2257135E-2,-1.591381E-2,4.931227E-1,-6.8980165E-2,3.9628033E-2,-3.4032822E-1,1.73744E-3,-3.9069745E-1,6.1249405E-2,-3.242105E-3,-3.4903996E-2,3.2368343E-2,2.5933117E-2,-4.5251492E-1,-4.853987E-3,-4.619462E-2,-1.5653348E-2,-5.5550277E-2],"categories":[],"categories_nodes":[],"categories_segments":[],"categories_sizes":[],"default_left":[0,0,0,0,0,0,0,0,0,0,0,0,0,0,0,0,0,0,0,0,0,0,0,0,0,0,0,0,0],"id":9,"left_children":[1,3,-1,5,7,9,11,13,15,17,-1,-1,-1,19,21,-1,23,-1,25,-1,-1,-1,-1,-1,27,-1,-1,-1,-1],"loss_changes":[6.899801E0,3.6951995E0,0E0,1.119904E0,3.0858426E0,4.5465088E-1,1.6225384E-1,1.3680449E0,1.6912941E0,4.3038857E-1,0E0,0E0,0E0,1.0026376E0,8.46926E-1,0E0,1.2396815E0,0E0,2.5719798E-1,0E0,0E0,0E0,0E0,0E0,3.525443E-1,0E0,0E0,0E0,0E0],"parents":[2147483647,0,0,1,1,3,3,4,4,5,5,6,6,7,7,8,8,9,9,13,13,14,14,16,16,18,18,24,24],"right_children":[2,4,-1,6,8,10,12,14,16,18,-1,-1,-1,20,22,-1,24,-1,26,-1,-1,-1,-1,-1,28,-1,-1,-1,-1],"split_conditions":[2.3331526E1,-3.7262195E-1,6.373612E-2,2.9529914E-1,-7.5303864E-1,1.5946073E-3,2.0706356E-1,1.8886203E-2,-1.417596E0,-3.430296E-2,-6.0790766E-2,1.2257135E-2,-1.591381E-2,-1.9338428E1,-1.93582E1,3.9628033E-2,-1.9683933E-1,1.73744E-3,-4.7492687E-2,6.1249405E-2,-3.242105E-3,-3.4903996E-2,3.2368343E-2,2.5933117E-2,-6.953394E-1,-4.853987E-3,-4.619462E-2,-1.5653348E-2,-5.5550277E-2],"split_indices":[18,2,0,15,15,13,6,28,6,31,0,0,0,18,18,0,2,0,41,0,0,0,0,0,15,0,0,0,0],"split_type":[0,0,0,0,0,0,0,0,0,0,0,0,0,0,0,0,0,0,0,0,0,0,0,0,0,0,0,0,0],"sum_hessian":[8.4331184E1,7.12721E1,1.3059081E1,3.2299072E1,3.897303E1,2.5929401E1,6.369671E0,2.0339724E1,1.8633308E1,1.36997E1,1.22297E1,3.817116E0,2.552555E0,1.4665609E1,5.674114E0,2.9502914E0,1.5683017E1,3.2296286E0,1.0470072E1,1.1816236E1,2.8493736E0,3.3767843E0,2.2973301E0,2.26493E0,1.3418087E1,2.09423E0,8.375842E0,4.1141553E0,9.303931E0],"tree_param":{"num_deleted":"0","num_feature":"48","num_nodes":"29","size_leaf_vector":"1"}},{"base_weights":[-1.4893305E-2,-1.2591608E-1,6.1555635E-2,-3.4204423E-1,5.9760995E-2,-4.502262E-1,1.0288952E-1,3.190963E-1,-1.5768503E-1,-1.8761706E-1,-4.977344E-1,-4.411684E-3,2.5408939E-2,5.071446E-1,6.1900917E-2,3.796993E-2,-2.5930485E-1,-3.818924E-2,8.741812E-3,-5.4022956E-1,-1.7605295E-2,5.8621835E-2,1.4879114E-2,3.5419416E-1,-3.953946E-2,-3.4818664E-1,1.3907293E-2,-1.684854E-2,-5.7719197E-2,4.9569916E-2,1.42067345E-2,-9.33401E-3,-5.010693E-2],"categories":[],"categories_nodes":[],"categories_segments":[],"categories_sizes":[],"default_left":[0,0,0,0,0,0,0,0,0,0,0,0,0,0,0,0,0,0,0,0,0,0,0,0,0,0,0,0,0,0,0,0,0],"id":10,"left_children":[1,3,-1,5,7,9,11,13,15,17,19,-1,-1,21,23,-1,25,-1,-1,27,-1,-1,-1,29,-1,31,-1,-1,-1,-1,-1,-1,-1],"loss_changes":[5.824253E0,2.855216E0,0E0,1.6247201E0,2.2410038E0,2.3803425E-1,1.7186055E-1,8.415066E-1,1.2889192E0,3.3658597E-1,2.0412207E-1,0E0,0E0,2.0425725E-1,1.3111641E0,0E0,7.1860695E-1,0E0,0E0,1.6178894E-1,0E0,0E0,0E0,1.0585576E-1,0E0,5.672679E-1,0E0,0E0,0E0,0E0,0E0,0E0,0E0],"parents":[2147483647,0,0,1,1,3,3,4,4,5,5,6,6,7,7,8,8,9,9,10,10,13,13,14,14,16,16,19,19,23,23,25,25],"right_children":[2,4,-1,6,8,10,12,14,16,18,20,-1,-1,22,24,-1,26,-1,-1,28,-1,-1,-1,30,-1,32,-1,-1,-1,-1,-1,-1,-1],"split_conditions":[2.3331526E1,1.2044816E-1,6.1555635E-2,1.670804E1,-2.466713E-2,-1.5651916E0,1.2168282E-2,-1.9338676E1,-7.5491935E-2,6.434422E-3,5.2296452E-2,-4.411684E-3,2.5408939E-2,1.4203414E-2,7.4513024E-1,3.796993E-2,4.787565E-2,-3.818924E-2,8.741812E-3,-1.5948317E1,-1.7605295E-2,5.8621835E-2,1.4879114E-2,9.032831E-4,-3.953946E-2,-1.9337732E1,1.3907293E-2,-1.684854E-2,-5.7719197E-2,4.9569916E-2,1.42067345E-2,-9.33401E-3,-5.010693E-2],"split_indices":[18,24,0,18,7,5,46,18,27,46,11,0,0,44,23,0,12,0,0,14,0,0,0,41,0,18,0,0,0,0,0,0,0],"split_type":[0,0,0,0,0,0,0,0,0,0,0,0,0,0,0,0,0,0,0,0,0,0,0,0,0,0,0,0,0,0,0,0,0],"sum_hessian":[8.110307E1,6.9639725E1,1.1463346E1,3.1791857E1,3.7847874E1,2.556423E1,6.227627E0,1.7048107E1,2.0799767E1,4.674475E0,2.0889753E1,3.5166914E0,2.710935E0,9.286478E0,7.7616286E0,2.8725784E0,1.7927187E1,2.5117445E0,2.162731E0,1.7852047E1,3.0377073E0,7.086839E0,2.1996388E0,4.8726177E0,2.8890111E0,1.4760069E1,3.167119E0,2.1171725E0,1.5734875E1,2.1209645E0,2.7516532E0,6.138342E0,8.621727E0],"tree_param":{"num_deleted":"0","num_feature":"48","num_nodes":"33","size_leaf_vector":"1"}},{"base_weights":[-5.398737E-3,-1.3393487E-1,4.185796E-1,1.1660286E-1,-3.9953807E-1,1.4766648E-1,5.924011E-2,3.3791465E-1,-1.933325E-1,-2.0332724E-1,-4.9426484E-1,-1.0184235E-3,3.56601E-2,-1.640714E-2,4.488848E-1,3.392525E-2,-3.70952E-1,-3.1929454E-1,1.3506472E-2,-5.4977E-1,-1.7804934E-2,-1.1549788E-2,5.5474084E-2,-1.18878065E-2,-4.6373826E-2,-4.4542264E-2,-4.082875E-3,-1.9285731E-2,-5.974715E-2],"categories":[],"categories_nodes":[],"categories_segments":[],"categories_sizes":[],"default_left":[0,0,0,0,0,0,0,0,0,0,0,0,0,0,0,0,0,0,0,0,0,0,0,0,0,0,0,0,0],"id":11,"left_children":[1,3,5,7,9,11,-1,13,15,17,19,-1,-1,-1,21,-1,23,25,-1,27,-1,-1,-1,-1,-1,-1,-1,-1,-1],"loss_changes":[3.882241E0,3.6821127E0,6.930883E-1,2.0468452E0,3.9660406E-1,2.612287E-1,0E0,1.0327668E0,1.3244556E0,4.5151913E-1,2.0643187E-1,0E0,0E0,0E0,9.2247725E-1,0E0,1.7828071E-1,2.644794E-1,0E0,1.2773228E-1,0E0,0E0,0E0,0E0,0E0,0E0,0E0,0E0,0E0],"parents":[2147483647,0,0,1,1,2,2,3,3,4,4,5,5,7,7,8,8,9,9,10,10,14,14,16,16,17,17,19,19],"right_children":[2,4,6,8,10,12,-1,14,16,18,20,-1,-1,-1,22,-1,24,26,-1,28,-1,-1,-1,-1,-1,-1,-1,-1,-1],"split_conditions":[2.6816109E1,-2.2378265E1,1.9807072E1,-7.5303864E-1,-1.21053625E-2,-3.7262195E-1,5.924011E-2,-4.0371582E-2,-1.417596E0,4.2392835E-2,4.1950576E-2,-1.0184235E-3,3.56601E-2,-1.640714E-2,-1.9385914E1,3.392525E-2,2.0423672E1,6.668537E-1,1.3506472E-2,-6.3176885E-2,-1.7804934E-2,-1.1549788E-2,5.5474084E-2,-1.18878065E-2,-4.6373826E-2,-4.4542264E-2,-4.082875E-3,-1.9285731E-2,-5.974715E-2],"split_indices":[4,0,0,15,27,2,0,42,6,19,29,0,0,0,18,0,16,9,0,46,0,0,0,0,0,0,0,0,0],"split_type":[0,0,0,0,0,0,0,0,0,0,0,0,0,0,0,0,0,0,0,0,0,0,0,0,0,0,0,0,0],"sum_hessian":[6.920957E1,5.3633713E1,1.5575859E1,2.7888287E1,2.5745428E1,6.810594E0,8.765265E0,1.6217663E1,1.1670625E1,9.40695E0,1.6338478E1,4.4214387E0,2.3891551E0,2.8494282E0,1.3368234E1,2.6911933E0,8.979431E0,7.0480213E0,2.358929E0,1.3270517E1,3.0679605E0,2.0969644E0,1.127127E1,3.0297263E0,5.949705E0,4.4382186E0,2.6098027E0,2.1590486E0,1.1111468E1],"tree_param":{"num_deleted":"0","num_feature":"48","num_nodes":"29","size_leaf_vector":"1"}},{"base_weights":[-1.783234E-3,-1.2997957E-1,5.718849E-2,-3.293208E-1,3.0177103E-2,-4.0715888E-1,5.1099057E-3,1.710267E-1,-3.686672E-1,-4.4673103E-1,-4.4208374E-3,2.8895968E-1,-3.5961717E-2,-1.5841902E-3,-4.7774903E-2,-1.4479947E-2,-5.1050985E-1,3.6992657E-1,-1.9919144E-2,-1.7596034E-2,-5.512925E-2,4.915069E-2,6.5131285E-3],"categories":[],"categories_nodes":[],"categories_segments":[],"categories_sizes":[],"default_left":[0,0,0,0,0,0,0,0,0,0,0,0,0,0,0,0,0,0,0,0,0,0,0],"id":12,"left_children":[1,3,-1,5,7,9,-1,11,13,15,-1,17,-1,-1,-1,-1,19,21,-1,-1,-1,-1,-1],"loss_changes":[5.0886636E0,1.8151577E0,0E0,7.692106E-1,1.8758717E0,2.832029E-1,0E0,1.6390797E0,3.2875526E-1,2.902143E-1,0E0,8.8886964E-1,0E0,0E0,0E0,0E0,1.1059499E-1,6.3652444E-1,0E0,0E0,0E0,0E0,0E0],"parents":[2147483647,0,0,1,1,3,3,4,4,5,5,7,7,8,8,9,9,11,11,16,16,17,17],"right_children":[2,4,-1,6,8,10,-1,12,14,16,-1,18,-1,-1,-1,-1,20,22,-1,-1,-1,-1,-1],"split_conditions":[2.3014166E1,1.2044816E-1,5.718849E-2,2.3017662E1,3.761847E-1,5.2315306E-2,5.1099057E-3,4.584852E-2,-1.15301564E-1,-5.072495E-2,-4.4208374E-3,5.916415E-2,-3.5961717E-2,-1.5841902E-3,-4.7774903E-2,-1.4479947E-2,-5.1260356E-2,8.225803E-3,-1.9919144E-2,-1.7596034E-2,-5.512925E-2,4.915069E-2,6.5131285E-3],"split_indices":[18,24,0,4,15,38,0,13,3,46,0,40,0,0,0,0,39,28,0,0,0,0,0],"split_type":[0,0,0,0,0,0,0,0,0,0,0,0,0,0,0,0,0,0,0,0,0,0,0],"sum_hessian":[6.718309E1,5.5544178E1,1.1638909E1,2.427443E1,3.126975E1,2.009291E1,4.181518E0,2.3531078E1,7.7386723E0,1.790943E1,2.1834803E0,1.9624979E1,3.9060996E0,2.0979807E0,5.6406918E0,3.6936908E0,1.4215739E1,1.7040718E1,2.58426E0,2.122115E0,1.2093625E1,1.174368E1,5.297038E0],"tree_param":{"num_deleted":"0","num_feature":"48","num_nodes":"23","size_leaf_vector":"1"}},{"base_weights":[3.6423683E-2,-7.6296724E-2,5.8176316E-2,3.193361E-1,-1.9128083E-1,-5.7703266E-3,4.6115002E-1,-2.5740007E-1,1.5178844E-1,5.6706216E-2,9.660493E-3,-4.8596144E-2,-3.8364014E-1,2.9514223E-2,-1.0295053E-3,2.313706E-1,-3.8653903E-2,2.5157406E-4,-4.300922E-1,3.834997E-2,-1.641213E-2,-4.6486277E-2,-9.394459E-3],"categories":[],"categories_nodes":[],"categories_segments":[],"categories_sizes":[],"default_left":[0,0,0,0,0,0,0,0,0,0,0,0,0,0,0,0,0,0,0,0,0,0,0],"id":13,"left_children":[1,3,-1,5,7,-1,9,11,13,-1,-1,15,17,-1,-1,19,-1,-1,21,-1,-1,-1,-1],"loss_changes":[3.9645183E0,2.5054564E0,0E0,6.9361234E-1,9.9763095E-1,0E0,2.9950702E-1,9.250431E-1,1.7631279E-1,0E0,0E0,1.4740229E0,3.9869785E-1,0E0,0E0,5.8212566E-1,0E0,0E0,1.8765974E-1,0E0,0E0,0E0,0E0],"parents":[2147483647,0,0,1,1,3,3,4,4,6,6,7,7,8,8,11,11,12,12,15,15,18,18],"right_children":[2,4,-1,6,8,-1,10,12,14,-1,-1,16,18,-1,-1,20,-1,-1,22,-1,-1,-1,-1],"split_conditions":[3.8558147E1,-3.651086E1,5.8176316E-2,-1.2717044E0,2.6856869E1,-5.7703266E-3,2.0760047E0,-2.8903955E-1,4.130006E-1,5.6706216E-2,9.660493E-3,-1.5849615E1,-6.887175E-2,2.9514223E-2,-1.0295053E-3,7.7045625E-3,-3.8653903E-2,2.5157406E-4,5.2315306E-2,3.834997E-2,-1.641213E-2,-4.6486277E-2,-9.394459E-3],"split_indices":[4,0,0,20,4,0,3,1,15,0,0,14,39,0,0,28,0,0,38,0,0,0,0],"split_type":[0,0,0,0,0,0,0,0,0,0,0,0,0,0,0,0,0,0,0,0,0,0,0],"sum_hessian":[6.2772163E1,5.273256E1,1.0039605E1,1.1474461E1,4.12581E1,3.29833E0,8.176131E0,3.480072E1,6.4573774E0,5.9050035E0,2.2711277E0,1.3634275E1,2.1166445E1,2.9910417E0,3.466336E0,7.629236E0,6.005039E0,2.3743458E0,1.8792099E1,5.531733E0,2.0975032E0,1.6683474E1,2.1086252E0],"tree_param":{"num_deleted":"0","num_feature":"48","num_nodes":"23","size_leaf_vector":"1"}},{"base_weights":[-4.0155087E-2,-1.9511598E-1,3.6464855E-1,-4.315501E-1,6.6154495E-2,1.19468346E-1,5.5576265E-2,-1.0435964E-2,-4.6088272E-1,2.820501E-1,-2.59816E-1,2.4337305E-2,-9.310519E-3,-1.3298812E-2,-4.9050626E-1,-8.9838235E-3,3.9796314E-1,-4.049828E-2,8.909151E-3,-2.8632098E-1,-5.5972185E-2,4.762863E-2,4.9594506E-3,-5.416704E-3,-3.9801415E-2],"categories":[],"categories_nodes":[],"categories_segments":[],"categories_sizes":[],"default_left":[0,0,0,0,0,0,0,0,0,0,0,0,0,0,0,0,0,0,0,0,0,0,0,0,0],"id":14,"left_children":[1,3,5,7,9,11,-1,-1,13,15,17,-1,-1,-1,19,-1,21,-1,-1,23,-1,-1,-1,-1,-1],"loss_changes":[3.7533174E0,2.691056E0,7.113707E-1,1.7032814E-1,1.5752587E0,2.4771592E-1,0E0,0E0,1.3480425E-1,6.0986376E-1,4.9314052E-1,0E0,0E0,0E0,1.0141516E-1,0E0,2.5844872E-1,0E0,0E0,1.5307212E-1,0E0,0E0,0E0,0E0,0E0],"parents":[2147483647,0,0,1,1,2,2,3,3,4,4,5,5,8,8,9,9,10,10,14,14,16,16,19,19],"right_children":[2,4,6,8,10,12,-1,-1,14,16,18,-1,-1,-1,20,-1,22,-1,-1,24,-1,-1,-1,-1,-1],"split_conditions":[1.6713938E1,-1.3405962E-1,1.9776575E1,-6.0691006E-2,-7.5303864E-1,4.6790326E-1,5.5576265E-2,-1.0435964E-2,-7.127894E-2,-3.3324394E-2,3.9745927E-2,2.4337305E-2,-9.310519E-3,-1.3298812E-2,-1.4223253E-2,-8.9838235E-3,1.41534265E-2,-4.049828E-2,8.909151E-3,9.943434E-3,-5.5972185E-2,4.762863E-2,4.9594506E-3,-5.416704E-3,-3.9801415E-2],"split_indices":[18,2,0,26,15,6,0,0,29,42,25,0,0,0,26,0,36,0,0,9,0,0,0,0,0],"split_type":[0,0,0,0,0,0,0,0,0,0,0,0,0,0,0,0,0,0,0,0,0,0,0,0,0],"sum_hessian":[5.7699875E1,4.2101288E1,1.5598588E1,2.175898E1,2.0342308E1,7.5446606E0,8.053927E0,2.1651912E0,1.959379E1,1.2318379E1,8.023928E0,4.6748805E0,2.8697796E0,2.0783534E0,1.7515436E1,2.9805892E0,9.3377905E0,5.552876E0,2.4710515E0,5.7347207E0,1.1780715E1,7.3239646E0,2.0138257E0,2.345197E0,3.3895237E0],"tree_param":{"num_deleted":"0","num_feature":"48","num_nodes":"25","size_leaf_vector":"1"}},{"base_weights":[1.6756674E-2,-7.8320496E-2,5.5483934E-2,9.618746E-2,-3.2484287E-1,3.1899288E-1,-9.8018385E-2,-4.3438438E-1,2.2752436E-4,3.8947093E-1,-5.563872E-3,-2.3112695E-1,4.2062607E-2,-1.93319E-1,-5.474013E-2,4.6616578E-1,-4.4735582E-4,-3.8345322E-1,7.204177E-2,-3.559096E-2,2.2409794E-4,1.5730644E-2,5.373236E-2,-4.6280038E-2,-5.023952E-3,-1.7569583E-2,2.6854549E-2],"categories":[],"categories_nodes":[],"categories_segments":[],"categories_sizes":[],"default_left":[0,0,0,0,0,0,0,0,0,0,0,0,0,0,0,0,0,0,0,0,0,0,0,0,0,0,0],"id":15,"left_children":[1,3,-1,5,7,9,11,13,-1,15,-1,17,-1,19,-1,21,-1,23,25,-1,-1,-1,-1,-1,-1,-1,-1],"loss_changes":[3.1032672E0,2.2555814E0,0E0,1.3746172E0,7.77091E-1,4.0962136E-1,1.2951572E0,3.3637357E-1,0E0,3.7950563E-1,0E0,6.951117E-1,0E0,2.1467564E-1,0E0,1.4548683E-1,0E0,2.352848E-1,3.2347256E-1,0E0,0E0,0E0,0E0,0E0,0E0,0E0,0E0],"parents":[2147483647,0,0,1,1,3,3,4,4,5,5,6,6,7,7,9,9,11,11,13,13,15,15,17,17,18,18],"right_children":[2,4,-1,6,8,10,12,14,-1,16,-1,18,-1,20,-1,22,-1,24,26,-1,-1,-1,-1,-1,-1,-1,-1],"split_conditions":[3.8558147E1,4.997229E-2,5.5483934E-2,-2.466713E-2,-1.5824421E1,4.664762E-2,5.2509803E-2,-8.525313E-1,2.2752436E-4,3.5480657E-1,-5.563872E-3,1.309838E-2,4.2062607E-2,1.0855313E-2,-5.474013E-2,-4.914744E-2,-4.4735582E-4,4.392967E-2,-8.642034E-3,-3.559096E-2,2.2409794E-4,1.5730644E-2,5.373236E-2,-4.6280038E-2,-5.023952E-3,-1.7569583E-2,2.6854549E-2],"split_indices":[4,1,0,7,14,10,26,23,0,15,0,35,0,46,0,27,0,10,38,0,0,0,0,0,0,0,0],"split_type":[0,0,0,0,0,0,0,0,0,0,0,0,0,0,0,0,0,0,0,0,0,0,0,0,0,0,0],"sum_hessian":[5.8809406E1,5.0704548E1,8.1048565E0,3.0045675E1,2.0658875E1,1.36932955E1,1.6352379E1,1.5230685E1,5.4281883E0,1.1491779E1,2.2015166E0,1.3453851E1,2.8985279E0,5.726525E0,9.50416E0,9.465639E0,2.0261405E0,8.778367E0,4.6754837E0,2.679123E0,3.047402E0,2.3736253E0,7.092014E0,6.7759356E0,2.0024319E0,2.1149719E0,2.5605118E0],"tree_param":{"num_deleted":"0","num_feature":"48","num_nodes":"27","size_leaf_vector":"1"}},{"base_weights":[2.465615E-2,-6.135311E-2,5.3482533E-2,-3.019868E-1,1.2892614E-1,-3.920287E-1,3.934467E-3,3.2356152E-1,-9.7761735E-2,-4.437391E-2,-3.6290225E-3,4.3673107E-1,-1.2514936E-2,3.2669913E-2,-2.2845495E-1,9.900443E-3,5.1024046E-2,1.2576248E-3,-4.0869124E-2,-1.9826218E-2,2.2125546E-2],"categories":[],"categories_nodes":[],"categories_segments":[],"categories_sizes":[],"default_left":[0,0,0,0,0,0,0,0,0,0,0,0,0,0,0,0,0,0,0,0,0],"id":16,"left_children":[1,3,-1,5,7,9,-1,11,13,-1,-1,15,-1,-1,17,-1,-1,19,-1,-1,-1],"loss_changes":[2.329589E0,2.1309118E0,0E0,6.4467716E-1,1.1882617E0,2.8358817E-1,0E0,7.82671E-1,7.890403E-1,0E0,0E0,2.3924637E-1,0E0,0E0,4.3254465E-1,0E0,0E0,2.8900042E-1,0E0,0E0,0E0],"parents":[2147483647,0,0,1,1,3,3,4,4,5,5,7,7,8,8,11,11,14,14,17,17],"right_children":[2,4,-1,6,8,10,-1,12,14,-1,-1,16,-1,-1,18,-1,-1,20,-1,-1,-1],"split_conditions":[2.3331526E1,-3.8805813E-1,5.3482533E-2,3.069044E-1,-1.9334341E1,5.5145595E-2,3.934467E-3,2.1087019E-2,3.5218826E-1,-4.437391E-2,-3.6290225E-3,-3.1845704E-2,-1.2514936E-2,3.2669913E-2,-5.214014E-1,9.900443E-3,5.1024046E-2,9.220494E-3,-4.0869124E-2,-1.9826218E-2,2.2125546E-2],"split_indices":[18,2,0,15,18,38,0,28,5,0,0,35,0,0,21,0,0,26,0,0,0],"split_type":[0,0,0,0,0,0,0,0,0,0,0,0,0,0,0,0,0,0,0,0,0],"sum_hessian":[5.1343067E1,4.4688744E1,6.6543217E0,1.9474081E1,2.5214664E1,1.5291672E1,4.182409E0,1.3336518E1,1.1878146E1,1.3134986E1,2.1566858E0,1.0671702E1,2.6648154E0,2.4432626E0,9.434884E0,2.3270917E0,8.344611E0,4.5846868E0,4.8501973E0,2.4560513E0,2.1286356E0],"tree_param":{"num_deleted":"0","num_feature":"48","num_nodes":"21","size_leaf_vector":"1"}},{"base_weights":[8.495354E-3,-6.974671E-2,5.2285314E-2,2.1720482E-1,-2.0212777E-1,3.9453116E-1,-3.9156303E-2,-2.647087E-1,9.600058E-3,4.8940368E-2,5.3051575E-3,-2.7394796E-2,2.357736E-2,-7.4365586E-2,-3.5662305E-1,1.4399695E-1,-3.5114083E-2,-4.0358323E-1,-4.4633503E-4,3.5004675E-2,-1.3739563E-2,-4.6855222E-2,-1.420625E-2],"categories":[],"categories_nodes":[],"categories_segments":[],"categories_sizes":[],"default_left":[0,0,0,0,0,0,0,0,0,0,0,0,0,0,0,0,0,0,0,0,0,0,0],"id":17,"left_children":[1,3,-1,5,7,9,11,13,-1,-1,-1,-1,-1,15,17,19,-1,21,-1,-1,-1,-1,-1],"loss_changes":[2.161095E0,1.818085E0,0E0,7.07641E-1,6.3136804E-1,2.6855767E-1,5.2519846E-1,4.4777298E-1,0E0,0E0,0E0,0E0,0E0,6.6046715E-1,2.9617572E-1,4.1628468E-1,0E0,2.0336986E-1,0E0,0E0,0E0,0E0,0E0],"parents":[2147483647,0,0,1,1,3,3,4,4,5,5,6,6,7,7,13,13,14,14,15,15,17,17],"right_children":[2,4,-1,6,8,10,12,14,-1,-1,-1,-1,-1,16,18,20,-1,22,-1,-1,-1,-1,-1],"split_conditions":[2.3331526E1,-9.177102E-1,5.2285314E-2,1.3288774E-2,1.6752895E1,-2.0100512E-3,1.2650192E0,-2.8903955E-1,9.600058E-3,4.8940368E-2,5.3051575E-3,-2.7394796E-2,2.357736E-2,-1.9459606E1,6.2463865E-2,1.2830556E-2,-3.5114083E-2,3.7603725E-2,-4.4633503E-4,3.5004675E-2,-1.3739563E-2,-4.6855222E-2,-1.420625E-2],"split_indices":[18,20,0,30,18,7,5,1,0,0,0,0,0,16,32,19,0,19,0,0,0,0,0],"split_type":[0,0,0,0,0,0,0,0,0,0,0,0,0,0,0,0,0,0,0,0,0,0,0],"sum_hessian":[5.1793106E1,4.5705036E1,6.0880685E0,1.4226553E1,3.1478483E1,8.091E0,6.135553E0,2.6109804E1,5.3686805E0,5.9928374E0,2.0981627E0,3.3112762E0,2.8242764E0,9.091508E0,1.7018295E1,5.3501925E0,3.7413151E0,1.4887093E1,2.1312034E0,2.9477336E0,2.402459E0,1.1290561E1,3.596531E0],"tree_param":{"num_deleted":"0","num_feature":"48","num_nodes":"23","size_leaf_vector":"1"}},{"base_weights":[-1.6113963E-2,-8.483401E-2,5.07141E-2,2.926823E-1,-2.0069149E-1,4.1930112E-1,-1.7571375E-2,-1.3551101E-1,-4.3257736E-2,5.5138387E-2,2.7548994E-3,-2.2626227E-1,8.56987E-2,-3.4487408E-1,-2.9289713E-3,2.2134046E-1,-2.3902757E-2,-4.1254845E-2,9.5316395E-4,2.9445821E-2,-1.52670145E-2,3.5057392E-2,-3.92081E-3],"categories":[],"categories_nodes":[],"categories_segments":[],"categories_sizes":[],"default_left":[0,0,0,0,0,0,0,0,0,0,0,0,0,0,0,0,0,0,0,0,0,0,0],"id":18,"left_children":[1,3,-1,5,7,9,-1,11,-1,-1,-1,13,15,17,19,21,-1,-1,-1,-1,-1,-1,-1],"loss_changes":[1.9119107E0,2.1055617E0,0E0,7.495502E-1,4.9156487E-1,4.6428096E-1,0E0,6.190417E-1,0E0,0E0,0E0,5.6735015E-1,4.675941E-1,3.3982348E-1,4.212864E-1,2.5483537E-1,0E0,0E0,0E0,0E0,0E0,0E0,0E0],"parents":[2147483647,0,0,1,1,3,3,4,4,5,5,7,7,11,11,12,12,13,13,14,14,15,15],"right_children":[2,4,-1,6,8,10,-1,12,-1,-1,-1,14,16,18,20,22,-1,-1,-1,-1,-1,-1,-1],"split_conditions":[3.8558147E1,-3.651086E1,5.07141E-2,1.41534265E-2,4.3223795E-2,-1.947179E1,-1.7571375E-2,4.6211767E-1,-4.3257736E-2,5.5138387E-2,2.7548994E-3,1.7466268E-2,9.5402896E-1,2.3017662E1,3.0192817E-2,6.951891E-3,-2.3902757E-2,-4.1254845E-2,9.5316395E-4,2.9445821E-2,-1.52670145E-2,3.5057392E-2,-3.92081E-3],"split_indices":[4,0,0,36,13,16,0,24,0,0,0,33,24,4,33,36,0,0,0,0,0,0,0],"split_type":[0,0,0,0,0,0,0,0,0,0,0,0,0,0,0,0,0,0,0,0,0,0,0],"sum_hessian":[5.0974033E1,4.5797268E1,5.1767683E0,1.0396034E1,3.5401234E1,8.266274E0,2.12976E0,2.887046E1,6.5307717E0,5.877232E0,2.3890424E0,2.0455679E1,8.414782E0,1.30047E1,7.450979E0,6.160042E0,2.2547393E0,1.0781834E1,2.2228663E0,2.1716387E0,5.2793403E0,3.886697E0,2.2733448E0],"tree_param":{"num_deleted":"0","num_feature":"48","num_nodes":"23","size_leaf_vector":"1"}},{"base_weights":[2.4307812E-2,-4.1083433E-2,4.887679E-2,2.1019131E-1,-1.4636138E-1,-5.1461114E-3,4.3872848E-1,-2.686229E-1,5.3319853E-2,-1.5917832E-1,2.2390617E-2,5.451117E-2,1.2727509E-2,-3.7258363E-1,7.501783E-2,2.9875585E-1,-1.5969484E-1,7.497923E-4,-2.7412003E-2,-2.0619176E-5,-4.5119104E-1,2.1540193E-2,-8.443795E-3,-2.4044965E-3,4.6931352E-2,4.6480548E-2,-4.3400694E-2,-1.2748852E-2,-5.1713575E-2,2.4375683E-2,-1.476334E-2],"categories":[],"categories_nodes":[],"categories_segments":[],"categories_sizes":[],"default_left":[0,0,0,0,0,0,0,0,0,0,0,0,0,0,0,0,0,0,0,0,0,0,0,0,0,0,0,0,0,0,0],"id":19,"left_children":[1,3,-1,5,7,9,11,13,15,17,-1,-1,-1,19,21,23,25,-1,-1,-1,27,-1,-1,-1,-1,29,-1,-1,-1,-1,-1],"loss_changes":[1.5713291E0,1.2395548E0,0E0,6.8643904E-1,8.1488585E-1,3.2305765E-1,1.5447557E-1,7.6047647E-1,7.4240196E-1,1.0656911E-1,0E0,0E0,0E0,4.6560955E-1,1.434283E-1,3.7037528E-1,4.5934898E-1,0E0,0E0,0E0,2.1448159E-1,0E0,0E0,0E0,0E0,2.4034259E-1,0E0,0E0,0E0,0E0,0E0],"parents":[2147483647,0,0,1,1,3,3,4,4,5,5,6,6,7,7,8,8,9,9,13,13,14,14,15,15,16,16,20,20,25,25],"right_children":[2,4,-1,6,8,10,12,14,16,18,-1,-1,-1,20,22,24,26,-1,-1,-1,28,-1,-1,-1,-1,30,-1,-1,-1,-1,-1],"split_conditions":[2.3072632E1,-3.338979E-2,4.887679E-2,4.9748334E-1,8.05678E-1,2.1837756E-2,-2.7979036E1,1.6693691E1,-1.6201396E-2,8.194508E-3,2.2390617E-2,5.451117E-2,1.2727509E-2,-5.8518257E-2,-1.9288775E-2,1.5108486E-2,3.0629398E-2,7.497923E-4,-2.7412003E-2,-2.0619176E-5,-1.2907033E0,2.1540193E-2,-8.443795E-3,-2.4044965E-3,4.6931352E-2,-7.9565084E-1,-4.3400694E-2,-1.2748852E-2,-5.1713575E-2,2.4375683E-2,-1.476334E-2],"split_indices":[18,12,0,24,5,35,4,18,29,45,0,0,0,30,27,41,41,0,0,0,5,0,0,0,0,15,0,0,0,0,0],"split_type":[0,0,0,0,0,0,0,0,0,0,0,0,0,0,0,0,0,0,0,0,0,0,0,0,0,0,0,0,0,0,0],"sum_hessian":[5.0075603E1,4.4694603E1,5.380999E0,1.2902561E1,3.1792042E1,7.146401E0,5.75616E0,1.9504501E1,1.2287541E1,4.4553447E0,2.6910565E0,3.7314038E0,2.0247557E0,1.4909688E1,4.594813E0,5.5222635E0,6.765278E0,2.199962E0,2.2553828E0,2.773543E0,1.2136146E1,2.2569492E0,2.3378637E0,2.206057E0,3.3162067E0,4.3364897E0,2.428788E0,2.5503783E0,9.585767E0,2.0238888E0,2.312601E0],"tree_param":{"num_deleted":"0","num_feature":"48","num_nodes":"31","size_leaf_vector":"1"}},{"base_weights":[1.2839867E-3,-7.584403E-2,5.02611E-2,-2.6331463E-1,7.428441E-2,-3.4449905E-1,5.008178E-3,-2.926617E-2,3.63534E-1,-1.09129705E-1,-4.232648E-1,9.375092E-2,-2.6781827E-1,4.9506336E-2,4.5221266E-3,-2.3866834E-2,5.545258E-3,-7.1933973E-3,-4.937605E-2,2.755289E-1,-1.4811605E-1,-6.028054E-3,-4.0048145E-2,6.804233E-3,3.919929E-2,1.0583783E-2,-3.359429E-2],"categories":[],"categories_nodes":[],"categories_segments":[],"categories_sizes":[],"default_left":[0,0,0,0,0,0,0,0,0,0,0,0,0,0,0,0,0,0,0,0,0,0,0,0,0,0,0],"id":20,"left_children":[1,3,-1,5,7,9,-1,11,13,15,17,19,21,-1,-1,-1,-1,-1,-1,23,25,-1,-1,-1,-1,-1,-1],"loss_changes":[1.9041444E0,1.2211645E0,0E0,5.0590324E-1,7.441057E-1,2.3896074E-1,0E0,5.814494E-1,2.5101107E-1,1.24183655E-1,2.4130845E-1,6.232999E-1,1.6058582E-1,0E0,0E0,0E0,0E0,0E0,0E0,1.6455543E-1,3.3773583E-1,0E0,0E0,0E0,0E0,0E0,0E0],"parents":[2147483647,0,0,1,1,3,3,4,4,5,5,7,7,8,8,9,9,10,10,11,11,12,12,19,19,20,20],"right_children":[2,4,-1,6,8,10,-1,12,14,16,18,20,22,-1,-1,-1,-1,-1,-1,24,26,-1,-1,-1,-1,-1,-1],"split_conditions":[3.8558147E1,-3.7262195E-1,5.02611E-2,-2.7919453E1,4.437262E-2,-3.288616E-2,5.008178E-3,7.7045625E-3,1.3815141E-3,7.9249125E-3,-4.589021E-2,-1.9468725E1,5.436578E-3,4.9506336E-2,4.5221266E-3,-2.3866834E-2,5.545258E-3,-7.1933973E-3,-4.937605E-2,-9.530177E-3,5.357264E-1,-6.028054E-3,-4.0048145E-2,6.804233E-3,3.919929E-2,1.0583783E-2,-3.359429E-2],"split_indices":[4,2,0,4,26,45,0,28,32,42,44,16,45,0,0,0,0,0,0,47,24,0,0,0,0,0,0],"split_type":[0,0,0,0,0,0,0,0,0,0,0,0,0,0,0,0,0,0,0,0,0,0,0,0,0,0,0],"sum_hessian":[4.725964E1,4.169385E1,5.56579E0,1.8205757E1,2.3488092E1,1.4381126E1,3.824631E0,1.7957998E1,5.5300946E0,4.204038E0,1.0177088E1,1.2248609E1,5.7093897E0,3.5202332E0,2.0098617E0,2.1005788E0,2.1034594E0,2.038445E0,8.138642E0,6.9135056E0,5.335103E0,2.7935536E0,2.9158363E0,3.0550358E0,3.8584697E0,2.4538524E0,2.8812504E0],"tree_param":{"num_deleted":"0","num_feature":"48","num_nodes":"27","size_leaf_vector":"1"}},{"base_weights":[-1.9966282E-3,-7.576723E-2,4.9118202E-2,-2.0659927E-1,2.5241587E-1,-2.6956543E-1,1.1301356E-2,4.1074568E-1,-4.4596527E-2,-1.1281366E-2,-3.5926226E-1,4.9428593E-2,1.46493735E-2,-1.8159898E-2,1.07093835E-2,2.1418072E-2,-1.561006E-1,-4.045446E-1,-4.3069012E-4,-3.0487409E-2,4.1472064E-3,-4.5058392E-2,-5.8886283E-3],"categories":[],"categories_nodes":[],"categories_segments":[],"categories_sizes":[],"default_left":[0,0,0,0,0,0,0,0,0,0,0,0,0,0,0,0,0,0,0,0,0,0,0],"id":21,"left_children":[1,3,-1,5,7,9,-1,11,13,15,17,-1,-1,-1,-1,-1,19,21,-1,-1,-1,-1,-1],"loss_changes":[1.6737596E0,1.7694296E0,0E0,6.170132E-1,5.75571E-1,5.6688297E-1,0E0,1.003865E-1,1.23824775E-1,2.745557E-1,2.9174352E-1,0E0,0E0,0E0,0E0,0E0,1.6181523E-1,2.3099685E-1,0E0,0E0,0E0,0E0,0E0],"parents":[2147483647,0,0,1,1,3,3,4,4,5,5,7,7,8,8,9,9,10,10,16,16,17,17],"right_children":[2,4,-1,6,8,10,-1,12,14,16,18,-1,-1,-1,-1,-1,20,22,-1,-1,-1,-1,-1],"split_conditions":[3.8558147E1,4.673184E-1,4.9118202E-2,2.6816109E1,-7.5303864E-1,-3.0622398E-2,1.1301356E-2,7.7045625E-3,1.0588547E-2,-4.6908584E-1,5.4225214E-2,4.9428593E-2,1.46493735E-2,-1.8159898E-2,1.07093835E-2,2.1418072E-2,-1.1035883E-2,5.42116E-2,-4.3069012E-4,-3.0487409E-2,4.1472064E-3,-4.5058392E-2,-5.8886283E-3],"split_indices":[4,2,0,4,15,10,0,28,17,20,26,0,0,0,0,0,33,29,0,0,0,0,0],"split_type":[0,0,0,0,0,0,0,0,0,0,0,0,0,0,0,0,0,0,0,0,0,0,0],"sum_hessian":[4.3982136E1,3.8995487E1,4.986649E0,2.814557E1,1.08499155E1,2.3644093E1,4.501478E0,6.8274493E0,4.0224657E0,6.384771E0,1.7259323E1,4.5260735E0,2.3013759E0,2.009959E0,2.012507E0,2.3098009E0,4.07497E0,1.5182727E1,2.0765958E0,2.014751E0,2.060219E0,1.3130306E1,2.0524197E0],"tree_param":{"num_deleted":"0","num_feature":"48","num_nodes":"23","size_leaf_vector":"1"}},{"base_weights":[-2.7184587E-3,-9.528308E-2,3.6694506E-1,1.02689184E-1,-2.6259395E-1,1.0912607E-2,4.7645748E-2,2.5750884E-1,-6.6617586E-2,-3.1972784E-1,3.937989E-3,-7.875744E-3,4.0297903E-2,1.5815152E-2,-2.7359927E-2,-4.2186268E-2,-1.3209148E-1,9.272235E-3,-3.4567773E-2],"categories":[],"categories_nodes":[],"categories_segments":[],"categories_sizes":[],"default_left":[0,0,0,0,0,0,0,0,0,0,0,0,0,0,0,0,0,0,0],"id":22,"left_children":[1,3,5,7,9,-1,-1,11,13,15,-1,-1,-1,-1,-1,-1,17,-1,-1],"loss_changes":[1.4503503E0,1.148987E0,1.877048E-1,4.4269168E-1,3.3418667E-1,0E0,0E0,4.566061E-1,4.4099036E-1,2.4676526E-1,0E0,0E0,0E0,0E0,0E0,0E0,3.69095E-1,0E0,0E0],"parents":[2147483647,0,0,1,1,2,2,3,3,4,4,7,7,8,8,9,9,16,16],"right_children":[2,4,6,8,10,-1,-1,12,14,16,-1,-1,-1,-1,-1,-1,18,-1,-1],"split_conditions":[2.1945494E1,-5.481659E-1,1.9776575E1,6.964506E-2,-1.5824421E1,1.0912607E-2,4.7645748E-2,-1.78643E-2,-7.895723E-3,8.080602E-4,3.937989E-3,-7.875744E-3,4.0297903E-2,1.5815152E-2,-2.7359927E-2,-4.2186268E-2,-8.174151E-3,9.272235E-3,-3.4567773E-2],"split_indices":[18,20,0,6,14,0,0,41,13,38,0,0,0,0,0,0,34,0,0],"split_type":[0,0,0,0,0,0,0,0,0,0,0,0,0,0,0,0,0,0,0],"sum_hessian":[4.0364086E1,3.287448E1,7.489605E0,1.5234428E1,1.7640055E1,2.8280818E0,4.6615233E0,7.6855497E0,7.548878E0,1.4784089E1,2.8559651E0,2.4592924E0,5.226257E0,3.7320366E0,3.8168416E0,8.764869E0,6.01922E0,3.208226E0,2.810994E0],"tree_param":{"num_deleted":"0","num_feature":"48","num_nodes":"19","size_leaf_vector":"1"}},{"base_weights":[-2.3151204E-2,-1.2891492E-1,3.6037472E-1,-2.2455946E-1,2.8104156E-1,1.0804043E-2,4.859092E-2,2.494072E-2,-2.859489E-1,-3.1282993E-3,4.34989E-2,-3.2839292E-1,-2.9693842E-3,-3.6028594E-1,-4.4219806E-3,-1.4293179E-2,-4.0881407E-2],"categories":[],"categories_nodes":[],"categories_segments":[],"categories_sizes":[],"default_left":[0,0,0,0,0,0,0,0,0,0,0,0,0,0,0,0,0],"id":23,"left_children":[1,3,5,7,9,-1,-1,-1,11,-1,-1,13,-1,15,-1,-1,-1],"loss_changes":[1.7543916E0,1.3860852E0,2.4415147E-1,8.8351285E-1,3.4185398E-1,0E0,0E0,0E0,2.6410556E-1,0E0,0E0,1.7893982E-1,0E0,1.4400077E-1,0E0,0E0,0E0],"parents":[2147483647,0,0,1,1,2,2,3,3,4,4,8,8,11,11,13,13],"right_children":[2,4,6,8,10,-1,-1,-1,12,-1,-1,14,-1,16,-1,-1,-1],"split_conditions":[2.6922714E1,1.0593967E0,1.9807072E1,-8.0646574E-2,-9.0967E-3,1.0804043E-2,4.859092E-2,2.494072E-2,5.4225214E-2,-3.1282993E-3,4.34989E-2,6.2463865E-2,-2.9693842E-3,-3.5921056E-2,-4.4219806E-3,-1.4293179E-2,-4.0881407E-2],"split_indices":[4,23,0,44,37,0,0,0,26,0,0,32,0,41,0,0,0],"split_type":[0,0,0,0,0,0,0,0,0,0,0,0,0,0,0,0,0],"sum_hessian":[4.110558E1,3.2740658E1,8.364919E0,2.6913795E1,5.826864E0,3.3971074E0,4.967811E0,2.7350123E0,2.4178783E1,2.1869106E0,3.6399531E0,2.0501562E1,3.6772215E0,1.8192017E1,2.309546E0,4.04045E0,1.4151566E1],"tree_param":{"num_deleted":"0","num_feature":"48","num_nodes":"17","size_leaf_vector":"1"}},{"base_weights":[-7.4816593E-3,-1.1952636E-1,3.1518257E-1,9.017416E-2,-3.3905685E-1,1.4701086E-1,4.7023475E-2,2.689183E-1,-1.3616106E-1,-3.758005E-2,-6.037116E-3,-6.1143693E-3,2.6571183E-2,-5.1943236E-3,3.6162248E-1,1.3587465E-2,-2.8630255E-2,4.7996264E-2,1.1229564E-2],"categories":[],"categories_nodes":[],"categories_segments":[],"categories_sizes":[],"default_left":[0,0,0,0,0,0,0,0,0,0,0,0,0,0,0,0,0,0,0],"id":24,"left_children":[1,3,5,7,9,11,-1,13,15,-1,-1,-1,-1,-1,17,-1,-1,-1,-1],"loss_changes":[1.5347974E0,1.4789718E0,2.1635687E-1,7.1957344E-1,1.3686156E-1,1.8196113E-1,0E0,3.0935055E-1,3.702642E-1,0E0,0E0,0E0,0E0,0E0,1.7342412E-1,0E0,0E0,0E0,0E0],"parents":[2147483647,0,0,1,1,2,2,3,3,4,4,5,5,7,7,8,8,14,14],"right_children":[2,4,6,8,10,12,-1,14,16,-1,-1,-1,-1,-1,18,-1,-1,-1,-1],"split_conditions":[1.6713938E1,-3.0265847E-1,1.9807072E1,-1.9337254E1,5.753888E-2,-3.27373E-3,4.7023475E-2,-1.9385914E1,-7.8605473E-1,-3.758005E-2,-6.037116E-3,-6.1143693E-3,2.6571183E-2,-5.1943236E-3,2.656526E-3,1.3587465E-2,-2.8630255E-2,4.7996264E-2,1.1229564E-2],"split_indices":[18,1,0,18,47,11,0,18,21,0,0,0,0,0,39,0,0,0,0],"split_type":[0,0,0,0,0,0,0,0,0,0,0,0,0,0,0,0,0,0,0],"sum_hessian":[4.041102E1,3.0462517E1,9.948502E0,1.5881442E1,1.4581074E1,5.7068796E0,4.241622E0,8.76852E0,7.1129217E0,1.25746765E1,2.0063977E0,2.248606E0,3.4582734E0,2.0640962E0,6.704424E0,2.563406E0,4.5495157E0,3.9191911E0,2.785233E0],"tree_param":{"num_deleted":"0","num_feature":"48","num_nodes":"19","size_leaf_vector":"1"}},{"base_weights":[1.9229025E-2,-9.2841886E-2,3.7829902E-2,-2.9057086E-1,8.085556E-2,-3.9074752E-2,-8.64669E-2,1.6187277E-1,-2.471888E-2,1.5308072E-2,-2.7882716E-2,2.8728715E-1,-9.763907E-2,4.268125E-3,3.508775E-2,1.884264E-2,-3.295085E-2],"categories":[],"categories_nodes":[],"categories_segments":[],"categories_sizes":[],"default_left":[0,0,0,0,0,0,0,0,0,0,0,0,0,0,0,0,0],"id":25,"left_children":[1,3,-1,5,7,-1,9,11,-1,-1,-1,13,15,-1,-1,-1,-1],"loss_changes":[1.6462483E0,1.0990431E0,0E0,2.7010095E-1,5.0387627E-1,0E0,3.2732987E-1,5.0325966E-1,0E0,0E0,0E0,1.4208484E-1,4.271363E-1,0E0,0E0,0E0,0E0],"parents":[2147483647,0,0,1,1,3,3,4,4,6,6,7,7,11,11,12,12],"right_children":[2,4,-1,6,8,-1,10,12,-1,-1,-1,14,16,-1,-1,-1,-1],"split_conditions":[2.6816109E1,-1.3361825E-1,3.7829902E-2,1.9817919E-2,1.6628447E1,-3.9074752E-2,-5.8212173E-3,1.9466963E-2,-2.471888E-2,1.5308072E-2,-2.7882716E-2,7.4074763E-1,-1.6173847E-2,4.268125E-3,3.508775E-2,1.884264E-2,-3.295085E-2],"split_indices":[4,3,0,45,18,0,44,28,0,0,0,5,27,0,0,0,0],"split_type":[0,0,0,0,0,0,0,0,0,0,0,0,0,0,0,0,0],"sum_hessian":[3.9036633E1,3.031601E1,8.720625E0,1.3862612E1,1.6453398E1,8.685306E0,5.1773057E0,1.3600925E1,2.8524723E0,2.396778E0,2.7805274E0,9.097396E0,4.50353E0,2.22189E0,6.8755054E0,2.1000204E0,2.4035094E0],"tree_param":{"num_deleted":"0","num_feature":"48","num_nodes":"17","size_leaf_vector":"1"}},{"base_weights":[1.3249255E-2,-8.616244E-2,3.505542E-1,-2.1732299E-1,1.9195016E-1,1.2519911E-2,4.6881404E-2,-4.0579163E-2,-1.2905525E-1,-3.816718E-2,3.693836E-1,-2.537418E-1,4.0227156E-2,-2.6271706E-2,1.842927E-2,1.1676609E-2,4.7631014E-2,-3.6111644E-1,7.924615E-3,2.5632715E-2,-2.2609906E-2,-4.818892E-2,-4.169673E-3],"categories":[],"categories_nodes":[],"categories_segments":[],"categories_sizes":[],"default_left":[0,0,0,0,0,0,0,0,0,0,0,0,0,0,0,0,0,0,0,0,0,0,0],"id":26,"left_children":[1,3,5,7,9,-1,-1,-1,11,13,15,17,19,-1,-1,-1,-1,21,-1,-1,-1,-1,-1],"loss_changes":[1.2880772E0,1.1278701E0,1.7413497E-1,2.9203445E-1,4.2540035E-1,0E0,0E0,0E0,3.387568E-1,3.1276783E-1,1.00548804E-1,3.5399622E-1,4.876087E-1,0E0,0E0,0E0,0E0,2.5231463E-1,0E0,0E0,0E0,0E0,0E0],"parents":[2147483647,0,0,1,1,2,2,3,3,4,4,8,8,9,9,10,10,11,11,12,12,17,17],"right_children":[2,4,6,8,10,-1,-1,-1,12,14,16,18,20,-1,-1,-1,-1,22,-1,-1,-1,-1,-1],"split_conditions":[2.6865238E1,4.673184E-1,1.9807072E1,-1.630093E-2,1.5966736E-2,1.2519911E-2,4.6881404E-2,-4.0579163E-2,1.18103875E-2,-1.0341849E-2,-1.6613135E-2,2.8748095E-2,-5.8204484E-1,-2.6271706E-2,1.842927E-2,1.1676609E-2,4.7631014E-2,7.001841E-1,7.924615E-3,2.5632715E-2,-2.2609906E-2,-4.818892E-2,-4.169673E-3],"split_indices":[4,2,0,11,41,0,0,0,26,43,19,32,6,0,0,0,0,6,0,0,0,0,0],"split_type":[0,0,0,0,0,0,0,0,0,0,0,0,0,0,0,0,0,0,0,0,0,0,0],"sum_hessian":[3.651254E1,2.8776102E1,7.7364373E0,1.97027E1,9.073401E0,3.371125E0,4.365312E0,5.1369796E0,1.4565721E1,4.2919583E0,4.781443E0,8.100381E0,6.465339E0,2.0458868E0,2.2460716E0,2.044133E0,2.7373102E0,6.061371E0,2.0390103E0,3.5899549E0,2.875384E0,4.0292645E0,2.0321066E0],"tree_param":{"num_deleted":"0","num_feature":"48","num_nodes":"23","size_leaf_vector":"1"}},{"base_weights":[1.5701693E-2,-1.12280466E-1,2.9745403E-1,-2.0850533E-1,2.4497685E-1,1.6631918E-1,4.5841184E-2,-4.0915552E-1,-4.738341E-2,4.2815126E-2,-5.766749E-3,4.7819845E-2,-3.0144354E-2,-4.9058676E-2,-1.0797442E-2,-2.3200291E-1,8.998307E-2,9.51331E-3,-1.8905127E-2,-3.6575437E-2,-9.19912E-4,-1.2006737E-2,2.381802E-1,3.8450845E-3,3.6399942E-2],"categories":[],"categories_nodes":[],"categories_segments":[],"categories_sizes":[],"default_left":[0,0,0,0,0,0,0,0,0,0,0,0,0,0,0,0,0,0,0,0,0,0,0,0,0],"id":27,"left_children":[1,3,5,7,9,11,-1,13,15,-1,-1,-1,17,-1,-1,19,21,-1,-1,-1,-1,-1,23,-1,-1],"loss_changes":[1.4333459E0,9.937939E-1,1.855011E-1,6.9651407E-1,3.7275866E-1,5.2928036E-1,0E0,1.8569553E-1,3.6103246E-1,0E0,0E0,0E0,1.3934113E-1,0E0,0E0,1.7548716E-1,2.9042712E-1,0E0,0E0,0E0,0E0,0E0,1.1835846E-1,0E0,0E0],"parents":[2147483647,0,0,1,1,2,2,3,3,4,4,5,5,7,7,8,8,12,12,15,15,16,16,22,22],"right_children":[2,4,6,8,10,12,-1,14,16,-1,-1,-1,18,-1,-1,20,22,-1,-1,-1,-1,-1,24,-1,-1],"split_conditions":[1.903115E1,1.0593967E0,1.9807072E1,-5.8332854E-3,-7.872255E-1,-1.2864097E0,4.5841184E-2,2.7691264E-2,-2.6584446E-1,4.2815126E-2,-5.766749E-3,4.7819845E-2,-3.4271985E-1,-4.9058676E-2,-1.0797442E-2,1.5406284E-2,-7.9188776E-1,9.51331E-3,-1.8905127E-2,-3.6575437E-2,-9.19912E-4,-1.2006737E-2,-2.2427149E1,3.8450845E-3,3.6399942E-2],"split_indices":[4,23,0,43,15,6,0,28,5,0,0,0,2,0,0,26,15,0,0,0,0,0,0,0,0],"split_type":[0,0,0,0,0,0,0,0,0,0,0,0,0,0,0,0,0,0,0,0,0,0,0,0,0],"sum_hessian":[3.7823517E1,2.6422808E1,1.1400708E1,2.1144146E1,5.278662E0,7.402823E0,3.9978855E0,8.73133E0,1.2412816E1,3.0300403E0,2.2486217E0,2.3068092E0,5.0960135E0,6.3780117E0,2.3533182E0,5.0016723E0,7.411144E0,3.0739398E0,2.022074E0,2.7245176E0,2.2771544E0,3.1443062E0,4.2668376E0,2.1536577E0,2.11318E0],"tree_param":{"num_deleted":"0","num_feature":"48","num_nodes":"25","size_leaf_vector":"1"}},{"base_weights":[5.24468E-3,-9.898608E-2,3.3283353E-2,-1.7372723E-1,2.7509192E-2,-6.544983E-2,-3.4688886E-2,-1.9587342E-1,1.0164624E-1,-3.5140414E-2,-5.5810376E-3,-1.2300868E-2,3.0522874E-2,-2.1107918E-2,2.0277224E-2],"categories":[],"categories_nodes":[],"categories_segments":[],"categories_sizes":[],"default_left":[0,0,0,0,0,0,0,0,0,0,0,0,0,0,0],"id":28,"left_children":[1,3,-1,5,-1,7,-1,9,11,-1,13,-1,-1,-1,-1],"loss_changes":[1.1968476E0,7.923436E-1,0E0,4.0494192E-1,0E0,3.526042E-1,0E0,2.6190326E-1,3.737256E-1,0E0,2.579858E-1,0E0,0E0,0E0,0E0],"parents":[2147483647,0,0,1,1,3,3,5,5,7,7,8,8,10,10],"right_children":[2,4,-1,6,-1,8,-1,10,12,-1,14,-1,-1,-1,-1],"split_conditions":[2.6816109E1,1.2302183E0,3.3283353E-2,-1.9334341E1,2.7509192E-2,2.6415726E-3,-3.4688886E-2,1.8513611E-3,2.0519893E-1,-3.5140414E-2,1.7198917E-2,-1.2300868E-2,3.0522874E-2,-2.1107918E-2,2.0277224E-2],"split_indices":[4,22,0,18,0,37,0,11,5,0,45,0,0,0,0],"split_type":[0,0,0,0,0,0,0,0,0,0,0,0,0,0,0],"sum_hessian":[3.3087193E1,2.5630142E1,7.4570503E0,2.1808392E1,3.8217523E0,1.4265924E1,7.542466E0,7.9154515E0,6.350473E0,3.8896718E0,4.0257797E0,3.207144E0,3.143329E0,2.0201902E0,2.0055895E0],"tree_param":{"num_deleted":"0","num_feature":"48","num_nodes":"15","size_leaf_vector":"1"}},{"base_weights":[9.412116E-3,-7.991772E-2,3.250525E-1,-1.8025954E-1,1.6717386E-1,1.1231492E-2,4.4566493E-2,-3.789003E-2,-3.1754903E-2,2.6724894E-2,-9.6991565E-3,2.2281386E-2,-1.7546517E-1,-3.368956E-2,-3.9010295E-3],"categories":[],"categories_nodes":[],"categories_segments":[],"categories_sizes":[],"default_left":[0,0,0,0,0,0,0,0,0,0,0,0,0,0,0],"id":29,"left_children":[1,3,5,7,9,-1,-1,11,-1,-1,-1,-1,13,-1,-1],"loss_changes":[9.789425E-1,7.031619E-1,1.4630109E-1,3.747133E-1,2.4689187E-1,0E0,0E0,4.2821267E-1,0E0,0E0,0E0,0E0,1.5561342E-1,0E0,0E0],"parents":[2147483647,0,0,1,1,2,2,3,3,4,4,7,7,12,12],"right_children":[2,4,6,8,10,-1,-1,12,-1,-1,-1,-1,14,-1,-1],"split_conditions":[2.6865238E1,4.673184E-1,1.9807072E1,1.3546896E-3,1.2787808E-2,1.1231492E-2,4.4566493E-2,-3.976768E-2,-3.1754903E-2,2.6724894E-2,-9.6991565E-3,2.2281386E-2,-1.5892203E1,-3.368956E-2,-3.9010295E-3],"split_indices":[4,2,0,13,32,0,0,29,0,0,0,0,14,0,0],"split_type":[0,0,0,0,0,0,0,0,0,0,0,0,0,0,0],"sum_hessian":[3.2797756E1,2.6145178E1,6.6525774E0,1.8786581E1,7.3585973E0,3.1057775E0,3.5468E0,9.849065E0,8.937517E0,5.3283577E0,2.0302396E0,3.1880858E0,6.660979E0,2.378373E0,4.2826056E0],"tree_param":{"num_deleted":"0","num_feature":"48","num_nodes":"15","size_leaf_vector":"1"}},{"base_weights":[7.599857E-3,-8.8904664E-2,2.9444483E-1,-2.8712094E-1,9.707516E-2,1.1891513E-2,4.3247033E-2,-2.4949836E-3,-3.3733692E-2,1.6971557E-1,-2.0697251E-2,2.8867877E-1,-7.4693374E-3,3.8744427E-2,7.7049583E-3,1.8406367E-2,-1.9875458E-2],"categories":[],"categories_nodes":[],"categories_segments":[],"categories_sizes":[],"default_left":[0,0,0,0,0,0,0,0,0,0,0,0,0,0,0,0,0],"id":30,"left_children":[1,3,5,7,9,-1,-1,-1,-1,11,-1,13,15,-1,-1,-1,-1],"loss_changes":[9.03662E-1,9.3057084E-1,1.4752513E-1,1.509648E-1,3.306576E-1,0E0,0E0,0E0,0E0,2.413956E-1,0E0,1.1261058E-1,2.3933746E-1,0E0,0E0,0E0,0E0],"parents":[2147483647,0,0,1,1,2,2,3,3,4,4,9,9,11,11,12,12],"right_children":[2,4,6,8,10,-1,-1,-1,-1,12,-1,14,16,-1,-1,-1,-1],"split_conditions":[2.6816109E1,-1.3361825E-1,8.207333E-1,-1.5082608E0,4.3223795E-2,1.1891513E-2,4.3247033E-2,-2.4949836E-3,-3.3733692E-2,1.3288774E-2,-2.0697251E-2,-1.3788229E-2,-2.7187187E-2,3.8744427E-2,7.7049583E-3,1.8406367E-2,-1.9875458E-2],"split_indices":[4,3,1,5,13,0,0,0,0,30,0,7,25,0,0,0,0],"split_type":[0,0,0,0,0,0,0,0,0,0,0,0,0,0,0,0,0],"sum_hessian":[3.0698927E1,2.3487114E1,7.2118134E0,1.11062765E1,1.2380837E1,3.994049E0,3.2177646E0,2.0259423E0,9.080335E0,1.0349934E1,2.0309033E0,5.815868E0,4.534066E0,3.3988736E0,2.416994E0,2.28443E0,2.2496362E0],"tree_param":{"num_deleted":"0","num_feature":"48","num_nodes":"17","size_leaf_vector":"1"}},{"base_weights":[-2.8135518E-2,-1.2462111E-1,3.00844E-1,-2.7688706E-1,2.1151014E-2,8.156755E-3,4.370549E-2,-3.6601253E-2,-6.943147E-3,-1.428578E-1,2.1165359E-1,2.4120787E-3,-2.5503865E-2,3.8992576E-2,3.4466464E-4],"categories":[],"categories_nodes":[],"categories_segments":[],"categories_sizes":[],"default_left":[0,0,0,0,0,0,0,0,0,0,0,0,0,0,0],"id":31,"left_children":[1,3,5,7,9,-1,-1,-1,-1,11,13,-1,-1,-1,-1],"loss_changes":[1.0409155E0,5.6409574E-1,1.8721801E-1,2.0334238E-1,4.6072307E-1,0E0,0E0,0E0,0E0,1.5602411E-1,2.5020933E-1,0E0,0E0,0E0,0E0],"parents":[2147483647,0,0,1,1,2,2,3,3,4,4,9,9,10,10],"right_children":[2,4,6,8,10,-1,-1,-1,-1,12,14,-1,-1,-1,-1],"split_conditions":[2.6856869E1,-1.3361825E-1,1.9807072E1,1.9817919E-2,1.734845E-2,8.156755E-3,4.370549E-2,-3.6601253E-2,-6.943147E-3,-1.9338428E1,-7.765847E-1,2.4120787E-3,-2.5503865E-2,3.8992576E-2,3.4466464E-4],"split_indices":[4,3,0,45,41,0,0,0,0,18,21,0,0,0,0],"split_type":[0,0,0,0,0,0,0,0,0,0,0,0,0,0,0],"sum_hessian":[3.0612085E1,2.4150295E1,6.4617906E0,1.137212E1,1.2778174E1,3.0885613E0,3.3732293E0,7.4200726E0,3.9520473E0,7.00096E0,5.777215E0,3.1287987E0,3.872161E0,2.6421545E0,3.1350605E0],"tree_param":{"num_deleted":"0","num_feature":"48","num_nodes":"15","size_leaf_vector":"1"}},{"base_weights":[2.163244E-2,-6.1603848E-2,2.831493E-1,-2.0832397E-1,1.145013E-1,1.2366233E-2,4.0996693E-2,-2.4928095E-2,-2.8663445E-1,-2.1745391E-2,2.0767784E-1,-1.8461894E-2,1.4289925E-2,-4.0757162E-3,-3.5859313E-2,-2.1862143E-3,3.549849E-2],"categories":[],"categories_nodes":[],"categories_segments":[],"categories_sizes":[],"default_left":[0,0,0,0,0,0,0,0,0,0,0,0,0,0,0,0,0],"id":32,"left_children":[1,3,5,7,9,-1,-1,11,13,-1,15,-1,-1,-1,-1,-1,-1],"loss_changes":[7.006024E-1,6.601987E-1,1.061731E-1,1.9089872E-1,4.1133004E-1,0E0,0E0,1.6632132E-1,1.546731E-1,0E0,3.376164E-1,0E0,0E0,0E0,0E0,0E0,0E0],"parents":[2147483647,0,0,1,1,2,2,3,3,4,4,7,7,8,8,10,10],"right_children":[2,4,6,8,10,-1,-1,12,14,-1,16,-1,-1,-1,-1,-1,-1],"split_conditions":[1.6713938E1,5.29406E-1,7.15558E-1,-1.9386835E-2,-4.0371582E-2,1.2366233E-2,4.0996693E-2,1.1235114E-2,-4.1603107E-2,-2.1745391E-2,1.734845E-2,-1.8461894E-2,1.4289925E-2,-4.0757162E-3,-3.5859313E-2,-2.1862143E-3,3.549849E-2],"split_indices":[18,24,1,13,42,0,0,47,30,0,41,0,0,0,0,0,0],"split_type":[0,0,0,0,0,0,0,0,0,0,0,0,0,0,0,0,0],"sum_hessian":[3.0384094E1,2.362811E1,6.7559824E0,1.2789622E1,1.083849E1,3.8674114E0,2.8885713E0,4.221525E0,8.568097E0,2.0831556E0,8.755334E0,2.1119308E0,2.1095943E0,2.2944686E0,6.2736287E0,3.7552829E0,5.000051E0],"tree_param":{"num_deleted":"0","num_feature":"48","num_nodes":"17","size_leaf_vector":"1"}},{"base_weights":[-1.9591833E-2,-1.0880344E-1,3.0286103E-2,-2.2502393E-1,1.5104733E-1,-2.7605477E-1,9.545681E-3,-3.1887733E-3,2.7559003E-2,-3.262316E-1,-4.857278E-3,-3.8684018E-2,-6.5584043E-3],"categories":[],"categories_nodes":[],"categories_segments":[],"categories_sizes":[],"default_left":[0,0,0,0,0,0,0,0,0,0,0,0,0],"id":33,"left_children":[1,3,-1,5,7,9,-1,-1,-1,11,-1,-1,-1],"loss_changes":[8.797161E-1,7.5251985E-1,0E0,3.0178052E-1,1.8994029E-1,1.5291381E-1,0E0,0E0,0E0,1.6322184E-1,0E0,0E0,0E0],"parents":[2147483647,0,0,1,1,3,3,4,4,5,5,9,9],"right_children":[2,4,-1,6,8,10,-1,-1,-1,12,-1,-1,-1],"split_conditions":[2.6856869E1,4.673184E-1,3.0286103E-2,7.016809E-2,6.865916E-1,4.0337365E-2,9.545681E-3,-3.1887733E-3,2.7559003E-2,5.0003666E-2,-4.857278E-3,-3.8684018E-2,-6.5584043E-3],"split_indices":[4,2,0,41,9,38,0,0,0,11,0,0,0],"split_type":[0,0,0,0,0,0,0,0,0,0,0,0,0],"sum_hessian":[2.8435719E1,2.2792418E1,5.643302E0,1.5841291E1,6.9511266E0,1.3784912E1,2.0563786E0,3.116866E0,3.8342602E0,1.0938135E1,2.8467777E0,8.481723E0,2.4564118E0],"tree_param":{"num_deleted":"0","num_feature":"48","num_nodes":"13","size_leaf_vector":"1"}},{"base_weights":[2.7765665E-2,-6.1944354E-2,2.8876618E-1,-2.1327394E-1,1.0411107E-1,1.1081708E-2,4.1993685E-2,2.70931E-4,-3.1277854E-2,2.6346478E-1,-5.1609255E-2,5.929033E-3,3.7145685E-2,1.155178E-2,-2.3351146E-2],"categories":[],"categories_nodes":[],"categories_segments":[],"categories_sizes":[],"default_left":[0,0,0,0,0,0,0,0,0,0,0,0,0,0,0],"id":34,"left_children":[1,3,5,7,9,-1,-1,-1,-1,11,13,-1,-1,-1,-1],"loss_changes":[6.86373E-1,5.768185E-1,1.2805122E-1,2.5606418E-1,2.9140335E-1,0E0,0E0,0E0,0E0,1.03587985E-1,2.2453061E-1,0E0,0E0,0E0,0E0],"parents":[2147483647,0,0,1,1,2,2,3,3,4,4,9,9,10,10],"right_children":[2,4,6,8,10,-1,-1,-1,-1,12,14,-1,-1,-1,-1],"split_conditions":[1.6713938E1,5.29406E-1,1.9807072E1,-3.288616E-2,9.5402896E-1,1.1081708E-2,4.1993685E-2,2.70931E-4,-3.1277854E-2,2.8663367E-2,-7.872255E-1,5.929033E-3,3.7145685E-2,1.155178E-2,-2.3351146E-2],"split_indices":[18,24,0,45,24,0,0,0,0,41,15,0,0,0,0],"split_type":[0,0,0,0,0,0,0,0,0,0,0,0,0,0,0],"sum_hessian":[2.755024E1,2.1070604E1,6.4796352E0,1.08753395E1,1.0195265E1,3.5323713E0,2.9472637E0,3.7368839E0,7.1384554E0,4.696882E0,5.498383E0,2.1607327E0,2.5361493E0,3.0557678E0,2.4426153E0],"tree_param":{"num_deleted":"0","num_feature":"48","num_nodes":"15","size_leaf_vector":"1"}},{"base_weights":[1.0087432E-2,-3.887764E-2,3.92827E-2,-8.817133E-2,2.5463868E-2,1.19957505E-2,-2.0599404E-1,-1.916725E-2,1.0690116E-1,-3.6356352E-2,-6.2929064E-2,2.738595E-2,-3.704364E-2,1.4053203E-2,-2.2478806E-2,-1.6343279E-2,1.0501292E-2],"categories":[],"categories_nodes":[],"categories_segments":[],"categories_sizes":[],"default_left":[0,0,0,0,0,0,0,0,0,0,0,0,0,0,0,0,0],"id":35,"left_children":[1,3,-1,5,-1,7,9,-1,11,-1,13,-1,15,-1,-1,-1,-1],"loss_changes":[5.5726415E-1,4.0659127E-1,0E0,2.7952355E-1,0E0,2.8400904E-1,2.2152755E-1,0E0,2.4907085E-1,0E0,2.5855175E-1,0E0,1.2883244E-1,0E0,0E0,0E0,0E0],"parents":[2147483647,0,0,1,1,3,3,5,5,6,6,8,8,10,10,12,12],"right_children":[2,4,-1,6,-1,8,10,-1,12,-1,14,-1,16,-1,-1,-1,-1],"split_conditions":[2.3331526E1,7.003707E-2,3.92827E-2,7.4032084E-3,2.5463868E-2,-2.7382845E-2,-4.267528E-3,-1.916725E-2,1.2772957E-2,-3.6356352E-2,-5.065367E-3,2.738595E-2,-1.0019552E-3,1.4053203E-2,-2.2478806E-2,-1.6343279E-2,1.0501292E-2],"split_indices":[18,33,0,39,0,43,35,0,43,0,37,0,38,0,0,0,0],"split_type":[0,0,0,0,0,0,0,0,0,0,0,0,0,0,0,0,0],"sum_hessian":[2.792032E1,2.5550045E1,2.370275E0,2.2475132E1,3.0749135E0,1.2633196E1,9.841936E0,3.691523E0,8.941673E0,3.9501057E0,5.89183E0,3.722036E0,5.2196374E0,2.6688175E0,3.2230127E0,2.682507E0,2.53713E0],"tree_param":{"num_deleted":"0","num_feature":"48","num_nodes":"17","size_leaf_vector":"1"}},{"base_weights":[2.7538551E-2,-6.1275836E-2,2.9210145E-2,1.1885532E-1,-2.3586968E-1,2.0813158E-1,-1.3157313E-2,-3.1085104E-2,-5.298781E-3,3.0611202E-2,-2.077474E-3],"categories":[],"categories_nodes":[],"categories_segments":[],"categories_sizes":[],"default_left":[0,0,0,0,0,0,0,0,0,0,0],"id":36,"left_children":[1,3,-1,5,7,9,-1,-1,-1,-1,-1],"loss_changes":[6.84939E-1,7.224483E-1,0E0,2.8522342E-1,1.4187557E-1,2.0572746E-1,0E0,0E0,0E0,0E0,0E0],"parents":[2147483647,0,0,1,1,3,3,4,4,5,5],"right_children":[2,4,-1,6,8,10,-1,-1,-1,-1,-1],"split_conditions":[1.6713938E1,-2.2378265E1,2.9210145E-2,-7.2838783E-1,1.7546456E-2,8.623469E-3,-1.3157313E-2,-3.1085104E-2,-5.298781E-3,3.0611202E-2,-2.077474E-3],"split_indices":[18,0,0,15,33,13,0,0,0,0,0],"split_type":[0,0,0,0,0,0,0,0,0,0,0],"sum_hessian":[2.7388327E1,2.1080082E1,6.3082447E0,1.053264E1,1.05474415E1,7.889116E0,2.6435251E0,6.9841933E0,3.5632482E0,5.288262E0,2.600854E0],"tree_param":{"num_deleted":"0","num_feature":"48","num_nodes":"11","size_leaf_vector":"1"}},{"base_weights":[2.7444926E-3,-4.4736054E-2,3.793617E-2,-1.5222313E-1,1.03861E-1,-2.2295481E-1,9.288967E-3,-8.815033E-2,2.7823934E-2,-4.168145E-3,-2.9192245E-2,-2.3071425E-2,8.823434E-3],"categories":[],"categories_nodes":[],"categories_segments":[],"categories_sizes":[],"default_left":[0,0,0,0,0,0,0,0,0,0,0,0,0],"id":37,"left_children":[1,3,-1,5,7,9,-1,11,-1,-1,-1,-1,-1],"loss_changes":[5.0229716E-1,4.1505986E-1,0E0,2.7921152E-1,3.9572424E-1,1.3617122E-1,0E0,1.7213301E-1,0E0,0E0,0E0,0E0,0E0],"parents":[2147483647,0,0,1,1,3,3,4,4,5,5,7,7],"right_children":[2,4,-1,6,8,10,-1,12,-1,-1,-1,-1,-1],"split_conditions":[3.8558147E1,5.29406E-1,3.793617E-2,2.2944729E1,1.734845E-2,-2.9402366E-2,9.288967E-3,-2.194285E-1,2.7823934E-2,-4.168145E-3,-2.9192245E-2,-2.3071425E-2,8.823434E-3],"split_indices":[4,24,0,4,41,30,0,8,0,0,0,0,0],"split_type":[0,0,0,0,0,0,0,0,0,0,0,0,0],"sum_hessian":[2.6140491E1,2.3996449E1,2.1440427E0,1.3910177E1,1.0086272E1,1.0865222E1,3.0449548E0,5.0357733E0,5.0504985E0,3.4366786E0,7.4285436E0,2.6145391E0,2.421234E0],"tree_param":{"num_deleted":"0","num_feature":"48","num_nodes":"13","size_leaf_vector":"1"}},{"base_weights":[2.4163766E-2,-1.6050325E-1,1.2884332E-1,3.1602418E-3,-2.7498996E-2,2.1443124E-1,-2.3287153E-2,2.9337276E-2,5.433483E-3,-1.3415025E-1,1.7294338E-2,3.2248783E-3,-2.5081282E-2],"categories":[],"categories_nodes":[],"categories_segments":[],"categories_sizes":[],"default_left":[0,0,0,0,0,0,0,0,0,0,0,0,0],"id":38,"left_children":[1,3,5,-1,-1,7,9,-1,-1,11,-1,-1,-1],"loss_changes":[5.381114E-1,2.3146471E-1,2.3465028E-1,0E0,0E0,1.27954E-1,1.8097495E-1,0E0,0E0,1.08983316E-1,0E0,0E0,0E0],"parents":[2147483647,0,0,1,1,2,2,5,5,6,6,9,9],"right_children":[2,4,6,-1,-1,8,10,-1,-1,12,-1,-1,-1],"split_conditions":[-1.5888853E1,-1.5927422E1,4.8456436E-1,3.1602418E-3,-2.7498996E-2,1.1434245E-2,1.6760056E1,2.9337276E-2,5.433483E-3,-8.742155E-4,1.7294338E-2,3.2248783E-3,-2.5081282E-2],"split_indices":[14,14,6,0,0,19,18,0,0,17,0,0,0],"split_type":[0,0,0,0,0,0,0,0,0,0,0,0,0],"sum_hessian":[2.5767126E1,9.129078E0,1.6638048E1,3.6792905E0,5.4497876E0,1.0385622E1,6.252426E0,6.39825E0,3.9873717E0,4.1974077E0,2.0550184E0,2.0281599E0,2.1692479E0],"tree_param":{"num_deleted":"0","num_feature":"48","num_nodes":"13","size_leaf_vector":"1"}},{"base_weights":[-1.009176E-2,-6.0130704E-2,3.6109895E-2,-1.5419719E-1,2.1879834E-1,-2.1422829E-1,6.180646E-3,3.7647553E-2,-1.0775685E-3,-2.8578776E-1,-2.725306E-6,-5.707486E-3,-3.75424E-2],"categories":[],"categories_nodes":[],"categories_segments":[],"categories_sizes":[],"default_left":[0,0,0,0,0,0,0,0,0,0,0,0,0],"id":39,"left_children":[1,3,-1,5,7,9,-1,-1,-1,11,-1,-1,-1],"loss_changes":[4.7484958E-1,6.202975E-1,0E0,2.3762283E-1,2.2310403E-1,2.1098113E-1,0E0,0E0,0E0,1.9009715E-1,0E0,0E0,0E0],"parents":[2147483647,0,0,1,1,3,3,4,4,5,5,9,9],"right_children":[2,4,-1,6,8,10,-1,-1,-1,12,-1,-1,-1],"split_conditions":[3.47584E1,4.9167806E-1,3.6109895E-2,1.903115E1,-1.5863254E1,3.0439781E-2,6.180646E-3,3.7647553E-2,-1.0775685E-3,-3.338979E-2,-2.725306E-6,-5.707486E-3,-3.75424E-2],"split_indices":[4,3,0,4,14,32,0,0,0,12,0,0,0],"split_type":[0,0,0,0,0,0,0,0,0,0,0,0,0],"sum_hessian":[2.3396292E1,2.1355444E1,2.0408483E0,1.6304178E1,5.051266E0,1.27648325E1,3.539345E0,2.615197E0,2.4360695E0,9.3177805E0,3.4470525E0,3.0844178E0,6.2333627E0],"tree_param":{"num_deleted":"0","num_feature":"48","num_nodes":"13","size_leaf_vector":"1"}},{"base_weights":[-5.2019437E-3,-1.0064298E-1,2.737612E-2,7.129938E-2,-2.8225756E-1,2.3884618E-1,-2.0403674E-2,-7.3448084E-3,-3.8149033E-2,1.7687815E-3,3.243081E-2],"categories":[],"categories_nodes":[],"categories_segments":[],"categories_sizes":[],"default_left":[0,0,0,0,0,0,0,0,0,0,0],"id":40,"left_children":[1,3,-1,5,7,9,-1,-1,-1,-1,-1],"loss_changes":[6.832206E-1,6.1594135E-1,0E0,5.376987E-1,1.6842723E-1,1.275169E-1,0E0,0E0,0E0,0E0,0E0],"parents":[2147483647,0,0,1,1,3,3,4,4,5,5],"right_children":[2,4,-1,6,8,10,-1,-1,-1,-1,-1],"split_conditions":[1.6711912E1,-2.785239E-1,2.737612E-2,-7.5303864E-1,-2.4205977E-2,-8.119926E-1,-2.0403674E-2,-7.3448084E-3,-3.8149033E-2,1.7687815E-3,3.243081E-2],"split_indices":[18,20,0,15,30,15,0,0,0,0,0],"split_type":[0,0,0,0,0,0,0,0,0,0,0],"sum_hessian":[2.362648E1,1.8080027E1,5.546454E0,9.599336E0,8.480691E0,6.0502076E0,3.5491276E0,3.2925465E0,5.1881447E0,2.0227358E0,4.027472E0],"tree_param":{"num_deleted":"0","num_feature":"48","num_nodes":"11","size_leaf_vector":"1"}},{"base_weights":[2.160528E-2,-1.7939551E-1,1.2985735E-1,-8.858609E-3,-3.4202877E-2,5.983829E-2,3.91332E-2,1.6924744E-2,-1.6447242E-2,2.1388415E-2,-5.409359E-2,-1.4126214E-1,1.3981886E-2,-1.601635E-4,-2.7886618E-2],"categories":[],"categories_nodes":[],"categories_segments":[],"categories_sizes":[],"default_left":[0,0,0,0,0,0,0,0,0,0,0,0,0,0,0],"id":41,"left_children":[1,3,5,7,-1,9,-1,-1,-1,-1,11,13,-1,-1,-1],"loss_changes":[5.7163113E-1,2.5327596E-1,2.8708014E-1,1.8131538E-1,0E0,2.6706845E-1,0E0,0E0,0E0,0E0,1.7469454E-1,1.3064381E-1,0E0,0E0,0E0],"parents":[2147483647,0,0,1,1,2,2,3,3,5,5,10,10,11,11],"right_children":[2,4,6,8,-1,10,-1,-1,-1,-1,12,14,-1,-1,-1],"split_conditions":[-1.5888853E1,5.18256E-3,3.47584E1,-5.481659E-1,-3.4202877E-2,-2.3806749E-2,3.91332E-2,1.6924744E-2,-1.6447242E-2,2.1388415E-2,5.1799244E-1,1.2107971E-2,1.3981886E-2,-1.601635E-4,-2.7886618E-2],"split_indices":[14,28,4,20,0,17,0,0,0,0,3,31,0,0,0],"split_type":[0,0,0,0,0,0,0,0,0,0,0,0,0,0,0],"sum_hessian":[2.420068E1,8.241251E0,1.595943E1,4.537601E0,3.7036495E0,1.3557721E1,2.4017088E0,2.075033E0,2.4625678E0,5.391136E0,8.166585E0,5.8212857E0,2.3452992E0,3.3911226E0,2.4301631E0],"tree_param":{"num_deleted":"0","num_feature":"48","num_nodes":"15","size_leaf_vector":"1"}},{"base_weights":[1.9749878E-2,-7.3227085E-2,2.8616596E-2,6.602139E-2,-2.2444448E-2,-1.6791286E-2,1.6792849E-1,2.5028044E-2,-3.7180644E-4],"categories":[],"categories_nodes":[],"categories_segments":[],"categories_sizes":[],"default_left":[0,0,0,0,0,0,0,0,0],"id":42,"left_children":[1,3,-1,5,-1,-1,7,-1,-1],"loss_changes":[6.4911985E-1,4.274255E-1,0E0,2.898105E-1,0E0,0E0,1.16049245E-1,0E0,0E0],"parents":[2147483647,0,0,1,1,3,3,6,6],"right_children":[2,4,-1,6,-1,-1,8,-1,-1],"split_conditions":[1.6713938E1,-2.785239E-1,2.8616596E-2,-1.0888866E-2,-2.2444448E-2,-1.6791286E-2,-1.9468725E1,2.5028044E-2,-3.7180644E-4],"split_indices":[18,20,0,41,0,0,16,0,0],"split_type":[0,0,0,0,0,0,0,0,0],"sum_hessian":[2.4359333E1,1.8594982E1,5.764352E0,9.97391E0,8.621072E0,2.8299267E0,7.1439834E0,4.5181613E0,2.625822E0],"tree_param":{"num_deleted":"0","num_feature":"48","num_nodes":"9","size_leaf_vector":"1"}},{"base_weights":[-2.0743866E-2,-1.0754353E-1,2.5191788E-2,5.6823723E-2,-2.3906764E-1,-1.17894895E-1,2.4703939E-2,2.1117672E-3,-3.2497186E-2,7.268147E-3,-2.5402052E-2],"categories":[],"categories_nodes":[],"categories_segments":[],"categories_sizes":[],"default_left":[0,0,0,0,0,0,0,0,0,0,0],"id":43,"left_children":[1,3,-1,5,7,9,-1,-1,-1,-1,-1],"loss_changes":[5.77111E-1,4.0982562E-1,0E0,3.267444E-1,2.3872703E-1,1.571164E-1,0E0,0E0,0E0,0E0,0E0],"parents":[2147483647,0,0,1,1,3,3,4,4,5,5],"right_children":[2,4,-1,6,8,10,-1,-1,-1,-1,-1],"split_conditions":[1.6713938E1,-7.6768594E-3,2.5191788E-2,1.734845E-2,-1.0886883E0,-2.3612559E-2,2.4703939E-2,2.1117672E-3,-3.2497186E-2,7.268147E-3,-2.5402052E-2],"split_indices":[18,13,0,41,21,41,0,0,0,0,0],"split_type":[0,0,0,0,0,0,0,0,0,0,0],"sum_hessian":[2.223996E1,1.7328995E1,4.9109664E0,7.95522E0,9.373774E0,4.344695E0,3.6105251E0,2.5138965E0,6.8598776E0,2.0044825E0,2.3402128E0],"tree_param":{"num_deleted":"0","num_feature":"48","num_nodes":"11","size_leaf_vector":"1"}},{"base_weights":[-2.7747853E-2,-1.24332145E-1,2.3392642E-2,-2.7854426E-2,9.251089E-3,-1.1907347E-1,1.8798633E-2,4.8613027E-3,-2.152734E-2],"categories":[],"categories_nodes":[],"categories_segments":[],"categories_sizes":[],"default_left":[0,0,0,0,0,0,0,0,0],"id":44,"left_children":[1,3,-1,-1,5,7,-1,-1,-1],"loss_changes":[5.686142E-1,3.3723295E-1,0E0,0E0,2.4423939E-1,1.1116689E-1,0E0,0E0,0E0],"parents":[2147483647,0,0,1,1,4,4,5,5],"right_children":[2,4,-1,-1,6,8,-1,-1,-1],"split_conditions":[1.6710175E1,-3.8805813E-1,2.3392642E-2,-2.7854426E-2,1.734845E-2,6.184744E-1,1.8798633E-2,4.8613027E-3,-2.152734E-2],"split_indices":[18,2,0,0,41,23,0,0,0],"split_type":[0,0,0,0,0,0,0,0,0],"sum_hessian":[2.0347538E1,1.5245328E1,5.10221E0,6.5725846E0,8.672743E0,5.2425833E0,3.4301598E0,2.0915174E0,3.1510658E0],"tree_param":{"num_deleted":"0","num_feature":"48","num_nodes":"9","size_leaf_vector":"1"}},{"base_weights":[-1.9023687E-2,-7.306423E-2,3.4917347E-2,-2.2769241E-1,6.130672E-2,-2.9094693E-1,5.805604E-4,1.7749235E-1,-1.4128834E-2,-4.75123E-3,-3.8311794E-2,3.0878201E-2,-7.536124E-3],"categories":[],"categories_nodes":[],"categories_segments":[],"categories_sizes":[],"default_left":[0,0,0,0,0,0,0,0,0,0,0,0,0],"id":45,"left_children":[1,3,-1,5,7,9,-1,11,-1,-1,-1,-1,-1],"loss_changes":[4.6969658E-1,4.35606E-1,0E0,1.4418232E-1,2.9920366E-1,1.5256381E-1,0E0,2.8368387E-1,0E0,0E0,0E0,0E0,0E0],"parents":[2147483647,0,0,1,1,3,3,4,4,5,5,7,7],"right_children":[2,4,-1,6,8,10,-1,12,-1,-1,-1,-1,-1],"split_conditions":[2.3062773E1,-3.8004157E-1,3.4917347E-2,-1.5818869E1,-7.5303864E-1,-3.1715162E-2,5.805604E-4,8.623469E-3,-1.4128834E-2,-4.75123E-3,-3.8311794E-2,3.0878201E-2,-7.536124E-3],"split_indices":[18,2,0,14,15,30,0,13,0,0,0,0,0],"split_type":[0,0,0,0,0,0,0,0,0,0,0,0,0],"sum_hessian":[2.1323547E1,1.9293404E1,2.0301437E0,8.647609E0,1.0645794E1,6.610729E0,2.03688E0,6.84448E0,3.8013144E0,2.2317884E0,4.3789406E0,4.359631E0,2.484849E0],"tree_param":{"num_deleted":"0","num_feature":"48","num_nodes":"13","size_leaf_vector":"1"}},{"base_weights":[6.8788654E-3,-4.5500606E-2,3.6771428E-2,-1.8095426E-1,8.6842805E-2,-2.3495482E-2,1.2736622E-3,-9.737123E-3,2.9988915E-2,1.521942E-2,-1.0995711E-2],"categories":[],"categories_nodes":[],"categories_segments":[],"categories_sizes":[],"default_left":[0,0,0,0,0,0,0,0,0,0,0],"id":46,"left_children":[1,3,-1,5,7,-1,-1,9,-1,-1,-1],"loss_changes":[4.4790974E-1,3.887862E-1,0E0,1.13957345E-1,2.3341686E-1,0E0,0E0,1.5754403E-1,0E0,0E0,0E0],"parents":[2147483647,0,0,1,1,3,3,4,4,7,7],"right_children":[2,4,-1,6,8,-1,-1,10,-1,-1,-1],"split_conditions":[3.8558147E1,-3.8004157E-1,3.6771428E-2,3.5767507E-2,4.437262E-2,-2.3495482E-2,1.2736622E-3,-2.4802316E-2,2.9988915E-2,1.521942E-2,-1.0995711E-2],"split_indices":[4,2,0,26,26,0,0,33,0,0,0],"split_type":[0,0,0,0,0,0,0,0,0,0,0],"sum_hessian":[2.1813236E1,1.9811296E1,2.001939E0,9.609081E0,1.0202215E1,7.3475595E0,2.2615223E0,7.676525E0,2.5256903E0,2.7364616E0,4.9400635E0],"tree_param":{"num_deleted":"0","num_feature":"48","num_nodes":"11","size_leaf_vector":"1"}},{"base_weights":[1.4339015E-3,-4.9553875E-2,3.467569E-2,-1.237455E-1,1.4750563E-2,2.6579562E-3,-1.8552218E-1,1.3733482E-3,-2.6120737E-2],"categories":[],"categories_nodes":[],"categories_segments":[],"categories_sizes":[],"default_left":[0,0,0,0,0,0,0,0,0],"id":47,"left_children":[1,3,-1,5,-1,-1,7,-1,-1],"loss_changes":[4.111582E-1,3.160939E-1,0E0,1.4742126E-1,0E0,0E0,1.6947481E-1,0E0,0E0],"parents":[2147483647,0,0,1,1,3,3,6,6],"right_children":[2,4,-1,6,-1,-1,8,-1,-1],"split_conditions":[2.3072632E1,4.673184E-1,3.467569E-2,-2.4842385E-2,1.4750563E-2,2.6579562E-3,-3.1715162E-2,1.3733482E-3,-2.6120737E-2],"split_indices":[18,2,0,13,0,0,30,0,0],"split_type":[0,0,0,0,0,0,0,0,0],"sum_hessian":[2.1375725E1,1.9371914E1,2.0038102E0,1.4343659E1,5.028255E0,4.343674E0,9.999986E0,2.9781039E0,7.021881E0],"tree_param":{"num_deleted":"0","num_feature":"48","num_nodes":"9","size_leaf_vector":"1"}},{"base_weights":[2.7962798E-2,-3.781452E-2,2.2852153E-2,-1.3663861E-2,7.605039E-2,-8.3122E-3,2.0474615E-2],"categories":[],"categories_nodes":[],"categories_segments":[],"categories_sizes":[],"default_left":[0,0,0,0,0,0,0],"id":48,"left_children":[1,3,-1,-1,5,-1,-1],"loss_changes":[2.957482E-1,2.0445873E-1,0E0,0E0,1.943323E-1,0E0,0E0],"parents":[2147483647,0,0,1,1,4,4],"right_children":[2,4,-1,-1,6,-1,-1],"split_conditions":[1.6713938E1,5.29406E-1,2.2852153E-2,-1.3663861E-2,1.734845E-2,-8.3122E-3,2.0474615E-2],"split_indices":[18,24,0,0,41,0,0],"split_type":[0,0,0,0,0,0,0],"sum_hessian":[2.0763348E1,1.6246449E1,4.5168996E0,8.590603E0,7.6558456E0,3.580975E0,4.0748706E0],"tree_param":{"num_deleted":"0","num_feature":"48","num_nodes":"7","size_leaf_vector":"1"}},{"base_weights":[-1.8505849E-2,-9.236546E-2,2.395645E-2,6.654359E-2,-2.2184866E-2,2.0852862E-2,-5.33909E-2,-2.391333E-2,1.460273E-2],"categories":[],"categories_nodes":[],"categories_segments":[],"categories_sizes":[],"default_left":[0,0,0,0,0,0,0,0,0],"id":49,"left_children":[1,3,-1,5,-1,-1,7,-1,-1],"loss_changes":[4.2284927E-1,3.6593214E-1,0E0,1.5472138E-1,0E0,0E0,2.3371953E-1,0E0,0E0],"parents":[2147483647,0,0,1,1,3,3,6,6],"right_children":[2,4,-1,6,-1,-1,8,-1,-1],"split_conditions":[2.6816109E1,-5.449114E-1,2.395645E-2,-7.801907E-1,-2.2184866E-2,2.0852862E-2,1.9046403E-2,-2.391333E-2,1.460273E-2],"split_indices":[4,20,0,15,0,0,25,0,0],"split_type":[0,0,0,0,0,0,0,0,0],"sum_hessian":[2.0023153E1,1.6066904E1,3.9562485E0,7.432009E0,8.634895E0,3.0649116E0,4.367098E0,2.1579666E0,2.2091312E0],"tree_param":{"num_deleted":"0","num_feature":"48","num_nodes":"9","size_leaf_vector":"1"}},{"base_weights":[2.5805373E-2,-5.176402E-2,2.5525669E-2,6.980699E-2,-1.7270342E-1,-1.1744466E-2,1.618349E-1,3.0125482E-3,-2.4123406E-1,3.0339265E-2,1.6984564E-3,-4.1290224E-3,-3.4349144E-2],"categories":[],"categories_nodes":[],"categories_segments":[],"categories_sizes":[],"default_left":[0,0,0,0,0,0,0,0,0,0,0,0,0],"id":50,"left_children":[1,3,-1,5,7,-1,9,-1,11,-1,-1,-1,-1],"loss_changes":[3.7898177E-1,2.5009134E-1,0E0,1.7041047E-1,1.24081194E-1,0E0,1.2425986E-1,0E0,1.1651713E-1,0E0,0E0,0E0,0E0],"parents":[2147483647,0,0,1,1,3,3,4,4,6,6,8,8],"right_children":[2,4,-1,6,8,-1,10,-1,12,-1,-1,-1,-1],"split_conditions":[1.6713938E1,-2.2337357E1,2.5525669E-2,-1.0888866E-2,-3.430296E-2,-1.1744466E-2,-7.765847E-1,3.0125482E-3,-1.136927E-2,3.0339265E-2,1.6984564E-3,-4.1290224E-3,-3.4349144E-2],"split_indices":[18,0,0,41,31,0,21,0,27,0,0,0,0],"split_type":[0,0,0,0,0,0,0,0,0,0,0,0,0],"sum_hessian":[1.9550652E1,1.5189887E1,4.360764E0,7.786009E0,7.403878E0,2.4746292E0,5.3113794E0,2.0113456E0,5.392533E0,2.132666E0,3.1787133E0,2.2997053E0,3.0928273E0],"tree_param":{"num_deleted":"0","num_feature":"48","num_nodes":"13","size_leaf_vector":"1"}},{"base_weights":[-3.862744E-2,-8.9021735E-2,2.1351833E-2,6.4461485E-2,-2.3245946E-1,2.1443656E-2,-2.6610447E-2,-2.5675378E-3,-2.9154817E-2,-1.4000446E-2,1.5805254E-2],"categories":[],"categories_nodes":[],"categories_segments":[],"categories_sizes":[],"default_left":[0,0,0,0,0,0,0,0,0,0,0],"id":51,"left_children":[1,3,-1,5,7,-1,9,-1,-1,-1,-1],"loss_changes":[2.7942345E-1,4.0655607E-1,0E0,1.3375753E-1,1.0750538E-1,0E0,1.6289881E-1,0E0,0E0,0E0,0E0],"parents":[2147483647,0,0,1,1,3,3,4,4,6,6],"right_children":[2,4,-1,6,8,-1,10,-1,-1,-1,-1],"split_conditions":[2.6922714E1,-2.2378265E1,2.1351833E-2,-2.910466E-2,-3.447495E-2,2.1443656E-2,2.5539232E-2,-2.5675378E-3,-2.9154817E-2,-1.4000446E-2,1.5805254E-2],"split_indices":[4,0,0,33,25,0,26,0,0,0,0],"split_type":[0,0,0,0,0,0,0,0,0,0,0],"sum_hessian":[1.9494347E1,1.678634E1,2.7080045E0,8.3751955E0,8.411146E0,2.6525145E0,5.7226806E0,2.1881435E0,6.223003E0,3.6953533E0,2.0273275E0],"tree_param":{"num_deleted":"0","num_feature":"48","num_nodes":"11","size_leaf_vector":"1"}},{"base_weights":[1.1536518E-2,-5.427672E-2,2.2100996E-2,-1.20962024E-1,1.9607347E-2,9.776604E-3,-1.7267394E-1,-2.2675088E-2,4.2125317E-3],"categories":[],"categories_nodes":[],"categories_segments":[],"categories_sizes":[],"default_left":[0,0,0,0,0,0,0,0,0],"id":52,"left_children":[1,3,-1,5,-1,-1,7,-1,-1],"loss_changes":[2.8394607E-1,2.8771368E-1,0E0,1.6511607E-1,0E0,0E0,1.3687208E-1,0E0,0E0],"parents":[2147483647,0,0,1,1,3,3,6,6],"right_children":[2,4,-1,6,-1,-1,8,-1,-1],"split_conditions":[2.6816109E1,1.0003263E0,2.2100996E-2,-5.615246E-2,1.9607347E-2,9.776604E-3,5.2509803E-2,-2.2675088E-2,4.2125317E-3],"split_indices":[4,23,0,26,0,0,26,0,0],"split_type":[0,0,0,0,0,0,0,0,0],"sum_hessian":[1.8726381E1,1.4813198E1,3.9131827E0,1.2105506E1,2.7076921E0,2.1444492E0,9.961057E0,7.913219E0,2.047838E0],"tree_param":{"num_deleted":"0","num_feature":"48","num_nodes":"9","size_leaf_vector":"1"}},{"base_weights":[-6.2394645E-3,-7.8786395E-2,2.1556957E-2,-1.9220066E-1,6.410008E-2,-2.5662888E-2,-1.0181207E-3,1.8168611E-2,-1.2132302E-2],"categories":[],"categories_nodes":[],"categories_segments":[],"categories_sizes":[],"default_left":[0,0,0,0,0,0,0,0,0],"id":53,"left_children":[1,3,-1,5,7,-1,-1,-1,-1],"loss_changes":[3.4388396E-1,2.7226233E-1,0E0,1.05190605E-1,1.9315183E-1,0E0,0E0,0E0,0E0],"parents":[2147483647,0,0,1,1,3,3,4,4],"right_children":[2,4,-1,6,8,-1,-1,-1,-1],"split_conditions":[1.6697744E1,-4.756387E-2,2.1556957E-2,2.6878854E-2,1.8048557E-2,-2.5662888E-2,-1.0181207E-3,1.8168611E-2,-1.2132302E-2],"split_indices":[18,3,0,32,11,0,0,0,0],"split_type":[0,0,0,0,0,0,0,0,0],"sum_hessian":[1.9314997E1,1.5040507E1,4.2744884E0,8.192606E0,6.8479023E0,5.7480936E0,2.4445121E0,4.2028313E0,2.645071E0],"tree_param":{"num_deleted":"0","num_feature":"48","num_nodes":"9","size_leaf_vector":"1"}},{"base_weights":[-2.0552786E-4,-5.6508534E-2,3.0724594E-2,-1.7017981E-1,5.5716284E-2,-2.5783276E-2,-1.0609647E-3,1.3959342E-1,-1.6303873E-2,2.438788E-2,-6.4485045E-3],"categories":[],"categories_nodes":[],"categories_segments":[],"categories_sizes":[],"default_left":[0,0,0,0,0,0,0,0,0,0,0],"id":54,"left_children":[1,3,-1,5,7,-1,-1,9,-1,-1,-1],"loss_changes":[3.433879E-1,2.2332962E-1,0E0,1.171976E-1,1.9135994E-1,0E0,0E0,1.6855055E-1,0E0,0E0,0E0],"parents":[2147483647,0,0,1,1,3,3,4,4,7,7],"right_children":[2,4,-1,6,8,-1,-1,10,-1,-1,-1],"split_conditions":[3.472046E1,-3.8004157E-1,3.0724594E-2,8.599916E-3,2.1087019E-2,-2.5783276E-2,-1.0609647E-3,-7.2838783E-1,-1.6303873E-2,2.438788E-2,-6.4485045E-3],"split_indices":[4,2,0,29,28,0,0,15,0,0,0],"split_type":[0,0,0,0,0,0,0,0,0,0,0],"sum_hessian":[1.7834059E1,1.5763519E1,2.07054E0,7.574735E0,8.188785E0,4.4916472E0,3.0830874E0,6.1807685E0,2.0080159E0,3.9614289E0,2.2193396E0],"tree_param":{"num_deleted":"0","num_feature":"48","num_nodes":"11","size_leaf_vector":"1"}},{"base_weights":[-3.5134857E-3,-7.255763E-2,2.1585578E-2,-1.7283704E-2,6.95026E-2,2.0809049E-2,-1.0504965E-2],"categories":[],"categories_nodes":[],"categories_segments":[],"categories_sizes":[],"default_left":[0,0,0,0,0,0,0],"id":55,"left_children":[1,3,-1,-1,5,-1,-1],"loss_changes":[2.8832594E-1,2.1773511E-1,0E0,0E0,1.8366858E-1,0E0,0E0],"parents":[2147483647,0,0,1,1,4,4],"right_children":[2,4,-1,-1,6,-1,-1],"split_conditions":[2.2958307E1,1.9715333E-2,2.1585578E-2,-1.7283704E-2,-7.6768594E-3,2.0809049E-2,-1.0504965E-2],"split_indices":[4,41,0,0,13,0,0],"split_type":[0,0,0,0,0,0,0],"sum_hessian":[1.7002182E1,1.344101E1,3.5611708E0,7.7521625E0,5.688848E0,3.064005E0,2.624843E0],"tree_param":{"num_deleted":"0","num_feature":"48","num_nodes":"7","size_leaf_vector":"1"}},{"base_weights":[-6.40399E-5,-2.3852745E-2,6.237761E-2,1.4287318E-1,-5.744472E-2,-8.35266E-3,2.1590022E-2,-1.637611E-2,1.34099005E-2],"categories":[],"categories_nodes":[],"categories_segments":[],"categories_sizes":[],"default_left":[0,0,0,0,0,0,0,0,0],"id":56,"left_children":[1,-1,3,5,7,-1,-1,-1,-1],"loss_changes":[2.8874215E-1,0E0,1.5643832E-1,1.7476179E-1,1.6224667E-1,0E0,0E0,0E0,0E0],"parents":[2147483647,0,0,2,2,3,3,4,4],"right_children":[2,-1,4,6,8,-1,-1,-1,-1],"split_conditions":[-1.9385334E1,-2.3852745E-2,4.7392435E-3,-2.8039845E1,-1.92752E1,-8.35266E-3,2.1590022E-2,-1.637611E-2,1.34099005E-2],"split_indices":[18,0,13,4,18,0,0,0,0],"split_type":[0,0,0,0,0,0,0,0,0],"sum_hessian":[1.7392376E1,3.0239532E0,1.43684225E1,8.479557E0,5.888866E0,2.0330086E0,6.446548E0,3.8802042E0,2.008662E0],"tree_param":{"num_deleted":"0","num_feature":"48","num_nodes":"9","size_leaf_vector":"1"}},{"base_weights":[-5.292376E-3,-6.54805E-2,2.2476774E-2,2.0842047E-2,-1.7759378E-1,1.589433E-2,-7.721506E-2,-2.709192E-2,2.5807503E-3,5.542269E-3,-1.85062E-2],"categories":[],"categories_nodes":[],"categories_segments":[],"categories_sizes":[],"default_left":[0,0,0,0,0,0,0,0,0,0,0],"id":57,"left_children":[1,3,-1,5,7,-1,9,-1,-1,-1,-1],"loss_changes":[2.718618E-1,1.5365076E-1,0E0,1.4293559E-1,1.3692985E-1,0E0,1.0059729E-1,0E0,0E0,0E0,0E0],"parents":[2147483647,0,0,1,1,3,3,4,4,6,6],"right_children":[2,4,-1,6,8,-1,10,-1,-1,-1,-1],"split_conditions":[2.6865238E1,-7.6618207E-1,2.2476774E-2,-1.9200085E-2,2.8031675E-2,1.589433E-2,-1.9369051E1,-2.709192E-2,2.5807503E-3,5.542269E-3,-1.85062E-2],"split_indices":[4,15,0,13,41,0,18,0,0,0,0],"split_type":[0,0,0,0,0,0,0,0,0,0,0],"sum_hessian":[1.757052E1,1.4493991E1,3.076529E0,8.648842E0,5.8451495E0,3.3333323E0,5.3155093E0,3.7792115E0,2.0659378E0,2.601769E0,2.71374E0],"tree_param":{"num_deleted":"0","num_feature":"48","num_nodes":"11","size_leaf_vector":"1"}},{"base_weights":[-1.6910853E-2,-9.204337E-2,2.129736E-2,-1.9417828E-1,1.0220517E-2,-2.6491463E-2,2.1064335E-4],"categories":[],"categories_nodes":[],"categories_segments":[],"categories_sizes":[],"default_left":[0,0,0,0,0,0,0],"id":58,"left_children":[1,3,-1,5,-1,-1,-1],"loss_changes":[3.1221694E-1,2.8702214E-1,0E0,1.2789181E-1,0E0,0E0,0E0],"parents":[2147483647,0,0,1,1,3,3],"right_children":[2,4,-1,6,-1,-1,-1],"split_conditions":[1.6713938E1,6.9644207E-1,2.129736E-2,2.3924604E-2,1.0220517E-2,-2.6491463E-2,2.1064335E-4],"split_indices":[18,24,0,26,0,0,0],"split_type":[0,0,0,0,0,0,0],"sum_hessian":[1.59417305E1,1.2466838E1,3.474893E0,8.170953E0,4.2958846E0,5.749371E0,2.421582E0],"tree_param":{"num_deleted":"0","num_feature":"48","num_nodes":"7","size_leaf_vector":"1"}},{"base_weights":[-2.0278022E-3,-8.057218E-2,2.288298E-2,4.9755413E-2,-2.1012058E-2,1.4890845E-2,-1.4273425E-2],"categories":[],"categories_nodes":[],"categories_segments":[],"categories_sizes":[],"default_left":[0,0,0,0,0,0,0],"id":59,"left_children":[1,3,-1,5,-1,-1,-1],"loss_changes":[3.4937477E-1,2.5286132E-1,0E0,1.7328763E-1,0E0,0E0,0E0],"parents":[2147483647,0,0,1,1,3,3],"right_children":[2,4,-1,6,-1,-1,-1],"split_conditions":[1.6713938E1,-2.785239E-1,2.288298E-2,-7.5303864E-1,-2.1012058E-2,1.4890845E-2,-1.4273425E-2],"split_indices":[18,20,0,15,0,0,0],"split_type":[0,0,0,0,0,0,0],"sum_hessian":[1.7251E1,1.3357412E1,3.8935874E0,6.965724E0,6.3916883E0,4.746942E0,2.2187817E0],"tree_param":{"num_deleted":"0","num_feature":"48","num_nodes":"7","size_leaf_vector":"1"}},{"base_weights":[1.927984E-2,-3.9218795E-2,2.0250367E-2,-1.4827421E-1,6.364266E-2,3.685973E-3,-2.2865545E-2,2.2447525E-2,-3.0013725E-2,8.493319E-3,-1.7051367E-2],"categories":[],"categories_nodes":[],"categories_segments":[],"categories_sizes":[],"default_left":[0,0,0,0,0,0,0,0,0,0,0],"id":60,"left_children":[1,3,-1,5,7,-1,-1,-1,9,-1,-1],"loss_changes":[2.0044233E-1,1.7154458E-1,0E0,1.17280915E-1,1.292972E-1,0E0,0E0,0E0,1.11772984E-1,0E0,0E0],"parents":[2147483647,0,0,1,1,3,3,4,4,8,8],"right_children":[2,4,-1,6,8,-1,-1,-1,10,-1,-1],"split_conditions":[1.6713938E1,-3.8004157E-1,2.0250367E-2,-3.288616E-2,-3.0364595E-2,3.685973E-3,-2.2865545E-2,2.2447525E-2,-1.9338428E1,8.493319E-3,-1.7051367E-2],"split_indices":[18,2,0,45,33,0,0,0,18,0,0],"split_type":[0,0,0,0,0,0,0,0,0,0,0],"sum_hessian":[1.69599E1,1.3451222E1,3.5086765E0,6.3147383E0,7.1364846E0,2.0756173E0,4.239121E0,2.1123056E0,5.024179E0,2.9809082E0,2.0432706E0],"tree_param":{"num_deleted":"0","num_feature":"48","num_nodes":"11","size_leaf_vector":"1"}},{"base_weights":[-1.2712157E-2,-7.144332E-2,2.1960726E-2,9.402334E-3,-2.3152148E-2,9.610011E-2,-2.0483954E-2,1.9906348E-2,-1.21983765E-2],"categories":[],"categories_nodes":[],"categories_segments":[],"categories_sizes":[],"default_left":[0,0,0,0,0,0,0,0,0],"id":61,"left_children":[1,3,-1,5,-1,7,-1,-1,-1],"loss_changes":[2.4997896E-1,1.8932167E-1,0E0,2.1599974E-1,0E0,2.085219E-1,0E0,0E0,0E0],"parents":[2147483647,0,0,1,1,3,3,5,5],"right_children":[2,4,-1,6,-1,8,-1,-1,-1],"split_conditions":[2.6922714E1,2.2257918E-2,2.1960726E-2,3.5110984E-2,-2.3152148E-2,1.1981436E-2,-2.0483954E-2,1.9906348E-2,-1.21983765E-2],"split_indices":[4,46,0,17,0,36,0,0,0],"split_type":[0,0,0,0,0,0,0,0,0],"sum_hessian":[1.6171122E1,1.346069E1,2.7104316E0,9.569159E0,3.891531E0,7.204954E0,2.364205E0,4.9534907E0,2.251463E0],"tree_param":{"num_deleted":"0","num_feature":"48","num_nodes":"9","size_leaf_vector":"1"}},{"base_weights":[-1.7626311E-3,-5.537124E-2,2.5086826E-2,-2.039217E-1,6.933282E-2,-1.7194961E-3,-2.8593246E-2,1.4754074E-2,-8.052674E-3],"categories":[],"categories_nodes":[],"categories_segments":[],"categories_sizes":[],"default_left":[0,0,0,0,0,0,0,0,0],"id":62,"left_children":[1,3,-1,5,7,-1,-1,-1,-1],"loss_changes":[2.3946051E-1,2.8384414E-1,0E0,1.0071692E-1,1.1339092E-1,0E0,0E0,0E0,0E0],"parents":[2147483647,0,0,1,1,3,3,4,4],"right_children":[2,4,-1,6,8,-1,-1,-1,-1],"split_conditions":[3.0821266E1,-3.8805813E-1,2.5086826E-2,-2.4933988E-2,1.0296293E-2,-1.7194961E-3,-2.8593246E-2,1.4754074E-2,-8.052674E-3],"split_indices":[4,2,0,30,28,0,0,0,0],"split_type":[0,0,0,0,0,0,0,0,0],"sum_hessian":[1.5655576E1,1.3559132E1,2.0964441E0,5.8980217E0,7.66111E0,2.1690567E0,3.7289653E0,5.0441628E0,2.6169474E0],"tree_param":{"num_deleted":"0","num_feature":"48","num_nodes":"9","size_leaf_vector":"1"}},{"base_weights":[2.1443615E-2,-3.2975715E-2,1.9757433E-2,-1.651599E-2,1.22918755E-1,2.3375472E-2,-2.0086942E-3],"categories":[],"categories_nodes":[],"categories_segments":[],"categories_sizes":[],"default_left":[0,0,0,0,0,0,0],"id":63,"left_children":[1,3,-1,-1,5,-1,-1],"loss_changes":[1.6407289E-1,2.9674113E-1,0E0,0E0,1.1134731E-1,0E0,0E0],"parents":[2147483647,0,0,1,1,4,4],"right_children":[2,4,-1,-1,6,-1,-1],"split_conditions":[1.6760056E1,4.6211767E-1,1.9757433E-2,-1.651599E-2,-2.466713E-2,2.3375472E-2,-2.0086942E-3],"split_indices":[18,24,0,0,7,0,0],"split_type":[0,0,0,0,0,0,0],"sum_hessian":[1.5438092E1,1.2414993E1,3.023099E0,6.6862407E0,5.728752E0,2.8698802E0,2.858872E0],"tree_param":{"num_deleted":"0","num_feature":"48","num_nodes":"7","size_leaf_vector":"1"}},{"base_weights":[1.1684485E-2,-4.105285E-2,2.646331E-2,-1.1360185E-1,1.3505958E-2,7.851786E-3,-1.9470004E-2],"categories":[],"categories_nodes":[],"categories_segments":[],"categories_sizes":[],"default_left":[0,0,0,0,0,0,0],"id":64,"left_children":[1,3,-1,5,-1,-1,-1],"loss_changes":[2.343723E-1,2.035459E-1,0E0,1.8629344E-1,0E0,0E0,0E0],"parents":[2147483647,0,0,1,1,3,3],"right_children":[2,4,-1,6,-1,-1,-1],"split_conditions":[2.2518906E1,4.673184E-1,2.646331E-2,-2.823861E-2,1.3505958E-2,7.851786E-3,-1.9470004E-2],"split_indices":[18,2,0,30,0,0,0],"split_type":[0,0,0,0,0,0,0],"sum_hessian":[1.5754956E1,1.3730072E1,2.0248845E0,9.9756E0,3.7544718E0,2.9704626E0,7.0051374E0],"tree_param":{"num_deleted":"0","num_feature":"48","num_nodes":"7","size_leaf_vector":"1"}},{"base_weights":[1.1640512E-2,-1.3034466E-1,1.00534465E-2,-3.9756924E-4,-2.569279E-2],"categories":[],"categories_nodes":[],"categories_segments":[],"categories_sizes":[],"default_left":[0,0,0,0,0],"id":65,"left_children":[1,3,-1,-1,-1],"loss_changes":[2.2645839E-1,1.1005341E-1,0E0,0E0,0E0],"parents":[2147483647,0,0,1,1],"right_children":[2,4,-1,-1,-1],"split_conditions":[-1.5890017E1,7.984776E-3,1.00534465E-2,-3.9756924E-4,-2.569279E-2],"split_indices":[14,36,0,0,0],"split_type":[0,0,0,0,0],"sum_hessian":[1.5903869E1,5.943833E0,9.960035E0,3.4905746E0,2.4532583E0],"tree_param":{"num_deleted":"0","num_feature":"48","num_nodes":"5","size_leaf_vector":"1"}},{"base_weights":[3.2389067E-2,-1.7743325E-2,2.1286217E-2,-1.4948721E-2,5.3803712E-2,2.1855202E-2,-6.587458E-3],"categories":[],"categories_nodes":[],"categories_segments":[],"categories_sizes":[],"default_left":[0,0,0,0,0,0,0],"id":66,"left_children":[1,3,-1,-1,5,-1,-1],"loss_changes":[1.567907E-1,1.4150055E-1,0E0,0E0,2.0980856E-1,0E0,0E0],"parents":[2147483647,0,0,1,1,4,4],"right_children":[2,4,-1,-1,6,-1,-1],"split_conditions":[2.6865238E1,-1.8526522E-2,2.1286217E-2,-1.4948721E-2,-6.637477E-1,2.1855202E-2,-6.587458E-3],"split_indices":[4,43,0,0,21,0,0],"split_type":[0,0,0,0,0,0,0],"sum_hessian":[1.5912186E1,1.3158626E1,2.7535603E0,4.247708E0,8.910917E0,3.4018257E0,5.509092E0],"tree_param":{"num_deleted":"0","num_feature":"48","num_nodes":"7","size_leaf_vector":"1"}},{"base_weights":[-4.3000415E-2,-2.0314313E-2,3.2453846E-2,1.0197171E-2,-8.17139E-3],"categories":[],"categories_nodes":[],"categories_segments":[],"categories_sizes":[],"default_left":[0,0,0,0,0],"id":67,"left_children":[1,-1,3,-1,-1],"loss_changes":[2.0013504E-1,0E0,1.0158554E-1,0E0,0E0],"parents":[2147483647,0,0,2,2],"right_children":[2,-1,4,-1,-1],"split_conditions":[-1.589965E1,-2.0314313E-2,6.0198325E-1,1.0197171E-2,-8.17139E-3],"split_indices":[14,0,21,0,0],"split_type":[0,0,0,0,0],"sum_hessian":[1.5017135E1,4.2675333E0,1.0749601E1,6.747691E0,4.0019107E0],"tree_param":{"num_deleted":"0","num_feature":"48","num_nodes":"5","size_leaf_vector":"1"}},{"base_weights":[1.4458387E-2,-1.8454924E-2,6.6432975E-2,1.6290108E-2,-1.6563043E-2,-1.0501487E-2,1.6342586E-2],"categories":[],"categories_nodes":[],"categories_segments":[],"categories_sizes":[],"default_left":[0,0,0,0,0,0,0],"id":68,"left_children":[1,-1,3,-1,5,-1,-1],"loss_changes":[1.8120366E-1,0E0,1.1227813E-1,0E0,1.4873797E-1,0E0,0E0],"parents":[2147483647,0,0,2,2,4,4],"right_children":[2,-1,4,-1,6,-1,-1],"split_conditions":[-1.9385334E1,-1.8454924E-2,-2.0757524E-2,1.6290108E-2,4.403647E-2,-1.0501487E-2,1.6342586E-2],"split_indices":[18,0,28,0,26,0,0],"split_type":[0,0,0,0,0,0,0],"sum_hessian":[1.5333556E1,2.6471221E0,1.2686435E1,5.4217997E0,7.2646346E0,5.1502156E0,2.114419E0],"tree_param":{"num_deleted":"0","num_feature":"48","num_nodes":"7","size_leaf_vector":"1"}},{"base_weights":[-8.207478E-3,-7.357338E-2,1.6592225E-2,-1.8166594E-2,1.3711025E-2],"categories":[],"categories_nodes":[],"categories_segments":[],"categories_sizes":[],"default_left":[0,0,0,0,0],"id":69,"left_children":[1,3,-1,-1,-1],"loss_changes":[1.9033493E-1,2.998102E-1,0E0,0E0,0E0],"parents":[2147483647,0,0,1,1],"right_children":[2,4,-1,-1,-1],"split_conditions":[1.6697744E1,7.368894E-1,1.6592225E-2,-1.8166594E-2,1.3711025E-2],"split_indices":[18,24,0,0,0],"split_type":[0,0,0,0,0],"sum_hessian":[1.4649726E1,1.1071221E1,3.5785046E0,7.408153E0,3.6630685E0],"tree_param":{"num_deleted":"0","num_feature":"48","num_nodes":"5","size_leaf_vector":"1"}},{"base_weights":[1.0743696E-3,-6.740362E-2,1.393878E-2,-1.5708541E-2,1.1823378E-2],"categories":[],"categories_nodes":[],"categories_segments":[],"categories_sizes":[],"default_left":[0,0,0,0,0],"id":70,"left_children":[1,3,-1,-1,-1],"loss_changes":[1.653568E-1,2.1315423E-1,0E0,0E0,0E0],"parents":[2147483647,0,0,1,1],"right_children":[2,4,-1,-1,-1],"split_conditions":[-2.7919453E1,6.9644207E-1,1.393878E-2,-1.5708541E-2,1.1823378E-2],"split_indices":[4,24,0,0,0],"split_type":[0,0,0,0,0],"sum_hessian":[1.5466533E1,1.0687769E1,4.778764E0,7.3100667E0,3.3777027E0],"tree_param":{"num_deleted":"0","num_feature":"48","num_nodes":"5","size_leaf_vector":"1"}},{"base_weights":[5.5916486E-3,-2.0357996E-2,6.1018564E-2,1.4222756E-1,-4.9314643E-3,2.5106622E-2,-6.630756E-4],"categories":[],"categories_nodes":[],"categories_segments":[],"categories_sizes":[],"default_left":[0,0,0,0,0,0,0],"id":71,"left_children":[1,-1,3,5,-1,-1,-1],"loss_changes":[1.9597316E-1,0E0,1.2604728E-1,1.2981738E-1,0E0,0E0,0E0],"parents":[2147483647,0,0,2,2,3,3],"right_children":[2,-1,4,6,-1,-1,-1],"split_conditions":[-1.9385334E1,-2.0357996E-2,4.7392435E-3,2.931184E-3,-4.9314643E-3,2.5106622E-2,-6.630756E-4],"split_indices":[18,0,13,47,0,0,0],"split_type":[0,0,0,0,0,0,0],"sum_hessian":[1.4831909E1,2.5470054E0,1.2284904E1,6.909905E0,5.3749986E0,3.5948772E0,3.3150277E0],"tree_param":{"num_deleted":"0",