{"learner":{"attributes":{"scikit_learn":"{\"_estimator_type\": \"ranker\"}"},"feature_names":[],"feature_types":[],"gradient_booster":{"model":{"gbtree_model_param":{"num_parallel_tree":"1","num_trees":"100"},"iteration_indptr":[0,1,2,3,4,5,6,7,8,9,10,11,12,13,14,15,16,17,18,19,20,21,22,23,24,25,26,27,28,29,30,31,32,33,34,35,36,37,38,39,40,41,42,43,44,45,46,47,48,49,50,51,52,53,54,55,56,57,58,59,60,61,62,63,64,65,66,67,68,69,70,71,72,73,74,75,76,77,78,79,80,81,82,83,84,85,86,87,88,89,90,91,92,93,94,95,96,97,98,99,100],"tree_info":[0,0,0,0,0,0,0,0,0,0,0,0,0,0,0,0,0,0,0,0,0,0,0,0,0,0,0,0,0,0,0,0,0,0,0,0,0,0,0,0,0,0,0,0,0,0,0,0,0,0,0,0,0,0,0,0,0,0,0,0,0,0,0,0,0,0,0,0,0,0,0,0,0,0,0,0,0,0,0,0,0,0,0,0,0,0,0,0,0,0,0,0,0,0,0,0,0,0,0,0],"trees":[{"base_weights":[4.853654E-2,-7.7814765E-2,6.9818544E-1,3.6684722E-1,9.314447E-2,5.2508492E-2,9.6153155E-2,-7.996364E-3,2.1851292E-2],"categories":[],"categories_nodes":[],"categories_segments":[],"categories_sizes":[],"default_left":[0,0,0,0,0,0,0,0,0],"id":0,"left_children":[1,-1,3,5,-1,-1,7,-1,-1],"loss_changes":[2.493872E1,0E0,1.6649141E0,4.7963047E-1,0E0,0E0,1.4224227E-1,0E0,0E0],"parents":[2147483647,0,0,2,2,3,3,6,6],"right_children":[2,-1,4,6,-1,-1,8,-1,-1],"split_conditions":[1.108374E1,-7.7814765E-2,7.1920156E-1,-1.1965476E0,9.314447E-2,5.2508492E-2,-1.4721385E-2,-7.996364E-3,2.1851292E-2],"split_indices":[4,0,1,14,0,0,19,0,0],"split_type":[0,0,0,0,0,0,0,0,0],"sum_hessian":[4.44245E1,1.9461617E1,2.4962883E1,1.1376122E1,1.35867605E1,6.586264E0,4.7898583E0,2.1056328E0,2.6842256E0],"tree_param":{"num_deleted":"0","num_feature":"48","num_nodes":"9","size_leaf_vector":"1"}},{"base_weights":[1.8971333E-2,-5.1760966E-1,8.988971E-1,-8.636574E-2,-2.8452381E-1,2.6440604E-2,9.243101E-2,5.2849557E-2,-3.6372733E-1,-4.297605E-1,3.3012933E-1,-6.341371E-1,-2.5623056E-1,-6.6137696E-3,6.0585864E-2,-6.773536E-2,-1.4185577E-2,3.4223717E-2,-4.6380173E-2],"categories":[],"categories_nodes":[],"categories_segments":[],"categories_sizes":[],"default_left":[0,0,0,0,0,0,0,0,0,0,0,0,0,0,0,0,0,0,0],"id":1,"left_children":[1,3,5,-1,7,-1,-1,-1,9,11,13,15,17,-1,-1,-1,-1,-1,-1],"loss_changes":[7.049215E1,7.236717E0,6.6740036E-1,0E0,3.8576517E0,0E0,0E0,0E0,2.5455184E0,1.5518017E0,5.999681E-1,3.6169338E-1,3.6145587E0,0E0,0E0,0E0,0E0,0E0,0E0],"parents":[2147483647,0,0,1,1,2,2,4,4,8,8,9,9,10,10,11,11,12,12],"right_children":[2,4,6,-1,8,-1,-1,-1,10,12,14,16,18,-1,-1,-1,-1,-1,-1],"split_conditions":[1.3327109E1,5.5307713E0,3.2861084E1,-8.636574E-2,-1.6758368E0,2.6440604E-2,9.243101E-2,5.2849557E-2,7.657073E-2,-4.7514965E-3,1.2160644E-2,4.8693497E-2,6.642586E-3,-6.6137696E-3,6.0585864E-2,-6.773536E-2,-1.4185577E-2,3.4223717E-2,-4.6380173E-2],"split_indices":[18,18,0,0,6,0,0,0,17,34,35,45,34,0,0,0,0,0,0],"split_type":[0,0,0,0,0,0,0,0,0,0,0,0,0,0,0,0,0,0,0],"sum_hessian":[1.4731442E2,9.176664E1,5.5547775E1,3.5844814E1,5.5921825E1,2.5783308E0,5.2969444E1,4.460671E0,5.1461155E1,4.733681E1,4.1243424E0,2.051763E1,2.6819183E1,2.0041683E0,2.1201744E0,1.851618E1,2.0014489E0,6.739406E0,2.0079777E1],"tree_param":{"num_deleted":"0","num_feature":"48","num_nodes":"19","size_leaf_vector":"1"}},{"base_weights":[2.5616191E-2,-7.642595E-1,2.5914526E-1,-7.9219204E-1,-2.7857289E-2,6.063058E-1,-4.4089922E-1,-3.664839E-2,-8.352117E-2,2.3148398E-1,8.518385E-2,3.8918916E-2,-5.1576585E-1,-2.0069882E-2,5.2666485E-1,-6.4161885E-1,-2.8275602E-2,-3.5620108E-1,3.802307E-1,6.6752605E-2,-3.7815745E-3,8.470382E-3,-7.134996E-2,2.1783961E-2,-3.9775584E-2,-1.2363136E-3,-4.8072867E-2,6.62892E-2,-2.1904264E-2],"categories":[],"categories_nodes":[],"categories_segments":[],"categories_sizes":[],"default_left":[0,0,0,0,0,0,0,0,0,0,0,0,0,0,0,0,0,0,0,0,0,0,0,0,0,0,0,0,0],"id":2,"left_children":[1,3,5,7,-1,9,11,-1,-1,13,-1,-1,15,17,19,21,23,25,27,-1,-1,-1,-1,-1,-1,-1,-1,-1,-1],"loss_changes":[2.2857536E1,1.6303825E-1,2.349067E1,1.7380142E-1,0E0,5.7204723E0,2.2054138E0,0E0,0E0,2.002282E0,0E0,0E0,1.8235922E0,2.2136133E0,1.0094624E0,1.3036957E0,7.419017E-1,3.756318E-1,1.4212718E0,0E0,0E0,0E0,0E0,0E0,0E0,0E0,0E0,0E0,0E0],"parents":[2147483647,0,0,1,1,2,2,3,3,5,5,6,6,9,9,12,12,13,13,14,14,15,15,16,16,17,17,18,18],"right_children":[2,4,6,8,-1,10,12,-1,-1,14,-1,-1,16,18,20,22,24,26,28,-1,-1,-1,-1,-1,-1,-1,-1,-1,-1],"split_conditions":[-1.3097203E0,5.1380116E-2,-4.1049382E-1,-5.0862312E-2,-2.7857289E-2,3.2861084E1,-1.8564067E0,-3.664839E-2,-8.352117E-2,-5.5386245E-1,8.518385E-2,3.8918916E-2,-2.2493006E1,2.1504572E-2,3.100892E-1,-9.891694E-2,-2.7332311E-2,-4.0699515E-2,-1.1965476E0,6.6752605E-2,-3.7815745E-3,8.470382E-3,-7.134996E-2,2.1783961E-2,-3.9775584E-2,-1.2363136E-3,-4.8072867E-2,6.62892E-2,-2.1904264E-2],"split_indices":[14,42,2,7,0,0,21,0,0,2,0,0,0,25,21,28,33,12,14,0,0,0,0,0,0,0,0,0,0],"split_type":[0,0,0,0,0,0,0,0,0,0,0,0,0,0,0,0,0,0,0,0,0,0,0,0,0,0,0,0,0],"sum_hessian":[1.21842964E2,2.7284555E1,9.455841E1,2.520396E1,2.0805945E0,6.330072E1,3.125769E1,3.1868563E0,2.2017105E1,2.5822996E1,3.7477726E1,2.2386026E0,2.9019087E1,1.4444968E1,1.1378029E1,2.2813314E1,6.205772E0,7.9117017E0,6.533266E0,8.959672E0,2.4183564E0,2.0383463E0,2.077497E1,3.9710345E0,2.2347374E0,2.395812E0,5.5158896E0,4.36721E0,2.1660562E0],"tree_param":{"num_deleted":"0","num_feature":"48","num_nodes":"29","size_leaf_vector":"1"}},{"base_weights":[-9.2345536E-2,-5.387152E-1,4.50698E-1,6.02857E-2,-6.13817E-1,1.0157674E-1,7.935684E-2,3.0977016E-2,-6.5439E-1,6.1220743E-2,1.44025125E-5,-7.0518386E-1,-1.4520757E-1,-2.6419836E-1,1.9610411E-1,-7.793467E-2,-5.401061E-1,1.4179026E-2,-4.5827832E-2,-1.2076851E-3,-3.555139E-2,5.8318164E-2,-4.2117223E-2,-7.462752E-3,-5.9805628E-2,3.2387447E-2,-1.9996976E-2],"categories":[],"categories_nodes":[],"categories_segments":[],"categories_sizes":[],"default_left":[0,0,0,0,0,0,0,0,0,0,0,0,0,0,0,0,0,0,0,0,0,0,0,0,0,0,0],"id":3,"left_children":[1,3,5,-1,7,9,-1,-1,11,-1,13,15,17,19,21,-1,23,-1,-1,-1,-1,-1,25,-1,-1,-1,-1],"loss_changes":[2.6355068E1,5.47814E0,5.8020973E0,0E0,2.3161144E0,1.3222791E0,0E0,0E0,1.3031826E0,0E0,1.2054485E0,1.8088722E-1,6.210576E-1,2.239021E-1,1.2560432E0,0E0,4.5429134E-1,0E0,0E0,0E0,0E0,0E0,5.9626627E-1,0E0,0E0,0E0,0E0],"parents":[2147483647,0,0,1,1,2,2,4,4,5,5,8,8,10,10,11,11,12,12,13,13,14,14,16,16,22,22],"right_children":[2,4,6,-1,8,10,-1,-1,12,-1,14,16,18,20,22,-1,24,-1,-1,-1,-1,-1,26,-1,-1,-1,-1],"split_conditions":[6.625531E0,-2.6284582E1,3.2861084E1,6.02857E-2,-1.21023335E-1,-1.2780108E-1,7.935684E-2,3.0977016E-2,2.376905E1,6.1220743E-2,7.3067574E-3,-1.2069715E-1,1.0202234E-2,-8.661455E0,-4.4764426E-2,-7.793467E-2,-1.110761E0,1.4179026E-2,-4.5827832E-2,-1.2076851E-3,-3.555139E-2,5.8318164E-2,-2.1976165E-2,-7.462752E-3,-5.9805628E-2,3.2387447E-2,-1.9996976E-2],"split_indices":[4,14,0,0,44,15,0,0,14,0,45,15,44,0,35,0,6,0,0,0,0,0,30,0,0,0,0],"split_type":[0,0,0,0,0,0,0,0,0,0,0,0,0,0,0,0,0,0,0,0,0,0,0,0,0,0,0],"sum_hessian":[1.0672472E2,5.8580677E1,4.814404E1,3.182248E0,5.539843E1,2.4496847E1,2.3647192E1,2.0520284E0,5.33464E1,3.2298834E0,2.1266964E1,4.8157482E1,5.188918E0,8.911801E0,1.2355163E1,3.0661436E1,1.7496046E1,2.992623E0,2.196295E0,2.6705866E0,6.2412148E0,4.1552978E0,8.199864E0,2.1903193E0,1.5305728E1,2.1539755E0,6.045889E0],"tree_param":{"num_deleted":"0","num_feature":"48","num_nodes":"27","size_leaf_vector":"1"}},{"base_weights":[3.5637982E-2,-4.9681306E-1,5.334128E-1,4.5777597E-2,-5.5856836E-1,1.615307E-1,7.546497E-2,-7.150027E-1,-3.1164023E-1,-9.170782E-3,4.493922E-1,-7.600414E-2,-3.404697E-2,-4.4284308E-1,1.318125E-1,1.9565062E-1,-2.6137406E-2,6.160256E-2,1.2486945E-2,8.064437E-3,-5.4705035E-2,-1.5005504E-2,3.75815E-2,4.3685537E-2,-8.9080995E-3],"categories":[],"categories_nodes":[],"categories_segments":[],"categories_sizes":[],"default_left":[0,0,0,0,0,0,0,0,0,0,0,0,0,0,0,0,0,0,0,0,0,0,0,0,0],"id":4,"left_children":[1,3,5,-1,7,9,-1,11,13,15,17,-1,-1,19,21,23,-1,-1,-1,-1,-1,-1,-1,-1,-1],"loss_changes":[2.6643787E1,3.121091E0,4.1498384E0,0E0,1.5580597E0,1.0182943E0,0E0,2.0428085E-1,1.2018099E0,7.710324E-1,3.3962607E-1,0E0,0E0,8.839352E-1,4.1799435E-1,6.0636497E-1,0E0,0E0,0E0,0E0,0E0,0E0,0E0,0E0,0E0],"parents":[2147483647,0,0,1,1,2,2,4,4,5,5,7,7,8,8,9,9,10,10,13,13,14,14,15,15],"right_children":[2,4,6,-1,8,10,-1,12,14,16,18,-1,-1,20,22,24,-1,-1,-1,-1,-1,-1,-1,-1,-1],"split_conditions":[1.1895292E1,-9.75208E-2,6.840429E-1,4.5777597E-2,7.003868E-1,3.3123937E-2,7.546497E-2,5.5846086E0,2.8385295E-2,-4.4760224E-3,-2.9335443E-2,-7.600414E-2,-3.404697E-2,-7.2716124E-2,-2.658027E-3,-1.5648719E-2,-2.6137406E-2,6.160256E-2,1.2486945E-2,8.064437E-3,-5.4705035E-2,-1.5005504E-2,3.75815E-2,4.3685537E-2,-8.9080995E-3],"split_indices":[18,47,1,0,22,11,0,18,46,36,26,0,0,13,19,30,0,0,0,0,0,0,0,0,0],"split_type":[0,0,0,0,0,0,0,0,0,0,0,0,0,0,0,0,0,0,0,0,0,0,0,0,0],"sum_hessian":[9.852726E1,4.7606407E1,5.0920853E1,2.5030165E0,4.5103394E1,1.9639124E1,3.128173E1,2.6450705E1,1.8652687E1,1.2936147E1,6.702977E0,2.2692553E1,3.7581515E0,1.4395049E1,4.257639E0,7.2623897E0,5.6737576E0,3.8353703E0,2.8676066E0,2.4273446E0,1.1967704E1,2.1541862E0,2.1034527E0,3.6424713E0,3.619918E0],"tree_param":{"num_deleted":"0","num_feature":"48","num_nodes":"25","size_leaf_vector":"1"}},{"base_weights":[-9.670716E-3,-5.019135E-1,5.098644E-1,1.3309221E-1,-5.668331E-1,1.2376243E-1,7.178286E-2,4.2035002E-2,-2.002505E-2,-1.7071807E-1,-6.1813736E-1,3.5378823E-1,-1.8427087E-1,-5.492881E-2,3.0311564E-2,-6.8204336E-2,-3.331904E-1,5.5740636E-2,-3.469156E-3,-3.050679E-2,-4.4128583E-3,1.7840939E-3,-4.5828342E-2],"categories":[],"categories_nodes":[],"categories_segments":[],"categories_sizes":[],"default_left":[0,0,0,0,0,0,0,0,0,0,0,0,0,0,0,0,0,0,0,0,0,0,0],"id":5,"left_children":[1,3,5,7,9,11,-1,-1,-1,13,15,17,19,-1,-1,-1,21,-1,-1,-1,-1,-1,-1],"loss_changes":[2.2622816E1,1.9475946E0,3.367609E0,5.650656E-1,7.3565006E-1,1.2185551E0,0E0,0E0,0E0,1.2657025E0,4.3310738E-1,7.8355753E-1,1.1547384E-1,0E0,0E0,0E0,3.8573807E-1,0E0,0E0,0E0,0E0,0E0,0E0],"parents":[2147483647,0,0,1,1,2,2,3,3,4,4,5,5,9,9,10,10,11,11,12,12,16,16],"right_children":[2,4,6,8,10,12,-1,-1,-1,14,16,18,20,-1,-1,-1,22,-1,-1,-1,-1,-1,-1],"split_conditions":[1.193058E1,-1.6107157E0,6.953148E-1,-4.0093936E-2,-1.6758368E0,8.924844E-2,7.178286E-2,4.2035002E-2,-2.002505E-2,7.2087E-1,5.5724297E0,-8.799251E-3,-7.955653E-3,-5.492881E-2,3.0311564E-2,-6.8204336E-2,-1.7014612E-2,5.5740636E-2,-3.469156E-3,-3.050679E-2,-4.4128583E-3,1.7840939E-3,-4.5828342E-2],"split_indices":[18,1,1,37,6,21,0,0,0,22,18,30,42,0,0,0,12,0,0,0,0,0,0],"split_type":[0,0,0,0,0,0,0,0,0,0,0,0,0,0,0,0,0,0,0,0,0,0,0],"sum_hessian":[8.646045E1,4.441376E1,4.2046688E1,4.0220757E0,4.0391685E1,1.5277643E1,2.6769045E1,2.020176E0,2.0018997E0,5.1278257E0,3.5263863E1,8.661257E0,6.6163864E0,2.7619336E0,2.3658924E0,2.7665627E1,7.598234E0,5.3974123E0,3.2638443E0,2.9214072E0,3.6949792E0,2.2215583E0,5.376676E0],"tree_param":{"num_deleted":"0","num_feature":"48","num_nodes":"23","size_leaf_vector":"1"}},{"base_weights":[-4.8270114E-4,-5.490823E-1,4.7901207E-1,1.7523566E-2,-5.992342E-2,1.02296956E-1,6.8308525E-2,-1.0188437E-1,3.3984864E-1,-3.1526876E-4,-2.7502898E-2,4.713016E-2,2.1963041E-4],"categories":[],"categories_nodes":[],"categories_segments":[],"categories_sizes":[],"default_left":[0,0,0,0,0,0,0,0,0,0,0,0,0],"id":6,"left_children":[1,3,5,-1,-1,7,-1,9,11,-1,-1,-1,-1],"loss_changes":[2.0354803E1,1.4159698E0,3.1044703E0,0E0,0E0,7.9538876E-1,0E0,1.5647626E-1,3.3099145E-1,0E0,0E0,0E0,0E0],"parents":[2147483647,0,0,1,1,2,2,5,5,7,7,8,8],"right_children":[2,4,6,-1,-1,8,-1,10,12,-1,-1,-1,-1],"split_conditions":[1.108374E1,-1.6353794E0,6.953148E-1,1.7523566E-2,-5.992342E-2,1.9542957E-2,6.8308525E-2,4.517352E-2,-2.0516007E-3,-3.1526876E-4,-2.7502898E-2,4.713016E-2,2.1963041E-4],"split_indices":[4,1,1,0,0,17,0,44,27,0,0,0,0],"split_type":[0,0,0,0,0,0,0,0,0,0,0,0,0],"sum_hessian":[7.537992E1,3.508889E1,4.029103E1,2.110723E0,3.297817E1,1.4684674E1,2.5606356E1,8.204133E0,6.480541E0,5.8732543E0,2.3308785E0,4.379658E0,2.1008832E0],"tree_param":{"num_deleted":"0","num_feature":"48","num_nodes":"13","size_leaf_vector":"1"}},{"base_weights":[-1.8832011E-2,-3.4385154E-1,6.524768E-2,-5.052589E-1,4.9797688E-2,-2.489764E-3,-5.5851096E-1,2.8738126E-1,-2.3315672E-2,-5.9270483E-2,-1.9862568E-2,4.613427E-2,-4.8921225E-3],"categories":[],"categories_nodes":[],"categories_segments":[],"categories_sizes":[],"default_left":[0,0,0,0,0,0,0,0,0,0,0,0,0],"id":7,"left_children":[1,3,-1,5,7,-1,9,11,-1,-1,-1,-1,-1],"loss_changes":[1.5757287E1,3.1144848E0,0E0,8.7046814E-1,1.0786939E0,0E0,2.6468754E-1,5.273614E-1,0E0,0E0,0E0,0E0,0E0],"parents":[2147483647,0,0,1,1,3,3,4,4,6,6,7,7],"right_children":[2,4,-1,6,8,-1,10,12,-1,-1,-1,-1,-1],"split_conditions":[1.3303241E1,1.1840438E1,6.524768E-2,-1.760701E0,8.924844E-2,-2.489764E-3,2.376905E1,-8.799251E-3,-2.3315672E-2,-5.9270483E-2,-1.9862568E-2,4.613427E-2,-4.8921225E-3],"split_indices":[18,18,0,21,21,0,14,30,0,0,0,0,0],"split_type":[0,0,0,0,0,0,0,0,0,0,0,0,0],"sum_hessian":[7.019044E1,4.7621765E1,2.256867E1,3.3572544E1,1.4049224E1,3.4968336E0,3.007571E1,7.628382E0,6.420841E0,2.6875277E1,3.200433E0,4.7826304E0,2.8457518E0],"tree_param":{"num_deleted":"0","num_feature":"48","num_nodes":"13","size_leaf_vector":"1"}},{"base_weights":[-5.840588E-3,-4.644922E-1,4.2571062E-1,-5.6147892E-2,-2.4762575E-1,7.506922E-2,6.6051036E-2,1.1321137E-2,-4.3999624E-2,-4.5296773E-2,2.5930685E-1,8.774222E-3,-1.6023315E-2,4.0974473E-3,3.9336298E-2],"categories":[],"categories_nodes":[],"categories_segments":[],"categories_sizes":[],"default_left":[0,0,0,0,0,0,0,0,0,0,0,0,0,0,0],"id":8,"left_children":[1,3,5,-1,7,9,-1,-1,-1,11,13,-1,-1,-1,-1],"loss_changes":[1.289574E1,5.2515745E-1,2.7146645E0,0E0,8.513641E-1,3.353811E-1,0E0,0E0,0E0,1.6205138E-1,1.570248E-1,0E0,0E0,0E0,0E0],"parents":[2147483647,0,0,1,1,2,2,4,4,5,5,9,9,10,10],"right_children":[2,4,6,-1,8,10,-1,-1,-1,12,14,-1,-1,-1,-1],"split_conditions":[1.1875635E1,8.2552624E-1,3.2861084E1,-5.6147892E-2,1.0270051E0,2.403743E-2,6.6051036E-2,1.1321137E-2,-4.3999624E-2,-3.0033322E-2,3.7007097E-2,8.774222E-3,-1.6023315E-2,4.0974473E-3,3.9336298E-2],"split_indices":[18,22,0,0,22,17,0,0,0,17,46,0,0,0,0],"split_type":[0,0,0,0,0,0,0,0,0,0,0,0,0,0,0],"sum_hessian":[6.3153454E1,3.0578434E1,3.257502E1,2.00311E1,1.0547336E1,1.359398E1,1.8981041E1,3.8107848E0,6.7365513E0,8.678371E0,4.9156084E0,4.132083E0,4.5462885E0,2.3667002E0,2.5489082E0],"tree_param":{"num_deleted":"0","num_feature":"48","num_nodes":"15","size_leaf_vector":"1"}},{"base_weights":[2.5318174E-2,-4.110913E-1,4.3958226E-1,-6.1048444E-2,-2.0408951E-1,1.2271362E-1,6.4355575E-2,3.87159E-2,-3.360913E-1,3.59858E-2,3.0823185E-3,-4.7237035E-2,-6.3483715E-2,1.743244E-1,-1.9535357E-2,1.8792965E-2,-2.873874E-2,-4.77084E-3,2.9424882E-2],"categories":[],"categories_nodes":[],"categories_segments":[],"categories_sizes":[],"default_left":[0,0,0,0,0,0,0,0,0,0,0,0,0,0,0,0,0,0,0],"id":9,"left_children":[1,3,5,-1,7,9,-1,-1,11,-1,13,-1,15,17,-1,-1,-1,-1,-1],"loss_changes":[1.160892E1,1.167325E0,2.0482597E0,0E0,1.4459288E0,3.9961308E-1,0E0,0E0,5.019237E-1,0E0,3.8736096E-1,0E0,3.8766712E-1,1.767169E-1,0E0,0E0,0E0,0E0,0E0],"parents":[2147483647,0,0,1,1,2,2,4,4,5,5,8,8,10,10,12,12,13,13],"right_children":[2,4,6,-1,8,10,-1,-1,12,-1,14,-1,16,18,-1,-1,-1,-1,-1],"split_conditions":[1.1895292E1,3.883566E-1,3.2861084E1,-6.1048444E-2,-3.9172127E1,-5.740077E-2,6.4355575E-2,3.87159E-2,-1.3715036E-2,3.59858E-2,5.1853485E0,-4.7237035E-2,-4.3133464E-2,2.1594629E-2,-1.9535357E-2,1.8792965E-2,-2.873874E-2,-4.77084E-3,2.9424882E-2],"split_indices":[18,23,0,0,16,35,0,0,15,0,0,0,6,17,0,0,0,0,0],"split_type":[0,0,0,0,0,0,0,0,0,0,0,0,0,0,0,0,0,0,0],"sum_hessian":[6.221306E1,3.030047E1,3.191259E1,1.4441051E1,1.5859421E1,1.3124915E1,1.8787674E1,2.541741E0,1.3317679E1,3.727619E0,9.397296E0,8.390439E0,4.9272413E0,5.109507E0,4.287789E0,2.396719E0,2.530522E0,2.003089E0,3.1064184E0],"tree_param":{"num_deleted":"0","num_feature":"48","num_nodes":"19","size_leaf_vector":"1"}},{"base_weights":[6.4474284E-3,-4.3372917E-1,4.1360664E-1,1.6602306E-2,-4.8884574E-1,1.0340371E-1,6.1472148E-2,-6.118983E-2,-2.5538772E-1,2.615432E-1,-3.1864956E-2,1.2458628E-2,-3.592629E-2,2.0536978E-3,4.388706E-2,-1.3896271E-2,1.842586E-2],"categories":[],"categories_nodes":[],"categories_segments":[],"categories_sizes":[],"default_left":[0,0,0,0,0,0,0,0,0,0,0,0,0,0,0,0,0],"id":10,"left_children":[1,3,5,-1,7,9,-1,-1,11,13,15,-1,-1,-1,-1,-1,-1],"loss_changes":[1.0438061E1,1.0065022E0,1.8234429E0,0E0,5.8749914E-1,2.8854352E-1,0E0,0E0,4.6521795E-1,2.5372013E-1,2.0965412E-1,0E0,0E0,0E0,0E0,0E0,0E0],"parents":[2147483647,0,0,1,1,2,2,4,4,5,5,8,8,9,9,10,10],"right_children":[2,4,6,-1,8,10,-1,-1,12,14,16,-1,-1,-1,-1,-1,-1],"split_conditions":[1.1895292E1,-8.290116E-2,1.3327109E1,1.6602306E-2,5.5094066E0,-8.799251E-3,6.1472148E-2,-6.118983E-2,-1.4678212E0,3.8927283E-2,6.385138E-2,1.2458628E-2,-3.592629E-2,2.0536978E-3,4.388706E-2,-1.3896271E-2,1.842586E-2],"split_indices":[18,47,18,0,18,30,0,0,21,46,13,0,0,0,0,0,0],"split_type":[0,0,0,0,0,0,0,0,0,0,0,0,0,0,0,0,0],"sum_hessian":[5.6240017E1,2.6992924E1,2.9247093E1,2.102484E0,2.489044E1,1.2099214E1,1.7147879E1,1.5237788E1,9.652653E0,5.1476755E0,6.9515386E0,2.0294752E0,7.623177E0,2.6550298E0,2.4926457E0,4.8869057E0,2.0646324E0],"tree_param":{"num_deleted":"0","num_feature":"48","num_nodes":"17","size_leaf_vector":"1"}},{"base_weights":[7.0779976E-3,-3.7999734E-1,4.032429E-1,-5.533352E-2,-1.4084902E-1,8.243668E-2,5.987832E-2,1.6620125E-1,-3.4906843E-1,-7.5116955E-2,2.6577229E-2,4.0894784E-2,-1.3456217E-2,-4.5440402E-2,-4.297882E-3,-1.9804377E-2,9.30196E-3],"categories":[],"categories_nodes":[],"categories_segments":[],"categories_sizes":[],"default_left":[0,0,0,0,0,0,0,0,0,0,0,0,0,0,0,0,0],"id":11,"left_children":[1,3,5,-1,7,9,-1,11,13,15,-1,-1,-1,-1,-1,-1,-1],"loss_changes":[7.672434E0,9.715209E-1,1.5011997E0,0E0,8.239528E-1,3.2384437E-1,0E0,4.579382E-1,2.210465E-1,1.5147777E-1,0E0,0E0,0E0,0E0,0E0,0E0,0E0],"parents":[2147483647,0,0,1,1,2,2,4,4,5,5,7,7,8,8,9,9],"right_children":[2,4,6,-1,8,10,-1,12,14,16,-1,-1,-1,-1,-1,-1,-1],"split_conditions":[1.1875635E1,7.1634257E-1,1.3327109E1,-5.533352E-2,-2.4256708E-2,3.3123937E-2,5.987832E-2,-1.3004934E-2,1.0238219E1,2.1832857E-2,2.6577229E-2,4.0894784E-2,-1.3456217E-2,-4.5440402E-2,-4.297882E-3,-1.9804377E-2,9.30196E-3],"split_indices":[18,22,18,0,44,11,0,11,16,37,0,0,0,0,0,0,0],"split_type":[0,0,0,0,0,0,0,0,0,0,0,0,0,0,0,0,0],"sum_hessian":[4.8034336E1,2.431653E1,2.3717806E1,1.3336375E1,1.0980155E1,9.520282E0,1.4197523E1,4.518604E0,6.461551E0,5.4376173E0,4.0826645E0,2.3014226E0,2.217181E0,4.446736E0,2.014815E0,3.0383592E0,2.3992581E0],"tree_param":{"num_deleted":"0","num_feature":"48","num_nodes":"17","size_leaf_vector":"1"}},{"base_weights":[1.170282E-2,-2.2747268E-1,5.472858E-1,-3.492586E-1,5.814189E-2,1.7942345E-2,5.908188E-2,-4.99657E-2,-1.2695985E-1,1.8875703E-1,-1.4071661E-2,2.238697E-2,-2.8370833E-2,3.2815867E-4,3.304739E-2],"categories":[],"categories_nodes":[],"categories_segments":[],"categories_sizes":[],"default_left":[0,0,0,0,0,0,0,0,0,0,0,0,0,0,0],"id":12,"left_children":[1,3,5,7,9,-1,-1,-1,11,13,-1,-1,-1,-1,-1],"loss_changes":[6.144635E0,1.1749369E0,1.3103104E-1,7.193794E-1,3.0656654E-1,0E0,0E0,0E0,6.568352E-1,1.8116683E-1,0E0,0E0,0E0,0E0,0E0],"parents":[2147483647,0,0,1,1,2,2,3,3,4,4,8,8,9,9],"right_children":[2,4,6,8,10,-1,-1,-1,12,14,-1,-1,-1,-1,-1],"split_conditions":[1.3303241E1,1.108374E1,8.088949E-1,7.1634257E-1,2.2742248E-1,1.7942345E-2,5.908188E-2,-4.99657E-2,-4.4795513E-2,7.045425E-3,-1.4071661E-2,2.238697E-2,-2.8370833E-2,3.2815867E-4,3.304739E-2],"split_indices":[18,4,1,22,6,0,0,0,39,11,0,0,0,0,0],"split_type":[0,0,0,0,0,0,0,0,0,0,0,0,0,0,0],"sum_hessian":[4.599626E1,3.2194454E1,1.3801808E1,2.2414211E1,9.780242E0,2.0024283E0,1.179938E1,1.2624978E1,9.789233E0,5.9336634E0,3.8465784E0,2.890839E0,6.898394E0,3.0132084E0,2.920455E0],"tree_param":{"num_deleted":"0","num_feature":"48","num_nodes":"15","size_leaf_vector":"1"}},{"base_weights":[1.6621066E-2,-3.4676665E-1,3.5707635E-1,1.4873586E-2,-4.090264E-1,7.7624194E-2,5.6275327E-2,-1.0078531E-3,-4.6340758E-1,2.9805636E-2,-5.6747417E-3,-5.055959E-2,-1.1199842E-2],"categories":[],"categories_nodes":[],"categories_segments":[],"categories_sizes":[],"default_left":[0,0,0,0,0,0,0,0,0,0,0,0,0],"id":13,"left_children":[1,3,5,-1,7,9,-1,-1,11,-1,-1,-1,-1],"loss_changes":[5.346176E0,7.0639086E-1,1.2372661E0,0E0,4.0442586E-1,3.311389E-1,0E0,0E0,1.8906426E-1,0E0,0E0,0E0,0E0],"parents":[2147483647,0,0,1,1,2,2,4,4,5,5,8,8],"right_children":[2,4,6,-1,8,10,-1,-1,12,-1,-1,-1,-1],"split_conditions":[1.1875635E1,-5.0287373E1,5.1313007E-1,1.4873586E-2,-1.6203928E0,-1.2376258E0,5.6275327E-2,-1.0078531E-3,2.376905E1,2.9805636E-2,-5.6747417E-3,-5.055959E-2,-1.1199842E-2],"split_indices":[18,0,20,0,6,14,0,0,14,0,0,0,0],"split_type":[0,0,0,0,0,0,0,0,0,0,0,0,0],"sum_hessian":[4.121201E1,1.9925657E1,2.1286352E1,2.069145E0,1.7856512E1,9.608602E0,1.167775E1,2.2842507E0,1.5572263E1,3.1776395E0,6.430962E0,1.3511387E1,2.0608752E0],"tree_param":{"num_deleted":"0","num_feature":"48","num_nodes":"13","size_leaf_vector":"1"}},{"base_weights":[-4.827926E-2,-4.2193705E-1,3.592525E-1,-4.9300954E-1,-1.291424E-1,1.07614726E-1,5.4384094E-2,-5.3028118E-2,-1.554429E-2,-2.614895E-2,4.392089E-3,2.0374391E-2,-5.4822206E-3],"categories":[],"categories_nodes":[],"categories_segments":[],"categories_sizes":[],"default_left":[0,0,0,0,0,0,0,0,0,0,0,0,0],"id":14,"left_children":[1,3,5,7,9,11,-1,-1,-1,-1,-1,-1,-1],"loss_changes":[6.0439606E0,3.6597443E-1,8.2627535E-1,1.2213278E-1,1.3488635E-1,1.5649965E-1,0E0,0E0,0E0,0E0,0E0,0E0,0E0],"parents":[2147483647,0,0,1,1,2,2,3,3,4,4,5,5],"right_children":[2,4,6,8,10,12,-1,-1,-1,-1,-1,-1,-1],"split_conditions":[1.108374E1,-2.1048442E-2,6.953148E-1,4.703083E-2,6.7797718E-3,2.2742248E-1,5.4384094E-2,-5.3028118E-2,-1.554429E-2,-2.614895E-2,4.392089E-3,2.0374391E-2,-5.4822206E-3],"split_indices":[4,15,1,37,46,6,0,0,0,0,0,0,0],"split_type":[0,0,0,0,0,0,0,0,0,0,0,0,0],"sum_hessian":[3.7695026E1,1.964634E1,1.8048687E1,1.5258669E1,4.3876705E0,8.3071165E0,9.74157E0,1.3227312E1,2.0313566E0,2.1967769E0,2.1908934E0,5.0589595E0,3.2481568E0],"tree_param":{"num_deleted":"0","num_feature":"48","num_nodes":"13","size_leaf_vector":"1"}},{"base_weights":[2.1066414E-2,-3.2533887E-1,3.6468956E-1,-3.785331E-1,7.108876E-3,8.9281455E-2,5.530424E-2,-9.101511E-3,-4.208037E-1,-2.2869583E-2,2.4454972E-2,-4.660826E-2,-1.57006E-2,-1.545053E-2,8.220528E-3],"categories":[],"categories_nodes":[],"categories_segments":[],"categories_sizes":[],"default_left":[0,0,0,0,0,0,0,0,0,0,0,0,0,0,0],"id":15,"left_children":[1,3,5,7,-1,9,-1,-1,11,13,-1,-1,-1,-1,-1],"loss_changes":[4.747208E0,4.4639564E-1,9.8769903E-1,1.7678332E-1,0E0,1.677508E-1,0E0,0E0,1.0781503E-1,1.0013498E-1,0E0,0E0,0E0,0E0,0E0],"parents":[2147483647,0,0,1,1,2,2,3,3,5,5,8,8,9,9],"right_children":[2,4,6,8,-1,10,-1,-1,12,14,-1,-1,-1,-1,-1],"split_conditions":[1.1875635E1,8.166326E-2,7.1920156E-1,-1.6758368E0,7.108876E-3,3.3123937E-2,5.530424E-2,-9.101511E-3,5.579145E0,5.883877E-4,2.4454972E-2,-4.660826E-2,-1.57006E-2,-1.545053E-2,8.220528E-3],"split_indices":[18,29,1,6,0,11,0,0,18,37,0,0,0,0,0],"split_type":[0,0,0,0,0,0,0,0,0,0,0,0,0,0,0],"sum_hessian":[3.7884724E1,1.8892485E1,1.8992237E1,1.6697136E1,2.195349E0,8.312205E0,1.0680032E1,2.5443068E0,1.415283E1,5.3213077E0,2.990898E0,1.1424995E1,2.7278347E0,2.1532848E0,3.1680229E0],"tree_param":{"num_deleted":"0","num_feature":"48","num_nodes":"15","size_leaf_vector":"1"}},{"base_weights":[-3.453244E-2,-3.939033E-1,3.3091408E-1,-6.676429E-3,-4.3517682E-1,8.207747E-2,5.4054152E-2,-4.8302025E-2,-1.074021E-2,1.9879902E-2,-3.6366743E-3],"categories":[],"categories_nodes":[],"categories_segments":[],"categories_sizes":[],"default_left":[0,0,0,0,0,0,0,0,0,0,0],"id":16,"left_children":[1,3,5,-1,7,9,-1,-1,-1,-1,-1],"loss_changes":[4.37343E0,1.970551E-1,8.195683E-1,0E0,1.7847061E-1,1.2822476E-1,0E0,0E0,0E0,0E0,0E0],"parents":[2147483647,0,0,1,1,2,2,4,4,5,5],"right_children":[2,4,6,-1,8,10,-1,-1,-1,-1,-1],"split_conditions":[5.6730323E0,-6.780862E-2,3.2861084E1,-6.676429E-3,1.1736639E0,-3.3835363E-2,5.4054152E-2,-4.8302025E-2,-1.074021E-2,1.9879902E-2,-3.6366743E-3],"split_indices":[18,13,0,0,15,32,0,0,0,0,0],"split_type":[0,0,0,0,0,0,0,0,0,0,0],"sum_hessian":[3.1308348E1,1.5746132E1,1.5562215E1,2.057304E0,1.3688828E1,7.7519107E0,7.8103046E0,1.1531941E1,2.156887E0,3.5626538E0,4.1892567E0],"tree_param":{"num_deleted":"0","num_feature":"48","num_nodes":"11","size_leaf_vector":"1"}},{"base_weights":[1.0837841E-2,-3.1186125E-1,3.604931E-1,-3.7629703E-1,1.1607279E-2,1.0116268E-1,5.231868E-2,1.7076724E-3,-4.392972E-1,2.2216855E-2,-2.1457588E-3,-5.1871467E-2,-2.3537999E-2],"categories":[],"categories_nodes":[],"categories_segments":[],"categories_sizes":[],"default_left":[0,0,0,0,0,0,0,0,0,0,0,0,0],"id":17,"left_children":[1,3,5,7,-1,9,-1,-1,11,-1,-1,-1,-1],"loss_changes":[3.946323E0,5.457083E-1,6.547034E-1,4.0550017E-1,0E0,1.19098336E-1,0E0,0E0,1.0268688E-1,0E0,0E0,0E0,0E0],"parents":[2147483647,0,0,1,1,2,2,3,3,5,5,8,8],"right_children":[2,4,6,8,-1,10,-1,-1,12,-1,-1,-1,-1],"split_conditions":[1.1895292E1,1.1761842E0,6.953148E-1,-1.6758368E0,1.1607279E-2,-8.799251E-3,5.231868E-2,1.7076724E-3,5.521909E0,2.2216855E-2,-2.1457588E-3,-5.1871467E-2,-2.3537999E-2],"split_indices":[18,5,1,6,0,30,0,0,18,0,0,0,0],"split_type":[0,0,0,0,0,0,0,0,0,0,0,0,0],"sum_hessian":[3.2978397E1,1.7206497E1,1.5771899E1,1.5059582E1,2.1469164E0,6.7054105E0,9.066488E0,2.1795278E0,1.28800535E1,2.9663115E0,3.739099E0,8.158785E0,4.7212687E0],"tree_param":{"num_deleted":"0","num_feature":"48","num_nodes":"13","size_leaf_vector":"1"}},{"base_weights":[3.3651732E-2,-1.8046987E-1,5.230099E-2,-3.2147485E-1,5.59677E-2,-4.1625232E-1,1.188226E-2,1.9826928E-2,-5.8378405E-3,-4.9887158E-2,-1.45502975E-2],"categories":[],"categories_nodes":[],"categories_segments":[],"categories_sizes":[],"default_left":[0,0,0,0,0,0,0,0,0,0,0],"id":18,"left_children":[1,3,-1,5,7,9,-1,-1,-1,-1,-1],"loss_changes":[3.5710144E0,8.122576E-1,0E0,6.784235E-1,1.702538E-1,2.0981097E-1,0E0,0E0,0E0,0E0,0E0],"parents":[2147483647,0,0,1,1,3,3,4,4,5,5],"right_children":[2,4,-1,6,8,10,-1,-1,-1,-1,-1],"split_conditions":[1.3327109E1,6.535042E0,5.230099E-2,4.8519235E-2,-1.5648719E-2,5.5378532E0,1.188226E-2,1.9826928E-2,-5.8378405E-3,-4.9887158E-2,-1.45502975E-2],"split_indices":[18,4,0,34,30,18,0,0,0,0,0],"split_type":[0,0,0,0,0,0,0,0,0,0,0],"sum_hessian":[3.2179573E1,2.2824003E1,9.355568E0,1.4072114E1,8.751889E0,1.1624468E1,2.4476461E0,3.5722952E0,5.1795945E0,8.261047E0,3.36342E0],"tree_param":{"num_deleted":"0","num_feature":"48","num_nodes":"11","size_leaf_vector":"1"}},{"base_weights":[-1.8889539E-2,-3.3638346E-1,3.207097E-1,3.1981512E-3,-4.1183555E-1,9.280721E-2,5.1887106E-2,-7.814203E-3,-4.6783898E-2,1.743603E-2,-6.0268E-3],"categories":[],"categories_nodes":[],"categories_segments":[],"categories_sizes":[],"default_left":[0,0,0,0,0,0,0,0,0,0,0],"id":19,"left_children":[1,3,5,-1,7,9,-1,-1,-1,-1,-1],"loss_changes":[3.4076543E0,4.6635044E-1,6.4278305E-1,0E0,2.1769357E-1,1.14541546E-1,0E0,0E0,0E0,0E0,0E0],"parents":[2147483647,0,0,1,1,2,2,4,4,5,5],"right_children":[2,4,6,-1,8,10,-1,-1,-1,-1,-1],"split_conditions":[1.108374E1,-5.02042E1,1.9202568E1,3.1981512E-3,-4.2607613E-2,1.3156213E-1,5.1887106E-2,-7.814203E-3,-4.6783898E-2,1.743603E-2,-6.0268E-3],"split_indices":[4,0,0,0,44,20,0,0,0,0,0],"split_type":[0,0,0,0,0,0,0,0,0,0,0],"sum_hessian":[2.9604263E1,1.5304984E1,1.4299278E1,2.699904E0,1.2605081E1,7.3334856E0,6.965792E0,2.155709E0,1.0449371E1,4.6937637E0,2.6397219E0],"tree_param":{"num_deleted":"0","num_feature":"48","num_nodes":"11","size_leaf_vector":"1"}},{"base_weights":[1.3165682E-2,-2.9403585E-1,3.302804E-1,-5.2560836E-2,-1.1772547E-1,1.1305451E-1,5.1575076E-2,2.883544E-2,-3.327508E-2,-6.564401E-3,1.9352999E-2,1.817791E-2,-2.185057E-2],"categories":[],"categories_nodes":[],"categories_segments":[],"categories_sizes":[],"default_left":[0,0,0,0,0,0,0,0,0,0,0,0,0],"id":20,"left_children":[1,3,5,-1,7,9,-1,11,-1,-1,-1,-1,-1],"loss_changes":[3.0320406E0,5.84512E-1,5.579256E-1,0E0,3.3346736E-1,1.3242954E-1,0E0,3.0572367E-1,0E0,0E0,0E0,0E0,0E0],"parents":[2147483647,0,0,1,1,2,2,4,4,5,5,7,7],"right_children":[2,4,6,-1,8,10,-1,12,-1,-1,-1,-1,-1],"split_conditions":[1.1895292E1,-1.24687195E-1,7.942382E-1,-5.2560836E-2,7.697809E-3,-4.209502E-3,5.1575076E-2,1.1434338E-1,-3.327508E-2,-6.564401E-3,1.9352999E-2,1.817791E-2,-2.185057E-2],"split_indices":[18,3,1,0,7,37,0,21,0,0,0,0,0],"split_type":[0,0,0,0,0,0,0,0,0,0,0,0,0],"sum_hessian":[2.912711E1,1.4831768E1,1.42953415E1,5.554773E0,9.276996E0,7.3253407E0,6.9700007E0,6.0316973E0,3.245298E0,2.3317993E0,4.9935412E0,3.890852E0,2.1408455E0],"tree_param":{"num_deleted":"0","num_feature":"48","num_nodes":"13","size_leaf_vector":"1"}},{"base_weights":[8.828979E-3,-1.755996E-1,4.925001E-2,-3.166588E-1,2.964848E-2,-3.9714377E-2,5.1873904E-3,1.3293085E-2,-8.160314E-3],"categories":[],"categories_nodes":[],"categories_segments":[],"categories_sizes":[],"default_left":[0,0,0,0,0,0,0,0,0],"id":21,"left_children":[1,3,-1,5,7,-1,-1,-1,-1],"loss_changes":[2.4538586E0,5.869913E-1,0E0,3.7385833E-1,1.1472714E-1,0E0,0E0,0E0,0E0],"parents":[2147483647,0,0,1,1,3,3,4,4],"right_children":[2,4,-1,6,8,-1,-1,-1,-1],"split_conditions":[1.3327109E1,5.5888643E0,4.925001E-2,1.1444627E0,8.924844E-2,-3.9714377E-2,5.1873904E-3,1.3293085E-2,-8.160314E-3],"split_indices":[18,18,0,5,21,0,0,0,0],"split_type":[0,0,0,0,0,0,0,0,0],"sum_hessian":[2.5539257E1,1.8950274E1,6.588983E0,1.0909667E1,8.040607E0,8.890424E0,2.0192428E0,4.0685925E0,3.972015E0],"tree_param":{"num_deleted":"0","num_feature":"48","num_nodes":"9","size_leaf_vector":"1"}},{"base_weights":[8.314739E-4,-3.4166998E-1,3.2279724E-1,-4.0439323E-1,-3.9159018E-3,1.2902263E-2,4.9850445E-2,-4.8189472E-2,-1.1745296E-2],"categories":[],"categories_nodes":[],"categories_segments":[],"categories_sizes":[],"default_left":[0,0,0,0,0,0,0,0,0],"id":22,"left_children":[1,3,5,7,-1,-1,-1,-1,-1],"loss_changes":[2.9766028E0,2.3235965E-1,4.0935922E-1,1.8194818E-1,0E0,0E0,0E0,0E0,0E0],"parents":[2147483647,0,0,1,1,2,2,3,3],"right_children":[2,4,6,8,-1,-1,-1,-1,-1],"split_conditions":[1.1840438E1,1.022623E1,3.2861084E1,3.8719207E-2,-3.9159018E-3,1.2902263E-2,4.9850445E-2,-4.8189472E-2,-1.1745296E-2],"split_indices":[18,16,0,43,0,0,0,0,0],"split_type":[0,0,0,0,0,0,0,0,0],"sum_hessian":[2.4992702E1,1.208049E1,1.2912211E1,9.726906E0,2.3535845E0,6.965157E0,5.9470544E0,7.12346E0,2.6034462E0],"tree_param":{"num_deleted":"0","num_feature":"48","num_nodes":"9","size_leaf_vector":"1"}},{"base_weights":[-1.591667E-2,-3.385169E-1,3.1061998E-1,-4.2027622E-2,4.561779E-3,9.542083E-2,4.7791485E-2,2.2080429E-2,-3.5960996E-3],"categories":[],"categories_nodes":[],"categories_segments":[],"categories_sizes":[],"default_left":[0,0,0,0,0,0,0,0,0],"id":23,"left_children":[1,3,5,-1,-1,7,-1,-1,-1],"loss_changes":[2.7359078E0,4.2874956E-1,4.1999483E-1,0E0,0E0,1.217027E-1,0E0,0E0,0E0],"parents":[2147483647,0,0,1,1,2,2,5,5],"right_children":[2,4,6,-1,-1,8,-1,-1,-1],"split_conditions":[6.625531E0,1.1512877E0,6.953148E-1,-4.2027622E-2,4.561779E-3,-8.799251E-3,4.7791485E-2,2.2080429E-2,-3.5960996E-3],"split_indices":[4,5,1,0,0,30,0,0,0],"split_type":[0,0,0,0,0,0,0,0,0],"sum_hessian":[2.397378E1,1.2041124E1,1.1932656E1,9.850463E0,2.190661E0,5.905943E0,6.0267134E0,2.673691E0,3.232252E0],"tree_param":{"num_deleted":"0","num_feature":"48","num_nodes":"9","size_leaf_vector":"1"}},{"base_weights":[2.0152854E-2,-2.5515544E-1,2.9564875E-1,-3.8532633E-2,-5.043693E-2,1.1196273E-2,4.8180968E-2,-2.5962153E-2,1.6722735E-2],"categories":[],"categories_nodes":[],"categories_segments":[],"categories_sizes":[],"default_left":[0,0,0,0,0,0,0,0,0],"id":24,"left_children":[1,3,5,-1,7,-1,-1,-1,-1],"loss_changes":[1.9650764E0,3.2694215E-1,3.8772118E-1,0E0,3.2584727E-1,0E0,0E0,0E0,0E0],"parents":[2147483647,0,0,1,1,2,2,4,4],"right_children":[2,4,6,-1,8,-1,-1,-1,-1],"split_conditions":[6.625531E0,8.2988894E-1,3.2861084E1,-3.8532633E-2,1.3005652E-2,1.1196273E-2,4.8180968E-2,-2.5962153E-2,1.6722735E-2],"split_indices":[4,22,0,0,46,0,0,0,0],"split_type":[0,0,0,0,0,0,0,0,0],"sum_hessian":[2.391407E1,1.1998036E1,1.1916034E1,6.7951155E0,5.202921E0,6.8039594E0,5.1120744E0,2.554845E0,2.6480758E0],"tree_param":{"num_deleted":"0","num_feature":"48","num_nodes":"9","size_leaf_vector":"1"}},{"base_weights":[4.336565E-3,-2.685423E-1,3.0470103E-1,-4.110343E-2,-7.4693136E-2,7.855406E-3,4.82925E-2,1.5323386E-2,-2.0725194E-2],"categories":[],"categories_nodes":[],"categories_segments":[],"categories_sizes":[],"default_left":[0,0,0,0,0,0,0,0,0],"id":25,"left_children":[1,3,5,-1,7,-1,-1,-1,-1],"loss_changes":[1.9861335E0,3.2024664E-1,4.2671108E-1,0E0,2.3131241E-1,0E0,0E0,0E0,0E0],"parents":[2147483647,0,0,1,1,2,2,4,4],"right_children":[2,4,6,-1,8,-1,-1,-1,-1],"split_conditions":[1.108374E1,7.1634257E-1,7.1920156E-1,-4.110343E-2,-2.4262715E-2,7.855406E-3,4.82925E-2,1.5323386E-2,-2.0725194E-2],"split_indices":[4,22,1,0,39,0,0,0,0],"split_type":[0,0,0,0,0,0,0,0,0],"sum_hessian":[2.2233723E1,1.17054E1,1.0528323E1,6.1006417E0,5.6047583E0,5.2752986E0,5.2530246E0,2.0036435E0,3.601115E0],"tree_param":{"num_deleted":"0","num_feature":"48","num_nodes":"9","size_leaf_vector":"1"}},{"base_weights":[-6.3200076E-3,-2.700252E-1,2.9586175E-1,-1.011382E-1,-4.2646334E-2,6.848959E-3,4.7204822E-2,-2.822913E-2,8.2757855E-3],"categories":[],"categories_nodes":[],"categories_segments":[],"categories_sizes":[],"default_left":[0,0,0,0,0,0,0,0,0],"id":26,"left_children":[1,3,5,7,-1,-1,-1,-1,-1],"loss_changes":[1.787144E0,2.729472E-1,3.8673902E-1,2.5867772E-1,0E0,0E0,0E0,0E0,0E0],"parents":[2147483647,0,0,1,1,2,2,3,3],"right_children":[2,4,6,8,-1,-1,-1,-1,-1],"split_conditions":[1.108374E1,-3.5353747E-1,3.2861084E1,1.6037607E-1,-4.2646334E-2,6.848959E-3,4.7204822E-2,-2.822913E-2,8.2757855E-3],"split_indices":[4,1,0,8,0,0,0,0,0],"split_type":[0,0,0,0,0,0,0,0,0],"sum_hessian":[2.0424524E1,1.0963453E1,9.461071E0,6.063714E0,4.8997393E0,4.73683E0,4.724241E0,2.7850986E0,3.2786157E0],"tree_param":{"num_deleted":"0","num_feature":"48","num_nodes":"9","size_leaf_vector":"1"}},{"base_weights":[3.8640402E-2,-2.1638642E-1,2.7996564E-1,-2.9981673E-1,9.501206E-3,1.0475625E-2,4.608207E-2,-3.824658E-2,-2.063888E-3],"categories":[],"categories_nodes":[],"categories_segments":[],"categories_sizes":[],"default_left":[0,0,0,0,0,0,0,0,0],"id":27,"left_children":[1,3,5,7,-1,-1,-1,-1,-1],"loss_changes":[1.3531643E0,3.0843157E-1,3.074838E-1,1.9375074E-1,0E0,0E0,0E0,0E0,0E0],"parents":[2147483647,0,0,1,1,2,2,3,3],"right_children":[2,4,6,8,-1,-1,-1,-1,-1],"split_conditions":[1.1875635E1,3.9757363E-2,3.2861084E1,-1.1757183E0,9.501206E-3,1.0475625E-2,4.608207E-2,-3.824658E-2,-2.063888E-3],"split_indices":[18,34,0,14,0,0,0,0,0],"split_type":[0,0,0,0,0,0,0,0,0],"sum_hessian":[2.0002453E1,9.775392E0,1.0227062E1,7.739111E0,2.0362802E0,5.9967437E0,4.2303185E0,5.6858687E0,2.053242E0],"tree_param":{"num_deleted":"0","num_feature":"48","num_nodes":"9","size_leaf_vector":"1"}},{"base_weights":[2.7392458E-2,-1.9919884E-1,3.225615E-1,-2.632662E-1,7.1070166E-3,1.0037105E-2,4.5065254E-2,-3.763774E-2,-2.7334073E-3],"categories":[],"categories_nodes":[],"categories_segments":[],"categories_sizes":[],"default_left":[0,0,0,0,0,0,0,0,0],"id":28,"left_children":[1,3,5,7,-1,-1,-1,-1,-1],"loss_changes":[1.360313E0,2.1923578E-1,2.0514494E-1,2.4521309E-1,0E0,0E0,0E0,0E0,0E0],"parents":[2147483647,0,0,1,1,2,2,3,3],"right_children":[2,4,6,8,-1,-1,-1,-1,-1],"split_conditions":[1.1166874E1,5.0620843E-2,1.3327109E1,-1.1949939E0,7.1070166E-3,1.0037105E-2,4.5065254E-2,-3.763774E-2,-2.7334073E-3],"split_indices":[4,34,18,14,0,0,0,0,0],"split_type":[0,0,0,0,0,0,0,0,0],"sum_hessian":[1.8378078E1,1.058074E1,7.7973394E0,8.574145E0,2.006594E0,3.5035572E0,4.293782E0,5.393231E0,3.1809149E0],"tree_param":{"num_deleted":"0","num_feature":"48","num_nodes":"9","size_leaf_vector":"1"}},{"base_weights":[1.4273658E-2,-2.49797E-1,2.9589906E-1,-3.8624283E-2,-6.837162E-2,9.281051E-3,4.4518586E-2,-2.4499059E-2,1.3401668E-2],"categories":[],"categories_nodes":[],"categories_segments":[],"categories_sizes":[],"default_left":[0,0,0,0,0,0,0,0,0],"id":29,"left_children":[1,3,5,-1,7,-1,-1,-1,-1],"loss_changes":[1.4957999E0,2.3127478E-1,2.5307077E-1,0E0,2.3598686E-1,0E0,0E0,0E0,0E0],"parents":[2147483647,0,0,1,1,2,2,4,4],"right_children":[2,4,6,-1,8,-1,-1,-1,-1],"split_conditions":[1.108374E1,7.1634257E-1,2.0373838E1,-3.8624283E-2,1.3005652E-2,9.281051E-3,4.4518586E-2,-2.4499059E-2,1.3401668E-2],"split_indices":[4,22,4,0,46,0,0,0,0],"split_type":[0,0,0,0,0,0,0,0,0],"sum_hessian":[1.8119324E1,9.409432E0,8.709891E0,4.7261043E0,4.683328E0,4.377063E0,4.3328285E0,2.3884728E0,2.2948556E0],"tree_param":{"num_deleted":"0","num_feature":"48","num_nodes":"9","size_leaf_vector":"1"}},{"base_weights":[2.3307137E-3,-2.6467445E-1,2.7713183E-1,-4.010445E-2,-1.2799627E-1,8.464838E-3,4.4005882E-2,-2.5631076E-2,7.451421E-3],"categories":[],"categories_nodes":[],"categories_segments":[],"categories_sizes":[],"default_left":[0,0,0,0,0,0,0,0,0],"id":30,"left_children":[1,3,5,-1,7,-1,-1,-1,-1],"loss_changes":[1.4544201E0,1.3614023E-1,2.6896697E-1,0E0,1.877982E-1,0E0,0E0,0E0,0E0],"parents":[2147483647,0,0,1,1,2,2,4,4],"right_children":[2,4,6,-1,8,-1,-1,-1,-1],"split_conditions":[1.108374E1,-1.2231155E-1,7.1920156E-1,-4.010445E-2,2.1948062E-2,8.464838E-3,4.4005882E-2,-2.5631076E-2,7.451421E-3],"split_indices":[4,2,1,0,46,0,0,0,0],"split_type":[0,0,0,0,0,0,0,0,0],"sum_hessian":[1.7822517E1,9.058172E0,8.764345E0,3.5659935E0,5.4921784E0,4.7143345E0,4.05001E0,3.1993456E0,2.2928329E0],"tree_param":{"num_deleted":"0","num_feature":"48","num_nodes":"9","size_leaf_vector":"1"}},{"base_weights":[1.857932E-3,-2.476019E-1,2.655862E-1,-3.2482207E-2,1.45574E-3,9.315212E-3,4.1240178E-2],"categories":[],"categories_nodes":[],"categories_segments":[],"categories_sizes":[],"default_left":[0,0,0,0,0,0,0],"id":31,"left_children":[1,3,5,-1,-1,-1,-1],"loss_changes":[1.2103552E0,1.9620204E-1,1.8789709E-1,0E0,0E0,0E0,0E0],"parents":[2147483647,0,0,1,1,2,2],"right_children":[2,4,6,-1,-1,-1,-1],"split_conditions":[5.628481E0,3.3541765E-2,6.953148E-1,-3.2482207E-2,1.45574E-3,9.315212E-3,4.1240178E-2],"split_indices":[18,12,1,0,0,0,0],"split_type":[0,0,0,0,0,0,0],"sum_hessian":[1.6397818E1,8.458291E0,7.9395266E0,6.3491077E0,2.1091833E0,4.4028673E0,3.536659E0],"tree_param":{"num_deleted":"0","num_feature":"48","num_nodes":"7","size_leaf_vector":"1"}},{"base_weights":[-1.606713E-2,-3.0241344E-2,2.1077977E-1,4.257174E-3,4.077764E-2],"categories":[],"categories_nodes":[],"categories_segments":[],"categories_sizes":[],"default_left":[0,0,0,0,0],"id":32,"left_children":[1,-1,3,-1,-1],"loss_changes":[1.1066506E0,0E0,2.9901722E-1,0E0,0E0],"parents":[2147483647,0,0,2,2],"right_children":[2,-1,4,-1,-1],"split_conditions":[5.579145E0,-3.0241344E-2,5.1313007E-1,4.257174E-3,4.077764E-2],"split_indices":[18,0,20,0,0],"split_type":[0,0,0,0,0],"sum_hessian":[1.5055416E1,6.5077014E0,8.547715E0,5.2667437E0,3.2809715E0],"tree_param":{"num_deleted":"0","num_feature":"48","num_nodes":"5","size_leaf_vector":"1"}},{"base_weights":[-2.1257668E-3,-2.4556383E-1,2.610746E-1,-3.6536478E-2,-4.378263E-3,8.263176E-3,4.243351E-2],"categories":[],"categories_nodes":[],"categories_segments":[],"categories_sizes":[],"default_left":[0,0,0,0,0,0,0],"id":33,"left_children":[1,3,5,-1,-1,-1,-1],"loss_changes":[1.1302665E0,2.0542592E-1,2.1198195E-1,0E0,0E0,0E0,0E0],"parents":[2147483647,0,0,1,1,2,2],"right_children":[2,4,6,-1,-1,-1,-1],"split_conditions":[6.6092863E0,8.2988894E-1,2.4832302E1,-3.6536478E-2,-4.378263E-3,8.263176E-3,4.243351E-2],"split_indices":[4,22,4,0,0,0,0],"split_type":[0,0,0,0,0,0,0],"sum_hessian":[1.5639712E1,8.159694E0,7.4800186E0,4.6112304E0,3.5484633E0,4.2934427E0,3.1865757E0],"tree_param":{"num_deleted":"0","num_feature":"48","num_nodes":"7","size_leaf_vector":"1"}},{"base_weights":[-1.2511087E-2,-2.4952245E-1,2.3558612E-1,-3.4559496E-2,1.5987412E-3,9.955436E-3,3.8956303E-2],"categories":[],"categories_nodes":[],"categories_segments":[],"categories_sizes":[],"default_left":[0,0,0,0,0,0,0],"id":34,"left_children":[1,3,5,-1,-1,-1,-1],"loss_changes":[9.456463E-1,2.1466881E-1,1.2633556E-1,0E0,0E0,0E0,0E0],"parents":[2147483647,0,0,1,1,2,2],"right_children":[2,4,6,-1,-1,-1,-1],"split_conditions":[6.6216784E0,4.2963898E-1,3.2861084E1,-3.4559496E-2,1.5987412E-3,9.955436E-3,3.8956303E-2],"split_indices":[4,2,0,0,0,0,0],"split_type":[0,0,0,0,0,0,0],"sum_hessian":[1.4082215E1,7.199075E0,6.88314E0,5.0647945E0,2.134281E0,4.5287466E0,2.3543935E0],"tree_param":{"num_deleted":"0","num_feature":"48","num_nodes":"7","size_leaf_vector":"1"}},{"base_weights":[-2.1293543E-2,-2.9413152E-2,1.9409247E-1,5.339121E-3,3.869801E-2],"categories":[],"categories_nodes":[],"categories_segments":[],"categories_sizes":[],"default_left":[0,0,0,0,0],"id":35,"left_children":[1,-1,3,-1,-1],"loss_changes":[9.3591136E-1,0E0,2.2250146E-1,0E0,0E0],"parents":[2147483647,0,0,2,2],"right_children":[2,-1,4,-1,-1],"split_conditions":[5.579145E0,-2.9413152E-2,7.1920156E-1,5.339121E-3,3.869801E-2],"split_indices":[18,0,1,0,0],"split_type":[0,0,0,0,0],"sum_hessian":[1.3954742E1,5.995017E0,7.959726E0,5.3407397E0,2.6189861E0],"tree_param":{"num_deleted":"0","num_feature":"48","num_nodes":"5","size_leaf_vector":"1"}},{"base_weights":[1.96624E-2,-2.0474488E-1,2.4863426E-1,-3.4402363E-2,-4.090473E-3,9.331107E-3,4.0147703E-2],"categories":[],"categories_nodes":[],"categories_segments":[],"categories_sizes":[],"default_left":[0,0,0,0,0,0,0],"id":36,"left_children":[1,3,5,-1,-1,-1,-1],"loss_changes":[8.1176156E-1,1.6909298E-1,1.4725482E-1,0E0,0E0,0E0,0E0],"parents":[2147483647,0,0,1,1,2,2],"right_children":[2,4,6,-1,-1,-1,-1],"split_conditions":[5.634922E0,3.883566E-1,3.2861084E1,-3.4402363E-2,-4.090473E-3,9.331107E-3,4.0147703E-2],"split_indices":[18,23,0,0,0,0,0],"split_type":[0,0,0,0,0,0,0],"sum_hessian":[1.3807537E1,7.026712E0,6.7808256E0,3.2036078E0,3.8231041E0,4.1618934E0,2.6189318E0],"tree_param":{"num_deleted":"0","num_feature":"48","num_nodes":"7","size_leaf_vector":"1"}},{"base_weights":[-1.43177435E-2,-3.2931253E-2,2.0910099E-1,5.0238646E-3,4.0351566E-2],"categories":[],"categories_nodes":[],"categories_segments":[],"categories_sizes":[],"default_left":[0,0,0,0,0],"id":37,"left_children":[1,-1,3,-1,-1],"loss_changes":[1.026052E0,0E0,2.4437982E-1,0E0,0E0],"parents":[2147483647,0,0,2,2],"right_children":[2,-1,4,-1,-1],"split_conditions":[2.0055876E0,-3.2931253E-2,3.2861084E1,5.0238646E-3,4.0351566E-2],"split_indices":[4,0,0,0,0],"split_type":[0,0,0,0,0],"sum_hessian":[1.26011715E1,5.0322733E0,7.5688977E0,4.8578253E0,2.7110724E0],"tree_param":{"num_deleted":"0","num_feature":"48","num_nodes":"5","size_leaf_vector":"1"}},{"base_weights":[-2.4040742E-3,-2.3975956E-1,2.3388445E-1,-3.531548E-2,-2.814713E-3,4.426439E-3,3.840897E-2],"categories":[],"categories_nodes":[],"categories_segments":[],"categories_sizes":[],"default_left":[0,0,0,0,0,0,0],"id":38,"left_children":[1,3,5,-1,-1,-1,-1],"loss_changes":[7.920762E-1,1.5900388E-1,1.847224E-1,0E0,0E0,0E0,0E0],"parents":[2147483647,0,0,1,1,2,2],"right_children":[2,4,6,-1,-1,-1,-1],"split_conditions":[5.628481E0,7.1634257E-1,6.953148E-1,-3.531548E-2,-2.814713E-3,4.426439E-3,3.840897E-2],"split_indices":[18,22,1,0,0,0,0],"split_type":[0,0,0,0,0,0,0],"sum_hessian":[1.2123085E1,6.04056E0,6.0825257E0,3.4975026E0,2.5430572E0,3.2607834E0,2.8217423E0],"tree_param":{"num_deleted":"0","num_feature":"48","num_nodes":"7","size_leaf_vector":"1"}},{"base_weights":[1.6544148E-2,-2.0535304E-1,2.4336806E-2,-1.5676776E-3,-3.140062E-2],"categories":[],"categories_nodes":[],"categories_segments":[],"categories_sizes":[],"default_left":[0,0,0,0,0],"id":39,"left_children":[1,3,-1,-1,-1],"loss_changes":[6.9281006E-1,1.3930821E-1,0E0,0E0,0E0],"parents":[2147483647,0,0,1,1],"right_children":[2,4,-1,-1,-1],"split_conditions":[1.108374E1,-2.4256708E-2,2.4336806E-2,-1.5676776E-3,-3.140062E-2],"split_indices":[4,44,0,0,0],"split_type":[0,0,0,0,0],"sum_hessian":[1.1771974E1,5.9984612E0,5.773513E0,2.6014256E0,3.3970356E0],"tree_param":{"num_deleted":"0","num_feature":"48","num_nodes":"5","size_leaf_vector":"1"}},{"base_weights":[2.214132E-2,-1.8126893E-1,2.5095275E-1,-3.1925384E-2,-7.3250115E-4,7.57424E-3,3.729394E-2],"categories":[],"categories_nodes":[],"categories_segments":[],"categories_sizes":[],"default_left":[0,0,0,0,0,0,0],"id":40,"left_children":[1,3,5,-1,-1,-1,-1],"loss_changes":[6.2084883E-1,1.6866958E-1,1.05060935E-1,0E0,0E0,0E0,0E0],"parents":[2147483647,0,0,1,1,2,2],"right_children":[2,4,6,-1,-1,-1,-1],"split_conditions":[1.1875635E1,7.1634257E-1,1.3327109E1,-3.1925384E-2,-7.3250115E-4,7.57424E-3,3.729394E-2],"split_indices":[18,22,18,0,0,0,0],"split_type":[0,0,0,0,0,0,0],"sum_hessian":[1.1361987E1,6.1248546E0,5.237132E0,2.9496195E0,3.1752348E0,2.8149319E0,2.4222004E0],"tree_param":{"num_deleted":"0","num_feature":"48","num_nodes":"7","size_leaf_vector":"1"}},{"base_weights":[2.996221E-2,-1.5123892E-1,2.2697766E-1,-9.806828E-4,-3.3166237E-2,7.4480544E-3,3.690706E-2],"categories":[],"categories_nodes":[],"categories_segments":[],"categories_sizes":[],"default_left":[0,0,0,0,0,0,0],"id":41,"left_children":[1,3,5,-1,-1,-1,-1],"loss_changes":[4.7959706E-1,1.778527E-1,1.10660106E-1,0E0,0E0,0E0,0E0],"parents":[2147483647,0,0,1,1,2,2],"right_children":[2,4,6,-1,-1,-1,-1],"split_conditions":[6.6216784E0,1.9317135E-2,3.2861084E1,-9.806828E-4,-3.3166237E-2,7.4480544E-3,3.690706E-2],"split_indices":[4,30,0,0,0,0,0],"split_type":[0,0,0,0,0,0,0],"sum_hessian":[1.1472729E1,6.097251E0,5.375478E0,4.008995E0,2.0882556E0,3.3279836E0,2.0474942E0],"tree_param":{"num_deleted":"0","num_feature":"48","num_nodes":"7","size_leaf_vector":"1"}},{"base_weights":[-1.1989696E-2,-1.3192017E-1,3.4945693E-2,-2.5502844E-2,-3.9818464E-4],"categories":[],"categories_nodes":[],"categories_segments":[],"categories_sizes":[],"default_left":[0,0,0,0,0],"id":42,"left_children":[1,3,-1,-1,-1],"loss_changes":[5.709078E-1,1.535953E-1,0E0,0E0,0E0],"parents":[2147483647,0,0,1,1],"right_children":[2,4,-1,-1,-1],"split_conditions":[1.3327109E1,5.521909E0,3.4945693E-2,-2.5502844E-2,-3.9818464E-4],"split_indices":[18,18,0,0,0],"split_type":[0,0,0,0,0],"sum_hessian":[1.1106712E1,8.816394E0,2.2903187E0,3.9867687E0,4.8296256E0],"tree_param":{"num_deleted":"0","num_feature":"48","num_nodes":"5","size_leaf_vector":"1"}},{"base_weights":[8.88065E-3,-2.0985534E-2,2.0434784E-2],"categories":[],"categories_nodes":[],"categories_segments":[],"categories_sizes":[],"default_left":[0,0,0],"id":43,"left_children":[1,-1,-1],"loss_changes":[5.2642757E-1,0E0,0E0],"parents":[2147483647,0,0],"right_children":[2,-1,-1],"split_conditions":[5.579145E0,-2.0985534E-2,2.0434784E-2],"split_indices":[18,0,0],"split_type":[0,0,0],"sum_hessian":[1.03094635E1,4.8304157E0,5.4790473E0],"tree_param":{"num_deleted":"0","num_feature":"48","num_nodes":"3","size_leaf_vector":"1"}},{"base_weights":[1.544294E-2,-1.0175902E-1,3.4301303E-2,-1.8325435E-2,5.49836E-3],"categories":[],"categories_nodes":[],"categories_segments":[],"categories_sizes":[],"default_left":[0,0,0,0,0],"id":44,"left_children":[1,3,-1,-1,-1],"loss_changes":[4.5866904E-1,1.23769E-1,0E0,0E0,0E0],"parents":[2147483647,0,0,1,1],"right_children":[2,4,-1,-1,-1],"split_conditions":[1.3327109E1,1.7882988E-2,3.4301303E-2,-1.8325435E-2,5.49836E-3],"split_indices":[18,42,0,0,0],"split_type":[0,0,0,0,0],"sum_hessian":[1.0037872E1,7.900491E0,2.1373806E0,5.086645E0,2.8138459E0],"tree_param":{"num_deleted":"0","num_feature":"48","num_nodes":"5","size_leaf_vector":"1"}},{"base_weights":[-1.6873019E-2,-2.0039593E-1,2.0987941E-2,-3.383287E-2,-5.783419E-3],"categories":[],"categories_nodes":[],"categories_segments":[],"categories_sizes":[],"default_left":[0,0,0,0,0],"id":45,"left_children":[1,3,-1,-1,-1],"loss_changes":[4.8943713E-1,1.0732901E-1,0E0,0E0,0E0],"parents":[2147483647,0,0,1,1],"right_children":[2,4,-1,-1,-1],"split_conditions":[5.634922E0,-7.32932E-2,2.0987941E-2,-3.383287E-2,-5.783419E-3],"split_indices":[18,3,0,0,0],"split_type":[0,0,0,0,0],"sum_hessian":[9.750595E0,5.4532347E0,4.297361E0,2.0736792E0,3.3795555E0],"tree_param":{"num_deleted":"0","num_feature":"48","num_nodes":"5","size_leaf_vector":"1"}},{"base_weights":[1.5200203E-2,-1.9056037E-1,2.0054382E-1,-3.1654146E-2,-2.8378775E-3,5.5084885E-3,3.450168E-2],"categories":[],"categories_nodes":[],"categories_segments":[],"categories_sizes":[],"default_left":[0,0,0,0,0,0,0],"id":46,"left_children":[1,3,5,-1,-1,-1,-1],"loss_changes":[4.6547437E-1,1.09971985E-1,1.15098774E-1,0E0,0E0,0E0,0E0],"parents":[2147483647,0,0,1,1,2,2],"right_children":[2,4,6,-1,-1,-1,-1],"split_conditions":[6.488014E0,4.2476168E-1,1.9202568E1,-3.1654146E-2,-2.8378775E-3,5.5084885E-3,3.450168E-2],"split_indices":[4,23,0,0,0,0,0],"split_type":[0,0,0,0,0,0,0],"sum_hessian":[1.0203431E1,4.8220506E0,5.381381E0,2.178242E0,2.6438084E0,3.3698325E0,2.0115488E0],"tree_param":{"num_deleted":"0","num_feature":"48","num_nodes":"7","size_leaf_vector":"1"}},{"base_weights":[-2.692446E-2,-2.9671377E-2,2.2284282E-2],"categories":[],"categories_nodes":[],"categories_segments":[],"categories_sizes":[],"default_left":[0,0,0],"id":47,"left_children":[1,-1,-1],"loss_changes":[7.49305E-1,0E0,0E0],"parents":[2147483647,0,0],"right_children":[2,-1,-1],"split_conditions":[5.634922E0,-2.9671377E-2,2.2284282E-2],"split_indices":[18,0,0],"split_type":[0,0,0],"sum_hessian":[9.138593E0,4.3028517E0,4.835741E0],"tree_param":{"num_deleted":"0","num_feature":"48","num_nodes":"3","size_leaf_vector":"1"}},{"base_weights":[-5.840544E-3,-1.9556409E-2,2.0647952E-2],"categories":[],"categories_nodes":[],"categories_segments":[],"categories_sizes":[],"default_left":[0,0,0],"id":48,"left_children":[1,-1,-1],"loss_changes":[4.5599496E-1,0E0,0E0],"parents":[2147483647,0,0],"right_children":[2,-1,-1],"split_conditions":[1.1840438E1,-1.9556409E-2,2.0647952E-2],"split_indices":[18,0,0],"split_type":[0,0,0],"sum_hessian":[9.317606E0,4.9623237E0,4.3552823E0],"tree_param":{"num_deleted":"0","num_feature":"48","num_nodes":"3","size_leaf_vector":"1"}},{"base_weights":[6.2722676E-3,-1.8521214E-1,1.9334177E-2,-2.9323453E-2,-1.7136913E-3],"categories":[],"categories_nodes":[],"categories_segments":[],"categories_sizes":[],"default_left":[0,0,0,0,0],"id":49,"left_children":[1,3,-1,-1,-1],"loss_changes":[4.207477E-1,1.0066345E-1,0E0,0E0,0E0],"parents":[2147483647,0,0,1,1],"right_children":[2,4,-1,-1,-1],"split_conditions":[6.488014E0,8.827634E-1,1.9334177E-2,-2.9323453E-2,-1.7136913E-3],"split_indices":[4,22,0,0,0],"split_type":[0,0,0,0,0],"sum_hessian":[9.7462015E0,4.821174E0,4.925027E0,2.4815881E0,2.339586E0],"tree_param":{"num_deleted":"0","num_feature":"48","num_nodes":"5","size_leaf_vector":"1"}},{"base_weights":[1.0667062E-2,-1.991235E-1,1.8616972E-2,-3.4544835E-4,-3.22687E-2],"categories":[],"categories_nodes":[],"categories_segments":[],"categories_sizes":[],"default_left":[0,0,0,0,0],"id":50,"left_children":[1,3,-1,-1,-1],"loss_changes":[4.1428757E-1,1.2339799E-1,0E0,0E0,0E0],"parents":[2147483647,0,0,1,1],"right_children":[2,4,-1,-1,-1],"split_conditions":[5.579145E0,-2.4256708E-2,1.8616972E-2,-3.4544835E-4,-3.22687E-2],"split_indices":[18,44,0,0,0],"split_type":[0,0,0,0,0],"sum_hessian":[9.245222E0,4.149931E0,5.095291E0,2.0041752E0,2.1457558E0],"tree_param":{"num_deleted":"0","num_feature":"48","num_nodes":"5","size_leaf_vector":"1"}},{"base_weights":[1.4890896E-3,-2.345326E-2,1.4412718E-1,2.8377814E-2,9.059496E-4],"categories":[],"categories_nodes":[],"categories_segments":[],"categories_sizes":[],"default_left":[0,0,0,0,0],"id":51,"left_children":[1,-1,3,-1,-1],"loss_changes":[3.637696E-1,0E0,1.2434615E-1,0E0,0E0],"parents":[2147483647,0,0,2,2],"right_children":[2,-1,4,-1,-1],"split_conditions":[-2.5784712E0,-2.345326E-2,-6.2953126E-1,2.8377814E-2,9.059496E-4],"split_indices":[4,0,24,0,0],"split_type":[0,0,0,0,0],"sum_hessian":[8.801289E0,3.072691E0,5.7285976E0,2.2751932E0,3.4534044E0],"tree_param":{"num_deleted":"0","num_feature":"48","num_nodes":"5","size_leaf_vector":"1"}},{"base_weights":[-1.6105888E-2,-2.210312E-2,2.0285701E-2],"categories":[],"categories_nodes":[],"categories_segments":[],"categories_sizes":[],"default_left":[0,0,0],"id":52,"left_children":[1,-1,-1],"loss_changes":[4.7622827E-1,0E0,0E0],"parents":[2147483647,0,0],"right_children":[2,-1,-1],"split_conditions":[5.628481E0,-2.210312E-2,2.0285701E-2],"split_indices":[18,0,0],"split_type":[0,0,0],"sum_hessian":[8.614008E0,4.4447565E0,4.1692514E0],"tree_param":{"num_deleted":"0","num_feature":"48","num_nodes":"3","size_leaf_vector":"1"}},{"base_weights":[1.1855446E-2,-1.0368847E-2,2.2682698E-2],"categories":[],"categories_nodes":[],"categories_segments":[],"categories_sizes":[],"default_left":[0,0,0],"id":53,"left_children":[1,-1,-1],"loss_changes":[2.5671133E-1,0E0,0E0],"parents":[2147483647,0,0],"right_children":[2,-1,-1],"split_conditions":[1.2661592E1,-1.0368847E-2,2.2682698E-2],"split_indices":[18,0,0],"split_type":[0,0,0],"sum_hessian":[8.38827E0,5.7925353E0,2.5957353E0],"tree_param":{"num_deleted":"0","num_feature":"48","num_nodes":"3","size_leaf_vector":"1"}},{"base_weights":[4.7053277E-2,-7.1344734E-3,2.613014E-2],"categories":[],"categories_nodes":[],"categories_segments":[],"categories_sizes":[],"default_left":[0,0,0],"id":54,"left_children":[1,-1,-1],"loss_changes":[2.5121355E-1,0E0,0E0],"parents":[2147483647,0,0],"right_children":[2,-1,-1],"split_conditions":[1.5809963E1,-7.1344734E-3,2.613014E-2],"split_indices":[4,0,0],"split_type":[0,0,0],"sum_hessian":[8.168416E0,5.690645E0,2.4777706E0],"tree_param":{"num_deleted":"0","num_feature":"48","num_nodes":"3","size_leaf_vector":"1"}},{"base_weights":[7.7643846E-3,-1.13069415E-2,2.4339406E-2],"categories":[],"categories_nodes":[],"categories_segments":[],"categories_sizes":[],"default_left":[0,0,0],"id":55,"left_children":[1,-1,-1],"loss_changes":[2.9780653E-1,0E0,0E0],"parents":[2147483647,0,0],"right_children":[2,-1,-1],"split_conditions":[1.2711194E1,-1.13069415E-2,2.4339406E-2],"split_indices":[18,0,0],"split_type":[0,0,0],"sum_hessian":[8.493039E0,5.9578958E0,2.5351431E0],"tree_param":{"num_deleted":"0","num_feature":"48","num_nodes":"3","size_leaf_vector":"1"}},{"base_weights":[1.2322068E-2,-8.2756065E-2,2.1659495E-2,-2.0315062E-2,9.28705E-3],"categories":[],"categories_nodes":[],"categories_segments":[],"categories_sizes":[],"default_left":[0,0,0,0,0],"id":56,"left_children":[1,3,-1,-1,-1],"loss_changes":[1.8533807E-1,1.5853876E-1,0E0,0E0,0E0],"parents":[2147483647,0,0,1,1],"right_children":[2,4,-1,-1,-1],"split_conditions":[1.5809963E1,1.0240384E-2,2.1659495E-2,-2.0315062E-2,9.28705E-3],"split_indices":[4,46,0,0,0],"split_type":[0,0,0,0,0],"sum_hessian":[7.619839E0,5.605604E0,2.014235E0,3.2327726E0,2.3728313E0],"tree_param":{"num_deleted":"0","num_feature":"48","num_nodes":"5","size_leaf_vector":"1"}},{"base_weights":[1.157427E-2,-1.8447284E-2,1.3948292E-2],"categories":[],"categories_nodes":[],"categories_segments":[],"categories_sizes":[],"default_left":[0,0,0],"id":57,"left_children":[1,-1,-1],"loss_changes":[2.5660342E-1,0E0,0E0],"parents":[2147483647,0,0],"right_children":[2,-1,-1],"split_conditions":[5.5231924E0,-1.8447284E-2,1.3948292E-2],"split_indices":[18,0,0],"split_type":[0,0,0],"sum_hessian":[8.206871E0,3.0657446E0,5.1411266E0],"tree_param":{"num_deleted":"0","num_feature":"48","num_nodes":"3","size_leaf_vector":"1"}},{"base_weights":[9.740068E-3,-1.974458E-2,1.4754126E-2],"categories":[],"categories_nodes":[],"categories_segments":[],"categories_sizes":[],"default_left":[0,0,0],"id":58,"left_children":[1,-1,-1],"loss_changes":[2.8103307E-1,0E0,0E0],"parents":[2147483647,0,0],"right_children":[2,-1,-1],"split_conditions":[5.5307713E0,-1.974458E-2,1.4754126E-2],"split_indices":[18,0,0],"split_type":[0,0,0],"sum_hessian":[7.8230333E0,2.951933E0,4.8711004E0],"tree_param":{"num_deleted":"0","num_feature":"48","num_nodes":"3","size_leaf_vector":"1"}},{"base_weights":[-5.950866E-3,-1.9617928E-2,1.1464856E-2],"categories":[],"categories_nodes":[],"categories_segments":[],"categories_sizes":[],"default_left":[0,0,0],"id":59,"left_children":[1,-1,-1],"loss_changes":[2.2227314E-1,0E0,0E0],"parents":[2147483647,0,0],"right_children":[2,-1,-1],"split_conditions":[5.5231924E0,-1.9617928E-2,1.1464856E-2],"split_indices":[18,0,0],"split_type":[0,0,0],"sum_hessian":[7.7083244E0,2.7476292E0,4.9606953E0],"tree_param":{"num_deleted":"0","num_feature":"48","num_nodes":"3","size_leaf_vector":"1"}},{"base_weights":[-4.3777887E-2,-2.841184E-2,1.7275156E-2],"categories":[],"categories_nodes":[],"categories_segments":[],"categories_sizes":[],"default_left":[0,0,0],"id":60,"left_children":[1,-1,-1],"loss_changes":[4.9114498E-1,0E0,0E0],"parents":[2147483647,0,0],"right_children":[2,-1,-1],"split_conditions":[6.488014E0,-2.841184E-2,1.7275156E-2],"split_indices":[4,0,0],"split_type":[0,0,0],"sum_hessian":[7.4945498E0,3.4040363E0,4.0905137E0],"tree_param":{"num_deleted":"0","num_feature":"48","num_nodes":"3","size_leaf_vector":"1"}},{"base_weights":[1.24647245E-2,-1.5656857E-2,1.5135777E-2],"categories":[],"categories_nodes":[],"categories_segments":[],"categories_sizes":[],"default_left":[0,0,0],"id":61,"left_children":[1,-1,-1],"loss_changes":[2.3111255E-1,0E0,0E0],"parents":[2147483647,0,0],"right_children":[2,-1,-1],"split_conditions":[5.579145E0,-1.5656857E-2,1.5135777E-2],"split_indices":[18,0,0],"split_type":[0,0,0],"sum_hessian":[7.8345976E0,3.4764664E0,4.358131E0],"tree_param":{"num_deleted":"0","num_feature":"48","num_nodes":"3","size_leaf_vector":"1"}},{"base_weights":[-4.102605E-4,-1.5832053E-2,1.8201014E-2],"categories":[],"categories_nodes":[],"categories_segments":[],"categories_sizes":[],"default_left":[0,0,0],"id":62,"left_children":[1,-1,-1],"loss_changes":[2.7973104E-1,0E0,0E0],"parents":[2147483647,0,0],"right_children":[2,-1,-1],"split_conditions":[6.6216784E0,-1.5832053E-2,1.8201014E-2],"split_indices":[4,0,0],"split_type":[0,0,0],"sum_hessian":[7.710498E0,4.2037115E0,3.5067863E0],"tree_param":{"num_deleted":"0","num_feature":"48","num_nodes":"3","size_leaf_vector":"1"}},{"base_weights":[1.976503E-3,-2.254411E-2,1.3363837E-2],"categories":[],"categories_nodes":[],"categories_segments":[],"categories_sizes":[],"default_left":[0,0,0],"id":63,"left_children":[1,-1,-1],"loss_changes":[2.676719E-1,0E0,0E0],"parents":[2147483647,0,0],"right_children":[2,-1,-1],"split_conditions":[5.527906E0,-2.254411E-2,1.3363837E-2],"split_indices":[18,0,0],"split_type":[0,0,0],"sum_hessian":[6.933423E0,2.2810779E0,4.652345E0],"tree_param":{"num_deleted":"0","num_feature":"48","num_nodes":"3","size_leaf_vector":"1"}},{"base_weights":[6.2878866E-4,-1.0682383E-1,2.1611314E-2,-2.4277937E-2,2.3042152E-3],"categories":[],"categories_nodes":[],"categories_segments":[],"categories_sizes":[],"default_left":[0,0,0,0,0],"id":64,"left_children":[1,3,-1,-1,-1],"loss_changes":[2.1063334E-1,1.1283609E-1,0E0,0E0,0E0],"parents":[2147483647,0,0,1,1],"right_children":[2,4,-1,-1,-1],"split_conditions":[1.5809963E1,-3.626103E-1,2.1611314E-2,-2.4277937E-2,2.3042152E-3],"split_indices":[4,3,0,0,0],"split_type":[0,0,0,0,0],"sum_hessian":[7.0998707E0,5.073967E0,2.0259037E0,2.054094E0,3.0198731E0],"tree_param":{"num_deleted":"0","num_feature":"48","num_nodes":"5","size_leaf_vector":"1"}},{"base_weights":[1.3645023E-2,-1.5311891E-2,9.775179E-3],"categories":[],"categories_nodes":[],"categories_segments":[],"categories_sizes":[],"default_left":[0,0,0],"id":65,"left_children":[1,-1,-1],"loss_changes":[1.2790692E-1,0E0,0E0],"parents":[2147483647,0,0],"right_children":[2,-1,-1],"split_conditions":[-2.6128561E1,-1.5311891E-2,9.775179E-3],"split_indices":[14,0,0],"split_type":[0,0,0],"sum_hessian":[7.052151E0,2.08921E0,4.962941E0],"tree_param":{"num_deleted":"0","num_feature":"48","num_nodes":"3","size_leaf_vector":"1"}},{"base_weights":[-9.676347E-3,-1.1509662E-2,2.097834E-2],"categories":[],"categories_nodes":[],"categories_segments":[],"categories_sizes":[],"default_left":[0,0,0],"id":66,"left_children":[1,-1,-1],"loss_changes":[2.2266416E-1,0E0,0E0],"parents":[2147483647,0,0],"right_children":[2,-1,-1],"split_conditions":[1.5809963E1,-1.1509662E-2,2.097834E-2],"split_indices":[4,0,0],"split_type":[0,0,0],"sum_hessian":[7.5806994E0,5.4420753E0,2.1386242E0],"tree_param":{"num_deleted":"0","num_feature":"48","num_nodes":"3","size_leaf_vector":"1"}},{"base_weights":[5.1611634E-3,-2.1302184E-2,1.1536807E-2],"categories":[],"categories_nodes":[],"categories_segments":[],"categories_sizes":[],"default_left":[0,0,0],"id":67,"left_children":[1,-1,-1],"loss_changes":[2.1832399E-1,0E0,0E0],"parents":[2147483647,0,0],"right_children":[2,-1,-1],"split_conditions":[-2.6128561E1,-2.1302184E-2,1.1536807E-2],"split_indices":[14,0,0],"split_type":[0,0,0],"sum_hessian":[7.0576367E0,2.055439E0,5.002198E0],"tree_param":{"num_deleted":"0","num_feature":"48","num_nodes":"3","size_leaf_vector":"1"}},{"base_weights":[1.7680256E-2,-1.2508355E-2,1.6967254E-2],"categories":[],"categories_nodes":[],"categories_segments":[],"categories_sizes":[],"default_left":[0,0,0],"id":68,"left_children":[1,-1,-1],"loss_changes":[1.9770725E-1,0E0,0E0],"parents":[2147483647,0,0],"right_children":[2,-1,-1],"split_conditions":[5.634922E0,-1.2508355E-2,1.6967254E-2],"split_indices":[18,0,0],"split_type":[0,0,0],"sum_hessian":[7.1332793E0,3.7695985E0,3.3636806E0],"tree_param":{"num_deleted":"0","num_feature":"48","num_nodes":"3","size_leaf_vector":"1"}},{"base_weights":[-2.4179317E-2,-1.8435456E-2,1.39036225E-2],"categories":[],"categories_nodes":[],"categories_segments":[],"categories_sizes":[],"default_left":[0,0,0],"id":69,"left_children":[1,-1,-1],"loss_changes":[2.1598205E-1,0E0,0E0],"parents":[2147483647,0,0],"right_children":[2,-1,-1],"split_conditions":[6.6216784E0,-1.8435456E-2,1.39036225E-2],"split_indices":[4,0,0],"split_type":[0,0,0],"sum_hessian":[6.281086E0,3.1047015E0,3.1763847E0],"tree_param":{"num_deleted":"0","num_feature":"48","num_nodes":"3","size_leaf_vector":"1"}},{"base_weights":[-7.130389E-3,-1.1881517E-1,2.0266457E-2,-2.215424E-2,4.624616E-3],"categories":[],"categories_nodes":[],"categories_segments":[],"categories_sizes":[],"default_left":[0,0,0,0,0],"id":70,"left_children":[1,3,-1,-1,-1],"loss_changes":[2.1423365E-1,1.1073752E-1,0E0,0E0,0E0],"parents":[2147483647,0,0,1,1],"right_children":[2,4,-1,-1,-1],"split_conditions":[1.5809963E1,6.505698E-1,2.0266457E-2,-2.215424E-2,4.624616E-3],"split_indices":[4,22,0,0,0],"split_type":[0,0,0,0,0],"sum_hessian":[7.1155224E0,4.9265327E0,2.1889894E0,2.825733E0,2.1007998E0],"tree_param":{"num_deleted":"0","num_feature":"48","num_nodes":"5","size_leaf_vector":"1"}},{"base_weights":[3.4934958E-3,-9.3538E-3,1.7595967E-2],"categories":[],"categories_nodes":[],"categories_segments":[],"categories_sizes":[],"default_left":[0,0,0],"id":71,"left_children":[1,-1,-1],"loss_changes":[1.442612E-1,0E0,0E0],"parents":[2147483647,0,0],"right_children":[2,-1,-1],"split_conditions":[1.2721045E1,-9.3538E-3,1.7595967E-2],"split_indices":[18,0,0],"split_type":[0,0,0],"sum_hessian":[6.6369853E0,4.5402384E0,2.0967467E0],"tree_param":{"num_deleted":"0","num_feature":"48","num_nodes":"3","size_leaf_vector":"1"}},{"base_weights":[1.1795168E-2,-1.2911773E-2,1.723983E-2],"categories":[],"categories_nodes":[],"categories_segments":[],"categories_sizes":[],"default_left":[0,0,0],"id":72,"left_children":[1,-1,-1],"loss_changes":[1.8827043E-1,0E0,0E0],"parents":[2147483647,0,0],"right_children":[2,-1,-1],"split_conditions":[1.1895292E1,-1.2911773E-2,1.723983E-2],"split_indices":[18,0,0],"split_type":[0,0,0],"sum_hessian":[6.33553E0,3.4790566E0,2.8564732E0],"tree_param":{"num_deleted":"0","num_feature":"48","num_nodes":"3","size_leaf_vector":"1"}},{"base_weights":[-3.3880427E-2,-2.5809336E-2,1.1325209E-2],"categories":[],"categories_nodes":[],"categories_segments":[],"categories_sizes":[],"default_left":[0,0,0],"id":73,"left_children":[1,-1,-1],"loss_changes":[2.601835E-1,0E0,0E0],"parents":[2147483647,0,0],"right_children":[2,-1,-1],"split_conditions":[5.5391693E0,-2.5809336E-2,1.1325209E-2],"split_indices":[18,0,0],"split_type":[0,0,0],"sum_hessian":[6.000933E0,2.0788503E0,3.9220831E0],"tree_param":{"num_deleted":"0","num_feature":"48","num_nodes":"3","size_leaf_vector":"1"}},{"base_weights":[9.254454E-3,-1.634613E-2,1.1470207E-2],"categories":[],"categories_nodes":[],"categories_segments":[],"categories_sizes":[],"default_left":[0,0,0],"id":74,"left_children":[1,-1,-1],"loss_changes":[1.4609684E-1,0E0,0E0],"parents":[2147483647,0,0],"right_children":[2,-1,-1],"split_conditions":[5.5231924E0,-1.634613E-2,1.1470207E-2],"split_indices":[18,0,0],"split_type":[0,0,0],"sum_hessian":[5.9923263E0,2.0630424E0,3.9292839E0],"tree_param":{"num_deleted":"0","num_feature":"48","num_nodes":"3","size_leaf_vector":"1"}},{"base_weights":[9.351827E-3,-8.667032E-3,1.7820215E-2],"categories":[],"categories_nodes":[],"categories_segments":[],"categories_sizes":[],"default_left":[0,0,0],"id":75,"left_children":[1,-1,-1],"loss_changes":[1.3872556E-1,0E0,0E0],"parents":[2147483647,0,0],"right_children":[2,-1,-1],"split_conditions":[1.2648292E1,-8.667032E-3,1.7820215E-2],"split_indices":[18,0,0],"split_type":[0,0,0],"sum_hessian":[6.603647E0,4.5199413E0,2.0837061E0],"tree_param":{"num_deleted":"0","num_feature":"48","num_nodes":"3","size_leaf_vector":"1"}},{"base_weights":[1.2356679E-2,-1.1063595E-2,1.3961585E-2],"categories":[],"categories_nodes":[],"categories_segments":[],"categories_sizes":[],"default_left":[0,0,0],"id":76,"left_children":[1,-1,-1],"loss_changes":[1.2854946E-1,0E0,0E0],"parents":[2147483647,0,0],"right_children":[2,-1,-1],"split_conditions":[5.634922E0,-1.1063595E-2,1.3961585E-2],"split_indices":[18,0,0],"split_type":[0,0,0],"sum_hessian":[6.2261286E0,3.2325647E0,2.9935637E0],"tree_param":{"num_deleted":"0","num_feature":"48","num_nodes":"3","size_leaf_vector":"1"}},{"base_weights":[-3.3230633E-3,-1.4766489E-2,1.0249176E-2],"categories":[],"categories_nodes":[],"categories_segments":[],"categories_sizes":[],"default_left":[0,0,0],"id":77,"left_children":[1,-1,-1],"loss_changes":[1.3216366E-1,0E0,0E0],"parents":[2147483647,0,0],"right_children":[2,-1,-1],"split_conditions":[5.5231924E0,-1.4766489E-2,1.0249176E-2],"split_indices":[18,0,0],"split_type":[0,0,0],"sum_hessian":[6.6622376E0,2.6507928E0,4.011445E0],"tree_param":{"num_deleted":"0","num_feature":"48","num_nodes":"3","size_leaf_vector":"1"}},{"base_weights":[2.6869278E-2],"categories":[],"categories_nodes":[],"categories_segments":[],"categories_sizes":[],"default_left":[0],"id":78,"left_children":[-1],"loss_changes":[0E0],"parents":[2147483647],"right_children":[-1],"split_conditions":[2.6869278E-3],"split_indices":[0],"split_type":[0],"sum_hessian":[6.153078E0],"tree_param":{"num_deleted":"0","num_feature":"48","num_nodes":"1","size_leaf_vector":"1"}},{"base_weights":[2.7871257E-2,-9.23325E-3,1.734667E-2],"categories":[],"categories_nodes":[],"categories_segments":[],"categories_sizes":[],"default_left":[0,0,0],"id":79,"left_children":[1,-1,-1],"loss_changes":[1.3833062E-1,0E0,0E0],"parents":[2147483647,0,0],"right_children":[2,-1,-1],"split_conditions":[1.193058E1,-9.23325E-3,1.734667E-2],"split_indices":[18,0,0],"split_type":[0,0,0],"sum_hessian":[5.988925E0,3.48091E0,2.508015E0],"tree_param":{"num_deleted":"0","num_feature":"48","num_nodes":"3","size_leaf_vector":"1"}},{"base_weights":[-3.6294613E-2,-2.4408128E-2,1.0936827E-2],"categories":[],"categories_nodes":[],"categories_segments":[],"categories_sizes":[],"default_left":[0,0,0],"id":80,"left_children":[1,-1,-1],"loss_changes":[2.3002912E-1,0E0,0E0],"parents":[2147483647,0,0],"right_children":[2,-1,-1],"split_conditions":[5.5231924E0,-2.4408128E-2,1.0936827E-2],"split_indices":[18,0,0],"split_type":[0,0,0],"sum_hessian":[5.7180653E0,2.078066E0,3.6399994E0],"tree_param":{"num_deleted":"0","num_feature":"48","num_nodes":"3","size_leaf_vector":"1"}},{"base_weights":[1.829852E-2,-9.836509E-3,1.4008345E-2],"categories":[],"categories_nodes":[],"categories_segments":[],"categories_sizes":[],"default_left":[0,0,0],"id":81,"left_children":[1,-1,-1],"loss_changes":[1.1201824E-1,0E0,0E0],"parents":[2147483647,0,0],"right_children":[2,-1,-1],"split_conditions":[1.1895292E1,-9.836509E-3,1.4008345E-2],"split_indices":[18,0,0],"split_type":[0,0,0],"sum_hessian":[5.9144025E0,3.1189327E0,2.7954698E0],"tree_param":{"num_deleted":"0","num_feature":"48","num_nodes":"3","size_leaf_vector":"1"}},{"base_weights":[1.990164E-2,-1.08136E-2,1.457219E-2],"categories":[],"categories_nodes":[],"categories_segments":[],"categories_sizes":[],"default_left":[0,0,0],"id":82,"left_children":[1,-1,-1],"loss_changes":[1.236922E-1,0E0,0E0],"parents":[2147483647,0,0],"right_children":[2,-1,-1],"split_conditions":[5.634922E0,-1.08136E-2,1.457219E-2],"split_indices":[18,0,0],"split_type":[0,0,0],"sum_hessian":[5.699953E0,2.8947446E0,2.8052082E0],"tree_param":{"num_deleted":"0","num_feature":"48","num_nodes":"3","size_leaf_vector":"1"}},{"base_weights":[1.595888E-2,-7.341643E-3,1.6667156E-2],"categories":[],"categories_nodes":[],"categories_segments":[],"categories_sizes":[],"default_left":[0,0,0],"id":83,"left_children":[1,-1,-1],"loss_changes":[1.0992985E-1,0E0,0E0],"parents":[2147483647,0,0],"right_children":[2,-1,-1],"split_conditions":[1.2632679E1,-7.341643E-3,1.6667156E-2],"split_indices":[18,0,0],"split_type":[0,0,0],"sum_hessian":[6.252672E0,4.246998E0,2.0056744E0],"tree_param":{"num_deleted":"0","num_feature":"48","num_nodes":"3","size_leaf_vector":"1"}},{"base_weights":[-7.597526E-4,-1.1100716E-2,1.4279253E-2],"categories":[],"categories_nodes":[],"categories_segments":[],"categories_sizes":[],"default_left":[0,0,0],"id":84,"left_children":[1,-1,-1],"loss_changes":[1.2581971E-1,0E0,0E0],"parents":[2147483647,0,0],"right_children":[2,-1,-1],"split_conditions":[9.290364E-3,-1.1100716E-2,1.4279253E-2],"split_indices":[46,0,0],"split_type":[0,0,0],"sum_hessian":[5.948494E0,3.4927742E0,2.4557197E0],"tree_param":{"num_deleted":"0","num_feature":"48","num_nodes":"3","size_leaf_vector":"1"}},{"base_weights":[-4.095035E-3,-1.0372238E-2,1.3641953E-2],"categories":[],"categories_nodes":[],"categories_segments":[],"categories_sizes":[],"default_left":[0,0,0],"id":85,"left_children":[1,-1,-1],"loss_changes":[1.0704905E-1,0E0,0E0],"parents":[2147483647,0,0],"right_children":[2,-1,-1],"split_conditions":[1.1166874E1,-1.0372238E-2,1.3641953E-2],"split_indices":[4,0,0],"split_type":[0,0,0],"sum_hessian":[5.6360936E0,3.4510655E0,2.1850283E0],"tree_param":{"num_deleted":"0","num_feature":"48","num_nodes":"3","size_leaf_vector":"1"}},{"base_weights":[1.6316965E-2],"categories":[],"categories_nodes":[],"categories_segments":[],"categories_sizes":[],"default_left":[0],"id":86,"left_children":[-1],"loss_changes":[0E0],"parents":[2147483647],"right_children":[-1],"split_conditions":[1.6316966E-3],"split_indices":[0],"split_type":[0],"sum_hessian":[6.072126E0],"tree_param":{"num_deleted":"0","num_feature":"48","num_nodes":"1","size_leaf_vector":"1"}},{"base_weights":[-2.0549748E-2,-1.430172E-2,1.1485766E-2],"categories":[],"categories_nodes":[],"categories_segments":[],"categories_sizes":[],"default_left":[0,0,0],"id":87,"left_children":[1,-1,-1],"loss_changes":[1.3336271E-1,0E0,0E0],"parents":[2147483647,0,0],"right_children":[2,-1,-1],"split_conditions":[6.5637503E0,-1.430172E-2,1.1485766E-2],"split_indices":[4,0,0],"split_type":[0,0,0],"sum_hessian":[6.0515637E0,3.1481035E0,2.9034603E0],"tree_param":{"num_deleted":"0","num_feature":"48","num_nodes":"3","size_leaf_vector":"1"}},{"base_weights":[1.2197465E-2],"categories":[],"categories_nodes":[],"categories_segments":[],"categories_sizes":[],"default_left":[0],"id":88,"left_children":[-1],"loss_changes":[0E0],"parents":[2147483647],"right_children":[-1],"split_conditions":[1.2197465E-3],"split_indices":[0],"split_type":[0],"sum_hessian":[5.6248612E0],"tree_param":{"num_deleted":"0","num_feature":"48","num_nodes":"1","size_leaf_vector":"1"}},{"base_weights":[-7.4851075E-3,-1.4218097E-2,9.322825E-3],"categories":[],"categories_nodes":[],"categories_segments":[],"categories_sizes":[],"default_left":[0,0,0],"id":89,"left_children":[1,-1,-1],"loss_changes":[1.0770798E-1,0E0,0E0],"parents":[2147483647,0,0],"right_children":[2,-1,-1],"split_conditions":[5.5073943E0,-1.4218097E-2,9.322825E-3],"split_indices":[18,0,0],"split_type":[0,0,0],"sum_hessian":[5.9626265E0,2.3747942E0,3.587832E0],"tree_param":{"num_deleted":"0","num_feature":"48","num_nodes":"3","size_leaf_vector":"1"}},{"base_weights":[-1.88321E-2,-1.2115613E-2,1.295084E-2],"categories":[],"categories_nodes":[],"categories_segments":[],"categories_sizes":[],"default_left":[0,0,0],"id":90,"left_children":[1,-1,-1],"loss_changes":[1.137236E-1,0E0,0E0],"parents":[2147483647,0,0],"right_children":[2,-1,-1],"split_conditions":[1.2039165E1,-1.2115613E-2,1.295084E-2],"split_indices":[18,0,0],"split_type":[0,0,0],"sum_hessian":[5.45854E0,3.3387527E0,2.119787E0],"tree_param":{"num_deleted":"0","num_feature":"48","num_nodes":"3","size_leaf_vector":"1"}},{"base_weights":[2.9785417E-3,-1.1263294E-2,1.3458847E-2],"categories":[],"categories_nodes":[],"categories_segments":[],"categories_sizes":[],"default_left":[0,0,0],"id":91,"left_children":[1,-1,-1],"loss_changes":[1.1826477E-1,0E0,0E0],"parents":[2147483647,0,0],"right_children":[2,-1,-1],"split_conditions":[5.634922E0,-1.1263294E-2,1.3458847E-2],"split_indices":[18,0,0],"split_type":[0,0,0],"sum_hessian":[5.776305E0,3.151815E0,2.6244903E0],"tree_param":{"num_deleted":"0","num_feature":"48","num_nodes":"3","size_leaf_vector":"1"}},{"base_weights":[9.841178E-3,-1.0818268E-2,1.4461678E-2],"categories":[],"categories_nodes":[],"categories_segments":[],"categories_sizes":[],"default_left":[0,0,0],"id":92,"left_children":[1,-1,-1],"loss_changes":[1.2755892E-1,0E0,0E0],"parents":[2147483647,0,0],"right_children":[2,-1,-1],"split_conditions":[1.3005652E-2,-1.0818268E-2,1.4461678E-2],"split_indices":[46,0,0],"split_type":[0,0,0],"sum_hessian":[6.035628E0,3.322983E0,2.7126446E0],"tree_param":{"num_deleted":"0","num_feature":"48","num_nodes":"3","size_leaf_vector":"1"}},{"base_weights":[-8.050325E-3,-1.1998983E-2,1.1535253E-2],"categories":[],"categories_nodes":[],"categories_segments":[],"categories_sizes":[],"default_left":[0,0,0],"id":93,"left_children":[1,-1,-1],"loss_changes":[1.0397862E-1,0E0,0E0],"parents":[2147483647,0,0],"right_children":[2,-1,-1],"split_conditions":[6.4908195E0,-1.1998983E-2,1.1535253E-2],"split_indices":[4,0,0],"split_type":[0,0,0],"sum_hessian":[5.5252457E0,2.9116905E0,2.613555E0],"tree_param":{"num_deleted":"0","num_feature":"48","num_nodes":"3","size_leaf_vector":"1"}},{"base_weights":[-3.8527664E-2,-1.3921431E-2,1.1123679E-2],"categories":[],"categories_nodes":[],"categories_segments":[],"categories_sizes":[],"default_left":[0,0,0],"id":94,"left_children":[1,-1,-1],"loss_changes":[1.0954605E-1,0E0,0E0],"parents":[2147483647,0,0],"right_children":[2,-1,-1],"split_conditions":[1.2039165E1,-1.3921431E-2,1.1123679E-2],"split_indices":[18,0,0],"split_type":[0,0,0],"sum_hessian":[5.237719E0,3.1741695E0,2.0635495E0],"tree_param":{"num_deleted":"0","num_feature":"48","num_nodes":"3","size_leaf_vector":"1"}},{"base_weights":[-1.0814917E-2,-1.2456615E-2,1.276125E-2],"categories":[],"categories_nodes":[],"categories_segments":[],"categories_sizes":[],"default_left":[0,0,0],"id":95,"left_children":[1,-1,-1],"loss_changes":[1.1864328E-1,0E0,0E0],"parents":[2147483647,0,0],"right_children":[2,-1,-1],"split_conditions":[1.1110134E1,-1.2456615E-2,1.276125E-2],"split_indices":[4,0,0],"split_type":[0,0,0],"sum_hessian":[5.525161E0,3.0878704E0,2.4372904E0],"tree_param":{"num_deleted":"0","num_feature":"48","num_nodes":"3","size_leaf_vector":"1"}},{"base_weights":[2.1059087E-2],"categories":[],"categories_nodes":[],"categories_segments":[],"categories_sizes":[],"default_left":[0],"id":96,"left_children":[-1],"loss_changes":[0E0],"parents":[2147483647],"right_children":[-1],"split_conditions":[2.1059087E-3],"split_indices":[0],"split_type":[0],"sum_hessian":[5.646187E0],"tree_param":{"num_deleted":"0","num_feature":"48","num_nodes":"1","size_leaf_vector":"1"}},{"base_weights":[2.3301566E-2],"categories":[],"categories_nodes":[],"categories_segments":[],"categories_sizes":[],"default_left":[0],"id":97,"left_children":[-1],"loss_changes":[0E0],"parents":[2147483647],"right_children":[-1],"split_conditions":[2.3301567E-3],"split_indices":[0],"split_type":[0],"sum_hessian":[5.5278697E0],"tree_param":{"num_deleted":"0","num_feature":"48","num_nodes":"1","size_leaf_vector":"1"}},{"base_weights":[-6.662301E-4],"categories":[],"categories_nodes":[],"categories_segments":[],"categories_sizes":[],"default_left":[0],"id":98,"left_children":[-1],"loss_changes":[0E0],"parents":[2147483647],"right_children":[-1],"split_conditions":[-6.662301E-5],"split_indices":[0],"split_type":[0],"sum_hessian":[5.4293847E0],"tree_param":{"num_deleted":"0","num_feature":"48","num_nodes":"1","size_leaf_vector":"1"}},{"base_weights":[5.1256083E-4,-1.3401975E-2,1.0091816E-2],"categories":[],"categories_nodes":[],"categories_segments":[],"categories_sizes":[],"default_left":[0,0,0],"id":99,"left_children":[1,-1,-1],"loss_changes":[1.02205016E-1,0E0,0E0],"parents":[2147483647,0,0],"right_children":[2,-1,-1],"split_conditions":[5.5307713E0,-1.3401975E-2,1.0091816E-2],"split_indices":[18,0,0],"split_type":[0,0,0],"sum_hessian":[5.5650964E0,2.235283E0,3.3298135E0],"tree_param":{"num_deleted":"0","num_feature":"48","num_nodes":"3","size_leaf_vector":"1"}}]},"name":"gbtree"},"learner_model_param":{"base_score":"6.8827594E-10","boost_from_average":"1","num_class":"0","num_feature":"48","num_target":"1"},"objective":{"lambdarank_param":{"lambdarank_bias_norm":"1","lambdarank_normalization":"1","lambdarank_num_pair_per_sample":"4294967295","lambdarank_pair_method":"topk","lambdarank_score_normalization":"1","lambdarank_unbiased":"0","ndcg_exp_gain":"1"},"name":"rank:ndcg"}},"version":[3,0,3]}