{"learner":{"attributes":{"scikit_learn":"{\"_estimator_type\": \"ranker\"}"},"feature_names":[],"feature_types":[],"gradient_booster":{"model":{"gbtree_model_param":{"num_parallel_tree":"1","num_trees":"100"},"iteration_indptr":[0,1,2,3,4,5,6,7,8,9,10,11,12,13,14,15,16,17,18,19,20,21,22,23,24,25,26,27,28,29,30,31,32,33,34,35,36,37,38,39,40,41,42,43,44,45,46,47,48,49,50,51,52,53,54,55,56,57,58,59,60,61,62,63,64,65,66,67,68,69,70,71,72,73,74,75,76,77,78,79,80,81,82,83,84,85,86,87,88,89,90,91,92,93,94,95,96,97,98,99,100],"tree_info":[0,0,0,0,0,0,0,0,0,0,0,0,0,0,0,0,0,0,0,0,0,0,0,0,0,0,0,0,0,0,0,0,0,0,0,0,0,0,0,0,0,0,0,0,0,0,0,0,0,0,0,0,0,0,0,0,0,0,0,0,0,0,0,0,0,0,0,0,0,0,0,0,0,0,0,0,0,0,0,0,0,0,0,0,0,0,0,0,0,0,0,0,0,0,0,0,0,0,0,0],"trees":[{"base_weights":[1.6557015E-2,-7.76479E-1,7.435474E-1,-8.144651E-2,-2.792572E-2,4.9253863E-1,9.20971E-2,1.7131847E-1,6.563933E-2,3.0718634E-2,-4.2520384E-3],"categories":[],"categories_nodes":[],"categories_segments":[],"categories_sizes":[],"default_left":[0,0,0,0,0,0,0,0,0,0,0],"id":0,"left_children":[1,3,5,-1,-1,7,-1,9,-1,-1,-1],"loss_changes":[2.7578745E1,2.0486641E-1,6.5733147E-1,0E0,0E0,5.4442E-1,0E0,1.7485882E-1,0E0,0E0,0E0],"parents":[2147483647,0,0,1,1,2,2,5,5,7,7],"right_children":[2,4,6,-1,-1,8,-1,10,-1,-1,-1],"split_conditions":[5.5209765E0,5.4933235E-2,1.3286286E1,-8.144651E-2,-2.792572E-2,-1.1281529E-1,9.20971E-2,-6.083536E-3,6.563933E-2,3.0718634E-2,-4.2520384E-3],"split_indices":[18,17,18,0,0,5,0,45,0,0,0],"split_type":[0,0,0,0,0,0,0,0,0,0,0],"sum_hessian":[4.5834362E1,2.1888865E1,2.39455E1,1.9742567E1,2.1462975E0,1.1480132E1,1.2465367E1,4.568876E0,6.9112563E0,2.526848E0,2.0420277E0],"tree_param":{"num_deleted":"0","num_feature":"48","num_nodes":"11","size_leaf_vector":"1"}},{"base_weights":[-1.3353952E-2,-5.8204836E-1,6.234782E-1,-6.786532E-1,4.8078948E-1,1.8386334E-1,9.289123E-2,-7.1542764E-1,5.124765E-3,-1.3714017E-2,8.063578E-2,6.2099826E-1,-5.918627E-2,-2.4406727E-1,-7.739848E-1,8.617135E-2,2.670439E-1,-7.1605705E-2,2.3861326E-1,-1.40318265E-2,-7.959999E-1,-3.512461E-2,5.851765E-1,4.712056E-2,-8.931252E-3,-1.6539467E-2,-8.1498966E-2,7.588726E-2,1.3507429E-2],"categories":[],"categories_nodes":[],"categories_segments":[],"categories_sizes":[],"default_left":[0,0,0,0,0,0,0,0,0,0,0,0,0,0,0,0,0,0,0,0,0,0,0,0,0,0,0,0,0],"id":1,"left_children":[1,3,5,7,9,11,-1,13,-1,-1,-1,15,-1,17,19,-1,21,-1,23,-1,25,-1,27,-1,-1,-1,-1,-1,-1],"loss_changes":[6.2005795E1,9.611338E0,1.0675337E1,2.2728806E0,1.7441642E0,1.201934E1,0E0,2.0021515E0,0E0,0E0,0E0,1.6839428E0,0E0,2.5020218E0,8.6691284E-1,0E0,2.279248E0,0E0,4.851539E-1,0E0,6.744766E-1,0E0,4.7103357E-1,0E0,0E0,0E0,0E0,0E0,0E0],"parents":[2147483647,0,0,1,1,2,2,3,3,4,4,5,5,7,7,11,11,13,13,14,14,16,16,18,18,20,20,22,22],"right_children":[2,4,6,8,10,12,-1,14,-1,-1,-1,16,-1,18,20,-1,22,-1,24,-1,26,-1,28,-1,-1,-1,-1,-1,-1],"split_conditions":[1.1835925E1,6.9913976E-2,3.556104E1,8.947395E-2,2.9539175E-2,-4.6576092E-1,9.289123E-2,-6.645272E-1,5.124765E-3,-1.3714017E-2,8.063578E-2,-6.204433E-1,-5.918627E-2,-2.6172166E0,-9.2519924E-2,8.617135E-2,-1.4094042E-2,-7.1605705E-2,4.3119653E-3,-1.40318265E-2,-1.2809433E0,-3.512461E-2,-2.1743496E-1,4.712056E-2,-8.931252E-3,-1.6539467E-2,-8.1498966E-2,7.588726E-2,1.3507429E-2],"split_indices":[18,17,0,40,40,6,0,6,0,0,0,21,0,4,44,0,42,0,25,0,20,0,8,0,0,0,0,0,0],"split_type":[0,0,0,0,0,0,0,0,0,0,0,0,0,0,0,0,0,0,0,0,0,0,0,0,0,0,0,0,0],"sum_hessian":[1.6920769E2,8.943119E1,7.97765E1,8.2311134E1,7.120062E0,3.3361248E1,4.641525E1,7.838186E1,3.92927E0,2.6565976E0,4.463464E0,2.1464882E1,1.1896367E1,9.232458E0,6.914941E1,1.19223E1,9.542582E0,4.423466E0,4.808992E0,2.569333E0,6.658007E1,3.2065578E0,6.3360243E0,2.5578346E0,2.2511575E0,2.2301953E0,6.434988E1,4.0767794E0,2.2592447E0],"tree_param":{"num_deleted":"0","num_feature":"48","num_nodes":"29","size_leaf_vector":"1"}},{"base_weights":[-1.9515017E-2,-7.145541E-1,2.0897435E-1,-7.9340583E-1,3.001656E-2,-4.701298E-1,5.789445E-1,-8.547788E-2,-2.2747213E-2,1.333738E-1,-5.7390326E-1,3.147316E-1,8.484802E-2,6.569532E-2,-3.692461E-2,-6.061549E-1,-9.975588E-3,7.563037E-1,-5.6776565E-2,-6.5473866E-1,-2.1335054E-2,8.1700824E-2,2.470999E-2,4.105271E-2,-1.7875141E-1,-7.1897686E-2,-3.5770517E-2,2.292083E-3,-3.6253136E-2],"categories":[],"categories_nodes":[],"categories_segments":[],"categories_sizes":[],"default_left":[0,0,0,0,0,0,0,0,0,0,0,0,0,0,0,0,0,0,0,0,0,0,0,0,0,0,0,0,0],"id":2,"left_children":[1,3,5,7,-1,9,11,-1,-1,13,15,17,-1,-1,-1,19,-1,21,23,25,-1,-1,-1,-1,27,-1,-1,-1,-1],"loss_changes":[2.0538494E1,2.797802E0,2.4743095E1,8.461075E-1,0E0,2.262271E0,4.254883E0,0E0,0E0,1.8036759E0,3.9780712E-1,5.5639277E0,0E0,0E0,0E0,3.9204025E-1,0E0,2.756033E-1,1.1682013E0,2.067213E-1,0E0,0E0,0E0,0E0,5.986712E-1,0E0,0E0,0E0,0E0],"parents":[2147483647,0,0,1,1,2,2,3,3,5,5,6,6,9,9,10,10,11,11,15,15,17,17,18,18,19,19,24,24],"right_children":[2,4,6,8,-1,10,12,-1,-1,14,16,18,-1,-1,-1,20,-1,22,24,26,-1,-1,-1,-1,28,-1,-1,-1,-1],"split_conditions":[-2.723421E1,1.9928861E0,-7.1624384E0,4.877778E-2,3.001656E-2,-6.6829526E-1,3.556104E1,-8.547788E-2,-2.2747213E-2,6.560267E-1,-4.7971708E-1,-5.655981E-1,8.484802E-2,6.569532E-2,-3.692461E-2,6.839006E-2,-9.975588E-3,3.3580866E-2,-8.5587956E-2,2.2935207E1,-2.1335054E-2,8.1700824E-2,2.470999E-2,4.105271E-2,1.0133257E1,-7.1897686E-2,-3.5770517E-2,2.292083E-3,-3.6253136E-2],"split_indices":[14,2,0,13,0,21,0,0,0,5,20,21,0,0,0,12,0,11,36,14,0,0,0,0,16,0,0,0,0],"split_type":[0,0,0,0,0,0,0,0,0,0,0,0,0,0,0,0,0,0,0,0,0,0,0,0,0,0,0,0,0],"sum_hessian":[1.27387985E2,3.0990637E1,9.639735E1,2.8958439E1,2.0321975E0,3.390035E1,6.2496998E1,2.5664822E1,3.2936184E0,4.9320936E0,2.8968254E1,3.265477E1,2.984223E1,2.265286E0,2.6668077E0,2.686264E1,2.105614E0,1.444718E1,1.8207588E1,2.3312426E1,3.5502145E0,1.2368227E1,2.0789533E0,3.279121E0,1.4928467E1,1.7999273E1,5.313153E0,7.5350766E0,7.3933907E0],"tree_param":{"num_deleted":"0","num_feature":"48","num_nodes":"29","size_leaf_vector":"1"}},{"base_weights":[-2.016039E-2,-5.8133686E-1,5.451563E-1,-6.3350245E-2,-6.440047E-1,3.0687654E-1,8.008631E-2,-5.164162E-2,4.593735E-2,-7.009258E-1,2.9754484E-2,6.091088E-1,-1.1734719E-1,-7.32645E-2,1.4880002E-3,7.136653E-2,2.082679E-1,-2.0047121E-1,1.1429926E-2,-1.2846435E-2,4.7292914E-2,-3.31336E-3,-2.957869E-2],"categories":[],"categories_nodes":[],"categories_segments":[],"categories_sizes":[],"default_left":[0,0,0,0,0,0,0,0,0,0,0,0,0,0,0,0,0,0,0,0,0,0,0],"id":3,"left_children":[1,3,5,7,9,11,-1,-1,-1,13,-1,15,17,-1,-1,-1,19,21,-1,-1,-1,-1,-1],"loss_changes":[3.620108E1,1.817543E0,3.218979E0,1.9631561E0,2.9397354E0,4.0533648E0,0E0,0E0,0E0,1.1087532E0,0E0,6.182213E-1,2.8785098E-1,0E0,0E0,0E0,5.2395153E-1,1.5749413E-1,0E0,0E0,0E0,0E0,0E0],"parents":[2147483647,0,0,1,1,2,2,3,3,4,4,5,5,9,9,11,11,12,12,16,16,17,17],"right_children":[2,4,6,8,10,12,-1,-1,-1,14,-1,16,18,-1,-1,-1,20,22,-1,-1,-1,-1,-1],"split_conditions":[1.1271824E1,-6.0039695E-2,3.556104E1,-5.615315E-5,1.3654288E0,-4.8721778E-1,8.008631E-2,-5.164162E-2,4.593735E-2,7.989052E-2,2.9754484E-2,1.658171E-2,5.016911E-2,-7.32645E-2,1.4880002E-3,7.136653E-2,2.3782432E-2,1.01276655E1,1.1429926E-2,-1.2846435E-2,4.7292914E-2,-3.31336E-3,-2.957869E-2],"split_indices":[4,29,0,27,5,6,0,0,0,13,0,44,34,0,0,0,45,16,0,0,0,0,0],"split_type":[0,0,0,0,0,0,0,0,0,0,0,0,0,0,0,0,0,0,0,0,0,0,0],"sum_hessian":[1.1211275E2,5.6248177E1,5.586457E1,6.2876773E0,4.99605E1,3.005655E1,2.580802E1,3.374729E0,2.9129484E0,4.735333E1,2.6071723E0,1.7297422E1,1.2759127E1,4.532149E1,2.0318363E0,1.3099968E1,4.1974545E0,9.488761E0,3.270366E0,2.0736847E0,2.12377E0,3.9324727E0,5.5562882E0],"tree_param":{"num_deleted":"0","num_feature":"48","num_nodes":"23","size_leaf_vector":"1"}},{"base_weights":[3.689925E-3,-5.5211544E-1,5.352226E-1,-7.03543E-1,-3.781277E-1,3.039556E-1,7.624399E-2,-7.7423975E-2,-1.9118244E-2,1.1075386E-1,-4.9380893E-1,1.0517204E-2,4.8431262E-1,-2.8213969E-2,4.2786207E-2,-1.4892018E-2,-5.6461852E-2,4.2332824E-2,-2.4889423E-2,2.2948027E-1,6.149248E-2,-1.8292886E-3,4.30294E-2],"categories":[],"categories_nodes":[],"categories_segments":[],"categories_sizes":[],"default_left":[0,0,0,0,0,0,0,0,0,0,0,0,0,0,0,0,0,0,0,0,0,0,0],"id":4,"left_children":[1,3,5,7,9,11,-1,-1,-1,13,15,17,19,-1,-1,-1,-1,-1,-1,21,-1,-1,-1],"loss_changes":[2.9198923E1,1.0069828E0,2.4228392E0,7.4564934E-1,1.4485371E0,1.4078948E0,0E0,0E0,0E0,8.10042E-1,4.0711355E-1,1.3031858E0,4.0851617E-1,0E0,0E0,0E0,0E0,0E0,0E0,3.65671E-1,0E0,0E0,0E0],"parents":[2147483647,0,0,1,1,2,2,3,3,4,4,5,5,9,9,10,10,11,11,12,12,19,19],"right_children":[2,4,6,8,10,12,-1,-1,-1,14,16,18,20,-1,-1,-1,-1,-1,-1,22,-1,-1,-1],"split_conditions":[1.1762519E1,5.358417E0,3.556104E1,5.375198E-2,4.71033E-1,-1.1281529E-1,7.624399E-2,-7.7423975E-2,-1.9118244E-2,2.0806076E-2,-4.053292E-2,-2.9648669E-2,-7.055341E0,-2.8213969E-2,4.2786207E-2,-1.4892018E-2,-5.6461852E-2,4.2332824E-2,-2.4889423E-2,1.5440258E-2,6.149248E-2,-1.8292886E-3,4.30294E-2],"split_indices":[18,18,0,28,24,5,0,0,0,30,38,44,0,0,0,0,0,0,0,44,0,0,0],"split_type":[0,0,0,0,0,0,0,0,0,0,0,0,0,0,0,0,0,0,0,0,0,0,0],"sum_hessian":[9.68355E1,4.731799E1,4.9517513E1,2.3671892E1,2.3646097E1,2.5698612E1,2.3818901E1,2.0352486E1,3.319407E0,4.532759E0,1.9113338E1,1.0185407E1,1.55132065E1,2.0737183E0,2.4590409E0,3.7843246E0,1.5329014E1,3.686717E0,6.4986897E0,6.191049E0,9.322157E0,3.1783555E0,3.0126934E0],"tree_param":{"num_deleted":"0","num_feature":"48","num_nodes":"23","size_leaf_vector":"1"}},{"base_weights":[1.002361E-3,-5.641939E-1,4.939514E-1,-6.7928894E-3,-5.879443E-1,2.4865778E-1,7.2936E-2,-6.145809E-1,-7.6076626E-3,6.405673E-2,-3.6119085E-2,-6.970376E-2,-4.04376E-1,-2.0138265E-1,2.1520239E-1,-5.136245E-2,3.183676E-3,-3.142668E-2,2.3460188E-3,-1.7940825E-3,4.1143283E-2],"categories":[],"categories_nodes":[],"categories_segments":[],"categories_sizes":[],"default_left":[0,0,0,0,0,0,0,0,0,0,0,0,0,0,0,0,0,0,0,0,0],"id":5,"left_children":[1,3,5,-1,7,9,-1,11,-1,-1,13,-1,15,17,19,-1,-1,-1,-1,-1,-1],"loss_changes":[2.455212E1,4.4394302E-1,2.536582E0,0E0,4.8564243E-1,2.7650526E0,0E0,3.5902023E-1,0E0,0E0,6.736298E-1,0E0,6.2631655E-1,2.5285053E-1,3.0491883E-1,0E0,0E0,0E0,0E0,0E0,0E0],"parents":[2147483647,0,0,1,1,2,2,4,4,5,5,7,7,10,10,12,12,13,13,14,14],"right_children":[2,4,6,-1,8,10,-1,12,-1,-1,14,-1,16,18,20,-1,-1,-1,-1,-1,-1],"split_conditions":[5.5209765E0,-6.915773E-2,8.661831E-1,-6.7928894E-3,8.6611554E-2,-5.829226E-1,7.2936E-2,5.4234934E0,-7.6076626E-3,6.405673E-2,2.0610293E-2,-6.970376E-2,5.01386E-2,3.3610463E-2,-4.745586E-2,-5.136245E-2,3.183676E-3,-3.142668E-2,2.3460188E-3,-1.7940825E-3,4.1143283E-2],"split_indices":[18,38,1,0,32,21,0,18,0,0,13,0,30,42,15,0,0,0,0,0,0],"split_type":[0,0,0,0,0,0,0,0,0,0,0,0,0,0,0,0,0,0,0,0,0],"sum_hessian":[8.612243E1,4.0053783E1,4.6068645E1,2.0056605E0,3.8048122E1,2.3567648E1,2.2500996E1,3.5975372E1,2.0727506E0,9.39243E0,1.4175217E1,2.417594E1,1.1799433E1,8.671639E0,5.5035777E0,9.294247E0,2.505186E0,5.5083904E0,3.163249E0,2.9304523E0,2.5731251E0],"tree_param":{"num_deleted":"0","num_feature":"48","num_nodes":"21","size_leaf_vector":"1"}},{"base_weights":[-2.286352E-2,-5.152262E-1,4.7955295E-1,-5.695961E-1,2.0021854E-2,2.6007468E-1,6.93266E-2,-1.0561115E-2,-5.9830225E-1,4.8865193E-1,-8.673733E-2,-6.894146E-2,-4.5534799E-1,5.6663394E-2,8.303567E-3,-1.665592E-2,7.4420604E-3,-1.3091509E-2,-5.1116634E-2],"categories":[],"categories_nodes":[],"categories_segments":[],"categories_sizes":[],"default_left":[0,0,0,0,0,0,0,0,0,0,0,0,0,0,0,0,0,0,0],"id":6,"left_children":[1,3,5,7,-1,9,-1,-1,11,13,15,-1,17,-1,-1,-1,-1,-1,-1],"loss_changes":[1.8204157E1,1.5589237E0,1.5292578E0,4.00074E-1,0E0,1.5946598E0,0E0,0E0,1.0991287E-1,3.310392E-1,1.2338615E-1,0E0,2.158041E-1,0E0,0E0,0E0,0E0,0E0,0E0],"parents":[2147483647,0,0,1,1,2,2,3,3,5,5,8,8,9,9,10,10,12,12],"right_children":[2,4,6,8,-1,10,-1,-1,12,14,16,-1,18,-1,-1,-1,-1,-1,-1],"split_conditions":[1.1290084E1,6.9913976E-2,3.556104E1,-8.742971E-2,2.0021854E-2,-4.8771423E-1,6.93266E-2,-1.0561115E-2,-1.6741182E-1,7.258623E0,2.4131544E-2,-6.894146E-2,-5.0574988E-2,5.6663394E-2,8.303567E-3,-1.665592E-2,7.4420604E-3,-1.3091509E-2,-5.1116634E-2],"split_indices":[4,17,0,17,0,6,0,0,15,0,34,0,36,0,0,0,0,0,0],"split_type":[0,0,0,0,0,0,0,0,0,0,0,0,0,0,0,0,0,0,0],"sum_hessian":[7.159165E1,3.6144722E1,3.544693E1,3.3781376E1,2.363343E0,1.8581305E1,1.6865625E1,2.2408583E0,3.154052E1,1.0953245E1,7.6280594E0,1.6928482E1,1.4612037E1,8.854036E0,2.0992084E0,5.0789366E0,2.549123E0,2.6360297E0,1.1976007E1],"tree_param":{"num_deleted":"0","num_feature":"48","num_nodes":"19","size_leaf_vector":"1"}},{"base_weights":[1.7575586E-2,-4.9457198E-1,5.02938E-1,4.958389E-3,-5.554175E-1,2.624296E-1,6.803915E-2,-6.137649E-2,-3.186489E-1,4.899687E-1,-1.0949806E-1,-6.799245E-3,-4.1564096E-2,5.9054334E-2,4.4882516E-3,1.1891674E-3,-2.2305746E-2],"categories":[],"categories_nodes":[],"categories_segments":[],"categories_sizes":[],"default_left":[0,0,0,0,0,0,0,0,0,0,0,0,0,0,0,0,0],"id":7,"left_children":[1,3,5,-1,7,9,-1,-1,11,13,15,-1,-1,-1,-1,-1,-1],"loss_changes":[1.7771814E1,1.1798964E0,1.3872967E0,0E0,2.3801899E-1,1.5096667E0,0E0,0E0,1.7316419E-1,4.5950627E-1,1.0394133E-1,0E0,0E0,0E0,0E0,0E0,0E0],"parents":[2147483647,0,0,1,1,2,2,4,4,5,5,8,8,9,9,10,10],"right_children":[2,4,6,-1,8,10,-1,-1,12,14,16,-1,-1,-1,-1,-1,-1],"split_conditions":[1.1762519E1,-7.626274E-2,1.3263966E1,4.958389E-3,5.4483075E0,-4.8721778E-1,6.803915E-2,-6.137649E-2,-2.854426E-2,3.8235683E-2,-2.1723752E0,-6.799245E-3,-4.1564096E-2,5.9054334E-2,4.4882516E-3,1.1891674E-3,-2.2305746E-2],"split_indices":[18,44,18,0,18,6,0,0,42,12,14,0,0,0,0,0,0],"split_type":[0,0,0,0,0,0,0,0,0,0,0,0,0,0,0,0,0],"sum_hessian":[6.94935E1,3.3804497E1,3.5689007E1,3.41836E0,3.0386137E1,1.6204882E1,1.9484125E1,2.3101038E1,7.285099E0,9.857098E0,6.3477836E0,2.5070755E0,4.7780232E0,7.7736955E0,2.0834026E0,3.500835E0,2.8469484E0],"tree_param":{"num_deleted":"0","num_feature":"48","num_nodes":"17","size_leaf_vector":"1"}},{"base_weights":[-2.5121082E-2,-5.0540715E-1,4.7286534E-1,-1.2439027E-2,-5.317505E-1,2.541195E-1,6.549441E-2,-1.686303E-2,-5.612323E-1,5.078682E-1,-1.145913E-2,-1.5186413E-2,-5.8764346E-2,1.739853E-2,5.870346E-2],"categories":[],"categories_nodes":[],"categories_segments":[],"categories_sizes":[],"default_left":[0,0,0,0,0,0,0,0,0,0,0,0,0,0,0],"id":8,"left_children":[1,3,5,-1,7,9,-1,-1,11,13,-1,-1,-1,-1,-1],"loss_changes":[1.5406654E1,2.627287E-1,1.0941968E0,0E0,2.3017406E-1,1.556262E0,0E0,0E0,2.095232E-1,1.534288E-1,0E0,0E0,0E0,0E0,0E0],"parents":[2147483647,0,0,1,1,2,2,4,4,5,5,8,8,9,9],"right_children":[2,4,6,-1,8,10,-1,-1,12,14,-1,-1,-1,-1,-1],"split_conditions":[1.1762519E1,-7.896882E-2,3.556104E1,-1.2439027E-2,-5.8622528E-2,-4.6576092E-1,6.549441E-2,-1.686303E-2,-1.2573794E0,-9.901697E-3,-1.145913E-2,-1.5186413E-2,-5.8764346E-2,1.739853E-2,5.870346E-2],"split_indices":[18,30,0,0,45,6,0,0,20,34,0,0,0,0,0],"split_type":[0,0,0,0,0,0,0,0,0,0,0,0,0,0,0],"sum_hessian":[6.241635E1,3.1765255E1,3.0651096E1,2.4242365E0,2.9341019E1,1.5011832E1,1.5639264E1,2.7079272E0,2.6633091E1,8.668624E0,6.343208E0,2.0232372E0,2.4609854E1,2.274343E0,6.394281E0],"tree_param":{"num_deleted":"0","num_feature":"48","num_nodes":"15","size_leaf_vector":"1"}},{"base_weights":[2.013261E-2,-4.2898852E-1,4.4682488E-1,-5.788148E-4,-4.7588882E-1,2.1705483E-1,6.393214E-2,-6.403273E-2,-2.8915212E-1,5.055653E-2,2.7261224E-2,-1.3189945E-1,-4.5276713E-2,-1.5494076E-2,1.629398E-1,-2.9675916E-2,3.793288E-2,-5.9584337E-3,2.772756E-2,2.510941E-2,-1.9123215E-2],"categories":[],"categories_nodes":[],"categories_segments":[],"categories_sizes":[],"default_left":[0,0,0,0,0,0,0,0,0,0,0,0,0,0,0,0,0,0,0,0,0],"id":9,"left_children":[1,3,5,-1,7,9,-1,-1,11,-1,13,15,-1,-1,17,-1,19,-1,-1,-1,-1],"loss_changes":[1.1918804E1,5.991216E-1,1.2708712E0,0E0,6.5272E-1,8.646776E-1,0E0,0E0,3.1592846E-1,0E0,2.905977E-1,2.592102E-1,0E0,0E0,1.8545546E-1,0E0,3.0441874E-1,0E0,0E0,0E0,0E0],"parents":[2147483647,0,0,1,1,2,2,4,4,5,5,8,8,10,10,11,11,14,14,16,16],"right_children":[2,4,6,-1,8,10,-1,-1,12,-1,14,16,-1,-1,18,-1,20,-1,-1,-1,-1],"split_conditions":[1.1762519E1,-7.626274E-2,3.556104E1,-5.788148E-4,-1.274843E0,-5.829226E-1,6.393214E-2,-6.403273E-2,-1.011121E-3,5.055653E-2,-1.0169313E-2,1.09854555E-2,-4.5276713E-2,-1.5494076E-2,7.8363315E-4,-2.9675916E-2,-5.275905E-3,-5.9584337E-3,2.772756E-2,2.510941E-2,-1.9123215E-2],"split_indices":[18,44,0,0,15,21,0,0,42,0,26,31,0,0,41,0,17,0,0,0,0],"split_type":[0,0,0,0,0,0,0,0,0,0,0,0,0,0,0,0,0,0,0,0,0],"sum_hessian":[6.0194607E1,2.9323914E1,3.0870693E1,3.0376222E0,2.6286291E1,1.5042754E1,1.5827939E1,1.2686046E1,1.3600246E1,5.308855E0,9.733899E0,7.8559446E0,5.744302E0,4.094052E0,5.6398478E0,3.607097E0,4.248848E0,2.0767918E0,3.5630558E0,2.1517112E0,2.0971367E0],"tree_param":{"num_deleted":"0","num_feature":"48","num_nodes":"21","size_leaf_vector":"1"}},{"base_weights":[1.1620331E-2,-4.1855258E-1,4.2422226E-1,-4.8515397E-1,-4.636859E-2,1.9367854E-1,6.23002E-2,-6.201592E-2,-3.0006889E-1,-3.6620624E-2,2.6821524E-2,4.7631413E-2,1.700761E-2,1.069453E-2,-3.937653E-2,2.2765506E-2,-1.0182767E-2],"categories":[],"categories_nodes":[],"categories_segments":[],"categories_sizes":[],"default_left":[0,0,0,0,0,0,0,0,0,0,0,0,0,0,0,0,0],"id":10,"left_children":[1,3,5,7,9,11,-1,-1,13,-1,-1,-1,15,-1,-1,-1,-1],"loss_changes":[1.0241207E1,6.7806625E-1,1.2283854E0,4.1027784E-1,6.410916E-1,7.4494225E-1,0E0,0E0,4.9988413E-1,0E0,0E0,0E0,2.814433E-1,0E0,0E0,0E0,0E0],"parents":[2147483647,0,0,1,1,2,2,3,3,4,4,5,5,8,8,12,12],"right_children":[2,4,6,8,10,12,-1,-1,14,-1,-1,-1,16,-1,-1,-1,-1],"split_conditions":[5.533078E0,5.1126022E-2,3.556104E1,5.358417E0,-1.04658175E-2,-5.829226E-1,6.23002E-2,-6.201592E-2,-6.540903E-1,-3.6620624E-2,2.6821524E-2,4.7631413E-2,-4.727135E-2,1.069453E-2,-3.937653E-2,2.2765506E-2,-1.0182767E-2],"split_indices":[18,28,0,18,13,21,0,0,21,0,0,0,44,0,0,0,0],"split_type":[0,0,0,0,0,0,0,0,0,0,0,0,0,0,0,0,0],"sum_hessian":[5.5699745E1,2.726217E1,2.8437572E1,2.28667E1,4.395472E0,1.4080924E1,1.4356648E1,1.1862936E1,1.1003763E1,2.0981667E0,2.297305E0,4.7638054E0,9.317119E0,2.0326397E0,8.971124E0,3.0301516E0,6.2869673E0],"tree_param":{"num_deleted":"0","num_feature":"48","num_nodes":"17","size_leaf_vector":"1"}},{"base_weights":[2.174566E-2,-4.1841853E-1,4.017564E-1,3.3770911E-3,-4.6858545E-2,1.9068389E-1,6.0510624E-2,4.688156E-2,1.6924131E-3,-9.840392E-3,1.33671975E-2],"categories":[],"categories_nodes":[],"categories_segments":[],"categories_sizes":[],"default_left":[0,0,0,0,0,0,0,0,0,0,0],"id":11,"left_children":[1,3,5,-1,-1,7,-1,-1,9,-1,-1],"loss_changes":[8.2270155E0,5.333357E-1,1.0163255E0,0E0,0E0,7.560257E-1,0E0,0E0,1.3966368E-1,0E0,0E0],"parents":[2147483647,0,0,1,1,2,2,5,5,8,8],"right_children":[2,4,6,-1,-1,8,-1,-1,10,-1,-1],"split_conditions":[5.5209765E0,-6.0039695E-2,3.556104E1,3.3770911E-3,-4.6858545E-2,-5.829226E-1,6.0510624E-2,4.688156E-2,-2.1984909E-2,-9.840392E-3,1.33671975E-2],"split_indices":[18,29,0,0,0,21,0,0,15,0,0],"split_type":[0,0,0,0,0,0,0,0,0,0,0],"sum_hessian":[4.71799E1,2.1812983E1,2.5366919E1,2.2109513E0,1.9602032E1,1.3397906E1,1.1969011E1,4.821567E0,8.57634E0,5.0219655E0,3.554374E0],"tree_param":{"num_deleted":"0","num_feature":"48","num_nodes":"11","size_leaf_vector":"1"}},{"base_weights":[5.672188E-3,-4.222358E-1,4.061515E-1,-5.0192226E-2,-1.879663E-1,1.862202E-1,5.929891E-2,-3.4837328E-2,9.514147E-3,4.233208E-2,3.5340052E-2,-8.097007E-3,2.3047999E-2],"categories":[],"categories_nodes":[],"categories_segments":[],"categories_sizes":[],"default_left":[0,0,0,0,0,0,0,0,0,0,0,0,0],"id":12,"left_children":[1,3,5,-1,7,9,-1,-1,-1,-1,11,-1,-1],"loss_changes":[7.967514E0,3.2538033E-1,8.761487E-1,0E0,3.648982E-1,4.317028E-1,0E0,0E0,0E0,0E0,2.1660753E-1,0E0,0E0],"parents":[2147483647,0,0,1,1,2,2,4,4,5,5,10,10],"right_children":[2,4,6,-1,8,10,-1,-1,-1,-1,12,-1,-1],"split_conditions":[1.1252484E1,2.137984E-2,8.661831E-1,-5.0192226E-2,2.744058E-2,-5.829226E-1,5.929891E-2,-3.4837328E-2,9.514147E-3,4.233208E-2,3.4511898E-2,-8.097007E-3,2.3047999E-2],"split_indices":[4,13,1,0,28,21,0,0,0,0,13,0,0],"split_type":[0,0,0,0,0,0,0,0,0,0,0,0,0],"sum_hessian":[4.4492794E1,2.1483536E1,2.300926E1,1.5178194E1,6.305341E0,1.1485767E1,1.1523493E1,3.877719E0,2.4276218E0,3.764449E0,7.7213182E0,5.2043896E0,2.5169287E0],"tree_param":{"num_deleted":"0","num_feature":"48","num_nodes":"13","size_leaf_vector":"1"}},{"base_weights":[7.6384707E-3,-3.6619064E-1,3.8508344E-1,-4.243348E-1,1.2582143E-2,1.8063992E-1,5.7379317E-2,-5.7252E-2,-2.545409E-1,4.494716E-2,5.290828E-2,2.3072647E-4,-3.1614065E-1,2.0142574E-2,-8.1523685E-3,-4.1257884E-2,-3.7215427E-3],"categories":[],"categories_nodes":[],"categories_segments":[],"categories_sizes":[],"default_left":[0,0,0,0,0,0,0,0,0,0,0,0,0,0,0,0,0],"id":13,"left_children":[1,3,5,7,-1,9,-1,-1,11,-1,13,-1,15,-1,-1,-1,-1],"loss_changes":[5.9489684E0,6.5966105E-1,7.053585E-1,3.3689642E-1,0E0,3.71953E-1,0E0,0E0,1.706478E-1,0E0,1.9503136E-1,0E0,2.1784246E-1,0E0,0E0,0E0,0E0],"parents":[2147483647,0,0,1,1,2,2,3,3,5,5,8,8,10,10,12,12],"right_children":[2,4,6,8,-1,10,-1,-1,12,-1,14,-1,16,-1,-1,-1,-1],"split_conditions":[1.1762519E1,5.6281082E-2,1.3286286E1,-1.274843E0,1.2582143E-2,-6.2123644E-1,5.7379317E-2,-5.7252E-2,-6.2720835E-1,4.494716E-2,-2.275136E-2,2.3072647E-4,3.555418E-2,2.0142574E-2,-8.1523685E-3,-4.1257884E-2,-3.7215427E-3],"split_indices":[18,17,18,15,0,21,0,0,6,0,44,0,13,0,0,0,0],"split_type":[0,0,0,0,0,0,0,0,0,0,0,0,0,0,0,0,0],"sum_hessian":[4.0162E1,2.0192627E1,1.996937E1,1.8181551E1,2.0110757E0,1.0524557E1,9.444812E0,8.442034E0,9.739518E0,2.5786028E0,7.9459543E0,2.0701795E0,7.6693387E0,3.5384293E0,4.407525E0,5.342871E0,2.3264675E0],"tree_param":{"num_deleted":"0","num_feature":"48","num_nodes":"17","size_leaf_vector":"1"}},{"base_weights":[4.852004E-3,-3.901382E-1,3.751337E-1,8.2243895E-3,-4.5390883E-1,1.9511698E-1,5.6170877E-2,-4.9668223E-2,-1.2869306E-2,3.4410122E-1,-5.6256885E-3,7.484477E-3,4.2759255E-2],"categories":[],"categories_nodes":[],"categories_segments":[],"categories_sizes":[],"default_left":[0,0,0,0,0,0,0,0,0,0,0,0,0],"id":14,"left_children":[1,3,5,-1,7,9,-1,-1,-1,11,-1,-1,-1],"loss_changes":[5.752471E0,6.107919E-1,5.720017E-1,0E0,1.715281E-1,4.6354926E-1,0E0,0E0,0E0,1.3856852E-1,0E0,0E0,0E0],"parents":[2147483647,0,0,1,1,2,2,4,4,5,5,9,9],"right_children":[2,4,6,-1,8,10,-1,-1,-1,12,-1,-1,-1],"split_conditions":[1.1762519E1,-6.713942E-2,3.556104E1,8.2243895E-3,5.14529E-2,-4.6576092E-1,5.6170877E-2,-4.9668223E-2,-1.2869306E-2,-2.1866055E-1,-5.6256885E-3,7.484477E-3,4.2759255E-2],"split_indices":[18,44,0,0,25,6,0,0,0,5,0,0,0],"split_type":[0,0,0,0,0,0,0,0,0,0,0,0,0],"sum_hessian":[3.733042E1,1.8036615E1,1.9293806E1,2.1108406E0,1.5925776E1,1.0860678E1,8.433128E0,1.360868E1,2.317095E0,6.58751E0,4.2731676E0,2.0080523E0,4.5794578E0],"tree_param":{"num_deleted":"0","num_feature":"48","num_nodes":"13","size_leaf_vector":"1"}},{"base_weights":[8.727311E-3,-3.608093E-1,3.6513326E-1,-5.399186E-2,-1.9582841E-1,1.4876044E-1,5.54548E-2,-1.5870538E-2,-3.732177E-2,2.7489355E-1,-7.507389E-3,-2.020189E-2,1.4173831E-2,4.109264E-2,-6.018392E-4],"categories":[],"categories_nodes":[],"categories_segments":[],"categories_sizes":[],"default_left":[0,0,0,0,0,0,0,0,0,0,0,0,0,0,0],"id":15,"left_children":[1,3,5,-1,7,9,-1,11,-1,13,-1,-1,-1,-1,-1],"loss_changes":[4.984278E0,4.4364762E-1,7.0654154E-1,0E0,3.5310006E-1,3.1293848E-1,0E0,2.2307064E-1,0E0,2.637096E-1,0E0,0E0,0E0,0E0,0E0],"parents":[2147483647,0,0,1,1,2,2,4,4,5,5,7,7,9,9],"right_children":[2,4,6,-1,8,10,-1,12,-1,14,-1,-1,-1,-1,-1],"split_conditions":[1.1252484E1,-2.7254267E1,1.3286286E1,-5.399186E-2,4.0486112E-2,1.59934225E1,5.54548E-2,-1.6896662E-3,-3.732177E-2,-4.8771423E-1,-7.507389E-3,-2.020189E-2,1.4173831E-2,4.109264E-2,-6.018392E-4],"split_indices":[4,14,18,0,6,4,0,11,0,6,0,0,0,0,0],"split_type":[0,0,0,0,0,0,0,0,0,0,0,0,0,0,0],"sum_hessian":[3.5843952E1,1.7591743E1,1.825221E1,7.3450613E0,1.0246681E1,9.353203E0,8.899008E0,5.627332E0,4.6193495E0,5.836282E0,3.516921E0,2.4508789E0,3.1764534E0,3.6203039E0,2.215978E0],"tree_param":{"num_deleted":"0","num_feature":"48","num_nodes":"15","size_leaf_vector":"1"}},{"base_weights":[-7.620695E-3,-3.3603075E-1,3.7802127E-1,-4.2096384E-2,5.629729E-3,1.6829674E-1,5.369726E-2,-6.620458E-3,2.88959E-2],"categories":[],"categories_nodes":[],"categories_segments":[],"categories_sizes":[],"default_left":[0,0,0,0,0,0,0,0,0],"id":16,"left_children":[1,3,5,-1,-1,7,-1,-1,-1],"loss_changes":[4.204916E0,6.207888E-1,4.1898465E-1,0E0,0E0,2.4674155E-1,0E0,0E0,0E0],"parents":[2147483647,0,0,1,1,2,2,5,5],"right_children":[2,4,6,-1,-1,8,-1,-1,-1],"split_conditions":[1.1828614E1,4.5244265E-2,1.3286286E1,-4.2096384E-2,5.629729E-3,-2.3114015E-1,5.369726E-2,-6.620458E-3,2.88959E-2],"split_indices":[18,13,18,0,0,5,0,0,0],"split_type":[0,0,0,0,0,0,0,0,0],"sum_hessian":[3.1198427E1,1.6918983E1,1.4279445E1,1.3848092E1,3.0708914E0,7.0440865E0,7.235358E0,2.5464692E0,4.4976172E0],"tree_param":{"num_deleted":"0","num_feature":"48","num_nodes":"9","size_leaf_vector":"1"}},{"base_weights":[-2.6548568E-3,-3.1633562E-1,3.6863312E-1,-4.7033798E-2,-1.6006002E-1,1.3294475E-1,5.32867E-2,9.305378E-3,-2.4169624E-1,2.6837124E-2,-5.3669917E-3,-5.0765104E-3,-3.4175638E-2],"categories":[],"categories_nodes":[],"categories_segments":[],"categories_sizes":[],"default_left":[0,0,0,0,0,0,0,0,0,0,0,0,0],"id":17,"left_children":[1,3,5,-1,7,9,-1,-1,11,-1,-1,-1,-1],"loss_changes":[3.7006185E0,3.391173E-1,4.9252582E-1,0E0,2.3040739E-1,1.9912978E-1,0E0,0E0,1.3331419E-1,0E0,0E0,0E0,0E0],"parents":[2147483647,0,0,1,1,2,2,4,4,5,5,8,8],"right_children":[2,4,6,-1,8,10,-1,-1,12,-1,-1,-1,-1],"split_conditions":[1.1828614E1,-1.274843E0,1.3263966E1,-4.7033798E-2,3.5047698E-1,4.014469E-1,5.32867E-2,9.305378E-3,-5.829226E-1,2.6837124E-2,-5.3669917E-3,-5.0765104E-3,-3.4175638E-2],"split_indices":[18,15,18,0,24,1,0,0,21,0,0,0,0],"split_type":[0,0,0,0,0,0,0,0,0,0,0,0,0],"sum_hessian":[2.9773014E1,1.6218718E1,1.35542965E1,7.1565757E0,9.062142E0,6.30936E0,7.2449365E0,2.1758971E0,6.8862457E0,3.4022439E0,2.907116E0,2.8862166E0,4.000029E0],"tree_param":{"num_deleted":"0","num_feature":"48","num_nodes":"13","size_leaf_vector":"1"}},{"base_weights":[-4.8182807E-3,-3.4190777E-1,3.2847947E-1,-1.3843394E-4,-3.92351E-1,1.6191207E-1,5.1798522E-2,-5.063736E-2,-1.6156162E-1,3.7448164E-2,2.586998E-3,-2.6421452E-2,3.0903802E-3],"categories":[],"categories_nodes":[],"categories_segments":[],"categories_sizes":[],"default_left":[0,0,0,0,0,0,0,0,0,0,0,0,0],"id":18,"left_children":[1,3,5,-1,7,9,-1,-1,11,-1,-1,-1,-1],"loss_changes":[3.6140606E0,2.7404654E-1,4.2692804E-1,0E0,2.8449035E-1,2.814338E-1,0E0,0E0,1.2812135E-1,0E0,0E0,0E0,0E0],"parents":[2147483647,0,0,1,1,2,2,4,4,5,5,8,8],"right_children":[2,4,6,-1,8,10,-1,-1,12,-1,-1,-1,-1],"split_conditions":[5.5209765E0,-6.4675234E-2,5.808653E-1,-1.3843394E-4,1.0085772E1,-5.829226E-1,5.1798522E-2,-5.063736E-2,2.2537041E-2,3.7448164E-2,2.586998E-3,-2.6421452E-2,3.0903802E-3],"split_indices":[18,44,20,0,16,21,0,0,30,0,0,0,0],"split_type":[0,0,0,0,0,0,0,0,0,0,0,0,0],"sum_hessian":[3.0167908E1,1.4985795E1,1.5182113E1,2.066058E0,1.2919738E1,9.067E0,6.115112E0,7.8482018E0,5.0715356E0,2.8543344E0,6.212666E0,3.0643516E0,2.0071843E0],"tree_param":{"num_deleted":"0","num_feature":"48","num_nodes":"13","size_leaf_vector":"1"}},{"base_weights":[2.2320405E-2,-3.123463E-1,3.6197165E-1,-3.844863E-1,5.9208684E-3,1.8312208E-1,5.136123E-2,-5.341812E-2,-2.05468E-1,3.137524E-2,-2.0895028E-3,4.2421694E-4,-3.129376E-2],"categories":[],"categories_nodes":[],"categories_segments":[],"categories_sizes":[],"default_left":[0,0,0,0,0,0,0,0,0,0,0,0,0],"id":19,"left_children":[1,3,5,7,-1,9,-1,-1,11,-1,-1,-1,-1],"loss_changes":[3.3848112E0,4.2575252E-1,3.0593204E-1,2.3121166E-1,0E0,2.283206E-1,0E0,0E0,1.6854107E-1,0E0,0E0,0E0,0E0],"parents":[2147483647,0,0,1,1,2,2,3,3,5,5,8,8],"right_children":[2,4,6,8,-1,10,-1,-1,12,-1,-1,-1,-1],"split_conditions":[1.1252484E1,5.375198E-2,5.808653E-1,-2.723421E1,5.9208684E-3,-4.8721778E-1,5.136123E-2,-5.341812E-2,6.560267E-1,3.137524E-2,-2.0895028E-3,4.2421694E-4,-3.129376E-2],"split_indices":[4,28,20,14,0,6,0,0,5,0,0,0,0],"split_type":[0,0,0,0,0,0,0,0,0,0,0,0,0],"sum_hessian":[2.7782896E1,1.4034625E1,1.3748271E1,1.1723603E1,2.311022E0,7.321122E0,6.4271483E0,5.304249E0,6.419355E0,4.1353936E0,3.1857283E0,2.5005157E0,3.9188392E0],"tree_param":{"num_deleted":"0","num_feature":"48","num_nodes":"13","size_leaf_vector":"1"}},{"base_weights":[-1.0335918E-2,-3.218206E-1,3.1740528E-1,-3.8093388E-1,-3.2016493E-3,1.3913536E-1,4.991996E-2,-4.4180643E-2,-1.0953033E-2,2.4882725E-2,-1.760276E-4],"categories":[],"categories_nodes":[],"categories_segments":[],"categories_sizes":[],"default_left":[0,0,0,0,0,0,0,0,0,0,0],"id":20,"left_children":[1,3,5,7,-1,9,-1,-1,-1,-1,-1],"loss_changes":[2.88316E0,2.3558784E-1,3.7706542E-1,1.4856601E-1,0E0,1.2937713E-1,0E0,0E0,0E0,0E0,0E0],"parents":[2147483647,0,0,1,1,2,2,3,3,5,5],"right_children":[2,4,6,8,-1,10,-1,-1,-1,-1,-1],"split_conditions":[5.5209765E0,5.1126022E-2,8.661831E-1,1.0128227E1,-3.2016493E-3,-4.6576092E-1,4.991996E-2,-4.4180643E-2,-1.0953033E-2,2.4882725E-2,-1.760276E-4],"split_indices":[18,28,1,16,0,6,0,0,0,0,0],"split_type":[0,0,0,0,0,0,0,0,0,0,0],"sum_hessian":[2.6241764E1,1.3463829E1,1.2777935E1,1.0921619E1,2.5422099E0,7.342816E0,5.4351187E0,8.407959E0,2.5136604E0,3.6978664E0,3.6449497E0],"tree_param":{"num_deleted":"0","num_feature":"48","num_nodes":"11","size_leaf_vector":"1"}},{"base_weights":[1.069917E-2,-3.1965122E-1,3.3548373E-1,-3.780995E-2,-1.4285079E-3,1.5694158E-1,4.999152E-2,3.0590147E-2,-2.1374466E-4],"categories":[],"categories_nodes":[],"categories_segments":[],"categories_sizes":[],"default_left":[0,0,0,0,0,0,0,0,0],"id":21,"left_children":[1,3,5,-1,-1,7,-1,-1,-1],"loss_changes":[2.8893218E0,2.331723E-1,3.1972408E-1,0E0,0E0,1.8927902E-1,0E0,0E0,0E0],"parents":[2147483647,0,0,1,1,2,2,5,5],"right_children":[2,4,6,-1,-1,8,-1,-1,-1],"split_conditions":[1.1252484E1,4.580952E-2,1.3286286E1,-3.780995E-2,-1.4285079E-3,-5.095994E-1,4.999152E-2,3.0590147E-2,-2.1374466E-4],"split_indices":[4,17,18,0,0,21,0,0,0],"split_type":[0,0,0,0,0,0,0,0,0],"sum_hessian":[2.4929853E1,1.2366864E1,1.2562989E1,1.0180158E1,2.1867063E0,6.9600797E0,5.6029096E0,3.1177242E0,3.8423557E0],"tree_param":{"num_deleted":"0","num_feature":"48","num_nodes":"9","size_leaf_vector":"1"}},{"base_weights":[2.209974E-2,-3.283197E-1,3.3164912E-1,-3.9223608E-1,-9.5503667E-4,1.7478178E-1,4.8823416E-2,-5.1446952E-2,-2.159661E-2,2.9172514E-2,7.4317283E-4],"categories":[],"categories_nodes":[],"categories_segments":[],"categories_sizes":[],"default_left":[0,0,0,0,0,0,0,0,0,0,0],"id":22,"left_children":[1,3,5,7,-1,9,-1,-1,-1,-1,-1],"loss_changes":[2.730938E0,2.3749614E-1,2.4214637E-1,1.0085809E-1,0E0,1.5865663E-1,0E0,0E0,0E0,0E0,0E0],"parents":[2147483647,0,0,1,1,2,2,3,3,5,5],"right_children":[2,4,6,8,-1,10,-1,-1,-1,-1,-1],"split_conditions":[5.5209765E0,5.381875E-2,3.556104E1,-2.723421E1,-9.5503667E-4,-4.6576092E-1,4.8823416E-2,-5.1446952E-2,-2.159661E-2,2.9172514E-2,7.4317283E-4],"split_indices":[18,17,0,14,0,6,0,0,0,0,0],"split_type":[0,0,0,0,0,0,0,0,0,0,0],"sum_hessian":[2.3172579E1,1.0840342E1,1.2332237E1,8.837805E0,2.0025368E0,7.2177167E0,5.1145205E0,4.08585E0,4.751955E0,3.811239E0,3.4064777E0],"tree_param":{"num_deleted":"0","num_feature":"48","num_nodes":"11","size_leaf_vector":"1"}},{"base_weights":[-7.454272E-3,-3.3161777E-1,2.9273084E-1,-4.6375417E-3,-3.868708E-1,1.3452072E-1,4.7477085E-2,-1.1176953E-2,-4.45882E-2,3.160364E-2,1.7616315E-3],"categories":[],"categories_nodes":[],"categories_segments":[],"categories_sizes":[],"default_left":[0,0,0,0,0,0,0,0,0,0,0],"id":23,"left_children":[1,3,5,-1,7,9,-1,-1,-1,-1,-1],"loss_changes":[2.3487284E0,1.6478777E-1,2.9743898E-1,0E0,1.0562968E-1,1.664673E-1,0E0,0E0,0E0,0E0,0E0],"parents":[2147483647,0,0,1,1,2,2,4,4,5,5],"right_children":[2,4,6,-1,8,10,-1,-1,-1,-1,-1],"split_conditions":[5.5209765E0,-4.548377E-2,3.556104E1,-4.6375417E-3,-8.787301E-1,-5.829226E-1,4.7477085E-2,-1.1176953E-2,-4.45882E-2,3.160364E-2,1.7616315E-3],"split_indices":[18,29,0,0,1,21,0,0,0,0,0],"split_type":[0,0,0,0,0,0,0,0,0,0,0],"sum_hessian":[2.2139202E1,1.0594124E1,1.1545079E1,2.0176067E0,8.576517E0,7.107204E0,4.4378753E0,2.0259383E0,6.5505786E0,2.11692E0,4.990284E0],"tree_param":{"num_deleted":"0","num_feature":"48","num_nodes":"11","size_leaf_vector":"1"}},{"base_weights":[2.9625228E-2,-2.827334E-1,3.1721094E-1,-3.5528034E-2,-8.689663E-3,1.6232342E-1,4.758399E-2,-4.3475693E-3,2.5065688E-2],"categories":[],"categories_nodes":[],"categories_segments":[],"categories_sizes":[],"default_left":[0,0,0,0,0,0,0,0,0],"id":24,"left_children":[1,3,5,-1,-1,7,-1,-1,-1],"loss_changes":[2.1403825E0,1.321106E-1,2.2636521E-1,0E0,0E0,1.5214689E-1,0E0,0E0,0E0],"parents":[2147483647,0,0,1,1,2,2,5,5],"right_children":[2,4,6,-1,-1,8,-1,-1,-1],"split_conditions":[1.1252484E1,2.137984E-2,3.556104E1,-3.5528034E-2,-8.689663E-3,-2.3114015E-1,4.758399E-2,-4.3475693E-3,2.5065688E-2],"split_indices":[4,13,0,0,0,5,0,0,0],"split_type":[0,0,0,0,0,0,0,0,0],"sum_hessian":[2.1828667E1,1.0471746E1,1.1356921E1,7.0470357E0,3.4247103E0,6.7699437E0,4.5869775E0,2.1856484E0,4.5842953E0],"tree_param":{"num_deleted":"0","num_feature":"48","num_nodes":"9","size_leaf_vector":"1"}},{"base_weights":[7.113034E-3,-3.2623383E-1,3.2705897E-1,-1.078299E-2,-4.0929865E-2,1.7021857E-1,4.703003E-2,-2.7717983E-3,2.5524965E-2],"categories":[],"categories_nodes":[],"categories_segments":[],"categories_sizes":[],"default_left":[0,0,0,0,0,0,0,0,0],"id":25,"left_children":[1,3,5,-1,-1,7,-1,-1,-1],"loss_changes":[2.3839648E0,1.5465617E-1,1.7593348E-1,0E0,0E0,1.2499577E-1,0E0,0E0,0E0],"parents":[2147483647,0,0,1,1,2,2,5,5],"right_children":[2,4,6,-1,-1,8,-1,-1,-1],"split_conditions":[1.1762519E1,-2.257081E-2,3.556104E1,-1.078299E-2,-4.0929865E-2,-2.3114015E-1,4.703003E-2,-2.7717983E-3,2.5524965E-2],"split_indices":[18,45,0,0,0,5,0,0,0],"split_type":[0,0,0,0,0,0,0,0,0],"sum_hessian":[2.0352118E1,9.957693E0,1.0394424E1,3.376895E0,6.5807986E0,6.006268E0,4.388157E0,2.0074115E0,3.9988565E0],"tree_param":{"num_deleted":"0","num_feature":"48","num_nodes":"9","size_leaf_vector":"1"}},{"base_weights":[-2.078403E-2,-2.8169304E-1,2.694402E-1,-3.4391624E-1,-9.841966E-4,9.438275E-3,4.4817712E-2,-4.897494E-2,-1.3943871E-2],"categories":[],"categories_nodes":[],"categories_segments":[],"categories_sizes":[],"default_left":[0,0,0,0,0,0,0,0,0],"id":26,"left_children":[1,3,5,7,-1,-1,-1,-1,-1],"loss_changes":[1.557139E0,1.7913097E-1,2.6344663E-1,1.9265401E-1,0E0,0E0,0E0,0E0,0E0],"parents":[2147483647,0,0,1,1,2,2,3,3],"right_children":[2,4,6,8,-1,-1,-1,-1,-1],"split_conditions":[5.5209765E0,4.531453E-2,3.556104E1,-2.7246157E1,-9.841966E-4,9.438275E-3,4.4817712E-2,-4.897494E-2,-1.3943871E-2],"split_indices":[18,28,0,14,0,0,0,0,0],"split_type":[0,0,0,0,0,0,0,0,0],"sum_hessian":[1.8561522E1,9.789891E0,8.77163E0,7.750753E0,2.039138E0,5.203401E0,3.5682292E0,3.7098014E0,4.0409517E0],"tree_param":{"num_deleted":"0","num_feature":"48","num_nodes":"9","size_leaf_vector":"1"}},{"base_weights":[1.3533749E-2,-2.5668857E-1,3.004695E-1,-3.9417922E-2,-9.399029E-3,1.294999E-1,4.5020193E-2,-3.9501493E-3,2.3855442E-2],"categories":[],"categories_nodes":[],"categories_segments":[],"categories_sizes":[],"default_left":[0,0,0,0,0,0,0,0,0],"id":27,"left_children":[1,3,5,-1,-1,7,-1,-1,-1],"loss_changes":[1.588324E0,1.9954628E-1,1.9548047E-1,0E0,0E0,1.2060058E-1,0E0,0E0,0E0],"parents":[2147483647,0,0,1,1,2,2,5,5],"right_children":[2,4,6,-1,-1,8,-1,-1,-1],"split_conditions":[1.1291891E1,-1.274843E0,2.0704018E1,-3.9417922E-2,-9.399029E-3,-1.1281529E-1,4.5020193E-2,-3.9501493E-3,2.3855442E-2],"split_indices":[4,15,4,0,0,5,0,0,0],"split_type":[0,0,0,0,0,0,0,0,0],"sum_hessian":[1.849015E1,9.5766945E0,8.913457E0,4.419319E0,5.157375E0,5.032291E0,3.8811657E0,2.2238228E0,2.808468E0],"tree_param":{"num_deleted":"0","num_feature":"48","num_nodes":"9","size_leaf_vector":"1"}},{"base_weights":[5.126461E-3,-2.624808E-1,2.839936E-1,-5.126558E-3,-3.330803E-2,1.2352225E-2,4.3589365E-2],"categories":[],"categories_nodes":[],"categories_segments":[],"categories_sizes":[],"default_left":[0,0,0,0,0,0,0],"id":28,"left_children":[1,3,5,-1,-1,-1,-1],"loss_changes":[1.4194441E0,1.2780917E-1,1.7298436E-1,0E0,0E0,0E0,0E0],"parents":[2147483647,0,0,1,1,2,2],"right_children":[2,4,6,-1,-1,-1,-1],"split_conditions":[6.8247843E0,-3.1258337E-2,1.3286286E1,-5.126558E-3,-3.330803E-2,1.2352225E-2,4.3589365E-2],"split_indices":[4,47,18,0,0,0,0],"split_type":[0,0,0,0,0,0,0],"sum_hessian":[1.7021675E1,8.716186E0,8.30549E0,2.6159863E0,6.100199E0,4.920509E0,3.3849802E0],"tree_param":{"num_deleted":"0","num_feature":"48","num_nodes":"7","size_leaf_vector":"1"}},{"base_weights":[-1.0432902E-2,-2.585796E-1,2.8060332E-1,-3.6885336E-2,-7.6898537E-3,1.2975722E-2,4.255442E-2],"categories":[],"categories_nodes":[],"categories_segments":[],"categories_sizes":[],"default_left":[0,0,0,0,0,0,0],"id":29,"left_children":[1,3,5,-1,-1,-1,-1],"loss_changes":[1.3733236E0,1.768384E-1,1.3650233E-1,0E0,0E0,0E0,0E0],"parents":[2147483647,0,0,1,1,2,2],"right_children":[2,4,6,-1,-1,-1,-1],"split_conditions":[1.1291891E1,-2.2165475E0,2.146733E1,-3.6885336E-2,-7.6898537E-3,1.2975722E-2,4.255442E-2],"split_indices":[4,14,0,0,0,0,0],"split_type":[0,0,0,0,0,0,0],"sum_hessian":[1.7011229E1,9.242393E0,7.768836E0,5.1103644E0,4.132028E0,4.7355695E0,3.0332665E0],"tree_param":{"num_deleted":"0","num_feature":"48","num_nodes":"7","size_leaf_vector":"1"}},{"base_weights":[2.1970994E-3,-2.5920933E-1,2.9519996E-1,-5.519419E-3,-3.4997523E-2,1.2012486E-2,4.3867934E-2],"categories":[],"categories_nodes":[],"categories_segments":[],"categories_sizes":[],"default_left":[0,0,0,0,0,0,0],"id":30,"left_children":[1,3,5,-1,-1,-1,-1],"loss_changes":[1.4285547E0,1.632967E-1,1.6812205E-1,0E0,0E0,0E0,0E0],"parents":[2147483647,0,0,1,1,2,2],"right_children":[2,4,6,-1,-1,-1,-1],"split_conditions":[1.1252484E1,-1.8999698E-2,8.2790583E-1,-5.519419E-3,-3.4997523E-2,1.2012486E-2,4.3867934E-2],"split_indices":[4,45,1,0,0,0,0],"split_type":[0,0,0,0,0,0,0],"sum_hessian":[1.6652254E1,8.861597E0,7.790657E0,3.2237177E0,5.637879E0,4.3364735E0,3.454184E0],"tree_param":{"num_deleted":"0","num_feature":"48","num_nodes":"7","size_leaf_vector":"1"}},{"base_weights":[3.0550322E-2,-2.3841928E-1,2.9238794E-2,-3.7503738E-2,-7.378336E-3],"categories":[],"categories_nodes":[],"categories_segments":[],"categories_sizes":[],"default_left":[0,0,0,0,0],"id":31,"left_children":[1,3,-1,-1,-1],"loss_changes":[1.2330676E0,1.6799405E-1,0E0,0E0,0E0],"parents":[2147483647,0,0,1,1],"right_children":[2,4,-1,-1,-1],"split_conditions":[5.5209765E0,-2.7254267E1,2.9238794E-2,-3.7503738E-2,-7.378336E-3],"split_indices":[18,14,0,0,0],"split_type":[0,0,0,0,0],"sum_hessian":[1.5518768E1,7.6992464E0,7.8195214E0,3.509235E0,4.1900115E0],"tree_param":{"num_deleted":"0","num_feature":"48","num_nodes":"5","size_leaf_vector":"1"}},{"base_weights":[-1.7111162E-2,-2.5511613E-1,2.722944E-1,-3.2111382E-1,-1.6684193E-3,1.0198972E-2,4.138152E-2,-4.4434045E-2,-1.2324202E-2],"categories":[],"categories_nodes":[],"categories_segments":[],"categories_sizes":[],"default_left":[0,0,0,0,0,0,0,0,0],"id":32,"left_children":[1,3,5,7,-1,-1,-1,-1,-1],"loss_changes":[1.1550252E0,1.3885212E-1,1.4086676E-1,1.1891413E-1,0E0,0E0,0E0,0E0,0E0],"parents":[2147483647,0,0,1,1,2,2,3,3],"right_children":[2,4,6,8,-1,-1,-1,-1,-1],"split_conditions":[1.1828614E1,3.8711194E-2,8.661831E-1,-3.870111E1,-1.6684193E-3,1.0198972E-2,4.138152E-2,-4.4434045E-2,-1.2324202E-2],"split_indices":[18,28,1,18,0,0,0,0,0],"split_type":[0,0,0,0,0,0,0,0,0],"sum_hessian":[1.4760152E1,8.164341E0,6.595811E0,6.122787E0,2.0415542E0,3.7744029E0,2.821408E0,3.0054903E0,3.1172965E0],"tree_param":{"num_deleted":"0","num_feature":"48","num_nodes":"9","size_leaf_vector":"1"}},{"base_weights":[3.3963557E-2,-2.083142E-1,2.7885967E-1,-3.0585647E-2,-2.698714E-4,1.1614401E-2,4.194049E-2],"categories":[],"categories_nodes":[],"categories_segments":[],"categories_sizes":[],"default_left":[0,0,0,0,0,0,0],"id":33,"left_children":[1,3,5,-1,-1,-1,-1],"loss_changes":[9.6283805E-1,1.6439185E-1,1.3449037E-1,0E0,0E0,0E0,0E0],"parents":[2147483647,0,0,1,1,2,2],"right_children":[2,4,6,-1,-1,-1,-1],"split_conditions":[5.5209765E0,1.8067881E-2,1.3286286E1,-3.0585647E-2,-2.698714E-4,1.1614401E-2,4.194049E-2],"split_indices":[18,13,18,0,0,0,0],"split_type":[0,0,0,0,0,0,0],"sum_hessian":[1.424867E1,7.2377157E0,7.0109544E0,4.5782943E0,2.6594212E0,4.095633E0,2.9153214E0],"tree_param":{"num_deleted":"0","num_feature":"48","num_nodes":"7","size_leaf_vector":"1"}},{"base_weights":[1.108861E-2,-2.0820248E-1,2.5633562E-2,-3.4490343E-2,-9.23546E-3],"categories":[],"categories_nodes":[],"categories_segments":[],"categories_sizes":[],"default_left":[0,0,0,0,0],"id":34,"left_children":[1,3,-1,-1,-1],"loss_changes":[8.506126E-1,1.0082424E-1,0E0,0E0,0E0],"parents":[2147483647,0,0,1,1],"right_children":[2,4,-1,-1,-1],"split_conditions":[5.5209765E0,-3.8766365E1,2.5633562E-2,-3.4490343E-2,-9.23546E-3],"split_indices":[18,18,0,0,0],"split_type":[0,0,0,0,0],"sum_hessian":[1.38240185E1,7.37796E0,6.4460583E0,2.4774039E0,4.9005566E0],"tree_param":{"num_deleted":"0","num_feature":"48","num_nodes":"5","size_leaf_vector":"1"}},{"base_weights":[-8.160084E-4,-2.5025878E-2,2.734997E-2],"categories":[],"categories_nodes":[],"categories_segments":[],"categories_sizes":[],"default_left":[0,0,0],"id":35,"left_children":[1,-1,-1],"loss_changes":[1.0702611E0,0E0,0E0],"parents":[2147483647,0,0],"right_children":[2,-1,-1],"split_conditions":[5.5209765E0,-2.5025878E-2,2.734997E-2],"split_indices":[18,0,0],"split_type":[0,0,0],"sum_hessian":[1.3640847E1,7.190252E0,6.450595E0],"tree_param":{"num_deleted":"0","num_feature":"48","num_nodes":"3","size_leaf_vector":"1"}},{"base_weights":[3.6625846E-3,-2.1445054E-1,2.595047E-1,-3.8094465E-2,-5.5162525E-3,9.201593E-3,4.0042046E-2],"categories":[],"categories_nodes":[],"categories_segments":[],"categories_sizes":[],"default_left":[0,0,0,0,0,0,0],"id":36,"left_children":[1,3,5,-1,-1,-1,-1],"loss_changes":[8.364286E-1,1.9381115E-1,1.2580588E-1,0E0,0E0,0E0,0E0],"parents":[2147483647,0,0,1,1,2,2],"right_children":[2,4,6,-1,-1,-1,-1],"split_conditions":[1.1834373E1,-2.7254267E1,3.556104E1,-3.8094465E-2,-5.5162525E-3,9.201593E-3,4.0042046E-2],"split_indices":[18,14,0,0,0,0,0],"split_type":[0,0,0,0,0,0,0],"sum_hessian":[1.2991797E1,7.100334E0,5.8914633E0,2.791257E0,4.3090773E0,3.4471984E0,2.444265E0],"tree_param":{"num_deleted":"0","num_feature":"48","num_nodes":"7","size_leaf_vector":"1"}},{"base_weights":[-1.1294624E-2,-2.1015565E-1,2.272594E-1,-3.0268822E-2,-8.378513E-5,5.347008E-3,3.890735E-2],"categories":[],"categories_nodes":[],"categories_segments":[],"categories_sizes":[],"default_left":[0,0,0,0,0,0,0],"id":37,"left_children":[1,3,5,-1,-1,-1,-1],"loss_changes":[6.840372E-1,1.5148789E-1,1.6418406E-1,0E0,0E0,0E0,0E0],"parents":[2147483647,0,0,1,1,2,2],"right_children":[2,4,6,-1,-1,-1,-1],"split_conditions":[1.1291891E1,2.2954524E-2,3.556104E1,-3.0268822E-2,-8.378513E-5,5.347008E-3,3.890735E-2],"split_indices":[4,17,0,0,0,0,0],"split_type":[0,0,0,0,0,0,0],"sum_hessian":[1.2412511E1,6.834362E0,5.5781493E0,4.429954E0,2.404408E0,3.3310368E0,2.2471123E0],"tree_param":{"num_deleted":"0","num_feature":"48","num_nodes":"7","size_leaf_vector":"1"}},{"base_weights":[6.7722783E-3,-2.1403179E-1,2.5207707E-1,-3.493814E-2,-5.990105E-3,7.654504E-3,3.9163083E-2],"categories":[],"categories_nodes":[],"categories_segments":[],"categories_sizes":[],"default_left":[0,0,0,0,0,0,0],"id":38,"left_children":[1,3,5,-1,-1,-1,-1],"loss_changes":[7.7125186E-1,1.3574985E-1,1.3494655E-1,0E0,0E0,0E0,0E0],"parents":[2147483647,0,0,1,1,2,2],"right_children":[2,4,6,-1,-1,-1,-1],"split_conditions":[5.5209765E0,-3.8733635E1,7.549206E-1,-3.493814E-2,-5.990105E-3,7.654504E-3,3.9163083E-2],"split_indices":[18,18,1,0,0,0,0],"split_type":[0,0,0,0,0,0,0],"sum_hessian":[1.224303E1,6.510382E0,5.7326474E0,2.7918968E0,3.7184854E0,3.2248719E0,2.5077758E0],"tree_param":{"num_deleted":"0","num_feature":"48","num_nodes":"7","size_leaf_vector":"1"}},{"base_weights":[3.2621082E-3,-1.9952083E-1,2.2836088E-1,-2.8809482E-2,-2.0169385E-3,7.4183526E-3,3.715389E-2],"categories":[],"categories_nodes":[],"categories_segments":[],"categories_sizes":[],"default_left":[0,0,0,0,0,0,0],"id":39,"left_children":[1,3,5,-1,-1,-1,-1],"loss_changes":[6.046689E-1,1.05032295E-1,1.10874206E-1,0E0,0E0,0E0,0E0],"parents":[2147483647,0,0,1,1,2,2],"right_children":[2,4,6,-1,-1,-1,-1],"split_conditions":[1.1252484E1,2.0135721E-2,3.556104E1,-2.8809482E-2,-2.0169385E-3,7.4183526E-3,3.715389E-2],"split_indices":[4,13,0,0,0,0,0],"split_type":[0,0,0,0,0,0,0],"sum_hessian":[1.12486925E1,5.977458E0,5.2712345E0,3.5954864E0,2.3819714E0,3.2691066E0,2.0021281E0],"tree_param":{"num_deleted":"0","num_feature":"48","num_nodes":"7","size_leaf_vector":"1"}},{"base_weights":[4.565458E-3,-2.2051571E-2,2.5144828E-2],"categories":[],"categories_nodes":[],"categories_segments":[],"categories_sizes":[],"default_left":[0,0,0],"id":40,"left_children":[1,-1,-1],"loss_changes":[7.348641E-1,0E0,0E0],"parents":[2147483647,0,0],"right_children":[2,-1,-1],"split_conditions":[1.1762519E1,-2.2051571E-2,2.5144828E-2],"split_indices":[18,0,0],"split_type":[0,0,0],"sum_hessian":[1.1226598E1,5.928464E0,5.2981343E0],"tree_param":{"num_deleted":"0","num_feature":"48","num_nodes":"3","size_leaf_vector":"1"}},{"base_weights":[1.4015331E-2,-1.7084384E-1,2.0696336E-1,-2.6458532E-2,1.1748074E-3,6.1683385E-3,3.5389327E-2],"categories":[],"categories_nodes":[],"categories_segments":[],"categories_sizes":[],"default_left":[0,0,0,0,0,0,0],"id":41,"left_children":[1,3,5,-1,-1,-1,-1],"loss_changes":[4.7363898E-1,1.198972E-1,1.1616197E-1,0E0,0E0,0E0,0E0],"parents":[2147483647,0,0,1,1,2,2],"right_children":[2,4,6,-1,-1,-1,-1],"split_conditions":[1.1252484E1,2.137984E-2,7.549206E-1,-2.6458532E-2,1.1748074E-3,6.1683385E-3,3.5389327E-2],"split_indices":[4,13,1,0,0,0,0],"split_type":[0,0,0,0,0,0,0],"sum_hessian":[1.1287707E1,5.8231955E0,5.4645123E0,3.5510545E0,2.2721407E0,3.4615993E0,2.002913E0],"tree_param":{"num_deleted":"0","num_feature":"48","num_nodes":"7","size_leaf_vector":"1"}},{"base_weights":[-8.809899E-3,-4.323576E-2,1.4266479E-1,1.9182541E-3,3.7950914E-2],"categories":[],"categories_nodes":[],"categories_segments":[],"categories_sizes":[],"default_left":[0,0,0,0,0],"id":42,"left_children":[1,-1,3,-1,-1],"loss_changes":[8.2845944E-1,0E0,2.721714E-1,0E0,0E0],"parents":[2147483647,0,0,2,2],"right_children":[2,-1,4,-1,-1],"split_conditions":[-2.7254267E1,-4.323576E-2,3.556104E1,1.9182541E-3,3.7950914E-2],"split_indices":[14,0,0,0,0],"split_type":[0,0,0,0,0],"sum_hessian":[1.0951622E1,2.396447E0,8.555175E0,6.3338976E0,2.2212772E0],"tree_param":{"num_deleted":"0","num_feature":"48","num_nodes":"5","size_leaf_vector":"1"}},{"base_weights":[-5.287058E-3,-1.992201E-1,2.2064736E-2,-3.514361E-2,-5.9217913E-3],"categories":[],"categories_nodes":[],"categories_segments":[],"categories_sizes":[],"default_left":[0,0,0,0,0],"id":43,"left_children":[1,3,-1,-1,-1],"loss_changes":[5.558165E-1,1.2434971E-1,0E0,0E0,0E0],"parents":[2147483647,0,0,1,1],"right_children":[2,4,-1,-1,-1],"split_conditions":[5.5209765E0,-3.8766365E1,2.2064736E-2,-3.514361E-2,-5.9217913E-3],"split_indices":[18,18,0,0,0],"split_type":[0,0,0,0,0],"sum_hessian":[1.0681973E1,5.811691E0,4.8702826E0,2.060842E0,3.750849E0],"tree_param":{"num_deleted":"0","num_feature":"48","num_nodes":"5","size_leaf_vector":"1"}},{"base_weights":[-2.0130564E-2,-1.9779062E-2,1.9502446E-2],"categories":[],"categories_nodes":[],"categories_segments":[],"categories_sizes":[],"default_left":[0,0,0],"id":44,"left_children":[1,-1,-1],"loss_changes":[4.3744245E-1,0E0,0E0],"parents":[2147483647,0,0],"right_children":[2,-1,-1],"split_conditions":[5.5209765E0,-1.9779062E-2,1.9502446E-2],"split_indices":[18,0,0],"split_type":[0,0,0],"sum_hessian":[9.434901E0,5.2119455E0,4.2229557E0],"tree_param":{"num_deleted":"0","num_feature":"48","num_nodes":"3","size_leaf_vector":"1"}},{"base_weights":[-4.399046E-2,-4.0707495E-2,1.06006145E-1,-2.1649145E-3,3.32173E-2],"categories":[],"categories_nodes":[],"categories_segments":[],"categories_sizes":[],"default_left":[0,0,0,0,0],"id":45,"left_children":[1,-1,3,-1,-1],"loss_changes":[6.101884E-1,0E0,2.4281889E-1,0E0,0E0],"parents":[2147483647,0,0,2,2],"right_children":[2,-1,4,-1,-1],"split_conditions":[-3.8733635E1,-4.0707495E-2,5.7587767E-1,-2.1649145E-3,3.32173E-2],"split_indices":[18,0,20,0,0],"split_type":[0,0,0,0,0],"sum_hessian":[9.411696E0,2.2504127E0,7.1612835E0,5.155592E0,2.0056915E0],"tree_param":{"num_deleted":"0","num_feature":"48","num_nodes":"5","size_leaf_vector":"1"}},{"base_weights":[3.4790568E-2,-1.4792912E-2,2.2742964E-2],"categories":[],"categories_nodes":[],"categories_segments":[],"categories_sizes":[],"default_left":[0,0,0],"id":46,"left_children":[1,-1,-1],"loss_changes":[4.1103208E-1,0E0,0E0],"parents":[2147483647,0,0],"right_children":[2,-1,-1],"split_conditions":[1.1252484E1,-1.4792912E-2,2.2742964E-2],"split_indices":[4,0,0],"split_type":[0,0,0],"sum_hessian":[9.721587E0,5.10836E0,4.6132274E0],"tree_param":{"num_deleted":"0","num_feature":"48","num_nodes":"3","size_leaf_vector":"1"}},{"base_weights":[-1.4948037E-2,-1.867569E-2,2.4356555E-2],"categories":[],"categories_nodes":[],"categories_segments":[],"categories_sizes":[],"default_left":[0,0,0],"id":47,"left_children":[1,-1,-1],"loss_changes":[5.049989E-1,0E0,0E0],"parents":[2147483647,0,0],"right_children":[2,-1,-1],"split_conditions":[1.1834373E1,-1.867569E-2,2.4356555E-2],"split_indices":[18,0,0],"split_type":[0,0,0],"sum_hessian":[9.345877E0,5.781229E0,3.5646474E0],"tree_param":{"num_deleted":"0","num_feature":"48","num_nodes":"3","size_leaf_vector":"1"}},{"base_weights":[-2.5752505E-2,-2.3510182E-2,1.3096777E-1,2.6807541E-2,5.1539904E-4],"categories":[],"categories_nodes":[],"categories_segments":[],"categories_sizes":[],"default_left":[0,0,0,0,0],"id":48,"left_children":[1,-1,3,-1,-1],"loss_changes":[3.715136E-1,0E0,1.1214456E-1,0E0,0E0],"parents":[2147483647,0,0,2,2],"right_children":[2,-1,4,-1,-1],"split_conditions":[5.4393926E0,-2.3510182E-2,-6.672055E-1,2.6807541E-2,5.1539904E-4],"split_indices":[18,0,3,0,0],"split_type":[0,0,0,0,0],"sum_hessian":[9.384953E0,3.8037324E0,5.5812197E0,2.1296582E0,3.4515617E0],"tree_param":{"num_deleted":"0","num_feature":"48","num_nodes":"5","size_leaf_vector":"1"}},{"base_weights":[1.5554496E-2,-1.6860021E-2,2.1016655E-2],"categories":[],"categories_nodes":[],"categories_segments":[],"categories_sizes":[],"default_left":[0,0,0],"id":49,"left_children":[1,-1,-1],"loss_changes":[4.0076858E-1,0E0,0E0],"parents":[2147483647,0,0],"right_children":[2,-1,-1],"split_conditions":[1.1252484E1,-1.6860021E-2,2.1016655E-2],"split_indices":[4,0,0],"split_type":[0,0,0],"sum_hessian":[9.193846E0,4.792514E0,4.401332E0],"tree_param":{"num_deleted":"0","num_feature":"48","num_nodes":"3","size_leaf_vector":"1"}},{"base_weights":[-2.0232007E-3,-2.4700673E-2,1.2064207E-1,-4.383259E-4,3.0048579E-2],"categories":[],"categories_nodes":[],"categories_segments":[],"categories_sizes":[],"default_left":[0,0,0,0,0],"id":50,"left_children":[1,-1,3,-1,-1],"loss_changes":[3.2812274E-1,0E0,1.6516307E-1,0E0,0E0],"parents":[2147483647,0,0,2,2],"right_children":[2,-1,4,-1,-1],"split_conditions":[-1.274843E0,-2.4700673E-2,5.321144E-1,-4.383259E-4,3.0048579E-2],"split_indices":[15,0,20,0,0],"split_type":[0,0,0,0,0],"sum_hessian":[8.927244E0,2.6403496E0,6.2868943E0,4.2841964E0,2.002698E0],"tree_param":{"num_deleted":"0","num_feature":"48","num_nodes":"5","size_leaf_vector":"1"}},{"base_weights":[6.209586E-3,-1.6251452E-2,1.952173E-2],"categories":[],"categories_nodes":[],"categories_segments":[],"categories_sizes":[],"default_left":[0,0,0],"id":51,"left_children":[1,-1,-1],"loss_changes":[3.4128726E-1,0E0,0E0],"parents":[2147483647,0,0],"right_children":[2,-1,-1],"split_conditions":[6.8247843E0,-1.6251452E-2,1.952173E-2],"split_indices":[4,0,0],"split_type":[0,0,0],"sum_hessian":[8.707121E0,4.6744685E0,4.0326524E0],"tree_param":{"num_deleted":"0","num_feature":"48","num_nodes":"3","size_leaf_vector":"1"}},{"base_weights":[2.8592367E-2,-1.1384592E-2,2.084445E-2],"categories":[],"categories_nodes":[],"categories_segments":[],"categories_sizes":[],"default_left":[0,0,0],"id":52,"left_children":[1,-1,-1],"loss_changes":[2.6032394E-1,0E0,0E0],"parents":[2147483647,0,0],"right_children":[2,-1,-1],"split_conditions":[1.1834373E1,-1.1384592E-2,2.084445E-2],"split_indices":[18,0,0],"split_type":[0,0,0],"sum_hessian":[8.235497E0,4.8005705E0,3.4349267E0],"tree_param":{"num_deleted":"0","num_feature":"48","num_nodes":"3","size_leaf_vector":"1"}},{"base_weights":[9.105116E-3,-2.5716996E-2,1.2882873E-1,4.9538625E-4,3.0361015E-2],"categories":[],"categories_nodes":[],"categories_segments":[],"categories_sizes":[],"default_left":[0,0,0,0,0],"id":53,"left_children":[1,-1,3,-1,-1],"loss_changes":[3.4183866E-1,0E0,1.575515E-1,0E0,0E0],"parents":[2147483647,0,0,2,2],"right_children":[2,-1,4,-1,-1],"split_conditions":[-1.274843E0,-2.5716996E-2,5.321144E-1,4.9538625E-4,3.0361015E-2],"split_indices":[15,0,20,0,0],"split_type":[0,0,0,0,0],"sum_hessian":[8.683609E0,2.3372793E0,6.3463297E0,4.31585E0,2.03048E0],"tree_param":{"num_deleted":"0","num_feature":"48","num_nodes":"5","size_leaf_vector":"1"}},{"base_weights":[-7.0301015E-3,-2.686364E-2,1.322465E-1,-3.8031214E-3,2.7225941E-2],"categories":[],"categories_nodes":[],"categories_segments":[],"categories_sizes":[],"default_left":[0,0,0,0,0],"id":54,"left_children":[1,-1,3,-1,-1],"loss_changes":[3.707907E-1,0E0,1.6948928E-1,0E0,0E0],"parents":[2147483647,0,0,2,2],"right_children":[2,-1,4,-1,-1],"split_conditions":[-1.274843E0,-2.686364E-2,1.3525449E-1,-3.8031214E-3,2.7225941E-2],"split_indices":[15,0,20,0,0],"split_type":[0,0,0,0,0],"sum_hessian":[8.201553E0,2.5267344E0,5.674819E0,2.8893225E0,2.7854965E0],"tree_param":{"num_deleted":"0","num_feature":"48","num_nodes":"5","size_leaf_vector":"1"}},{"base_weights":[2.044089E-3,-2.5088951E-2,1.3022527E-2],"categories":[],"categories_nodes":[],"categories_segments":[],"categories_sizes":[],"default_left":[0,0,0],"id":55,"left_children":[1,-1,-1],"loss_changes":[3.120252E-1,0E0,0E0],"parents":[2147483647,0,0],"right_children":[2,-1,-1],"split_conditions":[-1.274843E0,-2.5088951E-2,1.3022527E-2],"split_indices":[15,0,0],"split_type":[0,0,0],"sum_hessian":[7.616335E0,2.239647E0,5.3766885E0],"tree_param":{"num_deleted":"0","num_feature":"48","num_nodes":"3","size_leaf_vector":"1"}},{"base_weights":[2.2492317E-2,-1.3277437E-2,1.9498117E-2],"categories":[],"categories_nodes":[],"categories_segments":[],"categories_sizes":[],"default_left":[0,0,0],"id":56,"left_children":[1,-1,-1],"loss_changes":[2.5516906E-1,0E0,0E0],"parents":[2147483647,0,0],"right_children":[2,-1,-1],"split_conditions":[5.5209765E0,-1.3277437E-2,1.9498117E-2],"split_indices":[18,0,0],"split_type":[0,0,0],"sum_hessian":[7.561067E0,4.1003556E0,3.4607112E0],"tree_param":{"num_deleted":"0","num_feature":"48","num_nodes":"3","size_leaf_vector":"1"}},{"base_weights":[-8.8040605E-3,-1.7912215E-2,2.1952188E-2],"categories":[],"categories_nodes":[],"categories_segments":[],"categories_sizes":[],"default_left":[0,0,0],"id":57,"left_children":[1,-1,-1],"loss_changes":[3.8234833E-1,0E0,0E0],"parents":[2147483647,0,0],"right_children":[2,-1,-1],"split_conditions":[1.1835925E1,-1.7912215E-2,2.1952188E-2],"split_indices":[18,0,0],"split_type":[0,0,0],"sum_hessian":[7.8208904E0,4.602894E0,3.2179968E0],"tree_param":{"num_deleted":"0","num_feature":"48","num_nodes":"3","size_leaf_vector":"1"}},{"base_weights":[3.3759024E-2,-9.244688E-3,2.0103227E-2],"categories":[],"categories_nodes":[],"categories_segments":[],"categories_sizes":[],"default_left":[0,0,0],"id":58,"left_children":[1,-1,-1],"loss_changes":[1.913723E-1,0E0,0E0],"parents":[2147483647,0,0],"right_children":[2,-1,-1],"split_conditions":[1.1835925E1,-9.244688E-3,2.0103227E-2],"split_indices":[18,0,0],"split_type":[0,0,0],"sum_hessian":[7.1847653E0,4.3500376E0,2.8347275E0],"tree_param":{"num_deleted":"0","num_feature":"48","num_nodes":"3","size_leaf_vector":"1"}},{"base_weights":[-1.6444026E-2,-2.5843149E-2,1.0775248E-2],"categories":[],"categories_nodes":[],"categories_segments":[],"categories_sizes":[],"default_left":[0,0,0],"id":59,"left_children":[1,-1,-1],"loss_changes":[2.8474858E-1,0E0,0E0],"parents":[2147483647,0,0],"right_children":[2,-1,-1],"split_conditions":[-1.274843E0,-2.5843149E-2,1.0775248E-2],"split_indices":[15,0,0],"split_type":[0,0,0],"sum_hessian":[7.5480137E0,2.193438E0,5.3545756E0],"tree_param":{"num_deleted":"0","num_feature":"48","num_nodes":"3","size_leaf_vector":"1"}},{"base_weights":[2.411713E-2,-1.0933953E-2,2.9296031E-2],"categories":[],"categories_nodes":[],"categories_segments":[],"categories_sizes":[],"default_left":[0,0,0],"id":60,"left_children":[1,-1,-1],"loss_changes":[3.3215854E-1,0E0,0E0],"parents":[2147483647,0,0],"right_children":[2,-1,-1],"split_conditions":[3.558022E1,-1.0933953E-2,2.9296031E-2],"split_indices":[0,0,0],"split_type":[0,0,0],"sum_hessian":[7.36498E0,5.318243E0,2.046737E0],"tree_param":{"num_deleted":"0","num_feature":"48","num_nodes":"3","size_leaf_vector":"1"}},{"base_weights":[-1.1752307E-2,-1.6402422E-2,1.266319E-2],"categories":[],"categories_nodes":[],"categories_segments":[],"categories_sizes":[],"default_left":[0,0,0],"id":61,"left_children":[1,-1,-1],"loss_changes":[2.0102623E-1,0E0,0E0],"parents":[2147483647,0,0],"right_children":[2,-1,-1],"split_conditions":[6.6231585E0,-1.6402422E-2,1.266319E-2],"split_indices":[4,0,0],"split_type":[0,0,0],"sum_hessian":[7.5542564E0,3.5084407E0,4.045816E0],"tree_param":{"num_deleted":"0","num_feature":"48","num_nodes":"3","size_leaf_vector":"1"}},{"base_weights":[2.0257479E-2,-9.88051E-3,1.9856919E-2],"categories":[],"categories_nodes":[],"categories_segments":[],"categories_sizes":[],"default_left":[0,0,0],"id":62,"left_children":[1,-1,-1],"loss_changes":[1.8569809E-1,0E0,0E0],"parents":[2147483647,0,0],"right_children":[2,-1,-1],"split_conditions":[1.5939099E1,-9.88051E-3,1.9856919E-2],"split_indices":[4,0,0],"split_type":[0,0,0],"sum_hessian":[6.8227262E0,4.3584085E0,2.464318E0],"tree_param":{"num_deleted":"0","num_feature":"48","num_nodes":"3","size_leaf_vector":"1"}},{"base_weights":[2.3507014E-2,-1.0362636E-2,1.845005E-2],"categories":[],"categories_nodes":[],"categories_segments":[],"categories_sizes":[],"default_left":[0,0,0],"id":63,"left_children":[1,-1,-1],"loss_changes":[1.8273172E-1,0E0,0E0],"parents":[2147483647,0,0],"right_children":[2,-1,-1],"split_conditions":[1.1835925E1,-1.0362636E-2,1.845005E-2],"split_indices":[18,0,0],"split_type":[0,0,0],"sum_hessian":[6.99372E0,4.1069074E0,2.8868122E0],"tree_param":{"num_deleted":"0","num_feature":"48","num_nodes":"3","size_leaf_vector":"1"}},{"base_weights":[-9.837771E-3,-2.6130741E-2,1.2426144E-2],"categories":[],"categories_nodes":[],"categories_segments":[],"categories_sizes":[],"default_left":[0,0,0],"id":64,"left_children":[1,-1,-1],"loss_changes":[3.0532733E-1,0E0,0E0],"parents":[2147483647,0,0],"right_children":[2,-1,-1],"split_conditions":[-1.274843E0,-2.6130741E-2,1.2426144E-2],"split_indices":[15,0,0],"split_type":[0,0,0],"sum_hessian":[7.091389E0,2.1364317E0,4.9549575E0],"tree_param":{"num_deleted":"0","num_feature":"48","num_nodes":"3","size_leaf_vector":"1"}},{"base_weights":[-6.396048E-4,-2.168185E-2,1.138178E-2],"categories":[],"categories_nodes":[],"categories_segments":[],"categories_sizes":[],"default_left":[0,0,0],"id":65,"left_children":[1,-1,-1],"loss_changes":[2.1993607E-1,0E0,0E0],"parents":[2147483647,0,0],"right_children":[2,-1,-1],"split_conditions":[-2.723421E1,-2.168185E-2,1.138178E-2],"split_indices":[14,0,0],"split_type":[0,0,0],"sum_hessian":[6.8913674E0,2.076018E0,4.8153496E0],"tree_param":{"num_deleted":"0","num_feature":"48","num_nodes":"3","size_leaf_vector":"1"}},{"base_weights":[2.9976455E-2,-8.860058E-3,1.9699732E-2],"categories":[],"categories_nodes":[],"categories_segments":[],"categories_sizes":[],"default_left":[0,0,0],"id":66,"left_children":[1,-1,-1],"loss_changes":[1.7046288E-1,0E0,0E0],"parents":[2147483647,0,0],"right_children":[2,-1,-1],"split_conditions":[1.2504822E1,-8.860058E-3,1.9699732E-2],"split_indices":[18,0,0],"split_type":[0,0,0],"sum_hessian":[6.7258286E0,4.207923E0,2.5179057E0],"tree_param":{"num_deleted":"0","num_feature":"48","num_nodes":"3","size_leaf_vector":"1"}},{"base_weights":[-3.5885468E-2,-2.4803845E-2,8.60536E-3],"categories":[],"categories_nodes":[],"categories_segments":[],"categories_sizes":[],"default_left":[0,0,0],"id":67,"left_children":[1,-1,-1],"loss_changes":[2.1647084E-1,0E0,0E0],"parents":[2147483647,0,0],"right_children":[2,-1,-1],"split_conditions":[-2.292516E-1,-2.4803845E-2,8.60536E-3],"split_indices":[15,0,0],"split_type":[0,0,0],"sum_hessian":[6.542645E0,2.0105374E0,4.5321074E0],"tree_param":{"num_deleted":"0","num_feature":"48","num_nodes":"3","size_leaf_vector":"1"}},{"base_weights":[-5.5782665E-2,-2.8579164E-2,1.0021928E-2],"categories":[],"categories_nodes":[],"categories_segments":[],"categories_sizes":[],"default_left":[0,0,0],"id":68,"left_children":[1,-1,-1],"loss_changes":[2.9616767E-1,0E0,0E0],"parents":[2147483647,0,0],"right_children":[2,-1,-1],"split_conditions":[5.4393926E0,-2.8579164E-2,1.0021928E-2],"split_indices":[18,0,0],"split_type":[0,0,0],"sum_hessian":[6.4557443E0,2.2727826E0,4.1829615E0],"tree_param":{"num_deleted":"0","num_feature":"48","num_nodes":"3","size_leaf_vector":"1"}},{"base_weights":[-7.791795E-4,-1.2727685E-2,1.5518966E-2],"categories":[],"categories_nodes":[],"categories_segments":[],"categories_sizes":[],"default_left":[0,0,0],"id":69,"left_children":[1,-1,-1],"loss_changes":[1.5715784E-1,0E0,0E0],"parents":[2147483647,0,0],"right_children":[2,-1,-1],"split_conditions":[1.1835925E1,-1.2727685E-2,1.5518966E-2],"split_indices":[18,0,0],"split_type":[0,0,0],"sum_hessian":[5.964414E0,3.3949325E0,2.5694816E0],"tree_param":{"num_deleted":"0","num_feature":"48","num_nodes":"3","size_leaf_vector":"1"}},{"base_weights":[8.225093E-3,-8.717091E-3,1.9152453E-2],"categories":[],"categories_nodes":[],"categories_segments":[],"categories_sizes":[],"default_left":[0,0,0],"id":70,"left_children":[1,-1,-1],"loss_changes":[1.5490918E-1,0E0,0E0],"parents":[2147483647,0,0],"right_children":[2,-1,-1],"split_conditions":[3.556104E1,-8.717091E-3,1.9152453E-2],"split_indices":[0,0,0],"split_type":[0,0,0],"sum_hessian":[6.904242E0,4.885879E0,2.0183632E0],"tree_param":{"num_deleted":"0","num_feature":"48","num_nodes":"3","size_leaf_vector":"1"}},{"base_weights":[-6.5365047E-3,-1.3983952E-2,1.44495E-2],"categories":[],"categories_nodes":[],"categories_segments":[],"categories_sizes":[],"default_left":[0,0,0],"id":71,"left_children":[1,-1,-1],"loss_changes":[1.6598615E-1,0E0,0E0],"parents":[2147483647,0,0],"right_children":[2,-1,-1],"split_conditions":[5.5209765E0,-1.3983952E-2,1.44495E-2],"split_indices":[18,0,0],"split_type":[0,0,0],"sum_hessian":[6.2408676E0,3.3543575E0,2.8865101E0],"tree_param":{"num_deleted":"0","num_feature":"48","num_nodes":"3","size_leaf_vector":"1"}},{"base_weights":[-1.4921596E-2,-1.6772373E-2,1.0923759E-2],"categories":[],"categories_nodes":[],"categories_segments":[],"categories_sizes":[],"default_left":[0,0,0],"id":72,"left_children":[1,-1,-1],"loss_changes":[1.5812065E-1,0E0,0E0],"parents":[2147483647,0,0],"right_children":[2,-1,-1],"split_conditions":[5.443316E0,-1.6772373E-2,1.0923759E-2],"split_indices":[18,0,0],"split_type":[0,0,0],"sum_hessian":[6.368779E0,2.6977699E0,3.6710093E0],"tree_param":{"num_deleted":"0","num_feature":"48","num_nodes":"3","size_leaf_vector":"1"}},{"base_weights":[7.929407E-3,-1.1841532E-2,1.5302705E-2],"categories":[],"categories_nodes":[],"categories_segments":[],"categories_sizes":[],"default_left":[0,0,0],"id":73,"left_children":[1,-1,-1],"loss_changes":[1.5016477E-1,0E0,0E0],"parents":[2147483647,0,0],"right_children":[2,-1,-1],"split_conditions":[1.1802677E1,-1.1841532E-2,1.5302705E-2],"split_indices":[18,0,0],"split_type":[0,0,0],"sum_hessian":[6.202799E0,3.4139614E0,2.7888372E0],"tree_param":{"num_deleted":"0","num_feature":"48","num_nodes":"3","size_leaf_vector":"1"}},{"base_weights":[-9.511943E-3,-1.0136242E-2,1.44911725E-2],"categories":[],"categories_nodes":[],"categories_segments":[],"categories_sizes":[],"default_left":[0,0,0],"id":74,"left_children":[1,-1,-1],"loss_changes":[1.13835104E-1,0E0,0E0],"parents":[2147483647,0,0],"right_children":[2,-1,-1],"split_conditions":[2.1399921E1,-1.0136242E-2,1.44911725E-2],"split_indices":[0,0,0],"split_type":[0,0,0],"sum_hessian":[5.9900794E0,3.9714735E0,2.0186057E0],"tree_param":{"num_deleted":"0","num_feature":"48","num_nodes":"3","size_leaf_vector":"1"}},{"base_weights":[2.285101E-3,-1.8233752E-2,1.0396379E-2],"categories":[],"categories_nodes":[],"categories_segments":[],"categories_sizes":[],"default_left":[0,0,0],"id":75,"left_children":[1,-1,-1],"loss_changes":[1.6555469E-1,0E0,0E0],"parents":[2147483647,0,0],"right_children":[2,-1,-1],"split_conditions":[-1.274843E0,-1.8233752E-2,1.0396379E-2],"split_indices":[15,0,0],"split_type":[0,0,0],"sum_hessian":[6.8093305E0,2.1365778E0,4.6727524E0],"tree_param":{"num_deleted":"0","num_feature":"48","num_nodes":"3","size_leaf_vector":"1"}},{"base_weights":[-6.2300274E-3,1.670619E-2,-1.0086335E-2],"categories":[],"categories_nodes":[],"categories_segments":[],"categories_sizes":[],"default_left":[0,0,0],"id":76,"left_children":[1,-1,-1],"loss_changes":[1.3913955E-1,0E0,0E0],"parents":[2147483647,0,0],"right_children":[2,-1,-1],"split_conditions":[-7.3984265E-1,1.670619E-2,-1.0086335E-2],"split_indices":[3,0,0],"split_type":[0,0,0],"sum_hessian":[6.4570217E0,2.0103405E0,4.4466815E0],"tree_param":{"num_deleted":"0","num_feature":"48","num_nodes":"3","size_leaf_vector":"1"}},{"base_weights":[-2.4515843E-2,-2.2223977E-2,9.8119015E-3],"categories":[],"categories_nodes":[],"categories_segments":[],"categories_sizes":[],"default_left":[0,0,0],"id":77,"left_children":[1,-1,-1],"loss_changes":[1.9491644E-1,0E0,0E0],"parents":[2147483647,0,0],"right_children":[2,-1,-1],"split_conditions":[-1.274843E0,-2.2223977E-2,9.8119015E-3],"split_indices":[15,0,0],"split_type":[0,0,0],"sum_hessian":[6.139212E0,2.039203E0,4.1000094E0],"tree_param":{"num_deleted":"0","num_feature":"48","num_nodes":"3","size_leaf_vector":"1"}},{"base_weights":[6.610223E-3,-1.7239485E-2,1.18248565E-2],"categories":[],"categories_nodes":[],"categories_segments":[],"categories_sizes":[],"default_left":[0,0,0],"id":78,"left_children":[1,-1,-1],"loss_changes":[1.6371927E-1,0E0,0E0],"parents":[2147483647,0,0],"right_children":[2,-1,-1],"split_conditions":[-3.8717243E1,-1.7239485E-2,1.18248565E-2],"split_indices":[18,0,0],"split_type":[0,0,0],"sum_hessian":[6.172491E0,2.1618593E0,4.010632E0],"tree_param":{"num_deleted":"0","num_feature":"48","num_nodes":"3","size_leaf_vector":"1"}},{"base_weights":[-2.6515279E-2,-1.4283816E-2,1.1037681E-2],"categories":[],"categories_nodes":[],"categories_segments":[],"categories_sizes":[],"default_left":[0,0,0],"id":79,"left_children":[1,-1,-1],"loss_changes":[1.2539402E-1,0E0,0E0],"parents":[2147483647,0,0],"right_children":[2,-1,-1],"split_conditions":[5.5209765E0,-1.4283816E-2,1.1037681E-2],"split_indices":[18,0,0],"split_type":[0,0,0],"sum_hessian":[5.8845882E0,3.1578207E0,2.7267675E0],"tree_param":{"num_deleted":"0","num_feature":"48","num_nodes":"3","size_leaf_vector":"1"}},{"base_weights":[6.9197323E-3,-9.2008235E-3,1.41973365E-2],"categories":[],"categories_nodes":[],"categories_segments":[],"categories_sizes":[],"default_left":[0,0,0],"id":80,"left_children":[1,-1,-1],"loss_changes":[1.057153E-1,0E0,0E0],"parents":[2147483647,0,0],"right_children":[2,-1,-1],"split_conditions":[1.1835925E1,-9.2008235E-3,1.41973365E-2],"split_indices":[18,0,0],"split_type":[0,0,0],"sum_hessian":[5.9347715E0,3.6095054E0,2.3252661E0],"tree_param":{"num_deleted":"0","num_feature":"48","num_nodes":"3","size_leaf_vector":"1"}},{"base_weights":[1.3784207E-3,-9.850833E-3,1.3414144E-2],"categories":[],"categories_nodes":[],"categories_segments":[],"categories_sizes":[],"default_left":[0,0,0],"id":81,"left_children":[1,-1,-1],"loss_changes":[1.0502671E-1,0E0,0E0],"parents":[2147483647,0,0],"right_children":[2,-1,-1],"split_conditions":[1.1835925E1,-9.850833E-3,1.3414144E-2],"split_indices":[18,0,0],"split_type":[0,0,0],"sum_hessian":[5.923372E0,3.5274456E0,2.3959262E0],"tree_param":{"num_deleted":"0","num_feature":"48","num_nodes":"3","size_leaf_vector":"1"}},{"base_weights":[-1.714866E-2,-1.7386012E-2,1.0963446E-2],"categories":[],"categories_nodes":[],"categories_segments":[],"categories_sizes":[],"default_left":[0,0,0],"id":82,"left_children":[1,-1,-1],"loss_changes":[1.5098807E-1,0E0,0E0],"parents":[2147483647,0,0],"right_children":[2,-1,-1],"split_conditions":[5.443316E0,-1.7386012E-2,1.0963446E-2],"split_indices":[18,0,0],"split_type":[0,0,0],"sum_hessian":[5.640053E0,2.3562584E0,3.2837942E0],"tree_param":{"num_deleted":"0","num_feature":"48","num_nodes":"3","size_leaf_vector":"1"}},{"base_weights":[-1.9088168E-2,-1.3589935E-2,1.4896906E-2],"categories":[],"categories_nodes":[],"categories_segments":[],"categories_sizes":[],"default_left":[0,0,0],"id":83,"left_children":[1,-1,-1],"loss_changes":[1.5560217E-1,0E0,0E0],"parents":[2147483647,0,0],"right_children":[2,-1,-1],"split_conditions":[2.0610293E-2,-1.3589935E-2,1.4896906E-2],"split_indices":[13,0,0],"split_type":[0,0,0],"sum_hessian":[5.895096E0,3.5906801E0,2.3044157E0],"tree_param":{"num_deleted":"0","num_feature":"48","num_nodes":"3","size_leaf_vector":"1"}},{"base_weights":[-3.8516112E-3,-1.1747865E-2,1.4757523E-2],"categories":[],"categories_nodes":[],"categories_segments":[],"categories_sizes":[],"default_left":[0,0,0],"id":84,"left_children":[1,-1,-1],"loss_changes":[1.3372444E-1,0E0,0E0],"parents":[2147483647,0,0],"right_children":[2,-1,-1],"split_conditions":[1.1835925E1,-1.1747865E-2,1.4757523E-2],"split_indices":[18,0,0],"split_type":[0,0,0],"sum_hessian":[5.7642837E0,3.4212496E0,2.343034E0],"tree_param":{"num_deleted":"0","num_feature":"48","num_nodes":"3","size_leaf_vector":"1"}},{"base_weights":[2.008521E-2,-9.718515E-3,1.6964532E-2],"categories":[],"categories_nodes":[],"categories_segments":[],"categories_sizes":[],"default_left":[0,0,0],"id":85,"left_children":[1,-1,-1],"loss_changes":[1.310092E-1,0E0,0E0],"parents":[2147483647,0,0],"right_children":[2,-1,-1],"split_conditions":[1.1835925E1,-9.718515E-3,1.6964532E-2],"split_indices":[18,0,0],"split_type":[0,0,0],"sum_hessian":[5.5295863E0,3.2956524E0,2.233934E0],"tree_param":{"num_deleted":"0","num_feature":"48","num_nodes":"3","size_leaf_vector":"1"}},{"base_weights":[-1.0118793E-2,-1.6106429E-2,1.0657861E-2],"categories":[],"categories_nodes":[],"categories_segments":[],"categories_sizes":[],"default_left":[0,0,0],"id":86,"left_children":[1,-1,-1],"loss_changes":[1.3502368E-1,0E0,0E0],"parents":[2147483647,0,0],"right_children":[2,-1,-1],"split_conditions":[5.443316E0,-1.6106429E-2,1.0657861E-2],"split_indices":[18,0,0],"split_type":[0,0,0],"sum_hessian":[5.690777E0,2.3155184E0,3.3752584E0],"tree_param":{"num_deleted":"0","num_feature":"48","num_nodes":"3","size_leaf_vector":"1"}},{"base_weights":[-4.2949505E-3,-1.5443367E-2,1.0287843E-2],"categories":[],"categories_nodes":[],"categories_segments":[],"categories_sizes":[],"default_left":[0,0,0],"id":87,"left_children":[1,-1,-1],"loss_changes":[1.2492733E-1,0E0,0E0],"parents":[2147483647,0,0],"right_children":[2,-1,-1],"split_conditions":[-2.5689604E0,-1.5443367E-2,1.0287843E-2],"split_indices":[4,0,0],"split_type":[0,0,0],"sum_hessian":[5.7764773E0,2.2222984E0,3.5541787E0],"tree_param":{"num_deleted":"0","num_feature":"48","num_nodes":"3","size_leaf_vector":"1"}},{"base_weights":[1.188556E-2,-1.2970122E-2,1.0955232E-2],"categories":[],"categories_nodes":[],"categories_segments":[],"categories_sizes":[],"default_left":[0,0,0],"id":88,"left_children":[1,-1,-1],"loss_changes":[1.03554524E-1,0E0,0E0],"parents":[2147483647,0,0],"right_children":[2,-1,-1],"split_conditions":[-1.7126551E-1,-1.2970122E-2,1.0955232E-2],"split_indices":[15,0,0],"split_type":[0,0,0],"sum_hessian":[5.4610486E0,2.095386E0,3.3656628E0],"tree_param":{"num_deleted":"0","num_feature":"48","num_nodes":"3","size_leaf_vector":"1"}},{"base_weights":[-6.0672136E-3],"categories":[],"categories_nodes":[],"categories_segments":[],"categories_sizes":[],"default_left":[0],"id":89,"left_children":[-1],"loss_changes":[0E0],"parents":[2147483647],"right_children":[-1],"split_conditions":[-6.067214E-4],"split_indices":[0],"split_type":[0],"sum_hessian":[5.59601E0],"tree_param":{"num_deleted":"0","num_feature":"48","num_nodes":"1","size_leaf_vector":"1"}},{"base_weights":[2.5541564E-2,-9.1691455E-3,1.668578E-2],"categories":[],"categories_nodes":[],"categories_segments":[],"categories_sizes":[],"default_left":[0,0,0],"id":90,"left_children":[1,-1,-1],"loss_changes":[1.23064406E-1,0E0,0E0],"parents":[2147483647,0,0],"right_children":[2,-1,-1],"split_conditions":[2.137984E-2,-9.1691455E-3,1.668578E-2],"split_indices":[13,0,0],"split_type":[0,0,0],"sum_hessian":[5.5048256E0,3.2007287E0,2.304097E0],"tree_param":{"num_deleted":"0","num_feature":"48","num_nodes":"3","size_leaf_vector":"1"}},{"base_weights":[8.093197E-3,-9.261731E-3,1.5060946E-2],"categories":[],"categories_nodes":[],"categories_segments":[],"categories_sizes":[],"default_left":[0,0,0],"id":91,"left_children":[1,-1,-1],"loss_changes":[1.0871363E-1,0E0,0E0],"parents":[2147483647,0,0],"right_children":[2,-1,-1],"split_conditions":[2.137984E-2,-9.261731E-3,1.5060946E-2],"split_indices":[13,0,0],"split_type":[0,0,0],"sum_hessian":[5.6024756E0,3.487868E0,2.1146078E0],"tree_param":{"num_deleted":"0","num_feature":"48","num_nodes":"3","size_leaf_vector":"1"}},{"base_weights":[7.169167E-4,-1.5429539E-2,1.1677168E-2],"categories":[],"categories_nodes":[],"categories_segments":[],"categories_sizes":[],"default_left":[0,0,0],"id":92,"left_children":[1,-1,-1],"loss_changes":[1.3730386E-1,0E0,0E0],"parents":[2147483647,0,0],"right_children":[2,-1,-1],"split_conditions":[5.4393926E0,-1.5429539E-2,1.1677168E-2],"split_indices":[18,0,0],"split_type":[0,0,0],"sum_hessian":[5.630744E0,2.2696748E0,3.3610694E0],"tree_param":{"num_deleted":"0","num_feature":"48","num_nodes":"3","size_leaf_vector":"1"}},{"base_weights":[-6.0245516E-3],"categories":[],"categories_nodes":[],"categories_segments":[],"categories_sizes":[],"default_left":[0],"id":93,"left_children":[-1],"loss_changes":[0E0],"parents":[2147483647],"right_children":[-1],"split_conditions":[-6.0245517E-4],"split_indices":[0],"split_type":[0],"sum_hessian":[5.078021E0],"tree_param":{"num_deleted":"0","num_feature":"48","num_nodes":"1","size_leaf_vector":"1"}},{"base_weights":[-1.3529465E-2,-1.2976402E-2,1.2050836E-2],"categories":[],"categories_nodes":[],"categories_segments":[],"categories_sizes":[],"default_left":[0,0,0],"id":94,"left_children":[1,-1,-1],"loss_changes":[1.1692467E-1,0E0,0E0],"parents":[2147483647,0,0],"right_children":[2,-1,-1],"split_conditions":[5.4899297E0,-1.2976402E-2,1.2050836E-2],"split_indices":[18,0,0],"split_type":[0,0,0],"sum_hessian":[5.501165E0,2.9633236E0,2.5378416E0],"tree_param":{"num_deleted":"0","num_feature":"48","num_nodes":"3","size_leaf_vector":"1"}},{"base_weights":[-2.2296354E-2,-1.314081E-2,1.3211595E-2],"categories":[],"categories_nodes":[],"categories_segments":[],"categories_sizes":[],"default_left":[0,0,0],"id":95,"left_children":[1,-1,-1],"loss_changes":[1.251187E-1,0E0,0E0],"parents":[2147483647,0,0],"right_children":[2,-1,-1],"split_conditions":[2.137984E-2,-1.314081E-2,1.3211595E-2],"split_indices":[13,0,0],"split_type":[0,0,0],"sum_hessian":[5.395795E0,3.2489686E0,2.1468265E0],"tree_param":{"num_deleted":"0","num_feature":"48","num_nodes":"3","size_leaf_vector":"1"}},{"base_weights":[8.54043E-3],"categories":[],"categories_nodes":[],"categories_segments":[],"categories_sizes":[],"default_left":[0],"id":96,"left_children":[-1],"loss_changes":[0E0],"parents":[2147483647],"right_children":[-1],"split_conditions":[8.54043E-4],"split_indices":[0],"split_type":[0],"sum_hessian":[5.5935497E0],"tree_param":{"num_deleted":"0","num_feature":"48","num_nodes":"1","size_leaf_vector":"1"}},{"base_weights":[1.643681E-2,-1.4584665E-2,1.2565732E-2],"categories":[],"categories_nodes":[],"categories_segments":[],"categories_sizes":[],"default_left":[0,0,0],"id":97,"left_children":[1,-1,-1],"loss_changes":[1.322182E-1,0E0,0E0],"parents":[2147483647,0,0],"right_children":[2,-1,-1],"split_conditions":[-1.9254114E-2,-1.4584665E-2,1.2565732E-2],"split_indices":[28,0,0],"split_type":[0,0,0],"sum_hessian":[5.425587E0,2.047702E0,3.377885E0],"tree_param":{"num_deleted":"0","num_feature":"48","num_nodes":"3","size_leaf_vector":"1"}},{"base_weights":[3.659935E-2],"categories":[],"categories_nodes":[],"categories_segments":[],"categories_sizes":[],"default_left":[0],"id":98,"left_children":[-1],"loss_changes":[0E0],"parents":[2147483647],"right_children":[-1],"split_conditions":[3.659935E-3],"split_indices":[0],"split_type":[0],"sum_hessian":[4.904669E0],"tree_param":{"num_deleted":"0","num_feature":"48","num_nodes":"1","size_leaf_vector":"1"}},{"base_weights":[-1.2600659E-2,-1.1959113E-2,1.3060055E-2],"categories":[],"categories_nodes":[],"categories_segments":[],"categories_sizes":[],"default_left":[0,0,0],"id":99,"left_children":[1,-1,-1],"loss_changes":[1.1261444E-1,0E0,0E0],"parents":[2147483647,0,0],"right_children":[2,-1,-1],"split_conditions":[1.1834373E1,-1.1959113E-2,1.3060055E-2],"split_indices":[18,0,0],"split_type":[0,0,0],"sum_hessian":[5.3308353E0,3.1455567E0,2.1852787E0],"tree_param":{"num_deleted":"0","num_feature":"48","num_nodes":"3","size_leaf_vector":"1"}}]},"name":"gbtree"},"learner_model_param":{"base_score":"1.9946493E-9","boost_from_average":"1","num_class":"0","num_feature":"48","num_target":"1"},"objective":{"lambdarank_param":{"lambdarank_bias_norm":"1","lambdarank_normalization":"1","lambdarank_num_pair_per_sample":"4294967295","lambdarank_pair_method":"topk","lambdarank_score_normalization":"1","lambdarank_unbiased":"0","ndcg_exp_gain":"1"},"name":"rank:ndcg"}},"version":[3,0,3]}