{"learner":{"attributes":{"scikit_learn":"{\"_estimator_type\": \"ranker\"}"},"feature_names":[],"feature_types":[],"gradient_booster":{"model":{"gbtree_model_param":{"num_parallel_tree":"1","num_trees":"100"},"iteration_indptr":[0,1,2,3,4,5,6,7,8,9,10,11,12,13,14,15,16,17,18,19,20,21,22,23,24,25,26,27,28,29,30,31,32,33,34,35,36,37,38,39,40,41,42,43,44,45,46,47,48,49,50,51,52,53,54,55,56,57,58,59,60,61,62,63,64,65,66,67,68,69,70,71,72,73,74,75,76,77,78,79,80,81,82,83,84,85,86,87,88,89,90,91,92,93,94,95,96,97,98,99,100],"tree_info":[0,0,0,0,0,0,0,0,0,0,0,0,0,0,0,0,0,0,0,0,0,0,0,0,0,0,0,0,0,0,0,0,0,0,0,0,0,0,0,0,0,0,0,0,0,0,0,0,0,0,0,0,0,0,0,0,0,0,0,0,0,0,0,0,0,0,0,0,0,0,0,0,0,0,0,0,0,0,0,0,0,0,0,0,0,0,0,0,0,0,0,0,0,0,0,0,0,0,0,0],"trees":[{"base_weights":[1.2287465E-2,-7.617217E-1,6.6947585E-1,-8.2978204E-2,-1.0448038E-2,3.6287543E-1,9.2223965E-2,-6.8271975E-3,4.650169E-1,6.0108986E-2,1.9920588E-2],"categories":[],"categories_nodes":[],"categories_segments":[],"categories_sizes":[],"default_left":[0,0,0,0,0,0,0,0,0,0,0],"id":0,"left_children":[1,3,5,-1,-1,7,-1,-1,9,-1,-1],"loss_changes":[2.3190042E1,8.500662E-1,1.5753002E0,0E0,0E0,5.947933E-1,0E0,0E0,2.5876236E-1,0E0,0E0],"parents":[2147483647,0,0,1,1,2,2,5,5,8,8],"right_children":[2,4,6,-1,-1,8,-1,-1,10,-1,-1],"split_conditions":[1.0252152E1,1.9599783E0,5.9241736E-1,-8.2978204E-2,-1.0448038E-2,-3.0470375E-2,9.2223965E-2,-6.8271975E-3,3.7121233E-1,6.0108986E-2,1.9920588E-2],"split_indices":[4,3,20,0,0,44,0,0,1,0,0],"split_type":[0,0,0,0,0,0,0,0,0,0,0],"sum_hessian":[4.3587055E1,1.9941603E1,2.364545E1,1.7832447E1,2.1091542E0,1.17854395E1,1.1860012E1,2.32079E0,9.464649E0,5.425769E0,4.038881E0],"tree_param":{"num_deleted":"0","num_feature":"48","num_nodes":"11","size_leaf_vector":"1"}},{"base_weights":[3.4662946E-3,-6.306521E-1,5.894766E-1,-8.641729E-1,-4.5154777E-1,1.9219153E-1,9.21447E-2,-3.1145578E-2,-8.918192E-2,-5.084536E-2,-6.3568E-1,7.619686E-1,-3.214041E-1,-5.229014E-1,3.8066408E-1,-1.9616036E-1,-7.1179104E-1,2.8300429E-2,8.401389E-2,-5.350827E-1,2.5090495E-1,-2.0855753E-2,-6.2362302E-2,-1.6371325E-4,6.8748154E-2,1.8069018E-2,-4.6101477E-2,-1.2026836E-2,-7.567467E-2,-1.4473878E-2,-5.963865E-1,5.8505576E-2,-2.5519563E-2,-6.4494826E-2,-2.213173E-2],"categories":[],"categories_nodes":[],"categories_segments":[],"categories_sizes":[],"default_left":[0,0,0,0,0,0,0,0,0,0,0,0,0,0,0,0,0,0,0,0,0,0,0,0,0,0,0,0,0,0,0,0,0,0,0],"id":1,"left_children":[1,3,5,7,9,11,-1,-1,-1,13,15,17,19,21,23,25,27,-1,-1,29,31,-1,-1,-1,-1,-1,-1,-1,-1,-1,33,-1,-1,-1,-1],"loss_changes":[6.2007088E1,2.9618416E0,1.1260029E1,2.3709679E-1,3.4687834E0,1.2166763E1,0E0,0E0,0E0,3.4636798E0,9.4506264E-1,4.9645805E-1,2.8404775E0,1.256082E-1,1.0511382E0,6.98792E-1,6.3384914E-1,0E0,0E0,3.0690527E-1,1.2818441E0,0E0,0E0,0E0,0E0,0E0,0E0,0E0,0E0,0E0,1.1010265E-1,0E0,0E0,0E0,0E0],"parents":[2147483647,0,0,1,1,2,2,3,3,4,4,5,5,9,9,10,10,11,11,12,12,13,13,14,14,15,15,16,16,19,19,20,20,30,30],"right_children":[2,4,6,8,10,12,-1,-1,-1,14,16,18,20,22,24,26,28,-1,-1,30,32,-1,-1,-1,-1,-1,-1,-1,-1,-1,34,-1,-1,-1,-1],"split_conditions":[1.1349832E1,-3.8742726E0,5.9241736E-1,-1.5131762E0,-1.6472904E-1,-3.4083614E-1,9.21447E-2,-3.1145578E-2,-8.918192E-2,1.1695243E-2,4.2055506E-1,-3.3382773E-2,2.1993548E-2,-2.2884848E-2,9.9946755E-1,6.011574E-3,-6.472889E-2,2.8300429E-2,8.401389E-2,-1.4786904E-2,1.5019854E1,-2.0855753E-2,-6.2362302E-2,-1.6371325E-4,6.8748154E-2,1.8069018E-2,-4.6101477E-2,-1.2026836E-2,-7.567467E-2,-1.4473878E-2,4.162127E-2,5.8505576E-2,-2.5519563E-2,-6.4494826E-2,-2.213173E-2],"split_indices":[18,4,20,21,8,6,0,0,0,7,5,31,37,13,5,13,29,0,0,6,4,0,0,0,0,0,0,0,0,0,27,0,0,0,0],"split_type":[0,0,0,0,0,0,0,0,0,0,0,0,0,0,0,0,0,0,0,0,0,0,0,0,0,0,0,0,0,0,0,0,0,0,0],"sum_hessian":[1.6486476E2,7.914559E1,8.571918E1,3.269372E1,4.6451866E1,3.97397E1,4.5979477E1,2.1416974E0,3.0552025E1,1.502692E1,3.1424948E1,1.8610182E1,2.1129519E1,7.075155E0,7.951766E0,5.166597E0,2.625835E1,3.2594225E0,1.53507595E1,1.54326105E1,5.696908E0,2.4620209E0,4.613134E0,3.983234E0,3.9685318E0,2.263595E0,2.9030018E0,2.1142662E0,2.4144085E1,2.5509264E0,1.2881684E1,3.3373978E0,2.35951E0,1.0767967E1,2.1137176E0],"tree_param":{"num_deleted":"0","num_feature":"48","num_nodes":"35","size_leaf_vector":"1"}},{"base_weights":[1.504E-3,-8.2271405E-2,2.1568306E-1,5.813296E-1,-4.7548148E-1,2.316875E-1,8.564947E-2,1.7931555E-1,-5.889313E-1,5.704625E-1,-1.1980054E-1,-4.221678E-2,6.86697E-2,-5.219371E-3,-6.61877E-1,7.2863144E-1,-7.4952594E-3,8.659205E-2,-3.9703378E-1,-1.8967498E-2,-6.9638443E-1,2.2623261E-2,8.018829E-2,3.938222E-2,-2.1684697E-2,-4.8619527E-2,-1.26562705E-2,-2.3101998E-2,-7.299163E-2],"categories":[],"categories_nodes":[],"categories_segments":[],"categories_sizes":[],"default_left":[0,0,0,0,0,0,0,0,0,0,0,0,0,0,0,0,0,0,0,0,0,0,0,0,0,0,0,0,0],"id":2,"left_children":[1,-1,3,5,7,9,-1,11,13,15,17,-1,-1,-1,19,21,-1,23,25,-1,27,-1,-1,-1,-1,-1,-1,-1,-1],"loss_changes":[2.2824177E1,0E0,2.6210682E1,6.3018703E0,2.784048E0,3.7746947E0,0E0,2.1487756E0,1.1777973E0,1.6903391E0,9.5576775E-1,0E0,0E0,0E0,3.1070137E-1,2.9563332E-1,0E0,1.0224789E0,1.0850787E-1,0E0,2.206955E-1,0E0,0E0,0E0,0E0,0E0,0E0,0E0,0E0],"parents":[2147483647,0,0,2,2,3,3,4,4,5,5,7,7,8,8,9,9,10,10,14,14,15,15,17,17,18,18,20,20],"right_children":[2,-1,4,6,8,10,-1,12,14,16,18,-1,-1,-1,20,22,-1,24,26,-1,28,-1,-1,-1,-1,-1,-1,-1,-1],"split_conditions":[9.512987E0,-8.2271405E-2,2.5076213E-1,5.9241736E-1,-1.4053552E0,-4.149569E-1,8.564947E-2,-3.450093E-2,-5.355291E-2,1.7436456E-2,-1.3413872E-3,-4.221678E-2,6.86697E-2,-5.219371E-3,2.0857176E-2,-4.7226775E-2,-7.4952594E-3,-1.1315619E-2,3.527342E-2,-1.8967498E-2,-5.7610117E-2,2.2623261E-2,8.018829E-2,3.938222E-2,-2.1684697E-2,-4.8619527E-2,-1.26562705E-2,-2.3101998E-2,-7.299163E-2],"split_indices":[16,0,5,20,21,21,0,15,27,11,47,0,0,0,23,31,0,35,35,0,13,0,0,0,0,0,0,0,0],"split_type":[0,0,0,0,0,0,0,0,0,0,0,0,0,0,0,0,0,0,0,0,0,0,0,0,0,0,0,0,0],"sum_hessian":[1.2728812E2,2.5668325E1,1.0161979E2,6.656425E1,3.5055546E1,3.0126108E1,3.6438137E1,5.0910454E0,2.9964499E1,1.5023247E1,1.5102861E1,2.4063487E0,2.6846964E0,3.7903605E0,2.6174139E1,1.1962675E1,3.0605724E0,9.051743E0,6.051119E0,2.2249148E0,2.3949224E1,2.0425036E0,9.920172E0,4.3497667E0,4.7019753E0,3.951056E0,2.1000626E0,2.1399534E0,2.180927E1],"tree_param":{"num_deleted":"0","num_feature":"48","num_nodes":"29","size_leaf_vector":"1"}},{"base_weights":[4.6332944E-3,-6.3933706E-1,5.74773E-1,-6.9042856E-1,2.2748446E-2,2.721815E-1,8.034576E-2,-2.9533616E-1,-7.252718E-2,6.538182E-2,-1.8683238E-2,-7.1548077E-4,-4.6262868E-2,1.6419421E-1,-3.38861E-2,3.623692E-1,-1.7942248E-2,2.2193235E-3,4.88663E-2],"categories":[],"categories_nodes":[],"categories_segments":[],"categories_sizes":[],"default_left":[0,0,0,0,0,0,0,0,0,0,0,0,0,0,0,0,0,0,0],"id":3,"left_children":[1,3,5,7,-1,9,-1,11,-1,-1,13,-1,-1,15,-1,17,-1,-1,-1],"loss_changes":[4.2252625E1,2.5505695E0,4.004858E0,4.9180412E-1,0E0,3.0964518E0,0E0,2.7839416E-1,0E0,0E0,1.0358058E0,0E0,0E0,8.364037E-1,0E0,3.120399E-1,0E0,0E0,0E0],"parents":[2147483647,0,0,1,1,2,2,3,3,5,5,7,7,10,10,13,13,15,15],"right_children":[2,4,6,8,-1,10,-1,12,-1,-1,14,-1,-1,16,-1,18,-1,-1,-1],"split_conditions":[1.0252152E1,1.9745464E0,7.92521E-1,-6.713803E-2,2.2748446E-2,-6.365201E-1,8.034576E-2,-3.6163654E-2,-7.252718E-2,6.538182E-2,4.4294028E-3,-7.1548077E-4,-4.6262868E-2,1.12754805E-2,-3.38861E-2,-3.088132E-2,-1.7942248E-2,2.2193235E-3,4.88663E-2],"split_indices":[4,3,1,19,0,6,0,27,0,0,25,0,0,28,0,41,0,0,0],"split_type":[0,0,0,0,0,0,0,0,0,0,0,0,0,0,0,0,0,0,0],"sum_hessian":[1.1308087E2,5.304519E1,6.0035683E1,5.028484E1,2.7603526E0,2.6784754E1,3.325093E1,4.8432016E0,4.5441635E1,1.1045014E1,1.5739738E1,2.1618772E0,2.6813242E0,1.03278885E1,5.4118505E0,6.5155706E0,3.8123174E0,2.0823712E0,4.4331994E0],"tree_param":{"num_deleted":"0","num_feature":"48","num_nodes":"19","size_leaf_vector":"1"}},{"base_weights":[2.1341855E-3,-5.651769E-1,5.59982E-1,-7.182872E-2,-3.4792075E-1,2.7465662E-1,7.6481834E-2,5.061677E-2,-5.31179E-1,4.4371298E-1,1.11994585E-2,-4.0251862E-2,3.9420117E-2,-5.9040613E-2,-1.6153954E-2,5.7807483E-2,1.23089276E-1,-2.3189197E-1,2.575771E-1,-1.49479015E-2,3.8091917E-2,-4.407655E-3,-3.5438463E-2,3.9693814E-2,1.578303E-3],"categories":[],"categories_nodes":[],"categories_segments":[],"categories_sizes":[],"default_left":[0,0,0,0,0,0,0,0,0,0,0,0,0,0,0,0,0,0,0,0,0,0,0,0,0],"id":4,"left_children":[1,3,5,-1,7,9,-1,11,13,15,17,-1,-1,-1,-1,-1,19,21,23,-1,-1,-1,-1,-1,-1],"loss_changes":[3.2104996E1,1.4232254E0,2.7792683E0,0E0,1.6871858E0,1.016524E0,0E0,1.4156466E0,2.4744987E-1,5.295627E-1,6.580774E-1,0E0,0E0,0E0,0E0,0E0,4.356193E-1,1.1217764E-1,1.7689067E-1,0E0,0E0,0E0,0E0,0E0,0E0],"parents":[2147483647,0,0,1,1,2,2,4,4,5,5,7,7,8,8,9,9,10,10,16,16,17,17,18,18],"right_children":[2,4,6,-1,8,10,-1,12,14,16,18,-1,-1,-1,-1,-1,20,22,24,-1,-1,-1,-1,-1,-1],"split_conditions":[1.140391E1,-1.4174528E0,5.9241736E-1,-7.182872E-2,-3.1536058E-2,1.7962453E-1,7.6481834E-2,-1.1135327E-3,4.769684E-2,4.866556E-3,-1.8661391E-3,-4.0251862E-2,3.9420117E-2,-5.9040613E-2,-1.6153954E-2,5.7807483E-2,-1.3513939E0,-7.591165E-3,-6.7931707E-3,-1.49479015E-2,3.8091917E-2,-4.407655E-3,-3.5438463E-2,3.9693814E-2,1.578303E-3],"split_indices":[18,14,20,0,28,20,0,34,7,47,46,0,0,0,0,0,14,47,45,0,0,0,0,0,0],"split_type":[0,0,0,0,0,0,0,0,0,0,0,0,0,0,0,0,0,0,0,0,0,0,0,0,0],"sum_hessian":[9.9446106E1,4.929834E1,5.014777E1,2.75655E1,2.1732838E1,2.1934755E1,2.8213015E1,7.073553E0,1.4659284E1,1.2944365E1,8.990391E0,2.9764898E0,4.0970635E0,1.2120048E1,2.5392368E0,8.555918E0,4.3884473E0,4.55497E0,4.435421E0,2.3375337E0,2.0509133E0,2.3348396E0,2.2201302E0,2.4066696E0,2.0287514E0],"tree_param":{"num_deleted":"0","num_feature":"48","num_nodes":"25","size_leaf_vector":"1"}},{"base_weights":[1.2098147E-3,-5.4717714E-1,5.207256E-1,-2.589456E-1,-6.582471E-2,1.9575366E-1,7.3033825E-2,1.5527041E-1,-4.6336108E-1,5.0525915E-2,2.7976697E-2,4.7115754E-2,-2.1386376E-2,-5.3707886E-2,-1.4241814E-2,2.578473E-1,-2.1616552E-2,3.994828E-2,-2.0693592E-4],"categories":[],"categories_nodes":[],"categories_segments":[],"categories_sizes":[],"default_left":[0,0,0,0,0,0,0,0,0,0,0,0,0,0,0,0,0,0,0],"id":5,"left_children":[1,3,5,7,-1,9,-1,11,13,-1,15,-1,-1,-1,-1,17,-1,-1,-1],"loss_changes":[2.5141127E1,1.2039557E0,2.943819E0,1.2226725E0,0E0,9.7947365E-1,0E0,7.1173716E-1,1.4473963E-1,0E0,8.115089E-1,0E0,0E0,0E0,0E0,2.7295732E-1,0E0,0E0,0E0],"parents":[2147483647,0,0,1,1,2,2,3,3,5,5,7,7,8,8,10,10,15,15],"right_children":[2,4,6,8,-1,10,-1,12,14,-1,16,-1,-1,-1,-1,18,-1,-1,-1],"split_conditions":[1.140391E1,-9.0164906E-1,7.92521E-1,-3.1536058E-2,-6.582471E-2,-6.365201E-1,7.3033825E-2,5.622954E-3,5.1101137E-2,5.0525915E-2,-4.2344965E-3,4.7115754E-2,-2.1386376E-2,-5.3707886E-2,-1.4241814E-2,1.6541354E-3,-2.1616552E-2,3.994828E-2,-2.0693592E-4],"split_indices":[18,20,1,28,0,6,0,10,31,0,7,0,0,0,0,32,0,0,0],"split_type":[0,0,0,0,0,0,0,0,0,0,0,0,0,0,0,0,0,0,0],"sum_hessian":[8.624667E1,4.193158E1,4.4315098E1,1.259037E1,2.9341208E1,1.8134401E1,2.6180696E1,4.2396994E0,8.350671E0,5.667614E0,1.2466787E1,2.1356921E0,2.1040072E0,6.2432184E0,2.1074526E0,6.392156E0,6.074631E0,3.7899477E0,2.6022081E0],"tree_param":{"num_deleted":"0","num_feature":"48","num_nodes":"19","size_leaf_vector":"1"}},{"base_weights":[1.946917E-2,-5.5079633E-1,4.8597252E-1,-6.1446328E-2,-2.1602671E-1,2.2534767E-1,6.9089904E-2,-4.3179236E-2,2.1699907E-2,5.009722E-1,1.9397555E-2,1.3934973E-2,5.9865158E-2,1.8016282E-1,-2.3190454E-2,3.2577097E-1,-8.613771E-3,1.1489384E-2,4.578697E-2],"categories":[],"categories_nodes":[],"categories_segments":[],"categories_sizes":[],"default_left":[0,0,0,0,0,0,0,0,0,0,0,0,0,0,0,0,0,0,0],"id":6,"left_children":[1,3,5,-1,7,9,-1,-1,-1,11,13,-1,-1,15,-1,17,-1,-1,-1],"loss_changes":[2.0624598E1,6.1110973E-1,2.1206455E0,0E0,7.588347E-1,1.1394839E0,0E0,0E0,0E0,2.209804E-1,5.5193037E-1,0E0,0E0,3.48487E-1,0E0,1.020416E-1,0E0,0E0,0E0],"parents":[2147483647,0,0,1,1,2,2,4,4,5,5,9,9,10,10,13,13,15,15],"right_children":[2,4,6,-1,8,10,-1,-1,-1,12,14,-1,-1,16,-1,18,-1,-1,-1],"split_conditions":[5.6671915E0,1.9218342E0,2.0717442E1,-6.1446328E-2,7.437177E-3,-5.408383E-1,6.9089904E-2,-4.3179236E-2,2.1699907E-2,-3.3382773E-2,1.3938694E-2,1.3934973E-2,5.9865158E-2,-4.2344965E-3,-2.3190454E-2,2.7580379E-2,-8.613771E-3,1.1489384E-2,4.578697E-2],"split_indices":[4,2,0,0,7,6,0,0,0,31,28,0,0,7,0,40,0,0,0],"split_type":[0,0,0,0,0,0,0,0,0,0,0,0,0,0,0,0,0,0,0],"sum_hessian":[7.552094E1,3.3900017E1,4.1620926E1,2.7781092E1,6.1189265E0,1.9244932E1,2.2375996E1,4.085884E0,2.0330427E0,7.6176634E0,1.1627269E1,2.1361067E0,5.481557E0,7.263609E0,4.36366E0,4.551573E0,2.7120361E0,2.4732044E0,2.0783684E0],"tree_param":{"num_deleted":"0","num_feature":"48","num_nodes":"19","size_leaf_vector":"1"}},{"base_weights":[7.127988E-3,-5.3342795E-1,4.8489687E-1,-1.2881087E-1,-6.002729E-2,2.5607836E-1,6.768558E-2,2.1221044E-2,-3.7556265E-2,4.5286655E-1,-7.3703425E-3,1.307677E-2,5.203507E-2,2.8774543E-2,-1.6749432E-2],"categories":[],"categories_nodes":[],"categories_segments":[],"categories_sizes":[],"default_left":[0,0,0,0,0,0,0,0,0,0,0,0,0,0,0],"id":7,"left_children":[1,3,5,7,-1,9,-1,-1,-1,11,13,-1,-1,-1,-1],"loss_changes":[1.8455236E1,8.296356E-1,1.4924812E0,5.869079E-1,0E0,9.837005E-1,0E0,0E0,0E0,1.675899E-1,4.767774E-1,0E0,0E0,0E0,0E0],"parents":[2147483647,0,0,1,1,2,2,3,3,5,5,9,9,10,10],"right_children":[2,4,6,8,-1,10,-1,-1,-1,12,14,-1,-1,-1,-1],"split_conditions":[1.1349832E1,-4.905896E1,5.9241736E-1,-3.1340626E-1,-6.002729E-2,-1.675386E-1,6.768558E-2,2.1221044E-2,-3.7556265E-2,-3.9186633E-1,-3.971122E-2,1.307677E-2,5.203507E-2,2.8774543E-2,-1.6749432E-2],"split_indices":[18,0,20,8,0,6,0,0,0,9,25,0,0,0,0],"split_type":[0,0,0,0,0,0,0,0,0,0,0,0,0,0,0],"sum_hessian":[6.945815E1,3.2533123E1,3.6925034E1,5.0276184E0,2.7505505E1,1.7910007E1,1.9015026E1,2.1694002E0,2.8582182E0,9.840477E0,8.0695305E0,2.2134643E0,7.6270127E0,2.5580013E0,5.5115294E0],"tree_param":{"num_deleted":"0","num_feature":"48","num_nodes":"15","size_leaf_vector":"1"}},{"base_weights":[-4.7867307E-3,-4.6866697E-1,4.449436E-1,-9.679837E-3,-5.135701E-1,1.661254E-1,6.533712E-2,-5.5996638E-2,-3.057408E-1,4.1399458E-1,3.4519177E-4,1.8046988E-3,-4.7836434E-2,5.284782E-2,1.2118004E-2,-1.6518469E-1,2.2988625E-2,-2.6356652E-2,2.4935452E-4],"categories":[],"categories_nodes":[],"categories_segments":[],"categories_sizes":[],"default_left":[0,0,0,0,0,0,0,0,0,0,0,0,0,0,0,0,0,0,0],"id":8,"left_children":[1,3,5,-1,7,9,-1,-1,11,13,15,-1,-1,-1,-1,17,-1,-1,-1],"loss_changes":[1.3473728E1,4.8107147E-1,1.7974591E0,0E0,1.00040436E-1,6.31472E-1,0E0,0E0,4.1868985E-1,1.4243746E-1,4.259659E-1,0E0,0E0,0E0,0E0,1.0812934E-1,0E0,0E0,0E0],"parents":[2147483647,0,0,1,1,2,2,4,4,5,5,8,8,9,9,10,10,15,15],"right_children":[2,4,6,-1,8,10,-1,-1,12,14,16,-1,-1,-1,-1,18,-1,-1,-1],"split_conditions":[1.140391E1,-1.4092629E0,5.9241736E-1,-9.679837E-3,1.1065606E0,-5.408383E-1,6.533712E-2,-5.5996638E-2,1.2657431E0,-4.594798E-3,1.7237226E-2,1.8046988E-3,-4.7836434E-2,5.284782E-2,1.2118004E-2,-1.3592591E0,2.2988625E-2,-2.6356652E-2,2.4935452E-4],"split_indices":[18,6,20,0,24,6,0,0,24,37,46,0,0,0,0,14,0,0,0],"split_type":[0,0,0,0,0,0,0,0,0,0,0,0,0,0,0,0,0,0,0],"sum_hessian":[6.2585148E1,3.078719E1,3.1797956E1,3.6570187E0,2.713017E1,1.4370826E1,1.7427132E1,2.0793762E1,6.336409E0,5.159404E0,9.211422E0,2.5148296E0,3.8215795E0,3.1305928E0,2.028811E0,5.5148473E0,3.696575E0,3.1152048E0,2.3996427E0],"tree_param":{"num_deleted":"0","num_feature":"48","num_nodes":"19","size_leaf_vector":"1"}},{"base_weights":[-1.0486333E-2,-4.7117805E-1,4.6106395E-1,-5.2262855E-1,-1.8396686E-1,2.1530645E-1,6.373087E-2,-5.7419427E-2,-2.990269E-1,1.9216978E-4,-2.777418E-2,4.0312942E-2,4.928651E-2,-8.158955E-3,-3.8820125E-2,-1.1327328E-2,2.2206228E-2],"categories":[],"categories_nodes":[],"categories_segments":[],"categories_sizes":[],"default_left":[0,0,0,0,0,0,0,0,0,0,0,0,0,0,0,0,0],"id":9,"left_children":[1,3,5,7,9,11,-1,-1,13,-1,-1,-1,15,-1,-1,-1,-1],"loss_changes":[1.339757E1,3.6466312E-1,1.1833267E0,1.2696743E-1,1.1001812E-1,4.2426795E-1,0E0,0E0,1.02909505E-1,0E0,0E0,0E0,2.6949722E-1,0E0,0E0,0E0,0E0],"parents":[2147483647,0,0,1,1,2,2,3,3,4,4,5,5,8,8,12,12],"right_children":[2,4,6,8,10,12,-1,-1,14,-1,-1,-1,16,-1,-1,-1,-1],"split_conditions":[1.140391E1,9.681617E0,2.0717442E1,3.994352E-2,-3.0572213E-2,-3.333613E-1,6.373087E-2,-5.7419427E-2,-9.1098636E-1,1.9216978E-4,-2.777418E-2,4.0312942E-2,1.0213217E0,-8.158955E-3,-3.8820125E-2,-1.1327328E-2,2.2206228E-2],"split_indices":[18,16,0,40,13,6,0,0,20,0,0,0,6,0,0,0,0],"split_type":[0,0,0,0,0,0,0,0,0,0,0,0,0,0,0,0,0],"sum_hessian":[5.9671925E1,3.0183886E1,2.9488039E1,2.4903116E1,5.280768E0,1.3243207E1,1.6244831E1,1.8962227E1,5.940891E0,2.0991542E0,3.1816134E0,5.543496E0,7.699711E0,2.2847753E0,3.6561155E0,4.1445827E0,3.555128E0],"tree_param":{"num_deleted":"0","num_feature":"48","num_nodes":"17","size_leaf_vector":"1"}},{"base_weights":[-1.7022697E-2,-4.6137354E-1,3.9816454E-1,-6.0952682E-2,-2.9537055E-1,1.3275835E-1,6.2155318E-2,-3.9942496E-2,-3.9548047E-2,2.457458E-1,-8.1517205E-2,-1.9501781E-2,1.1602704E-2,-1.0598823E-3,3.3920612E-2,-2.5220204E-2,1.604301E-2],"categories":[],"categories_nodes":[],"categories_segments":[],"categories_sizes":[],"default_left":[0,0,0,0,0,0,0,0,0,0,0,0,0,0,0,0,0],"id":10,"left_children":[1,3,5,-1,7,9,-1,11,-1,13,15,-1,-1,-1,-1,-1,-1],"loss_changes":[1.0414517E1,4.9014568E-1,1.6490116E0,0E0,3.6242318E-1,3.739615E-1,0E0,1.5026462E-1,0E0,2.388823E-1,2.7990204E-1,0E0,0E0,0E0,0E0,0E0,0E0],"parents":[2147483647,0,0,1,1,2,2,4,4,5,5,7,7,9,9,10,10],"right_children":[2,4,6,-1,8,10,-1,12,-1,14,16,-1,-1,-1,-1,-1,-1],"split_conditions":[1.1349832E1,9.512987E0,5.9241736E-1,-6.0952682E-2,-9.245226E-1,4.866556E-3,6.2155318E-2,-4.762077E-3,-3.9548047E-2,-3.86985E-2,8.124825E-3,-1.9501781E-2,1.1602704E-2,-1.0598823E-3,3.3920612E-2,-2.5220204E-2,1.604301E-2],"split_indices":[18,16,20,0,21,47,0,34,0,42,46,0,0,0,0,0,0],"split_type":[0,0,0,0,0,0,0,0,0,0,0,0,0,0,0,0,0],"sum_hessian":[5.4454937E1,2.6249924E1,2.8205013E1,1.2458899E1,1.3791025E1,1.3618856E1,1.4586157E1,4.277097E0,9.513927E0,8.820789E0,4.7980676E0,2.019158E0,2.2579396E0,2.593604E0,6.227185E0,2.7885E0,2.0095673E0],"tree_param":{"num_deleted":"0","num_feature":"48","num_nodes":"17","size_leaf_vector":"1"}},{"base_weights":[-6.4829756E-3,-4.604231E-1,4.0462542E-1,-3.1407445E-3,-5.0294306E-2,1.6456969E-1,6.0170006E-2,4.1745998E-2,-2.063344E-2,-1.992174E-2,1.2735188E-2],"categories":[],"categories_nodes":[],"categories_segments":[],"categories_sizes":[],"default_left":[0,0,0,0,0,0,0,0,0,0,0],"id":11,"left_children":[1,3,5,-1,-1,7,-1,-1,9,-1,-1],"loss_changes":[8.988835E0,4.016528E-1,1.0971508E0,0E0,0E0,6.069716E-1,0E0,0E0,2.454517E-1,0E0,0E0],"parents":[2147483647,0,0,1,1,2,2,5,5,8,8],"right_children":[2,4,6,-1,-1,8,-1,-1,10,-1,-1],"split_conditions":[1.1349832E1,-1.4771379E0,5.9241736E-1,-3.1407445E-3,-5.0294306E-2,-5.408383E-1,6.0170006E-2,4.1745998E-2,-3.4694988E-3,-1.992174E-2,1.2735188E-2],"split_indices":[18,6,20,0,0,6,0,0,46,0,0],"split_type":[0,0,0,0,0,0,0,0,0,0,0],"sum_hessian":[4.61686E1,2.1884302E1,2.4284296E1,2.1301596E0,1.9754143E1,1.177558E1,1.2508716E1,4.44795E0,7.32763E0,3.1636457E0,4.1639843E0],"tree_param":{"num_deleted":"0","num_feature":"48","num_nodes":"11","size_leaf_vector":"1"}},{"base_weights":[3.7478912E-3,-4.1504487E-1,4.0245298E-1,-4.83091E-1,-4.1051013E-3,1.7116767E-1,5.8026146E-2,-5.8025092E-2,-2.3730218E-1,3.713825E-2,1.1259067E-2,-2.3058644E-3,-3.202085E-2,-1.0424825E-2,1.5457391E-2],"categories":[],"categories_nodes":[],"categories_segments":[],"categories_sizes":[],"default_left":[0,0,0,0,0,0,0,0,0,0,0,0,0,0,0],"id":12,"left_children":[1,3,5,7,-1,9,-1,-1,11,-1,13,-1,-1,-1,-1],"loss_changes":[7.861904E0,5.6468034E-1,8.9243174E-1,3.2415104E-1,0E0,3.7681416E-1,0E0,0E0,1.1998871E-1,0E0,1.4270653E-1,0E0,0E0,0E0,0E0],"parents":[2147483647,0,0,1,1,2,2,3,3,5,5,8,8,10,10],"right_children":[2,4,6,8,-1,10,-1,-1,12,-1,14,-1,-1,-1,-1],"split_conditions":[1.140391E1,1.9147092E0,7.442139E-1,9.078763E-1,-4.1051013E-3,-5.408383E-1,5.8026146E-2,-5.8025092E-2,-3.0656025E-2,3.713825E-2,1.0213217E0,-2.3058644E-3,-3.202085E-2,-1.0424825E-2,1.5457391E-2],"split_indices":[18,3,1,4,0,6,0,0,19,0,6,0,0,0,0],"split_type":[0,0,0,0,0,0,0,0,0,0,0,0,0,0,0],"sum_hessian":[4.5084007E1,2.1968111E1,2.3115896E1,1.8339611E1,3.6284986E0,1.0900137E1,1.2215759E1,1.216861E1,6.171002E0,4.252853E0,6.647284E0,2.0783448E0,4.092657E0,3.8316698E0,2.8156142E0],"tree_param":{"num_deleted":"0","num_feature":"48","num_nodes":"15","size_leaf_vector":"1"}},{"base_weights":[1.635012E-2,-3.9350834E-1,4.3179366E-1,-4.6922338E-1,-3.115355E-3,2.4266405E-1,5.723707E-2,-5.6343038E-2,-2.3080196E-2,4.288618E-2,5.6122728E-2,1.8047987E-2,-8.159646E-3],"categories":[],"categories_nodes":[],"categories_segments":[],"categories_sizes":[],"default_left":[0,0,0,0,0,0,0,0,0,0,0,0,0],"id":13,"left_children":[1,3,5,7,-1,9,-1,-1,-1,-1,11,-1,-1],"loss_changes":[7.275911E0,5.76097E-1,4.2481184E-1,2.6838112E-1,0E0,3.5021752E-1,0E0,0E0,0E0,0E0,1.266227E-1,0E0,0E0],"parents":[2147483647,0,0,1,1,2,2,3,3,5,5,10,10],"right_children":[2,4,6,8,-1,10,-1,-1,-1,-1,12,-1,-1],"split_conditions":[1.140391E1,1.9050077E0,5.9241736E-1,8.68302E-1,-3.115355E-3,-3.651828E-1,5.723707E-2,-5.6343038E-2,-2.3080196E-2,4.288618E-2,-1.5656076E-2,1.8047987E-2,-8.159646E-3],"split_indices":[18,3,20,4,0,6,0,0,0,0,47,0,0],"split_type":[0,0,0,0,0,0,0,0,0,0,0,0,0],"sum_hessian":[4.0732952E1,2.053088E1,2.020207E1,1.6738415E1,3.7924662E0,9.775928E0,1.0426143E1,1.1020668E1,5.7177463E0,4.242362E0,5.533566E0,2.7446873E0,2.7888784E0],"tree_param":{"num_deleted":"0","num_feature":"48","num_nodes":"13","size_leaf_vector":"1"}},{"base_weights":[8.49527E-3,-4.0482843E-1,3.8104972E-1,-1.3163133E-1,-4.875541E-2,1.6988926E-1,5.6450617E-2,1.1437254E-2,-3.040324E-2,2.8345896E-2,-4.5227404E-3],"categories":[],"categories_nodes":[],"categories_segments":[],"categories_sizes":[],"default_left":[0,0,0,0,0,0,0,0,0,0,0],"id":14,"left_children":[1,3,5,7,-1,9,-1,-1,-1,-1,-1],"loss_changes":[6.039518E0,3.562641E-1,7.027445E-1,2.7625096E-1,0E0,2.8192386E-1,0E0,0E0,0E0,0E0,0E0],"parents":[2147483647,0,0,1,1,2,2,3,3,5,5],"right_children":[2,4,6,8,-1,10,-1,-1,-1,-1,-1],"split_conditions":[1.1349832E1,-9.5161253E-1,5.9241736E-1,-9.4219965E-1,-4.875541E-2,4.866556E-3,5.6450617E-2,1.1437254E-2,-3.040324E-2,2.8345896E-2,-4.5227404E-3],"split_indices":[18,20,20,6,0,47,0,0,0,0,0],"split_type":[0,0,0,0,0,0,0,0,0,0,0],"sum_hessian":[3.721954E1,1.760328E1,1.9616262E1,4.6937146E0,1.2909564E1,1.0014967E1,9.601296E0,2.0727046E0,2.6210098E0,6.346609E0,3.6683574E0],"tree_param":{"num_deleted":"0","num_feature":"48","num_nodes":"11","size_leaf_vector":"1"}},{"base_weights":[3.3845063E-3,-3.816309E-1,3.8702014E-1,-4.650196E-2,-1.4096396E-1,1.6075559E-1,5.586303E-2,8.160584E-3,-2.8789658E-2,3.7883993E-2,-3.0747354E-3,-1.2086669E-2,1.4727554E-2],"categories":[],"categories_nodes":[],"categories_segments":[],"categories_sizes":[],"default_left":[0,0,0,0,0,0,0,0,0,0,0,0,0],"id":15,"left_children":[1,3,5,-1,7,9,-1,-1,-1,-1,11,-1,-1],"loss_changes":[5.7217627E0,3.2255077E-1,6.6345406E-1,0E0,2.3316231E-1,3.5027972E-1,0E0,0E0,0E0,0E0,1.3418426E-1,0E0,0E0],"parents":[2147483647,0,0,1,1,2,2,4,4,5,5,10,10],"right_children":[2,4,6,-1,8,10,-1,-1,-1,-1,12,-1,-1],"split_conditions":[1.140391E1,-3.336871E-2,5.9241736E-1,-4.650196E-2,-9.4219965E-1,-5.408383E-1,5.586303E-2,8.160584E-3,-2.8789658E-2,3.7883993E-2,1.0213217E0,-1.2086669E-2,1.4727554E-2],"split_indices":[18,15,20,0,6,6,0,0,0,0,6,0,0],"split_type":[0,0,0,0,0,0,0,0,0,0,0,0,0],"sum_hessian":[3.6737656E1,1.8338463E1,1.8399193E1,1.2927129E1,5.4113326E0,8.771238E0,9.6279545E0,2.328613E0,3.0827198E0,3.1996288E0,5.571609E0,3.2340171E0,2.3375921E0],"tree_param":{"num_deleted":"0","num_feature":"48","num_nodes":"13","size_leaf_vector":"1"}},{"base_weights":[9.087329E-3,-4.0255812E-1,3.6301646E-1,-4.482481E-2,-6.24677E-3,1.5798792E-1,5.456513E-2,2.8212456E-2,-2.4215437E-3],"categories":[],"categories_nodes":[],"categories_segments":[],"categories_sizes":[],"default_left":[0,0,0,0,0,0,0,0,0],"id":16,"left_children":[1,3,5,-1,-1,7,-1,-1,-1],"loss_changes":[4.922299E0,2.1486282E-1,5.9352803E-1,0E0,0E0,2.320988E-1,0E0,0E0,0E0],"parents":[2147483647,0,0,1,1,2,2,5,5],"right_children":[2,4,6,-1,-1,8,-1,-1,-1],"split_conditions":[4.9841833E0,5.66953E-2,2.0717442E1,-4.482481E-2,-6.24677E-3,-2.094022E-1,5.456513E-2,2.8212456E-2,-2.4215437E-3],"split_indices":[18,13,0,0,0,21,0,0,0],"split_type":[0,0,0,0,0,0,0,0,0],"sum_hessian":[3.178231E1,1.4629609E1,1.7152702E1,1.2616588E1,2.0130215E0,8.959586E0,8.193115E0,5.0027604E0,3.956826E0],"tree_param":{"num_deleted":"0","num_feature":"48","num_nodes":"9","size_leaf_vector":"1"}},{"base_weights":[9.728508E-3,-3.591787E-1,3.455075E-1,-9.791319E-2,-4.6682637E-2,5.0814837E-2,1.12202436E-1,1.2959445E-2,-2.6654104E-2,2.8698301E-2,-6.2163817E-3],"categories":[],"categories_nodes":[],"categories_segments":[],"categories_sizes":[],"default_left":[0,0,0,0,0,0,0,0,0,0,0],"id":17,"left_children":[1,3,5,7,-1,-1,9,-1,-1,-1,-1],"loss_changes":[3.929555E0,3.7978077E-1,5.725801E-1,2.524473E-1,0E0,0E0,2.6466185E-1,0E0,0E0,0E0,0E0],"parents":[2147483647,0,0,1,1,2,2,3,3,6,6],"right_children":[2,4,6,8,-1,-1,10,-1,-1,-1,-1],"split_conditions":[4.9710646E0,-9.0164906E-1,-8.500136E-1,-1.1371488E-2,-4.6682637E-2,5.0814837E-2,-3.4083614E-1,1.2959445E-2,-2.6654104E-2,2.8698301E-2,-6.2163817E-3],"split_indices":[18,20,24,41,0,0,6,0,0,0,0],"split_type":[0,0,0,0,0,0,0,0,0,0,0],"sum_hessian":[2.9721052E1,1.4128708E1,1.5592344E1,4.6799183E0,9.44879E0,8.493405E0,7.0989385E0,2.0906937E0,2.5892246E0,3.2227087E0,3.8762298E0],"tree_param":{"num_deleted":"0","num_feature":"48","num_nodes":"11","size_leaf_vector":"1"}},{"base_weights":[-1.5052519E-2,-4.0869907E-1,3.4014893E-1,-4.4613402E-2,-1.16488E-2,1.4213839E-1,5.257654E-2,2.7174398E-2,2.348974E-2,1.3407531E-2,-1.1033415E-2],"categories":[],"categories_nodes":[],"categories_segments":[],"categories_sizes":[],"default_left":[0,0,0,0,0,0,0,0,0,0,0],"id":18,"left_children":[1,3,5,-1,-1,7,-1,-1,9,-1,-1],"loss_changes":[4.356235E0,1.0949397E-1,5.280508E-1,0E0,0E0,1.367171E-1,0E0,0E0,1.02889754E-1,0E0,0E0],"parents":[2147483647,0,0,1,1,2,2,5,5,8,8],"right_children":[2,4,6,-1,-1,8,-1,-1,10,-1,-1],"split_conditions":[1.1349832E1,9.684816E0,5.9241736E-1,-4.4613402E-2,-1.16488E-2,-4.149569E-1,5.257654E-2,2.7174398E-2,-8.460878E-4,1.3407531E-2,-1.1033415E-2],"split_indices":[18,16,20,0,0,21,0,0,28,0,0],"split_type":[0,0,0,0,0,0,0,0,0,0,0],"sum_hessian":[2.9160929E1,1.3760478E1,1.5400451E1,1.1730889E1,2.0295894E0,8.305806E0,7.0946445E0,3.3529232E0,4.9528832E0,2.7108715E0,2.2420118E0],"tree_param":{"num_deleted":"0","num_feature":"48","num_nodes":"11","size_leaf_vector":"1"}},{"base_weights":[6.0122795E-3,-3.5061905E-1,3.284861E-1,-1.0269426E-1,-4.5429107E-2,1.2092925E-1,5.1725056E-2,-2.5664056E-2,1.0329624E-2,2.0082861E-2,-4.2028725E-3],"categories":[],"categories_nodes":[],"categories_segments":[],"categories_sizes":[],"default_left":[0,0,0,0,0,0,0,0,0,0,0],"id":19,"left_children":[1,3,5,7,-1,9,-1,-1,-1,-1,-1],"loss_changes":[3.3580446E0,3.0993462E-1,5.3784776E-1,1.9720714E-1,0E0,1.2046656E-1,0E0,0E0,0E0,0E0,0E0],"parents":[2147483647,0,0,1,1,2,2,3,3,5,5],"right_children":[2,4,6,8,-1,10,-1,-1,-1,-1,-1],"split_conditions":[1.1349832E1,-9.0164906E-1,5.9241736E-1,5.071863E-3,-4.5429107E-2,4.866556E-3,5.1725056E-2,-2.5664056E-2,1.0329624E-2,2.0082861E-2,-4.2028725E-3],"split_indices":[18,20,20,35,0,47,0,0,0,0,0],"split_type":[0,0,0,0,0,0,0,0,0,0,0],"sum_hessian":[2.7197832E1,1.2873475E1,1.4324356E1,4.3828187E0,8.490657E0,7.603989E0,6.720367E0,2.3675516E0,2.0152671E0,4.946361E0,2.657628E0],"tree_param":{"num_deleted":"0","num_feature":"48","num_nodes":"11","size_leaf_vector":"1"}},{"base_weights":[-2.3172086E-2,-3.2866475E-1,2.9339162E-1,-4.7146652E-2,-1.4368503E-1,1.0948894E-1,4.9566474E-2,8.491221E-3,-2.4237107E-2,2.688299E-2,-2.626522E-3],"categories":[],"categories_nodes":[],"categories_segments":[],"categories_sizes":[],"default_left":[0,0,0,0,0,0,0,0,0,0,0],"id":20,"left_children":[1,3,5,-1,7,9,-1,-1,-1,-1,-1],"loss_changes":[2.7014148E0,3.0681968E-1,4.5746994E-1,0E0,1.9238994E-1,1.9069287E-1,0E0,0E0,0E0,0E0,0E0],"parents":[2147483647,0,0,1,1,2,2,4,4,5,5],"right_children":[2,4,6,-1,8,10,-1,-1,-1,-1,-1],"split_conditions":[1.1349832E1,-3.8714705E0,5.9241736E-1,-4.7146652E-2,-1.0293019E0,-4.1068438E-1,4.9566474E-2,8.491221E-3,-2.4237107E-2,2.688299E-2,-2.626522E-3],"split_indices":[18,4,20,0,8,6,0,0,0,0,0],"split_type":[0,0,0,0,0,0,0,0,0,0,0],"sum_hessian":[2.5936657E1,1.3179679E1,1.2756978E1,6.563783E0,6.6158957E0,7.4892216E0,5.267757E0,2.0369825E0,4.578913E0,2.9943473E0,4.494874E0],"tree_param":{"num_deleted":"0","num_feature":"48","num_nodes":"11","size_leaf_vector":"1"}},{"base_weights":[1.4099196E-3,-3.512652E-1,3.5059866E-1,-4.5054194E-2,-1.4249748E-1,1.3460302E-1,4.9523823E-2,3.9656525E-3,-2.7574385E-2,2.510319E-2,-5.6592753E-4],"categories":[],"categories_nodes":[],"categories_segments":[],"categories_sizes":[],"default_left":[0,0,0,0,0,0,0,0,0,0,0],"id":21,"left_children":[1,3,5,-1,7,9,-1,-1,-1,-1,-1],"loss_changes":[3.2036638E0,2.0408452E-1,3.4165752E-1,0E0,1.4768854E-1,1.0944912E-1,0E0,0E0,0E0,0E0,0E0],"parents":[2147483647,0,0,1,1,2,2,4,4,5,5],"right_children":[2,4,6,-1,8,10,-1,-1,-1,-1,-1],"split_conditions":[1.140391E1,-1.4065062E0,5.5166715E-1,-4.5054194E-2,-4.652685E-1,-2.890889E-3,4.9523823E-2,3.9656525E-3,-2.7574385E-2,2.510319E-2,-5.6592753E-4],"split_indices":[18,14,20,0,6,45,0,0,0,0,0],"split_type":[0,0,0,0,0,0,0,0,0,0,0],"sum_hessian":[2.4014261E1,1.194453E1,1.2069733E1,7.310172E0,4.634357E0,5.6151013E0,6.4546313E0,2.254598E0,2.379759E0,2.636699E0,2.9784024E0],"tree_param":{"num_deleted":"0","num_feature":"48","num_nodes":"11","size_leaf_vector":"1"}},{"base_weights":[2.0643635E-2,-3.3911046E-1,3.374455E-1,-4.171687E-3,-3.9756577E-2,1.5332702E-1,4.971304E-2,2.3957312E-2,-5.199637E-3],"categories":[],"categories_nodes":[],"categories_segments":[],"categories_sizes":[],"default_left":[0,0,0,0,0,0,0,0,0],"id":22,"left_children":[1,3,5,-1,-1,7,-1,-1,-1],"loss_changes":[2.8477995E0,1.8731439E-1,3.1345844E-1,0E0,0E0,1.4707631E-1,0E0,0E0,0E0],"parents":[2147483647,0,0,1,1,2,2,5,5],"right_children":[2,4,6,-1,-1,8,-1,-1,-1],"split_conditions":[1.1349832E1,-4.90566E1,5.9241736E-1,-4.171687E-3,-3.9756577E-2,4.866556E-3,4.971304E-2,2.3957312E-2,-5.199637E-3],"split_indices":[18,0,20,0,0,47,0,0,0],"split_type":[0,0,0,0,0,0,0,0,0],"sum_hessian":[2.2983063E1,1.0728999E1,1.2254064E1,2.0439553E0,8.685044E0,6.602032E0,5.6520314E0,4.5316877E0,2.0703444E0],"tree_param":{"num_deleted":"0","num_feature":"48","num_nodes":"9","size_leaf_vector":"1"}},{"base_weights":[-3.382193E-2,-3.130102E-1,3.1088355E-1,-4.59488E-2,-1.307011E-1,4.5058582E-2,6.8355426E-3,5.344764E-3,-2.1394731E-2],"categories":[],"categories_nodes":[],"categories_segments":[],"categories_sizes":[],"default_left":[0,0,0,0,0,0,0,0,0],"id":23,"left_children":[1,3,5,-1,7,-1,-1,-1,-1],"loss_changes":[2.2331984E0,2.8070557E-1,3.2269883E-1,0E0,1.2000721E-1,0E0,0E0,0E0,0E0],"parents":[2147483647,0,0,1,1,2,2,4,4],"right_children":[2,4,6,-1,8,-1,-1,-1,-1],"split_conditions":[1.1423958E1,-3.8714705E0,-8.194818E-1,-4.59488E-2,4.8065453E0,4.5058582E-2,6.8355426E-3,5.344764E-3,-2.1394731E-2],"split_indices":[18,4,24,0,18,0,0,0,0],"split_type":[0,0,0,0,0,0,0,0,0],"sum_hessian":[2.1193882E1,1.1760565E1,9.433318E0,5.678082E0,6.082483E0,5.4411874E0,3.9921305E0,2.0050573E0,4.077425E0],"tree_param":{"num_deleted":"0","num_feature":"48","num_nodes":"9","size_leaf_vector":"1"}},{"base_weights":[1.2267204E-2,-3.1083483E-1,3.0501252E-1,-4.1068442E-2,-8.322476E-3,1.2201468E-2,4.797326E-2],"categories":[],"categories_nodes":[],"categories_segments":[],"categories_sizes":[],"default_left":[0,0,0,0,0,0,0],"id":24,"left_children":[1,3,5,-1,-1,-1,-1],"loss_changes":[2.1998117E0,2.175008E-1,3.3092117E-1,0E0,0E0,0E0,0E0],"parents":[2147483647,0,0,1,1,2,2],"right_children":[2,4,6,-1,-1,-1,-1],"split_conditions":[5.652098E0,9.3750197E-1,7.442139E-1,-4.1068442E-2,-8.322476E-3,1.2201468E-2,4.797326E-2],"split_indices":[4,5,1,0,0,0,0],"split_type":[0,0,0,0,0,0,0],"sum_hessian":[2.1254774E1,1.00741625E1,1.1180612E1,6.4432554E0,3.630907E0,6.2904654E0,4.890146E0],"tree_param":{"num_deleted":"0","num_feature":"48","num_nodes":"7","size_leaf_vector":"1"}},{"base_weights":[-6.3690934E-3,-3.1106168E-1,3.2449868E-1,-3.721221E-2,-5.2410285E-3,1.3973263E-2,4.702648E-2],"categories":[],"categories_nodes":[],"categories_segments":[],"categories_sizes":[],"default_left":[0,0,0,0,0,0,0],"id":25,"left_children":[1,3,5,-1,-1,-1,-1],"loss_changes":[2.1939533E0,1.5925848E-1,2.1553493E-1,0E0,0E0,0E0,0E0],"parents":[2147483647,0,0,1,1,2,2],"right_children":[2,4,6,-1,-1,-1,-1],"split_conditions":[1.1432411E1,1.1633959E0,2.0717442E1,-3.721221E-2,-5.2410285E-3,1.3973263E-2,4.702648E-2],"split_indices":[18,22,0,0,0,0,0],"split_type":[0,0,0,0,0,0,0],"sum_hessian":[1.976136E1,1.0318773E1,9.442587E0,7.993118E0,2.3256555E0,5.0279765E0,4.41461E0],"tree_param":{"num_deleted":"0","num_feature":"48","num_nodes":"7","size_leaf_vector":"1"}},{"base_weights":[-1.4271096E-3,-2.855889E-1,2.7764645E-1,-6.0446262E-3,-3.797264E-2,9.430172E-3,4.4695582E-2],"categories":[],"categories_nodes":[],"categories_segments":[],"categories_sizes":[],"default_left":[0,0,0,0,0,0,0],"id":26,"left_children":[1,3,5,-1,-1,-1,-1],"loss_changes":[1.5405205E0,1.8099546E-1,2.6216626E-1,0E0,0E0,0E0,0E0],"parents":[2147483647,0,0,1,1,2,2],"right_children":[2,4,6,-1,-1,-1,-1],"split_conditions":[4.930705E0,-9.0164906E-1,5.5166715E-1,-6.0446262E-3,-3.797264E-2,9.430172E-3,4.4695582E-2],"split_indices":[18,20,20,0,0,0,0],"split_type":[0,0,0,0,0,0,0],"sum_hessian":[1.7426105E1,8.622772E0,8.803333E0,3.0265272E0,5.5962453E0,4.973989E0,3.8293445E0],"tree_param":{"num_deleted":"0","num_feature":"48","num_nodes":"7","size_leaf_vector":"1"}},{"base_weights":[3.5894598E-4,-3.0053073E-1,2.8160536E-1,-3.693463E-2,-3.6029685E-3,1.1892008E-2,4.4899173E-2],"categories":[],"categories_nodes":[],"categories_segments":[],"categories_sizes":[],"default_left":[0,0,0,0,0,0,0],"id":27,"left_children":[1,3,5,-1,-1,-1,-1],"loss_changes":[1.6774981E0,1.6102183E-1,2.2559744E-1,0E0,0E0,0E0,0E0],"parents":[2147483647,0,0,1,1,2,2],"right_children":[2,4,6,-1,-1,-1,-1],"split_conditions":[4.9841833E0,1.1633959E0,2.0717442E1,-3.693463E-2,-3.6029685E-3,1.1892008E-2,4.4899173E-2],"split_indices":[18,22,0,0,0,0,0],"split_type":[0,0,0,0,0,0,0],"sum_hessian":[1.7822844E1,8.577593E0,9.245251E0,6.4921374E0,2.0854554E0,5.5558705E0,3.6893804E0],"tree_param":{"num_deleted":"0","num_feature":"48","num_nodes":"7","size_leaf_vector":"1"}},{"base_weights":[2.8772352E-2,-2.3540592E-1,3.176907E-1,-3.6004372E-2,-4.059026E-3,1.2677744E-2,4.5150105E-2],"categories":[],"categories_nodes":[],"categories_segments":[],"categories_sizes":[],"default_left":[0,0,0,0,0,0,0],"id":28,"left_children":[1,3,5,-1,-1,-1,-1],"loss_changes":[1.3958095E0,2.188586E-1,1.6481626E-1,0E0,0E0,0E0,0E0],"parents":[2147483647,0,0,1,1,2,2],"right_children":[2,4,6,-1,-1,-1,-1],"split_conditions":[1.1432411E1,-1.4174528E0,5.9241736E-1,-3.6004372E-2,-4.059026E-3,1.2677744E-2,4.5150105E-2],"split_indices":[18,14,20,0,0,0,0],"split_type":[0,0,0,0,0,0,0],"sum_hessian":[1.6307657E1,8.6153E0,7.692356E0,4.7367387E0,3.8785617E0,3.9723158E0,3.7200403E0],"tree_param":{"num_deleted":"0","num_feature":"48","num_nodes":"7","size_leaf_vector":"1"}},{"base_weights":[-1.5649276E-2,-2.928965E-1,2.719122E-1,-4.462653E-2,-1.2001383E-2,9.4110845E-3,4.246105E-2],"categories":[],"categories_nodes":[],"categories_segments":[],"categories_sizes":[],"default_left":[0,0,0,0,0,0,0],"id":29,"left_children":[1,3,5,-1,-1,-1,-1],"loss_changes":[1.4724532E0,1.9504404E-1,2.0694375E-1,0E0,0E0,0E0,0E0],"parents":[2147483647,0,0,1,1,2,2],"right_children":[2,4,6,-1,-1,-1,-1],"split_conditions":[5.6671915E0,-2.8607548E1,1.9791979E1,-4.462653E-2,-1.2001383E-2,9.4110845E-3,4.246105E-2],"split_indices":[4,14,4,0,0,0,0],"split_type":[0,0,0,0,0,0,0],"sum_hessian":[1.6470058E1,8.375967E0,8.094091E0,3.6005259E0,4.7754407E0,4.4864287E0,3.6076624E0],"tree_param":{"num_deleted":"0","num_feature":"48","num_nodes":"7","size_leaf_vector":"1"}},{"base_weights":[-1.6880536E-2,-2.75596E-1,2.3507184E-1,-6.5598125E-3,-3.5970416E-2,3.859525E-2,3.875261E-3],"categories":[],"categories_nodes":[],"categories_segments":[],"categories_sizes":[],"default_left":[0,0,0,0,0,0,0],"id":30,"left_children":[1,3,5,-1,-1,-1,-1],"loss_changes":[1.1158606E0,1.2505066E-1,2.4300563E-1,0E0,0E0,0E0,0E0],"parents":[2147483647,0,0,1,1,2,2],"right_children":[2,4,6,-1,-1,-1,-1],"split_conditions":[5.652098E0,-9.0164906E-1,-8.194818E-1,-6.5598125E-3,-3.5970416E-2,3.859525E-2,3.875261E-3],"split_indices":[4,20,24,0,0,0,0],"split_type":[0,0,0,0,0,0,0],"sum_hessian":[1.5124757E1,7.415926E0,7.7088313E0,2.6298203E0,4.7861056E0,3.8126695E0,3.8961616E0],"tree_param":{"num_deleted":"0","num_feature":"48","num_nodes":"7","size_leaf_vector":"1"}},{"base_weights":[9.500847E-3,-3.0948102E-2,2.9184675E-1,4.0263318E-2,7.7536153E-3],"categories":[],"categories_nodes":[],"categories_segments":[],"categories_sizes":[],"default_left":[0,0,0,0,0],"id":31,"left_children":[1,-1,3,-1,-1],"loss_changes":[1.4931226E0,0E0,1.7717129E-1,0E0,0E0],"parents":[2147483647,0,0,2,2],"right_children":[2,-1,4,-1,-1],"split_conditions":[4.9841833E0,-3.0948102E-2,-6.118505E-1,4.0263318E-2,7.7536153E-3],"split_indices":[18,0,24,0,0],"split_type":[0,0,0,0,0],"sum_hessian":[1.4575743E1,6.798732E0,7.777011E0,4.547484E0,3.2295272E0],"tree_param":{"num_deleted":"0","num_feature":"48","num_nodes":"5","size_leaf_vector":"1"}},{"base_weights":[-8.902508E-3,-2.701611E-1,2.4814695E-1,-3.524821E-2,-5.376783E-3,3.973068E-2,5.968917E-3],"categories":[],"categories_nodes":[],"categories_segments":[],"categories_sizes":[],"default_left":[0,0,0,0,0,0,0],"id":32,"left_children":[1,3,5,-1,-1,-1,-1],"loss_changes":[1.0192964E0,1.1484712E-1,1.9185355E-1,0E0,0E0,0E0,0E0],"parents":[2147483647,0,0,1,1,2,2],"right_children":[2,4,6,-1,-1,-1,-1],"split_conditions":[1.1349832E1,4.492403E-1,-8.194818E-1,-3.524821E-2,-5.376783E-3,3.973068E-2,5.968917E-3],"split_indices":[18,3,24,0,0,0,0],"split_type":[0,0,0,0,0,0,0],"sum_hessian":[1.317969E1,6.5110326E0,6.668658E0,4.261112E0,2.2499206E0,3.103841E0,3.5648167E0],"tree_param":{"num_deleted":"0","num_feature":"48","num_nodes":"7","size_leaf_vector":"1"}},{"base_weights":[8.791845E-3,-2.6458079E-2,2.8245812E-2],"categories":[],"categories_nodes":[],"categories_segments":[],"categories_sizes":[],"default_left":[0,0,0],"id":33,"left_children":[1,-1,-1],"loss_changes":[1.0989455E0,0E0,0E0],"parents":[2147483647,0,0],"right_children":[2,-1,-1],"split_conditions":[4.930705E0,-2.6458079E-2,2.8245812E-2],"split_indices":[18,0,0],"split_type":[0,0,0],"sum_hessian":[1.2690324E1,6.365176E0,6.3251476E0],"tree_param":{"num_deleted":"0","num_feature":"48","num_nodes":"3","size_leaf_vector":"1"}},{"base_weights":[-3.8457755E-4,-2.3913519E-1,2.3793598E-1,-3.5708424E-2,-4.94325E-3,6.8841325E-3,4.0509537E-2],"categories":[],"categories_nodes":[],"categories_segments":[],"categories_sizes":[],"default_left":[0,0,0,0,0,0,0],"id":34,"left_children":[1,3,5,-1,-1,-1,-1],"loss_changes":[8.4367174E-1,1.4806521E-1,1.8187952E-1,0E0,0E0,0E0,0E0],"parents":[2147483647,0,0,1,1,2,2],"right_children":[2,4,6,-1,-1,-1,-1],"split_conditions":[5.652098E0,4.766109E0,5.9241736E-1,-3.5708424E-2,-4.94325E-3,6.8841325E-3,4.0509537E-2],"split_indices":[4,18,20,0,0,0,0],"split_type":[0,0,0,0,0,0,0],"sum_hessian":[1.2827491E1,6.406256E0,6.4212346E0,3.4061327E0,3.0001235E0,3.8939917E0,2.5272431E0],"tree_param":{"num_deleted":"0","num_feature":"48","num_nodes":"7","size_leaf_vector":"1"}},{"base_weights":[-7.223776E-3,-2.433399E-1,2.7216566E-1,-3.7347253E-2,-7.0642466E-3,1.0056399E-2,4.0486734E-2],"categories":[],"categories_nodes":[],"categories_segments":[],"categories_sizes":[],"default_left":[0,0,0,0,0,0,0],"id":35,"left_children":[1,3,5,-1,-1,-1,-1],"loss_changes":[9.8802215E-1,1.5567705E-1,1.1577737E-1,0E0,0E0,0E0,0E0],"parents":[2147483647,0,0,1,1,2,2],"right_children":[2,4,6,-1,-1,-1,-1],"split_conditions":[1.1437379E1,4.766109E0,3.443563E1,-3.7347253E-2,-7.0642466E-3,1.0056399E-2,4.0486734E-2],"split_indices":[18,18,0,0,0,0,0],"split_type":[0,0,0,0,0,0,0],"sum_hessian":[1.2973268E1,7.101074E0,5.872193E0,3.386593E0,3.714481E0,3.327323E0,2.54487E0],"tree_param":{"num_deleted":"0","num_feature":"48","num_nodes":"7","size_leaf_vector":"1"}},{"base_weights":[1.8040054E-3,-1.7198993E-1,3.5689443E-2,-3.499221E-2,-2.9174248E-2,1.085461E-2,-1.3650236E-2],"categories":[],"categories_nodes":[],"categories_segments":[],"categories_sizes":[],"default_left":[0,0,0,0,0,0,0],"id":36,"left_children":[1,3,-1,-1,5,-1,-1],"loss_changes":[8.751477E-1,2.3191407E-1,0E0,0E0,1.0907071E-1,0E0,0E0],"parents":[2147483647,0,0,1,1,4,4],"right_children":[2,4,-1,-1,6,-1,-1],"split_conditions":[1.973604E1,4.766109E0,3.5689443E-2,-3.499221E-2,-4.6209198E-1,1.085461E-2,-1.3650236E-2],"split_indices":[4,18,0,0,6,0,0],"split_type":[0,0,0,0,0,0,0],"sum_hessian":[1.2186381E1,8.528079E0,3.6583018E0,3.1515007E0,5.3765783E0,2.3499026E0,3.026676E0],"tree_param":{"num_deleted":"0","num_feature":"48","num_nodes":"7","size_leaf_vector":"1"}},{"base_weights":[-2.432381E-2,-2.7689835E-2,2.3199141E-1,8.356529E-3,3.7573878E-2],"categories":[],"categories_nodes":[],"categories_segments":[],"categories_sizes":[],"default_left":[0,0,0,0,0],"id":37,"left_children":[1,-1,3,-1,-1],"loss_changes":[8.5434294E-1,0E0,1.0945058E-1,0E0,0E0],"parents":[2147483647,0,0,2,2],"right_children":[2,-1,4,-1,-1],"split_conditions":[5.645296E0,-2.7689835E-2,5.9241736E-1,8.356529E-3,3.7573878E-2],"split_indices":[4,0,20,0,0],"split_type":[0,0,0,0,0],"sum_hessian":[1.1204523E1,5.602995E0,5.601528E0,3.5339193E0,2.0676088E0],"tree_param":{"num_deleted":"0","num_feature":"48","num_nodes":"5","size_leaf_vector":"1"}},{"base_weights":[1.16423555E-2,-2.442281E-2,2.543643E-2],"categories":[],"categories_nodes":[],"categories_segments":[],"categories_sizes":[],"default_left":[0,0,0],"id":38,"left_children":[1,-1,-1],"loss_changes":[8.2188827E-1,0E0,0E0],"parents":[2147483647,0,0],"right_children":[2,-1,-1],"split_conditions":[1.1349832E1,-2.442281E-2,2.543643E-2],"split_indices":[18,0,0],"split_type":[0,0,0],"sum_hessian":[1.1233489E1,5.465603E0,5.7678857E0],"tree_param":{"num_deleted":"0","num_feature":"48","num_nodes":"3","size_leaf_vector":"1"}},{"base_weights":[-3.1862152E-3,-2.2049847E-1,2.2339292E-1,-3.5669748E-2,-5.007842E-3,5.592696E-3,3.634123E-2],"categories":[],"categories_nodes":[],"categories_segments":[],"categories_sizes":[],"default_left":[0,0,0,0,0,0,0],"id":39,"left_children":[1,3,5,-1,-1,-1,-1],"loss_changes":[6.054241E-1,1.2764367E-1,1.2098825E-1,0E0,0E0,0E0,0E0],"parents":[2147483647,0,0,1,1,2,2],"right_children":[2,4,6,-1,-1,-1,-1],"split_conditions":[5.6671915E0,6.349327E-1,2.0717442E1,-3.5669748E-2,-5.007842E-3,5.592696E-3,3.634123E-2],"split_indices":[4,24,0,0,0,0,0],"split_type":[0,0,0,0,0,0,0],"sum_hessian":[1.0295373E1,5.2688503E0,5.026522E0,2.3209267E0,2.9479237E0,2.9261782E0,2.1003442E0],"tree_param":{"num_deleted":"0","num_feature":"48","num_nodes":"7","size_leaf_vector":"1"}},{"base_weights":[-7.0332712E-3,-2.3738837E-2,2.6181117E-2],"categories":[],"categories_nodes":[],"categories_segments":[],"categories_sizes":[],"default_left":[0,0,0],"id":40,"left_children":[1,-1,-1],"loss_changes":[7.441838E-1,0E0,0E0],"parents":[2147483647,0,0],"right_children":[2,-1,-1],"split_conditions":[1.1437379E1,-2.3738837E-2,2.6181117E-2],"split_indices":[18,0,0],"split_type":[0,0,0],"sum_hessian":[1.001302E1,5.455535E0,4.557484E0],"tree_param":{"num_deleted":"0","num_feature":"48","num_nodes":"3","size_leaf_vector":"1"}},{"base_weights":[-3.4910613E-3,-3.6355205E-2,1.1759704E-1,1.2463802E-3,3.4199905E-2,1.2326436E-2,-1.1639862E-2],"categories":[],"categories_nodes":[],"categories_segments":[],"categories_sizes":[],"default_left":[0,0,0,0,0,0,0],"id":41,"left_children":[1,-1,3,5,-1,-1,-1],"loss_changes":[5.258889E-1,0E0,2.3581475E-1,1.1429023E-1,0E0,0E0,0E0],"parents":[2147483647,0,0,2,2,3,3],"right_children":[2,-1,4,6,-1,-1,-1],"split_conditions":[-2.8607548E1,-3.6355205E-2,1.9789028E1,-4.6209198E-1,3.4199905E-2,1.2326436E-2,-1.1639862E-2],"split_indices":[14,0,4,6,0,0,0],"split_type":[0,0,0,0,0,0,0],"sum_hessian":[1.0081335E1,2.0331864E0,8.048148E0,5.962298E0,2.0858502E0,2.9033067E0,3.058991E0],"tree_param":{"num_deleted":"0","num_feature":"48","num_nodes":"7","size_leaf_vector":"1"}},{"base_weights":[-2.965892E-3,-2.1131898E-1,2.3701137E-1,-3.172703E-2,-2.1617434E-3,6.009208E-3,3.7147526E-2],"categories":[],"categories_nodes":[],"categories_segments":[],"categories_sizes":[],"default_left":[0,0,0,0,0,0,0],"id":42,"left_children":[1,3,5,-1,-1,-1,-1],"loss_changes":[6.1101335E-1,1.24461144E-1,1.1291832E-1,0E0,0E0,0E0,0E0],"parents":[2147483647,0,0,1,1,2,2],"right_children":[2,4,6,-1,-1,-1,-1],"split_conditions":[1.1423958E1,-1.4174528E0,5.9241736E-1,-3.172703E-2,-2.1617434E-3,6.009208E-3,3.7147526E-2],"split_indices":[18,14,20,0,0,0,0],"split_type":[0,0,0,0,0,0,0],"sum_hessian":[1.0218567E1,5.5336027E0,4.6849647E0,3.1190777E0,2.4145253E0,2.6479094E0,2.037055E0],"tree_param":{"num_deleted":"0","num_feature":"48","num_nodes":"7","size_leaf_vector":"1"}},{"base_weights":[5.4277447E-3,-2.0272337E-2,2.5695441E-2],"categories":[],"categories_nodes":[],"categories_segments":[],"categories_sizes":[],"default_left":[0,0,0],"id":43,"left_children":[1,-1,-1],"loss_changes":[5.670039E-1,0E0,0E0],"parents":[2147483647,0,0],"right_children":[2,-1,-1],"split_conditions":[1.0337636E1,-2.0272337E-2,2.5695441E-2],"split_indices":[4,0,0],"split_type":[0,0,0],"sum_hessian":[8.83493E0,4.940469E0,3.8944612E0],"tree_param":{"num_deleted":"0","num_feature":"48","num_nodes":"3","size_leaf_vector":"1"}},{"base_weights":[-5.5643655E-3,-2.261258E-2,1.9059917E-2],"categories":[],"categories_nodes":[],"categories_segments":[],"categories_sizes":[],"default_left":[0,0,0],"id":44,"left_children":[1,-1,-1],"loss_changes":[4.673691E-1,0E0,0E0],"parents":[2147483647,0,0],"right_children":[2,-1,-1],"split_conditions":[4.930705E0,-2.261258E-2,1.9059917E-2],"split_indices":[18,0,0],"split_type":[0,0,0],"sum_hessian":[8.806051E0,4.0733438E0,4.732708E0],"tree_param":{"num_deleted":"0","num_feature":"48","num_nodes":"3","size_leaf_vector":"1"}},{"base_weights":[-5.7842983E-3,-1.966818E-2,2.1677699E-2],"categories":[],"categories_nodes":[],"categories_segments":[],"categories_sizes":[],"default_left":[0,0,0],"id":45,"left_children":[1,-1,-1],"loss_changes":[4.535999E-1,0E0,0E0],"parents":[2147483647,0,0],"right_children":[2,-1,-1],"split_conditions":[1.1437379E1,-1.966818E-2,2.1677699E-2],"split_indices":[18,0,0],"split_type":[0,0,0],"sum_hessian":[8.6728325E0,4.7311034E0,3.9417293E0],"tree_param":{"num_deleted":"0","num_feature":"48","num_nodes":"3","size_leaf_vector":"1"}},{"base_weights":[2.3886226E-3,-2.8422713E-2,1.2891899E-1,3.0631585E-2,2.9203648E-4],"categories":[],"categories_nodes":[],"categories_segments":[],"categories_sizes":[],"default_left":[0,0,0,0,0],"id":46,"left_children":[1,-1,3,-1,-1],"loss_changes":[3.974193E-1,0E0,1.6874212E-1,0E0,0E0],"parents":[2147483647,0,0,2,2],"right_children":[2,-1,4,-1,-1],"split_conditions":[-1.4637811E0,-2.8422713E-2,-8.194818E-1,3.0631585E-2,2.9203648E-4],"split_indices":[14,0,24,0,0],"split_type":[0,0,0,0,0],"sum_hessian":[8.948191E0,2.3587806E0,6.58941E0,2.1422184E0,4.447191E0],"tree_param":{"num_deleted":"0","num_feature":"48","num_nodes":"5","size_leaf_vector":"1"}},{"base_weights":[2.3374676E-3,-2.0436255E-2,2.0211054E-2],"categories":[],"categories_nodes":[],"categories_segments":[],"categories_sizes":[],"default_left":[0,0,0],"id":47,"left_children":[1,-1,-1],"loss_changes":[4.2658627E-1,0E0,0E0],"parents":[2147483647,0,0],"right_children":[2,-1,-1],"split_conditions":[1.1349832E1,-2.0436255E-2,2.0211054E-2],"split_indices":[18,0,0],"split_type":[0,0,0],"sum_hessian":[8.330434E0,4.0829444E0,4.24749E0],"tree_param":{"num_deleted":"0","num_feature":"48","num_nodes":"3","size_leaf_vector":"1"}},{"base_weights":[-2.910207E-2,-2.331121E-2,2.0131564E-2],"categories":[],"categories_nodes":[],"categories_segments":[],"categories_sizes":[],"default_left":[0,0,0],"id":48,"left_children":[1,-1,-1],"loss_changes":[4.634316E-1,0E0,0E0],"parents":[2147483647,0,0],"right_children":[2,-1,-1],"split_conditions":[4.9841833E0,-2.331121E-2,2.0131564E-2],"split_indices":[18,0,0],"split_type":[0,0,0],"sum_hessian":[7.8603377E0,4.162871E0,3.6974669E0],"tree_param":{"num_deleted":"0","num_feature":"48","num_nodes":"3","size_leaf_vector":"1"}},{"base_weights":[2.0138207E-3,-1.3484564E-1,3.229962E-2,-2.8227452E-2,-1.1417434E-3],"categories":[],"categories_nodes":[],"categories_segments":[],"categories_sizes":[],"default_left":[0,0,0,0,0],"id":49,"left_children":[1,3,-1,-1,-1],"loss_changes":[4.5056465E-1,1.2781306E-1,0E0,0E0,0E0],"parents":[2147483647,0,0,1,1],"right_children":[2,4,-1,-1,-1],"split_conditions":[1.9764633E1,9.56238E0,3.229962E-2,-2.8227452E-2,-1.1417434E-3],"split_indices":[4,16,0,0,0],"split_type":[0,0,0,0,0],"sum_hessian":[8.265077E0,6.201008E0,2.0640693E0,2.23931E0,3.9616976E0],"tree_param":{"num_deleted":"0","num_feature":"48","num_nodes":"5","size_leaf_vector":"1"}},{"base_weights":[1.1278825E-2,-1.1495302E-1,2.8655812E-2,-2.6633441E-2,9.383767E-4],"categories":[],"categories_nodes":[],"categories_segments":[],"categories_sizes":[],"default_left":[0,0,0,0,0],"id":50,"left_children":[1,3,-1,-1,-1],"loss_changes":[3.3961964E-1,1.298237E-1,0E0,0E0,0E0],"parents":[2147483647,0,0,1,1],"right_children":[2,4,-1,-1,-1],"split_conditions":[1.973604E1,-1.4576663E0,2.8655812E-2,-2.6633441E-2,9.383767E-4],"split_indices":[4,14,0,0,0],"split_type":[0,0,0,0,0],"sum_hessian":[7.8255434E0,5.7645636E0,2.0609803E0,2.0845547E0,3.6800086E0],"tree_param":{"num_deleted":"0","num_feature":"48","num_nodes":"5","size_leaf_vector":"1"}},{"base_weights":[7.1004904E-3,-1.2321052E-1,2.8048432E-2,-2.2095477E-2,4.1645947E-3],"categories":[],"categories_nodes":[],"categories_segments":[],"categories_sizes":[],"default_left":[0,0,0,0,0],"id":51,"left_children":[1,3,-1,-1,-1],"loss_changes":[3.468769E-1,1.1606422E-1,0E0,0E0,0E0],"parents":[2147483647,0,0,1,1],"right_children":[2,4,-1,-1,-1],"split_conditions":[1.973604E1,-4.924045E-2,2.8048432E-2,-2.2095477E-2,4.1645947E-3],"split_indices":[4,15,0,0,0],"split_type":[0,0,0,0,0],"sum_hessian":[7.766848E0,5.6317387E0,2.135109E0,3.3218882E0,2.3098507E0],"tree_param":{"num_deleted":"0","num_feature":"48","num_nodes":"5","size_leaf_vector":"1"}},{"base_weights":[-8.404819E-3,-2.7003115E-2,1.1610146E-2],"categories":[],"categories_nodes":[],"categories_segments":[],"categories_sizes":[],"default_left":[0,0,0],"id":52,"left_children":[1,-1,-1],"loss_changes":[3.048622E-1,0E0,0E0],"parents":[2147483647,0,0],"right_children":[2,-1,-1],"split_conditions":[4.766109E0,-2.7003115E-2,1.1610146E-2],"split_indices":[18,0,0],"split_type":[0,0,0],"sum_hessian":[7.3965793E0,2.0081072E0,5.388472E0],"tree_param":{"num_deleted":"0","num_feature":"48","num_nodes":"3","size_leaf_vector":"1"}},{"base_weights":[4.3287016E-3,-1.3978916E-2,2.3965167E-2],"categories":[],"categories_nodes":[],"categories_segments":[],"categories_sizes":[],"default_left":[0,0,0],"id":53,"left_children":[1,-1,-1],"loss_changes":[3.2486048E-1,0E0,0E0],"parents":[2147483647,0,0],"right_children":[2,-1,-1],"split_conditions":[1.2160984E1,-1.3978916E-2,2.3965167E-2],"split_indices":[18,0,0],"split_type":[0,0,0],"sum_hessian":[7.5910735E0,4.959634E0,2.6314394E0],"tree_param":{"num_deleted":"0","num_feature":"48","num_nodes":"3","size_leaf_vector":"1"}},{"base_weights":[-6.551966E-3,-1.9263988E-2,1.897647E-2],"categories":[],"categories_nodes":[],"categories_segments":[],"categories_sizes":[],"default_left":[0,0,0],"id":54,"left_children":[1,-1,-1],"loss_changes":[3.3537415E-1,0E0,0E0],"parents":[2147483647,0,0],"right_children":[2,-1,-1],"split_conditions":[1.0252152E1,-1.9263988E-2,1.897647E-2],"split_indices":[4,0,0],"split_type":[0,0,0],"sum_hessian":[7.1795845E0,3.6954286E0,3.484156E0],"tree_param":{"num_deleted":"0","num_feature":"48","num_nodes":"3","size_leaf_vector":"1"}},{"base_weights":[2.173095E-2,-1.406343E-2,1.9256659E-2],"categories":[],"categories_nodes":[],"categories_segments":[],"categories_sizes":[],"default_left":[0,0,0],"id":55,"left_children":[1,-1,-1],"loss_changes":[2.5107986E-1,0E0,0E0],"parents":[2147483647,0,0],"right_children":[2,-1,-1],"split_conditions":[1.1432411E1,-1.406343E-2,1.9256659E-2],"split_indices":[18,0,0],"split_type":[0,0,0],"sum_hessian":[7.0755734E0,3.7183616E0,3.3572116E0],"tree_param":{"num_deleted":"0","num_feature":"48","num_nodes":"3","size_leaf_vector":"1"}},{"base_weights":[-1.8812835E-2,-2.438466E-2,1.1796235E-2],"categories":[],"categories_nodes":[],"categories_segments":[],"categories_sizes":[],"default_left":[0,0,0],"id":56,"left_children":[1,-1,-1],"loss_changes":[2.6569104E-1,0E0,0E0],"parents":[2147483647,0,0],"right_children":[2,-1,-1],"split_conditions":[-1.4405411E0,-2.438466E-2,1.1796235E-2],"split_indices":[14,0,0],"split_type":[0,0,0],"sum_hessian":[6.6976533E0,2.2359905E0,4.461663E0],"tree_param":{"num_deleted":"0","num_feature":"48","num_nodes":"3","size_leaf_vector":"1"}},{"base_weights":[9.499271E-3,-1.7635645E-2,1.7130826E-2],"categories":[],"categories_nodes":[],"categories_segments":[],"categories_sizes":[],"default_left":[0,0,0],"id":57,"left_children":[1,-1,-1],"loss_changes":[2.743316E-1,0E0,0E0],"parents":[2147483647,0,0],"right_children":[2,-1,-1],"split_conditions":[5.652098E0,-1.7635645E-2,1.7130826E-2],"split_indices":[4,0,0],"split_type":[0,0,0],"sum_hessian":[7.117557E0,3.270787E0,3.8467698E0],"tree_param":{"num_deleted":"0","num_feature":"48","num_nodes":"3","size_leaf_vector":"1"}},{"base_weights":[-1.0350759E-2,-1.8660422E-2,1.3763713E-2],"categories":[],"categories_nodes":[],"categories_segments":[],"categories_sizes":[],"default_left":[0,0,0],"id":58,"left_children":[1,-1,-1],"loss_changes":[2.2605091E-1,0E0,0E0],"parents":[2147483647,0,0],"right_children":[2,-1,-1],"split_conditions":[5.585177E0,-1.8660422E-2,1.3763713E-2],"split_indices":[4,0,0],"split_type":[0,0,0],"sum_hessian":[6.6817985E0,2.9305606E0,3.751238E0],"tree_param":{"num_deleted":"0","num_feature":"48","num_nodes":"3","size_leaf_vector":"1"}},{"base_weights":[-1.6547177E-2,-2.1475201E-2,1.1200975E-2],"categories":[],"categories_nodes":[],"categories_segments":[],"categories_sizes":[],"default_left":[0,0,0],"id":59,"left_children":[1,-1,-1],"loss_changes":[2.1860385E-1,0E0,0E0],"parents":[2147483647,0,0],"right_children":[2,-1,-1],"split_conditions":[-1.4405411E0,-2.1475201E-2,1.1200975E-2],"split_indices":[14,0,0],"split_type":[0,0,0],"sum_hessian":[6.6352005E0,2.3466818E0,4.288519E0],"tree_param":{"num_deleted":"0","num_feature":"48","num_nodes":"3","size_leaf_vector":"1"}},{"base_weights":[-1.5632916E-2,-1.5361713E-2,2.3748895E-2],"categories":[],"categories_nodes":[],"categories_segments":[],"categories_sizes":[],"default_left":[0,0,0],"id":60,"left_children":[1,-1,-1],"loss_changes":[2.9801178E-1,0E0,0E0],"parents":[2147483647,0,0],"right_children":[2,-1,-1],"split_conditions":[1.9689314E1,-1.5361713E-2,2.3748895E-2],"split_indices":[4,0,0],"split_type":[0,0,0],"sum_hessian":[6.487924E0,4.45337E0,2.034554E0],"tree_param":{"num_deleted":"0","num_feature":"48","num_nodes":"3","size_leaf_vector":"1"}},{"base_weights":[1.361216E-2,-1.02277715E-2,2.3526508E-2],"categories":[],"categories_nodes":[],"categories_segments":[],"categories_sizes":[],"default_left":[0,0,0],"id":61,"left_children":[1,-1,-1],"loss_changes":[2.2599433E-1,0E0,0E0],"parents":[2147483647,0,0],"right_children":[2,-1,-1],"split_conditions":[1.9689314E1,-1.02277715E-2,2.3526508E-2],"split_indices":[4,0,0],"split_type":[0,0,0],"sum_hessian":[6.861152E0,4.8591456E0,2.0020065E0],"tree_param":{"num_deleted":"0","num_feature":"48","num_nodes":"3","size_leaf_vector":"1"}},{"base_weights":[1.2859307E-2,-2.015273E-2,1.33038685E-2],"categories":[],"categories_nodes":[],"categories_segments":[],"categories_sizes":[],"default_left":[0,0,0],"id":62,"left_children":[1,-1,-1],"loss_changes":[2.2518432E-1,0E0,0E0],"parents":[2147483647,0,0],"right_children":[2,-1,-1],"split_conditions":[-1.4405411E0,-2.015273E-2,1.33038685E-2],"split_indices":[14,0,0],"split_type":[0,0,0],"sum_hessian":[6.699381E0,2.1633384E0,4.536042E0],"tree_param":{"num_deleted":"0","num_feature":"48","num_nodes":"3","size_leaf_vector":"1"}},{"base_weights":[-2.7815307E-2,-2.4365516E-2,1.0083686E-2],"categories":[],"categories_nodes":[],"categories_segments":[],"categories_sizes":[],"default_left":[0,0,0],"id":63,"left_children":[1,-1,-1],"loss_changes":[2.3021677E-1,0E0,0E0],"parents":[2147483647,0,0],"right_children":[2,-1,-1],"split_conditions":[4.77635E0,-2.4365516E-2,1.0083686E-2],"split_indices":[18,0,0],"split_type":[0,0,0],"sum_hessian":[6.405841E0,2.0584579E0,4.347383E0],"tree_param":{"num_deleted":"0","num_feature":"48","num_nodes":"3","size_leaf_vector":"1"}},{"base_weights":[5.866734E-3,-1.1695559E-2,2.062109E-2],"categories":[],"categories_nodes":[],"categories_segments":[],"categories_sizes":[],"default_left":[0,0,0],"id":64,"left_children":[1,-1,-1],"loss_changes":[1.9813679E-1,0E0,0E0],"parents":[2147483647,0,0],"right_children":[2,-1,-1],"split_conditions":[1.2264057E1,-1.1695559E-2,2.062109E-2],"split_indices":[18,0,0],"split_type":[0,0,0],"sum_hessian":[6.0720186E0,4.0223293E0,2.0496893E0],"tree_param":{"num_deleted":"0","num_feature":"48","num_nodes":"3","size_leaf_vector":"1"}},{"base_weights":[-9.026088E-3,-1.881268E-2,1.0787312E-2],"categories":[],"categories_nodes":[],"categories_segments":[],"categories_sizes":[],"default_left":[0,0,0],"id":65,"left_children":[1,-1,-1],"loss_changes":[1.689479E-1,0E0,0E0],"parents":[2147483647,0,0],"right_children":[2,-1,-1],"split_conditions":[-1.4433411E0,-1.881268E-2,1.0787312E-2],"split_indices":[14,0,0],"split_type":[0,0,0],"sum_hessian":[6.100157E0,2.1685E0,3.9316566E0],"tree_param":{"num_deleted":"0","num_feature":"48","num_nodes":"3","size_leaf_vector":"1"}},{"base_weights":[-1.7630726E-2,-1.44203575E-2,1.9343985E-2],"categories":[],"categories_nodes":[],"categories_segments":[],"categories_sizes":[],"default_left":[0,0,0],"id":66,"left_children":[1,-1,-1],"loss_changes":[2.1651152E-1,0E0,0E0],"parents":[2147483647,0,0],"right_children":[2,-1,-1],"split_conditions":[1.2160984E1,-1.44203575E-2,1.9343985E-2],"split_indices":[18,0,0],"split_type":[0,0,0],"sum_hessian":[6.06012E0,3.986395E0,2.073725E0],"tree_param":{"num_deleted":"0","num_feature":"48","num_nodes":"3","size_leaf_vector":"1"}},{"base_weights":[1.0731105E-3,-1.7711848E-2,1.0984046E-2],"categories":[],"categories_nodes":[],"categories_segments":[],"categories_sizes":[],"default_left":[0,0,0],"id":67,"left_children":[1,-1,-1],"loss_changes":[1.5954795E-1,0E0,0E0],"parents":[2147483647,0,0],"right_children":[2,-1,-1],"split_conditions":[-9.8809004E-2,-1.7711848E-2,1.0984046E-2],"split_indices":[15,0,0],"split_type":[0,0,0],"sum_hessian":[6.228219E0,2.122519E0,4.1057E0],"tree_param":{"num_deleted":"0","num_feature":"48","num_nodes":"3","size_leaf_vector":"1"}},{"base_weights":[6.121834E-3,-1.4509811E-2,1.5693324E-2],"categories":[],"categories_nodes":[],"categories_segments":[],"categories_sizes":[],"default_left":[0,0,0],"id":68,"left_children":[1,-1,-1],"loss_changes":[1.8492495E-1,0E0,0E0],"parents":[2147483647,0,0],"right_children":[2,-1,-1],"split_conditions":[1.1358385E1,-1.4509811E-2,1.5693324E-2],"split_indices":[18,0,0],"split_type":[0,0,0],"sum_hessian":[6.1102524E0,3.06991E0,3.0403423E0],"tree_param":{"num_deleted":"0","num_feature":"48","num_nodes":"3","size_leaf_vector":"1"}},{"base_weights":[-2.4448536E-2,-1.9210218E-2,1.3651133E-2],"categories":[],"categories_nodes":[],"categories_segments":[],"categories_sizes":[],"default_left":[0,0,0],"id":69,"left_children":[1,-1,-1],"loss_changes":[1.993098E-1,0E0,0E0],"parents":[2147483647,0,0],"right_children":[2,-1,-1],"split_conditions":[1.1358385E1,-1.9210218E-2,1.3651133E-2],"split_indices":[18,0,0],"split_type":[0,0,0],"sum_hessian":[5.4140234E0,2.5571017E0,2.8569214E0],"tree_param":{"num_deleted":"0","num_feature":"48","num_nodes":"3","size_leaf_vector":"1"}},{"base_weights":[1.1333188E-2,-1.426549E-2,1.7309777E-2],"categories":[],"categories_nodes":[],"categories_segments":[],"categories_sizes":[],"default_left":[0,0,0],"id":70,"left_children":[1,-1,-1],"loss_changes":[1.9533022E-1,0E0,0E0],"parents":[2147483647,0,0],"right_children":[2,-1,-1],"split_conditions":[1.1437379E1,-1.426549E-2,1.7309777E-2],"split_indices":[18,0,0],"split_type":[0,0,0],"sum_hessian":[5.8501883E0,3.0576558E0,2.7925324E0],"tree_param":{"num_deleted":"0","num_feature":"48","num_nodes":"3","size_leaf_vector":"1"}},{"base_weights":[2.2364208E-2,-9.002685E-3,1.8494923E-2],"categories":[],"categories_nodes":[],"categories_segments":[],"categories_sizes":[],"default_left":[0,0,0],"id":71,"left_children":[1,-1,-1],"loss_changes":[1.3836011E-1,0E0,0E0],"parents":[2147483647,0,0],"right_children":[2,-1,-1],"split_conditions":[1.2206993E1,-9.002685E-3,1.8494923E-2],"split_indices":[18,0,0],"split_type":[0,0,0],"sum_hessian":[5.660595E0,3.610809E0,2.049786E0],"tree_param":{"num_deleted":"0","num_feature":"48","num_nodes":"3","size_leaf_vector":"1"}},{"base_weights":[-1.0606114E-2,-1.5034728E-2,1.35103855E-2],"categories":[],"categories_nodes":[],"categories_segments":[],"categories_sizes":[],"default_left":[0,0,0],"id":72,"left_children":[1,-1,-1],"loss_changes":[1.5585428E-1,0E0,0E0],"parents":[2147483647,0,0],"right_children":[2,-1,-1],"split_conditions":[1.1349832E1,-1.5034728E-2,1.35103855E-2],"split_indices":[18,0,0],"split_type":[0,0,0],"sum_hessian":[5.6567087E0,2.87125E0,2.7854588E0],"tree_param":{"num_deleted":"0","num_feature":"48","num_nodes":"3","size_leaf_vector":"1"}},{"base_weights":[1.4959981E-2,-1.1524559E-2,1.6159823E-2],"categories":[],"categories_nodes":[],"categories_segments":[],"categories_sizes":[],"default_left":[0,0,0],"id":73,"left_children":[1,-1,-1],"loss_changes":[1.4423364E-1,0E0,0E0],"parents":[2147483647,0,0],"right_children":[2,-1,-1],"split_conditions":[1.1437379E1,-1.1524559E-2,1.6159823E-2],"split_indices":[18,0,0],"split_type":[0,0,0],"sum_hessian":[5.5788193E0,3.068376E0,2.510443E0],"tree_param":{"num_deleted":"0","num_feature":"48","num_nodes":"3","size_leaf_vector":"1"}},{"base_weights":[-6.0014706E-3,-1.7601393E-2,1.1924369E-2],"categories":[],"categories_nodes":[],"categories_segments":[],"categories_sizes":[],"default_left":[0,0,0],"id":74,"left_children":[1,-1,-1],"loss_changes":[1.5959275E-1,0E0,0E0],"parents":[2147483647,0,0],"right_children":[2,-1,-1],"split_conditions":[-9.279191E-2,-1.7601393E-2,1.1924369E-2],"split_indices":[15,0,0],"split_type":[0,0,0],"sum_hessian":[5.509306E0,2.165042E0,3.344264E0],"tree_param":{"num_deleted":"0","num_feature":"48","num_nodes":"3","size_leaf_vector":"1"}},{"base_weights":[-1.5088608E-2,-1.8618677E-2,1.1518482E-2],"categories":[],"categories_nodes":[],"categories_segments":[],"categories_sizes":[],"default_left":[0,0,0],"id":75,"left_children":[1,-1,-1],"loss_changes":[1.7036651E-1,0E0,0E0],"parents":[2147483647,0,0],"right_children":[2,-1,-1],"split_conditions":[9.207792E-1,-1.8618677E-2,1.1518482E-2],"split_indices":[4,0,0],"split_type":[0,0,0],"sum_hessian":[5.6811876E0,2.2702687E0,3.410919E0],"tree_param":{"num_deleted":"0","num_feature":"48","num_nodes":"3","size_leaf_vector":"1"}},{"base_weights":[1.1687847E-2,-1.2966896E-2,1.2522294E-2],"categories":[],"categories_nodes":[],"categories_segments":[],"categories_sizes":[],"default_left":[0,0,0],"id":76,"left_children":[1,-1,-1],"loss_changes":[1.1620096E-1,0E0,0E0],"parents":[2147483647,0,0],"right_children":[2,-1,-1],"split_conditions":[5.585177E0,-1.2966896E-2,1.2522294E-2],"split_indices":[4,0,0],"split_type":[0,0,0],"sum_hessian":[5.2286563E0,2.2656744E0,2.962982E0],"tree_param":{"num_deleted":"0","num_feature":"48","num_nodes":"3","size_leaf_vector":"1"}},{"base_weights":[9.892526E-3],"categories":[],"categories_nodes":[],"categories_segments":[],"categories_sizes":[],"default_left":[0],"id":77,"left_children":[-1],"loss_changes":[0E0],"parents":[2147483647],"right_children":[-1],"split_conditions":[9.892526E-4],"split_indices":[0],"split_type":[0],"sum_hessian":[5.284889E0],"tree_param":{"num_deleted":"0","num_feature":"48","num_nodes":"1","size_leaf_vector":"1"}},{"base_weights":[3.396979E-3,-1.3615238E-2,1.424084E-2],"categories":[],"categories_nodes":[],"categories_segments":[],"categories_sizes":[],"default_left":[0,0,0],"id":78,"left_children":[1,-1,-1],"loss_changes":[1.410853E-1,0E0,0E0],"parents":[2147483647,0,0],"right_children":[2,-1,-1],"split_conditions":[1.1349832E1,-1.3615238E-2,1.424084E-2],"split_indices":[18,0,0],"split_type":[0,0,0],"sum_hessian":[5.273331E0,2.6418374E0,2.6314936E0],"tree_param":{"num_deleted":"0","num_feature":"48","num_nodes":"3","size_leaf_vector":"1"}},{"base_weights":[-2.626181E-2,-1.7848993E-2,1.2383947E-2],"categories":[],"categories_nodes":[],"categories_segments":[],"categories_sizes":[],"default_left":[0,0,0],"id":79,"left_children":[1,-1,-1],"loss_changes":[1.6078632E-1,0E0,0E0],"parents":[2147483647,0,0],"right_children":[2,-1,-1],"split_conditions":[5.655949E0,-1.7848993E-2,1.2383947E-2],"split_indices":[4,0,0],"split_type":[0,0,0],"sum_hessian":[5.069341E0,2.42294E0,2.6464014E0],"tree_param":{"num_deleted":"0","num_feature":"48","num_nodes":"3","size_leaf_vector":"1"}},{"base_weights":[-2.4536802E-2,-2.0796318E-2,1.2459959E-2],"categories":[],"categories_nodes":[],"categories_segments":[],"categories_sizes":[],"default_left":[0,0,0],"id":80,"left_children":[1,-1,-1],"loss_changes":[1.9000627E-1,0E0,0E0],"parents":[2147483647,0,0],"right_children":[2,-1,-1],"split_conditions":[-7.202187E-2,-2.0796318E-2,1.2459959E-2],"split_indices":[15,0,0],"split_type":[0,0,0],"sum_hessian":[4.9985685E0,2.064698E0,2.9338706E0],"tree_param":{"num_deleted":"0","num_feature":"48","num_nodes":"3","size_leaf_vector":"1"}},{"base_weights":[7.1292734E-3,-1.1111186E-2,1.3044159E-2],"categories":[],"categories_nodes":[],"categories_segments":[],"categories_sizes":[],"default_left":[0,0,0],"id":81,"left_children":[1,-1,-1],"loss_changes":[1.017E-1,0E0,0E0],"parents":[2147483647,0,0],"right_children":[2,-1,-1],"split_conditions":[-4.924045E-2,-1.1111186E-2,1.3044159E-2],"split_indices":[15,0,0],"split_type":[0,0,0],"sum_hessian":[4.9809923E0,2.5932899E0,2.3877022E0],"tree_param":{"num_deleted":"0","num_feature":"48","num_nodes":"3","size_leaf_vector":"1"}},{"base_weights":[-7.3381728E-3],"categories":[],"categories_nodes":[],"categories_segments":[],"categories_sizes":[],"default_left":[0],"id":82,"left_children":[-1],"loss_changes":[0E0],"parents":[2147483647],"right_children":[-1],"split_conditions":[-7.338173E-4],"split_indices":[0],"split_type":[0],"sum_hessian":[5.062838E0],"tree_param":{"num_deleted":"0","num_feature":"48","num_nodes":"1","size_leaf_vector":"1"}},{"base_weights":[3.8573905E-3],"categories":[],"categories_nodes":[],"categories_segments":[],"categories_sizes":[],"default_left":[0],"id":83,"left_children":[-1],"loss_changes":[0E0],"parents":[2147483647],"right_children":[-1],"split_conditions":[3.8573905E-4],"split_indices":[0],"split_type":[0],"sum_hessian":[5.0027103E0],"tree_param":{"num_deleted":"0","num_feature":"48","num_nodes":"1","size_leaf_vector":"1"}},{"base_weights":[-1.1780643E-2,-1.5389974E-2,1.0893359E-2],"categories":[],"categories_nodes":[],"categories_segments":[],"categories_sizes":[],"default_left":[0,0,0],"id":84,"left_children":[1,-1,-1],"loss_changes":[1.2199845E-1,0E0,0E0],"parents":[2147483647,0,0],"right_children":[2,-1,-1],"split_conditions":[9.207792E-1,-1.5389974E-2,1.0893359E-2],"split_indices":[4,0,0],"split_type":[0,0,0],"sum_hessian":[5.133996E0,2.2316837E0,2.9023123E0],"tree_param":{"num_deleted":"0","num_feature":"48","num_nodes":"3","size_leaf_vector":"1"}},{"base_weights":[4.2055324E-3,-1.3654691E-2,1.5288365E-2],"categories":[],"categories_nodes":[],"categories_segments":[],"categories_sizes":[],"default_left":[0,0,0],"id":85,"left_children":[1,-1,-1],"loss_changes":[1.4472426E-1,0E0,0E0],"parents":[2147483647,0,0],"right_children":[2,-1,-1],"split_conditions":[-4.924045E-2,-1.3654691E-2,1.5288365E-2],"split_indices":[15,0,0],"split_type":[0,0,0],"sum_hessian":[4.9181733E0,2.5683396E0,2.3498337E0],"tree_param":{"num_deleted":"0","num_feature":"48","num_nodes":"3","size_leaf_vector":"1"}},{"base_weights":[5.937419E-3,-1.2845484E-2,1.3858049E-2],"categories":[],"categories_nodes":[],"categories_segments":[],"categories_sizes":[],"default_left":[0,0,0],"id":86,"left_children":[1,-1,-1],"loss_changes":[1.2818246E-1,0E0,0E0],"parents":[2147483647,0,0],"right_children":[2,-1,-1],"split_conditions":[1.1349832E1,-1.2845484E-2,1.3858049E-2],"split_indices":[18,0,0],"split_type":[0,0,0],"sum_hessian":[5.1920714E0,2.5947149E0,2.5973566E0],"tree_param":{"num_deleted":"0","num_feature":"48","num_nodes":"3","size_leaf_vector":"1"}},{"base_weights":[8.214695E-3,-1.168283E-2,1.7231975E-2],"categories":[],"categories_nodes":[],"categories_segments":[],"categories_sizes":[],"default_left":[0,0,0],"id":87,"left_children":[1,-1,-1],"loss_changes":[1.4409435E-1,0E0,0E0],"parents":[2147483647,0,0],"right_children":[2,-1,-1],"split_conditions":[1.213539E1,-1.168283E-2,1.7231975E-2],"split_indices":[18,0,0],"split_type":[0,0,0],"sum_hessian":[5.0410037E0,3.0245092E0,2.0164945E0],"tree_param":{"num_deleted":"0","num_feature":"48","num_nodes":"3","size_leaf_vector":"1"}},{"base_weights":[2.3553278E-2],"categories":[],"categories_nodes":[],"categories_segments":[],"categories_sizes":[],"default_left":[0],"id":88,"left_children":[-1],"loss_changes":[0E0],"parents":[2147483647],"right_children":[-1],"split_conditions":[2.3553278E-3],"split_indices":[0],"split_type":[0],"sum_hessian":[4.7710037E0],"tree_param":{"num_deleted":"0","num_feature":"48","num_nodes":"1","size_leaf_vector":"1"}},{"base_weights":[1.3413801E-2,-1.0283447E-2,1.3587725E-2],"categories":[],"categories_nodes":[],"categories_segments":[],"categories_sizes":[],"default_left":[0,0,0],"id":89,"left_children":[1,-1,-1],"loss_changes":[1.0050651E-1,0E0,0E0],"parents":[2147483647,0,0],"right_children":[2,-1,-1],"split_conditions":[-4.924045E-2,-1.0283447E-2,1.3587725E-2],"split_indices":[15,0,0],"split_type":[0,0,0],"sum_hessian":[5.0784383E0,2.6875603E0,2.3908782E0],"tree_param":{"num_deleted":"0","num_feature":"48","num_nodes":"3","size_leaf_vector":"1"}},{"base_weights":[-2.6277207E-2],"categories":[],"categories_nodes":[],"categories_segments":[],"categories_sizes":[],"default_left":[0],"id":90,"left_children":[-1],"loss_changes":[0E0],"parents":[2147483647],"right_children":[-1],"split_conditions":[-2.6277208E-3],"split_indices":[0],"split_type":[0],"sum_hessian":[4.329912E0],"tree_param":{"num_deleted":"0","num_feature":"48","num_nodes":"1","size_leaf_vector":"1"}},{"base_weights":[-5.368316E-3,-1.2399993E-2,1.3144599E-2],"categories":[],"categories_nodes":[],"categories_segments":[],"categories_sizes":[],"default_left":[0,0,0],"id":91,"left_children":[1,-1,-1],"loss_changes":[1.1335407E-1,0E0,0E0],"parents":[2147483647,0,0],"right_children":[2,-1,-1],"split_conditions":[-4.924045E-2,-1.2399993E-2,1.3144599E-2],"split_indices":[15,0,0],"split_type":[0,0,0],"sum_hessian":[4.9797764E0,2.7172837E0,2.2624927E0],"tree_param":{"num_deleted":"0","num_feature":"48","num_nodes":"3","size_leaf_vector":"1"}},{"base_weights":[1.0217615E-2,-1.4639452E-2,1.5040665E-2],"categories":[],"categories_nodes":[],"categories_segments":[],"categories_sizes":[],"default_left":[0,0,0],"id":92,"left_children":[1,-1,-1],"loss_changes":[1.5213186E-1,0E0,0E0],"parents":[2147483647,0,0],"right_children":[2,-1,-1],"split_conditions":[4.9841833E0,-1.4639452E-2,1.5040665E-2],"split_indices":[18,0,0],"split_type":[0,0,0],"sum_hessian":[4.926275E0,2.305935E0,2.6203399E0],"tree_param":{"num_deleted":"0","num_feature":"48","num_nodes":"3","size_leaf_vector":"1"}},{"base_weights":[-1.4001366E-2],"categories":[],"categories_nodes":[],"categories_segments":[],"categories_sizes":[],"default_left":[0],"id":93,"left_children":[-1],"loss_changes":[0E0],"parents":[2147483647],"right_children":[-1],"split_conditions":[-1.4001366E-3],"split_indices":[0],"split_type":[0],"sum_hessian":[4.4608645E0],"tree_param":{"num_deleted":"0","num_feature":"48","num_nodes":"1","size_leaf_vector":"1"}},{"base_weights":[-1.5115501E-2,-1.2891794E-2,1.1745559E-2],"categories":[],"categories_nodes":[],"categories_segments":[],"categories_sizes":[],"default_left":[0,0,0],"id":94,"left_children":[1,-1,-1],"loss_changes":[1.0324713E-1,0E0,0E0],"parents":[2147483647,0,0],"right_children":[2,-1,-1],"split_conditions":[1.1437379E1,-1.2891794E-2,1.1745559E-2],"split_indices":[18,0,0],"split_type":[0,0,0],"sum_hessian":[4.83983E0,2.619091E0,2.2207391E0],"tree_param":{"num_deleted":"0","num_feature":"48","num_nodes":"3","size_leaf_vector":"1"}},{"base_weights":[2.3315392E-2],"categories":[],"categories_nodes":[],"categories_segments":[],"categories_sizes":[],"default_left":[0],"id":95,"left_children":[-1],"loss_changes":[0E0],"parents":[2147483647],"right_children":[-1],"split_conditions":[2.3315393E-3],"split_indices":[0],"split_type":[0],"sum_hessian":[4.6861033E0],"tree_param":{"num_deleted":"0","num_feature":"48","num_nodes":"1","size_leaf_vector":"1"}},{"base_weights":[-4.7465446E-3,-1.3881414E-2,1.0924696E-2],"categories":[],"categories_nodes":[],"categories_segments":[],"categories_sizes":[],"default_left":[0,0,0],"id":96,"left_children":[1,-1,-1],"loss_changes":[1.02956265E-1,0E0,0E0],"parents":[2147483647,0,0],"right_children":[2,-1,-1],"split_conditions":[-7.644805E-2,-1.3881414E-2,1.0924696E-2],"split_indices":[15,0,0],"split_type":[0,0,0],"sum_hessian":[4.7444334E0,2.080189E0,2.6642447E0],"tree_param":{"num_deleted":"0","num_feature":"48","num_nodes":"3","size_leaf_vector":"1"}},{"base_weights":[-2.5197506E-2],"categories":[],"categories_nodes":[],"categories_segments":[],"categories_sizes":[],"default_left":[0],"id":97,"left_children":[-1],"loss_changes":[0E0],"parents":[2147483647],"right_children":[-1],"split_conditions":[-2.5197507E-3],"split_indices":[0],"split_type":[0],"sum_hessian":[4.778393E0],"tree_param":{"num_deleted":"0","num_feature":"48","num_nodes":"1","size_leaf_vector":"1"}},{"base_weights":[-1.0221873E-2],"categories":[],"categories_nodes":[],"categories_segments":[],"categories_sizes":[],"default_left":[0],"id":98,"left_children":[-1],"loss_changes":[0E0],"parents":[2147483647],"right_children":[-1],"split_conditions":[-1.0221874E-3],"split_indices":[0],"split_type":[0],"sum_hessian":[4.502098E0],"tree_param":{"num_deleted":"0","num_feature":"48","num_nodes":"1","size_leaf_vector":"1"}},{"base_weights":[2.2419764E-2],"categories":[],"categories_nodes":[],"categories_segments":[],"categories_sizes":[],"default_left":[0],"id":99,"left_children":[-1],"loss_changes":[0E0],"parents":[2147483647],"right_children":[-1],"split_conditions":[2.2419763E-3],"split_indices":[0],"split_type":[0],"sum_hessian":[4.612604E0],"tree_param":{"num_deleted":"0","num_feature":"48","num_nodes":"1","size_leaf_vector":"1"}}]},"name":"gbtree"},"learner_model_param":{"base_score":"-1.7545014E-9","boost_from_average":"1","num_class":"0","num_feature":"48","num_target":"1"},"objective":{"lambdarank_param":{"lambdarank_bias_norm":"1","lambdarank_normalization":"1","lambdarank_num_pair_per_sample":"4294967295","lambdarank_pair_method":"topk","lambdarank_score_normalization":"1","lambdarank_unbiased":"0","ndcg_exp_gain":"1"},"name":"rank:ndcg"}},"version":[3,0,3]}