{"learner":{"attributes":{"scikit_learn":"{\"_estimator_type\": \"ranker\"}"},"feature_names":[],"feature_types":[],"gradient_booster":{"model":{"gbtree_model_param":{"num_parallel_tree":"1","num_trees":"100"},"iteration_indptr":[0,1,2,3,4,5,6,7,8,9,10,11,12,13,14,15,16,17,18,19,20,21,22,23,24,25,26,27,28,29,30,31,32,33,34,35,36,37,38,39,40,41,42,43,44,45,46,47,48,49,50,51,52,53,54,55,56,57,58,59,60,61,62,63,64,65,66,67,68,69,70,71,72,73,74,75,76,77,78,79,80,81,82,83,84,85,86,87,88,89,90,91,92,93,94,95,96,97,98,99,100],"tree_info":[0,0,0,0,0,0,0,0,0,0,0,0,0,0,0,0,0,0,0,0,0,0,0,0,0,0,0,0,0,0,0,0,0,0,0,0,0,0,0,0,0,0,0,0,0,0,0,0,0,0,0,0,0,0,0,0,0,0,0,0,0,0,0,0,0,0,0,0,0,0,0,0,0,0,0,0,0,0,0,0,0,0,0,0,0,0,0,0,0,0,0,0,0,0,0,0,0,0,0,0],"trees":[{"base_weights":[2.5395615E-2,-6.8614787E-1,8.264973E-1,-8.2207644E-1,1.7447095E-1,3.6541587E-1,9.495519E-2,-9.145006E-2,-5.892003E-1,3.4118775E-1,-3.8077693E-2,1.988856E-1,6.8707176E-2,-2.4516373E-3,-6.7660056E-2,4.6970606E-1,-2.4948204E-3,-4.8640165E-2,4.4137683E-2,6.156343E-2,1.2376659E-2,2.1888126E-2,-2.4493981E-2],"categories":[],"categories_nodes":[],"categories_segments":[],"categories_sizes":[],"default_left":[0,0,0,0,0,0,0,0,0,0,0,0,0,0,0,0,0,0,0,0,0,0,0],"id":0,"left_children":[1,3,5,7,9,11,-1,-1,13,15,-1,17,-1,-1,-1,19,-1,21,-1,-1,-1,-1,-1],"loss_changes":[8.1001434E1,8.9496155E0,3.4448662E0,8.641815E-1,1.1567649E0,7.045498E-1,0E0,0E0,1.0361996E0,4.379742E-1,0E0,7.2700864E-1,0E0,0E0,0E0,2.648387E-1,0E0,4.0638405E-1,0E0,0E0,0E0,0E0,0E0],"parents":[2147483647,0,0,1,1,2,2,3,3,4,4,5,5,8,8,9,9,11,11,15,15,17,17],"right_children":[2,4,6,8,10,12,-1,-1,14,16,-1,18,-1,-1,-1,20,-1,22,-1,-1,-1,-1,-1],"split_conditions":[8.9766103E-1,1.8367875E0,-2.4559572E-1,4.5971686E-1,5.907287E-1,2.0998135E-2,9.495519E-2,-9.145006E-2,-1.8857358E-1,2.082462E-2,-3.8077693E-2,-2.4925683E-1,6.8707176E-2,-2.4516373E-3,-6.7660056E-2,9.382336E-2,-2.4948204E-3,-3.069235E-1,4.4137683E-2,6.156343E-2,1.2376659E-2,2.1888126E-2,-2.4493981E-2],"split_indices":[4,3,1,5,37,42,0,0,2,39,0,38,0,0,0,12,0,32,0,0,0,0,0],"split_type":[0,0,0,0,0,0,0,0,0,0,0,0,0,0,0,0,0,0,0,0,0,0,0],"sum_hessian":[1.4010825E2,7.427776E1,6.583048E1,6.4185E1,1.00927725E1,1.4704131E1,5.1126347E1,4.3853416E1,2.0331577E1,8.058637E0,2.0341365E0,1.0754528E1,3.9496028E0,2.8967125E0,1.7434866E1,5.7555075E0,2.3031287E0,5.717617E0,5.036911E0,3.4996455E0,2.255862E0,2.3711398E0,3.3464773E0],"tree_param":{"num_deleted":"0","num_feature":"46","num_nodes":"23","size_leaf_vector":"1"}},{"base_weights":[6.6568516E-3,-5.825442E-1,6.684382E-1,-1.5525346E-1,-7.424626E-1,4.2831153E-1,9.155478E-1,-4.163277E-1,1.7621818E-1,-7.635424E-1,7.758983E-2,-1.6500519E-1,5.290414E-1,3.642551E-2,9.270247E-2,-7.7700174E-1,-1.0259523E-1,-2.5423732E-1,6.0227716E-1,-1.842104E-1,-7.89479E-1,6.976842E-2,-6.0269117E-2,-4.563523E-1,7.719464E-2,5.608449E-1,-4.260726E-2,-8.208304E-2,-2.4792861E-2,3.913773E-1,-4.560456E-1,-7.59589E-2,3.086329E-1,8.1883036E-2,3.8030483E-2,-5.8171775E-2,3.463491E-2,-6.555626E-1,-8.5749686E-1,3.9564896E-2,-6.423266E-2,5.920141E-1,-3.9629754E-2,8.2508616E-2,-2.1907106E-2,-6.8474166E-2,3.8159676E-2,-5.5433452E-2,6.2102217E-2,-4.4523936E-2,4.045939E-2,2.117807E-2,-6.861859E-2,-8.708508E-2,-1.8253164E-2,6.483202E-2,7.8005246E-3],"categories":[],"categories_nodes":[],"categories_segments":[],"categories_sizes":[],"default_left":[0,0,0,0,0,0,0,0,0,0,0,0,0,0,0,0,0,0,0,0,0,0,0,0,0,0,0,0,0,0,0,0,0,0,0,0,0,0,0,0,0,0,0,0,0,0,0,0,0,0,0,0,0,0,0,0,0],"id":1,"left_children":[1,3,5,7,9,11,13,15,17,19,21,23,25,-1,-1,27,29,31,33,35,37,-1,-1,39,-1,41,-1,-1,-1,43,45,-1,47,-1,49,-1,-1,51,53,-1,-1,55,-1,-1,-1,-1,-1,-1,-1,-1,-1,-1,-1,-1,-1,-1,-1],"loss_changes":[2.1271486E2,1.9605057E1,1.4853798E1,6.984338E0,3.6848755E0,7.9874725E0,4.579544E-1,5.0090113E0,6.735087E0,2.9284668E0,3.0207143E0,5.7974443E0,3.6787624E0,0E0,0E0,2.7808094E-1,4.5787697E0,5.512472E0,2.208993E0,2.325379E0,1.2186356E0,0E0,0E0,2.764674E0,0E0,3.5169678E0,0E0,0E0,0E0,3.1063087E0,3.1640623E0,0E0,2.9023755E0,0E0,1.2666676E0,0E0,0E0,2.0071793E0,9.803848E-1,0E0,0E0,3.0448875E0,0E0,0E0,0E0,0E0,0E0,0E0,0E0,0E0,0E0,0E0,0E0,0E0,0E0,0E0,0E0],"parents":[2147483647,0,0,1,1,2,2,3,3,4,4,5,5,6,6,7,7,8,8,9,9,10,10,11,11,12,12,15,15,16,16,17,17,18,18,19,19,20,20,23,23,25,25,29,29,30,30,32,32,34,34,37,37,38,38,41,41],"right_children":[2,4,6,8,10,12,14,16,18,20,22,24,26,-1,-1,28,30,32,34,36,38,-1,-1,40,-1,42,-1,-1,-1,44,46,-1,48,-1,50,-1,-1,52,54,-1,-1,56,-1,-1,-1,-1,-1,-1,-1,-1,-1,-1,-1,-1,-1,-1,-1],"split_conditions":[1.3058327E1,-8.312894E-1,7.9389095E0,-9.400073E-2,1.4912307E1,-7.7063864E-1,-1.7681316E0,-6.397881E0,-1.5975943E-1,-8.597468E-2,-5.314264E-2,1.495841E1,7.9143033E0,3.642551E-2,9.270247E-2,-2.4163656E-1,-2.8233146E-2,1.1955307E-2,-9.179844E-2,2.0822518E-1,-7.583449E0,6.976842E-2,-6.0269117E-2,9.948801E-1,7.719464E-2,3.3962486E0,-4.260726E-2,-8.208304E-2,-2.4792861E-2,-6.443424E-1,1.3789283E0,-7.59589E-2,-1.1917913E-2,8.1883036E-2,7.16198E-1,-5.8171775E-2,3.463491E-2,-2.8994086E-1,2.8861374E1,3.9564896E-2,-6.423266E-2,1.4969165E1,-3.9629754E-2,8.2508616E-2,-2.1907106E-2,-6.8474166E-2,3.8159676E-2,-5.5433452E-2,6.2102217E-2,-4.4523936E-2,4.045939E-2,2.117807E-2,-6.861859E-2,-8.708508E-2,-1.8253164E-2,6.483202E-2,7.8005246E-3],"split_indices":[18,1,0,29,16,11,43,14,37,17,13,16,0,0,0,32,13,42,38,22,0,0,0,4,0,32,0,0,0,34,5,0,28,0,38,0,0,30,0,0,0,16,0,0,0,0,0,0,0,0,0,0,0,0,0,0,0],"split_type":[0,0,0,0,0,0,0,0,0,0,0,0,0,0,0,0,0,0,0,0,0,0,0,0,0,0,0,0,0,0,0,0,0,0,0,0,0,0,0,0,0,0,0,0,0,0,0,0,0,0,0,0,0,0,0,0,0],"sum_hessian":[5.435328E2,2.8759726E2,2.5593555E2,7.8859924E1,2.0873734E2,1.3118802E2,1.24747536E2,4.3971233E1,3.488869E1,2.035733E2,5.164034E0,1.8947256E1,1.1224076E2,3.2116966E0,1.21535835E2,1.9768393E1,2.4202839E1,1.7555408E1,1.7333282E1,9.070594E0,1.945027E2,2.68814E0,2.475894E0,1.4844322E1,4.1029344E0,1.09023285E2,3.2174723E0,1.774679E1,2.0216029E0,1.0049971E1,1.4152868E1,9.066186E0,8.489223E0,1.219988E1,5.133403E0,5.130376E0,3.9402184E0,6.90979E1,1.254048E2,2.4576569E0,1.2386665E1,1.05954384E2,3.068903E0,5.6699796E0,4.379991E0,1.1260911E1,2.8919568E0,2.0504386E0,6.4387836E0,2.1216416E0,3.0117612E0,2.1546986E0,6.694321E1,1.22687256E2,2.7175467E0,9.52582E1,1.0696178E1],"tree_param":{"num_deleted":"0","num_feature":"46","num_nodes":"57","size_leaf_vector":"1"}},{"base_weights":[2.3950003E-3,-5.6758624E-1,6.207629E-1,-7.075799E-2,-7.09824E-1,7.717083E-1,1.2440928E-1,-2.4210085E-1,6.369616E-1,-7.242153E-1,2.377233E-2,8.0186445E-1,3.269833E-1,-1.2412393E-1,4.9334556E-1,4.0443027E-1,-3.512923E-1,1.8913835E-2,7.305099E-2,2.2256335E-3,-7.358109E-1,8.1321883E-1,2.1214357E-2,6.464784E-2,-8.280751E-3,-3.492655E-1,5.102691E-1,-3.7931897E-2,6.79931E-1,-2.0912258E-2,7.40752E-2,-4.219841E-1,2.1022366E-2,-2.2612762E-2,-7.452551E-1,4.2865866E-1,8.3832765E-1,-3.3469003E-2,3.8473595E-2,6.4513505E-2,-4.9748048E-1,-2.4906633E-4,7.235179E-2,-4.7887996E-2,3.6359917E-2,7.8250356E-2,7.339383E-3,-4.7165167E-2,1.664432E-2,-3.501615E-2,-7.5847E-2,7.6412335E-2,-3.7567496E-2,2.8550258E-2,8.4598236E-2,-5.3860196E-3,-6.220078E-2],"categories":[],"categories_nodes":[],"categories_segments":[],"categories_sizes":[],"default_left":[0,0,0,0,0,0,0,0,0,0,0,0,0,0,0,0,0,0,0,0,0,0,0,0,0,0,0,0,0,0,0,0,0,0,0,0,0,0,0,0,0,0,0,0,0,0,0,0,0,0,0,0,0,0,0,0,0],"id":2,"left_children":[1,3,5,7,9,11,13,15,17,19,-1,21,23,25,27,29,31,-1,-1,-1,33,35,-1,-1,37,39,41,43,45,-1,-1,47,-1,-1,49,51,53,-1,-1,-1,55,-1,-1,-1,-1,-1,-1,-1,-1,-1,-1,-1,-1,-1,-1,-1,-1],"loss_changes":[1.4887006E2,1.5481804E1,1.5082306E1,6.2209296E0,2.5007248E0,1.8185959E0,4.5022993E0,3.0366817E0,2.818923E-1,1.4744568E0,0E0,7.9579926E-1,1.241589E0,4.4256763E0,1.9782171E0,1.473318E0,1.5023723E0,0E0,0E0,0E0,6.300583E-1,1.0072021E0,0E0,0E0,9.778765E-1,3.6433575E0,8.979752E-1,1.2482156E0,8.527236E-1,0E0,0E0,1.0126686E0,0E0,0E0,5.825958E-1,3.1797624E0,3.1624603E-1,0E0,0E0,0E0,1.081461E0,0E0,0E0,0E0,0E0,0E0,0E0,0E0,0E0,0E0,0E0,0E0,0E0,0E0,0E0,0E0,0E0],"parents":[2147483647,0,0,1,1,2,2,3,3,4,4,5,5,6,6,7,7,8,8,9,9,11,11,12,12,13,13,14,14,15,15,16,16,20,20,21,21,24,24,25,25,26,26,27,27,28,28,31,31,34,34,35,35,36,36,40,40],"right_children":[2,4,6,8,10,12,14,16,18,20,-1,22,24,26,28,30,32,-1,-1,-1,34,36,-1,-1,38,40,42,44,46,-1,-1,48,-1,-1,50,52,54,-1,-1,-1,56,-1,-1,-1,-1,-1,-1,-1,-1,-1,-1,-1,-1,-1,-1,-1,-1],"split_conditions":[1.2725606E1,-8.9976E-1,4.8648223E-1,1.3789283E0,2.3641949E0,-3.846217E-1,4.4611442E-1,-1.4143753E0,-3.1540584E-2,-1.0417198E-1,2.377233E-2,1.3212304E0,-3.4308188E-2,1.2911591E1,6.391164E-1,-8.523724E-1,2.2858093E0,1.8913835E-2,7.305099E-2,2.2256335E-3,-1.1782022E0,-5.0129104E-1,2.1214357E-2,6.464784E-2,-6.662629E-1,-6.813773E-2,-9.879275E-3,3.7275385E-2,1.3865252E-1,-2.0912258E-2,7.40752E-2,1.7850491E0,2.1022366E-2,-2.2612762E-2,-3.063971E-1,-2.0042795E-1,-1.6891959E0,-3.3469003E-2,3.8473595E-2,6.4513505E-2,-8.5601825E-1,-2.4906633E-4,7.235179E-2,-4.7887996E-2,3.6359917E-2,7.8250356E-2,7.339383E-3,-4.7165167E-2,1.664432E-2,-3.501615E-2,-7.5847E-2,7.6412335E-2,-3.7567496E-2,2.8550258E-2,8.4598236E-2,-5.3860196E-3,-6.220078E-2],"split_indices":[14,20,5,5,40,3,3,9,39,26,0,34,39,14,23,29,40,0,0,0,36,41,0,0,11,39,25,10,12,0,0,33,0,0,30,31,43,0,0,0,29,0,0,0,0,0,0,0,0,0,0,0,0,0,0,0,0],"split_type":[0,0,0,0,0,0,0,0,0,0,0,0,0,0,0,0,0,0,0,0,0,0,0,0,0,0,0,0,0,0,0,0,0,0,0,0,0,0,0,0,0,0,0,0,0,0,0,0,0,0,0,0,0,0,0,0,0],"sum_hessian":[4.203769E2,2.1878954E2,2.0158736E2,4.902957E1,1.6975996E2,1.5415326E2,4.7434097E1,4.0002625E1,9.026945E0,1.674524E2,2.307565E0,1.4361209E2,1.0541178E1,2.8738216E1,1.869588E1,5.389156E0,3.4613472E1,2.082012E0,6.944933E0,2.5473223E0,1.6490508E2,1.405274E2,3.0846765E0,4.922213E0,5.6189647E0,2.1542416E1,7.1958003E0,5.0664725E0,1.3629408E1,2.0420477E0,3.347108E0,3.096379E1,3.6496804E0,3.453819E0,1.6145126E2,9.720635E0,1.3080678E2,3.1506696E0,2.468295E0,2.3594892E0,1.9182926E1,2.4039025E0,4.791898E0,2.322903E0,2.7435696E0,1.1409767E1,2.2196412E0,2.873666E1,2.227131E0,6.1153135E0,1.5533594E2,6.894943E0,2.8256924E0,2.3095324E0,1.2849724E2,4.51852E0,1.4664407E1],"tree_param":{"num_deleted":"0","num_feature":"46","num_nodes":"57","size_leaf_vector":"1"}},{"base_weights":[1.4794859E-2,-5.292142E-1,6.1848944E-1,-6.4618367E-1,-3.324568E-2,3.592516E-1,7.965539E-1,-7.246449E-1,-4.7378996E-1,-2.9287037E-1,2.3703548E-1,6.1230183E-2,4.9225107E-1,8.0648005E-2,2.7758298E-2,-1.4153698E-2,-7.373459E-1,-7.1376994E-2,-5.516662E-1,1.6369861E-1,-4.690202E-1,-2.8873777E-1,4.099624E-1,-1.578424E-1,4.7279683E-1,5.3924596E-1,-4.063318E-2,-2.2672603E-2,-7.477861E-2,-5.0738353E-2,3.416403E-1,6.759926E-3,-5.985219E-1,5.9337974E-2,-1.7448802E-2,-6.060499E-2,-1.2914787E-1,1.6875368E-3,-4.7376093E-2,-1.3188566E-2,5.5006427E-1,-4.0691164E-1,2.3985428E-1,4.344338E-3,7.019116E-2,6.0263526E-1,-1.08323015E-1,5.3849876E-2,1.6278636E-3,-6.294929E-2,-1.0299313E-2,1.2323347E-2,-3.5551634E-2,6.439163E-3,6.9967076E-2,5.4459376E-3,-5.450664E-2,-1.9885255E-2,6.373236E-2,5.4543675E-3,6.561588E-2,1.5706128E-2,-3.5030853E-2],"categories":[],"categories_nodes":[],"categories_segments":[],"categories_sizes":[],"default_left":[0,0,0,0,0,0,0,0,0,0,0,0,0,0,0,0,0,0,0,0,0,0,0,0,0,0,0,0,0,0,0,0,0,0,0,0,0,0,0,0,0,0,0,0,0,0,0,0,0,0,0,0,0,0,0,0,0,0,0,0,0,0,0],"id":3,"left_children":[1,3,5,7,9,11,13,15,17,19,21,23,25,-1,-1,-1,27,29,31,33,35,37,39,41,43,45,-1,-1,-1,-1,47,-1,49,-1,-1,-1,51,-1,-1,-1,53,55,57,-1,-1,59,61,-1,-1,-1,-1,-1,-1,-1,-1,-1,-1,-1,-1,-1,-1,-1,-1],"loss_changes":[1.2349737E2,1.1454254E1,7.941162E0,1.8209915E0,2.792336E0,2.9186344E0,3.16185E-1,6.960335E-1,1.6195402E0,1.7045143E0,1.8971671E0,2.247379E0,2.3853264E0,0E0,0E0,0E0,3.930397E-1,1.9258318E0,1.3230782E0,1.0300391E0,6.13956E-1,3.149737E-1,1.2215364E0,1.7296662E0,8.176147E-1,2.0839558E0,0E0,0E0,0E0,0E0,3.4961236E-1,0E0,5.6740093E-1,0E0,0E0,0E0,3.6040646E-1,0E0,0E0,0E0,8.428035E-1,6.9910586E-1,1.3428516E0,0E0,0E0,1.2827072E0,3.9103428E-1,0E0,0E0,0E0,0E0,0E0,0E0,0E0,0E0,0E0,0E0,0E0,0E0,0E0,0E0,0E0,0E0],"parents":[2147483647,0,0,1,1,2,2,3,3,4,4,5,5,6,6,7,7,8,8,9,9,10,10,11,11,12,12,16,16,17,17,18,18,19,19,20,20,21,21,22,22,23,23,24,24,25,25,30,30,32,32,36,36,40,40,41,41,42,42,45,45,46,46],"right_children":[2,4,6,8,10,12,14,16,18,20,22,24,26,-1,-1,-1,28,30,32,34,36,38,40,42,44,46,-1,-1,-1,-1,48,-1,50,-1,-1,-1,52,-1,-1,-1,54,56,58,-1,-1,60,62,-1,-1,-1,-1,-1,-1,-1,-1,-1,-1,-1,-1,-1,-1,-1,-1],"split_conditions":[1.30174675E1,1.8056903E0,2.7452443E0,-2.7614734E-1,-6.7078967E0,-2.1633517E-2,-1.7785178E-1,-9.173081E-2,-1.470294E-1,-4.104726E-2,-4.5320132E-1,9.2844504E-1,1.2523873E0,8.0648005E-2,2.7758298E-2,-1.4153698E-2,-1.3119549E0,5.796548E-1,-1.6456345E0,-6.7761035E0,5.76815E-1,1.9104445E0,-9.012147E-1,-6.6562193E-3,1.3140291E1,5.373233E-2,-4.063318E-2,-2.2672603E-2,-7.477861E-2,-5.0738353E-2,-2.186228E-2,6.759926E-3,2.3138568E0,5.9337974E-2,-1.7448802E-2,-6.060499E-2,-4.5152227E-3,1.6875368E-3,-4.7376093E-2,-1.3188566E-2,-4.4393618E-2,-2.5067106E-1,7.312675E-1,4.344338E-3,7.019116E-2,-5.662324E-2,-8.3449787E-1,5.3849876E-2,1.6278636E-3,-6.294929E-2,-1.0299313E-2,1.2323347E-2,-3.5551634E-2,6.439163E-3,6.9967076E-2,5.4459376E-3,-5.450664E-2,-1.9885255E-2,6.373236E-2,5.4543675E-3,6.561588E-2,1.5706128E-2,-3.5030853E-2],"split_indices":[18,2,0,2,16,27,24,10,3,27,41,35,22,0,0,0,35,44,8,16,8,2,29,13,18,19,0,0,0,0,19,0,41,0,0,0,39,0,0,0,13,30,22,0,0,25,35,0,0,0,0,0,0,0,0,0,0,0,0,0,0,0,0],"split_type":[0,0,0,0,0,0,0,0,0,0,0,0,0,0,0,0,0,0,0,0,0,0,0,0,0,0,0,0,0,0,0,0,0,0,0,0,0,0,0,0,0,0,0,0,0,0,0,0,0,0,0,0,0,0,0,0,0,0,0,0,0,0,0],"sum_hessian":[3.7404352E2,1.9681259E2,1.7723093E2,1.5900897E2,3.7803627E1,7.3395096E1,1.0383584E2,1.07073425E2,5.1935547E1,1.9239302E1,1.8564325E1,2.3098045E1,5.029705E1,1.0134349E2,2.492346E0,2.5413854E0,1.0453204E2,8.731822E0,4.3203724E1,5.3759274E0,1.3863374E1,4.4288816E0,1.4135443E1,1.5476534E1,7.621512E0,4.8177322E1,2.1197276E0,2.549598E0,1.01982445E2,4.1365476E0,4.5952744E0,3.0078552E0,4.019587E1,2.0353422E0,3.3405852E0,9.32183E0,4.541544E0,2.012883E0,2.415999E0,2.9160767E0,1.1219366E1,9.502281E0,5.9742537E0,3.0658407E0,4.555671E0,4.3945015E1,4.2323065E0,2.4548826E0,2.1403918E0,3.757693E1,2.6189387E0,2.3628154E0,2.1787288E0,2.978986E0,8.24038E0,2.329309E0,7.1729717E0,3.0773413E0,2.8969123E0,4.0892544E0,3.9855762E1,2.1859422E0,2.046364E0],"tree_param":{"num_deleted":"0","num_feature":"46","num_nodes":"63","size_leaf_vector":"1"}},{"base_weights":[-9.538305E-3,-5.0720954E-1,5.659598E-1,-5.9188795E-1,1.8198447E-2,1.6724306E-1,6.8863696E-1,-6.0693306E-1,1.078487E-3,-1.9366793E-1,3.7719834E-1,-6.4788237E-3,4.6077618E-1,-4.211317E-3,7.072829E-1,-6.1715406E-1,4.0485724E-3,-3.5622033E-1,2.4428745E-1,4.9662605E-2,6.660434E-2,1.4567256E-1,-3.9701462E-1,5.890062E-1,-6.43561E-3,5.87358E-1,7.722505E-2,-4.790464E-1,-6.803793E-1,6.677985E-3,-4.7532263E-1,-6.4464486E-3,4.712825E-2,4.209335E-2,-3.4510147E-2,3.1252214E-1,-2.7393275E-1,-5.206261E-2,-1.0173491E-2,2.1574114E-2,6.8159014E-2,-8.560619E-3,6.2537867E-1,-7.925964E-3,-5.2514445E-2,-2.5241746E-2,-6.9629095E-2,-1.3566248E-2,-5.8612872E-2,-6.0400446E-3,4.9987745E-2,-5.314671E-3,-3.995881E-2,6.888764E-2,3.8172834E-2],"categories":[],"categories_nodes":[],"categories_segments":[],"categories_sizes":[],"default_left":[0,0,0,0,0,0,0,0,0,0,0,0,0,0,0,0,0,0,0,0,0,0,0,0,0,0,0,0,0,0,0,0,0,0,0,0,0,0,0,0,0,0,0,0,0,0,0,0,0,0,0,0,0,0,0],"id":4,"left_children":[1,3,5,7,9,11,13,15,-1,17,19,21,23,-1,25,27,-1,29,31,33,-1,35,37,39,-1,41,-1,43,45,-1,47,-1,-1,-1,-1,49,51,-1,-1,-1,-1,-1,53,-1,-1,-1,-1,-1,-1,-1,-1,-1,-1,-1,-1],"loss_changes":[9.276613E1,7.7379837E0,7.2321396E0,1.3630562E0,1.9803854E0,1.8725613E0,1.5905533E0,9.90963E-1,0E0,1.256733E0,8.7950265E-1,1.4850146E0,9.567292E-1,0E0,4.1710663E-1,9.294586E-1,0E0,6.5594614E-1,3.836697E-1,9.66147E-1,0E0,1.346923E0,2.0261967E-1,2.3535824E-1,0E0,1.1651325E0,0E0,8.527241E-1,4.7961807E-1,0E0,2.8898025E-1,0E0,0E0,0E0,0E0,9.634615E-1,1.3574752E-1,0E0,0E0,0E0,0E0,0E0,3.751011E-1,0E0,0E0,0E0,0E0,0E0,0E0,0E0,0E0,0E0,0E0,0E0,0E0],"parents":[2147483647,0,0,1,1,2,2,3,3,4,4,5,5,6,6,7,7,9,9,10,10,11,11,12,12,14,14,15,15,17,17,18,18,19,19,21,21,22,22,23,23,25,25,27,27,28,28,30,30,35,35,36,36,42,42],"right_children":[2,4,6,8,10,12,14,16,-1,18,20,22,24,-1,26,28,-1,30,32,34,-1,36,38,40,-1,42,-1,44,46,-1,48,-1,-1,-1,-1,50,52,-1,-1,-1,-1,-1,54,-1,-1,-1,-1,-1,-1,-1,-1,-1,-1,-1,-1],"split_conditions":[1.2725606E1,1.8175417E0,-2.3461822E-1,2.3449595E0,-1.4640541E0,1.800706E-2,-9.219332E-2,1.1487209E-1,1.078487E-3,1.5067858E0,-1.8054668E1,2.6570559E-2,1.5522289E0,-4.211317E-3,7.9389095E0,-2.526318E0,4.0485724E-3,-4.7202432E-1,1.2599354E0,8.395966E-1,6.660434E-2,4.6255094E-1,6.4699336E-5,-6.436018E-1,-6.43561E-3,-7.230106E-2,7.722505E-2,2.5971964E-1,-8.9056075E-2,6.677985E-3,-3.0076557E-1,-6.4464486E-3,4.712825E-2,4.209335E-2,-3.4510147E-2,-2.0458339E-1,-4.257216E-1,-5.206261E-2,-1.0173491E-2,2.1574114E-2,6.8159014E-2,-8.560619E-3,1.2888603E1,-7.925964E-3,-5.2514445E-2,-2.5241746E-2,-6.9629095E-2,-1.3566248E-2,-5.8612872E-2,-6.0400446E-3,4.9987745E-2,-5.314671E-3,-3.995881E-2,6.888764E-2,3.8172834E-2],"split_indices":[14,3,1,40,1,7,26,19,0,24,0,19,36,0,0,0,0,41,11,22,0,8,42,38,0,7,0,24,26,0,32,0,0,0,0,31,6,0,0,0,0,0,14,0,0,0,0,0,0,0,0,0,0,0,0],"split_type":[0,0,0,0,0,0,0,0,0,0,0,0,0,0,0,0,0,0,0,0,0,0,0,0,0,0,0,0,0,0,0,0,0,0,0,0,0,0,0,0,0,0,0,0,0,0,0,0,0,0,0,0,0,0,0],"sum_hessian":[3.218918E2,1.7268144E2,1.4921039E2,1.4860474E2,2.40767E1,3.5663292E1,1.1354709E2,1.4497842E2,3.626314E0,1.5430697E1,8.646003E0,2.3018291E1,1.2645E1,2.793886E0,1.10753204E2,1.427712E2,2.2072203E0,1.1389848E1,4.04085E0,4.600829E0,4.0451736E0,1.7015936E1,6.002356E0,1.0065509E1,2.5794919E0,4.2444645E1,6.8308556E1,4.752833E1,9.5242874E1,2.5989175E0,8.790931E0,2.0154727E0,2.0253773E0,2.3368027E0,2.2640266E0,1.2357404E1,4.658531E0,3.6931496E0,2.3092067E0,2.6622996E0,7.403209E0,2.202844E0,4.0241802E1,5.194886E0,4.2333447E1,4.0187225E0,9.122415E1,2.7095418E0,6.0813885E0,4.3588724E0,7.9985313E0,2.2057738E0,2.4527571E0,3.0472925E1,9.768875E0],"tree_param":{"num_deleted":"0","num_feature":"46","num_nodes":"55","size_leaf_vector":"1"}},{"base_weights":[2.1519301E-2,-4.7026864E-1,5.587059E-1,-5.0310872E-2,-5.740566E-1,6.770894E-1,1.5089099E-1,-4.4623774E-1,1.0042817E-1,-3.875461E-1,-6.445971E-1,5.207727E-1,7.383277E-2,2.8993973E-1,-1.2144356E-1,-8.836404E-3,-6.1196733E-2,4.4913498E-1,-8.467991E-2,-4.857754E-1,-8.6920924E-2,-2.095263E-2,-6.5320647E-1,5.7290715E-1,-3.0682335E-4,-2.5735503E-2,3.5997912E-1,-2.801452E-1,3.3565205E-2,3.630859E-4,5.8635022E-2,-2.0046663E-1,4.645192E-2,-5.4571176E-1,-1.5954085E-1,-4.3140583E-2,3.2656667E-1,-6.6160434E-1,-2.2925634E-2,2.2277838E-2,6.19733E-1,6.0777705E-2,2.0670822E-1,-4.392245E-2,-1.0805341E-1,7.890916E-3,-3.8853716E-2,-5.87486E-2,-7.673457E-3,-3.765432E-2,1.5546069E-2,-3.535298E-4,5.7214376E-2,-3.5537038E-2,-6.759055E-2,6.723665E-2,2.238746E-2,-1.8297989E-2,3.1995904E-2,7.1824677E-3,-2.5443135E-2],"categories":[],"categories_nodes":[],"categories_segments":[],"categories_sizes":[],"default_left":[0,0,0,0,0,0,0,0,0,0,0,0,0,0,0,0,0,0,0,0,0,0,0,0,0,0,0,0,0,0,0,0,0,0,0,0,0,0,0,0,0,0,0,0,0,0,0,0,0,0,0,0,0,0,0,0,0,0,0,0,0],"id":5,"left_children":[1,3,5,7,9,11,13,15,17,19,21,23,-1,25,27,-1,-1,29,31,33,35,-1,37,39,-1,-1,41,43,-1,-1,-1,45,-1,47,49,-1,51,53,-1,-1,55,-1,57,-1,59,-1,-1,-1,-1,-1,-1,-1,-1,-1,-1,-1,-1,-1,-1,-1,-1],"loss_changes":[8.038995E1,6.896393E0,6.9183807E0,1.9893365E0,1.4250641E0,6.916008E-1,1.3228159E0,4.89671E-1,1.6139016E0,1.0634651E0,2.0347977E-1,9.586191E-1,0E0,9.6680295E-1,9.788808E-1,0E0,0E0,5.250834E-1,1.1607506E0,4.6049643E-1,1.6278521E0,0E0,1.6385269E-1,3.8446045E-1,0E0,0E0,6.5806746E-1,2.1533221E-1,0E0,0E0,0E0,7.9591185E-1,0E0,4.10295E-1,4.5223147E-1,0E0,4.3277293E-1,1.380806E-1,0E0,0E0,4.2348957E-1,0E0,6.8806285E-1,0E0,1.7460528E-1,0E0,0E0,0E0,0E0,0E0,0E0,0E0,0E0,0E0,0E0,0E0,0E0,0E0,0E0,0E0,0E0],"parents":[2147483647,0,0,1,1,2,2,3,3,4,4,5,5,6,6,7,7,8,8,9,9,10,10,11,11,13,13,14,14,17,17,18,18,19,19,20,20,22,22,23,23,26,26,27,27,31,31,33,33,34,34,36,36,37,37,40,40,42,42,44,44],"right_children":[2,4,6,8,10,12,14,16,18,20,22,24,-1,26,28,-1,-1,30,32,34,36,-1,38,40,-1,-1,42,44,-1,-1,-1,46,-1,48,50,-1,52,54,-1,-1,56,-1,58,-1,60,-1,-1,-1,-1,-1,-1,-1,-1,-1,-1,-1,-1,-1,-1,-1,-1],"split_conditions":[1.2725606E1,-8.9976E-1,4.1583496E-1,-6.4231706E0,-3.903969E-1,1.6465077E0,4.7214827E-1,-2.4157006E-2,-7.9162174E-1,8.8412315E-1,-7.489366E-1,1.8345033E-1,7.383277E-2,-6.752437E-2,-2.2061664E-1,-8.836404E-3,-6.1196733E-2,-6.6926914E-1,1.4129269E0,-4.8540503E-1,2.6389187E-2,-2.095263E-2,-6.573504E0,-2.3243979E-1,-3.0682335E-4,-2.5735503E-2,6.3394666E-2,1.0530549E0,3.3565205E-2,3.630859E-4,5.8635022E-2,-1.6640157E-2,4.645192E-2,6.649E-2,1.38042355E-2,-4.3140583E-2,-6.3059855E-1,-9.403959E-2,-2.2925634E-2,2.2277838E-2,-3.822739E-1,6.0777705E-2,-3.3501238E-1,-4.392245E-2,3.4565476E-1,7.890916E-3,-3.8853716E-2,-5.87486E-2,-7.673457E-3,-3.765432E-2,1.5546069E-2,-3.535298E-4,5.7214376E-2,-3.5537038E-2,-6.759055E-2,6.723665E-2,2.238746E-2,-1.8297989E-2,3.1995904E-2,7.1824677E-3,-2.5443135E-2],"split_indices":[14,20,24,14,20,4,35,28,8,9,15,20,0,13,32,0,0,15,35,20,42,0,18,31,0,0,12,35,0,0,0,7,0,45,27,0,4,7,0,0,41,0,32,0,34,0,0,0,0,0,0,0,0,0,0,0,0,0,0,0,0],"split_type":[0,0,0,0,0,0,0,0,0,0,0,0,0,0,0,0,0,0,0,0,0,0,0,0,0,0,0,0,0,0,0,0,0,0,0,0,0,0,0,0,0,0,0,0,0,0,0,0,0,0,0,0,0,0,0,0,0,0,0,0,0],"sum_hessian":[3.0230316E2,1.5788547E2,1.4441768E2,3.1581573E1,1.26303894E2,1.1141504E2,3.3002647E1,8.167836E0,2.3413738E1,3.644266E1,8.986124E1,3.4036816E1,7.737823E1,2.1804863E1,1.1197784E1,3.0705414E0,5.0972943E0,7.62445E0,1.5789288E1,2.700341E1,9.439252E0,2.2353623E0,8.762587E1,3.0870785E1,3.1660302E0,2.1704352E0,1.9634428E1,8.599273E0,2.5985117E0,2.037064E0,5.587386E0,1.3564492E1,2.2247956E0,2.2243954E1,4.759455E0,5.1256413E0,4.31361E0,8.537416E1,2.2517147E0,4.320782E0,2.6550003E1,6.3701787E0,1.3264249E1,3.6619487E0,4.9373245E0,5.691012E0,7.87348E0,2.01926E1,2.0513532E0,2.7024126E0,2.0570426E0,2.2605746E0,2.0530355E0,4.9623833E0,8.041177E1,2.2817654E1,3.7323477E0,2.8481743E0,1.0416075E1,2.44369E0,2.4936342E0],"tree_param":{"num_deleted":"0","num_feature":"46","num_nodes":"61","size_leaf_vector":"1"}},{"base_weights":[-1.4972079E-2,-4.6604574E-1,5.332284E-1,-5.0871074E-3,-5.5295134E-1,6.381216E-1,1.8056442E-1,-2.3429821E-1,2.630834E-1,-3.75367E-1,-6.282894E-1,7.0305765E-2,4.798097E-1,8.542847E-3,4.4359413E-1,9.190782E-3,-3.4249315E-1,6.108592E-2,2.4064152E-2,-4.142758E-2,-4.307437E-1,-8.78106E-3,-6.414998E-2,2.3125206E-1,6.756851E-2,-3.0491663E-2,1.6587351E-1,1.2186884E-2,5.883295E-2,-4.0461435E-3,-4.2801213E-2,3.2554753E-2,-3.5992425E-2,3.644066E-2,-3.446467E-2,-1.0239369E-2,-4.6542132E-1,-2.1675518E-2,3.6349586E-1,-1.4266711E-1,3.5676768E-1,-3.0151514E-2,-5.4824453E-2,-7.2814384E-3,4.9027678E-2,-3.6258534E-2,1.2106991E-2,5.286398E-2,-5.1970696E-3],"categories":[],"categories_nodes":[],"categories_segments":[],"categories_sizes":[],"default_left":[0,0,0,0,0,0,0,0,0,0,0,0,0,0,0,0,0,0,0,0,0,0,0,0,0,0,0,0,0,0,0,0,0,0,0,0,0,0,0,0,0,0,0,0,0,0,0,0,0],"id":6,"left_children":[1,3,5,7,9,11,13,15,17,19,21,-1,23,25,27,-1,29,-1,31,33,35,-1,-1,37,-1,-1,39,-1,-1,-1,-1,-1,-1,-1,-1,-1,41,-1,43,45,47,-1,-1,-1,-1,-1,-1,-1,-1],"loss_changes":[6.48344E1,5.75861E0,4.2633934E0,1.5259793E0,1.3829651E0,5.964813E-1,1.2870848E0,5.034768E-1,9.370421E-1,6.9458914E-1,5.396538E-1,0E0,1.283443E0,9.515215E-1,4.5267582E-1,0E0,2.4754E-1,0E0,1.0232496E0,9.3608356E-1,3.2740307E-1,0E0,0E0,9.410064E-1,0E0,0E0,8.054567E-1,0E0,0E0,0E0,0E0,0E0,0E0,0E0,0E0,0E0,2.3531199E-1,0E0,6.779107E-1,3.6934042E-1,6.035373E-1,0E0,0E0,0E0,0E0,0E0,0E0,0E0,0E0],"parents":[2147483647,0,0,1,1,2,2,3,3,4,4,5,5,6,6,7,7,8,8,9,9,10,10,12,12,13,13,14,14,16,16,18,18,19,19,20,20,23,23,26,26,36,36,38,38,39,39,40,40],"right_children":[2,4,6,8,10,12,14,16,18,20,22,-1,24,26,28,-1,30,-1,32,34,36,-1,-1,38,-1,-1,40,-1,-1,-1,-1,-1,-1,-1,-1,-1,42,-1,44,46,48,-1,-1,-1,-1,-1,-1,-1,-1],"split_conditions":[1.30174675E1,-1.1286067E0,4.5296445E-1,-6.6977882E0,-4.4191828E-1,-6.5786606E-1,2.1786911E-2,8.607745E-1,-3.9719993E-1,-9.6076393E-1,-9.173081E-2,7.0305765E-2,9.7941376E-2,-3.869476E-1,1.2884153E0,9.190782E-3,-4.687882E-1,6.108592E-2,8.800195E-3,-4.4575638E-1,-6.1450407E-2,-8.78106E-3,-6.414998E-2,-4.344843E-2,6.756851E-2,-3.0491663E-2,5.8094032E-2,1.2186884E-2,5.883295E-2,-4.0461435E-3,-4.2801213E-2,3.2554753E-2,-3.5992425E-2,3.644066E-2,-3.446467E-2,-1.0239369E-2,-6.7218375E0,-2.1675518E-2,-1.6806645E-2,-5.4715674E-2,1.2159963E-1,-3.0151514E-2,-5.4824453E-2,-7.2814384E-3,4.9027678E-2,-3.6258534E-2,1.2106991E-2,5.286398E-2,-5.1970696E-3],"split_indices":[18,20,24,16,20,2,42,22,38,37,10,0,12,38,15,0,41,0,39,6,42,0,0,45,0,0,10,0,0,0,0,0,0,0,0,0,16,0,17,8,12,0,0,0,0,0,0,0,0],"split_type":[0,0,0,0,0,0,0,0,0,0,0,0,0,0,0,0,0,0,0,0,0,0,0,0,0,0,0,0,0,0,0,0,0,0,0,0,0,0,0,0,0,0,0,0,0,0,0,0,0],"sum_hessian":[2.6018652E2,1.4282019E2,1.1736632E2,2.2822922E1,1.1999727E2,8.983668E1,2.7529638E1,1.237341E1,1.0449512E1,3.7525623E1,8.247165E1,6.126582E1,2.857086E1,1.7268505E1,1.0261133E1,3.1193008E0,9.254109E0,3.6227202E0,6.826792E0,5.5863323E0,3.1939291E1,2.1501355E0,8.032151E1,1.3553123E1,1.5017736E1,5.4573774E0,1.1811129E1,3.7554145E0,6.5057187E0,2.3671293E0,6.8869805E0,3.9094968E0,2.9172947E0,2.302641E0,3.2836914E0,3.428528E0,2.8510763E1,2.943218E0,1.0609906E1,4.611017E0,7.200111E0,1.1128352E1,1.7382412E1,2.484678E0,8.125228E0,2.3100083E0,2.301009E0,4.8622274E0,2.3378835E0],"tree_param":{"num_deleted":"0","num_feature":"46","num_nodes":"49","size_leaf_vector":"1"}},{"base_weights":[-2.4196923E-2,-4.173248E-1,5.2929336E-1,-1.7369114E-2,-5.2536637E-1,6.018166E-1,1.3708402E-1,3.3011082E-1,-1.3527271E-1,-5.6340444E-1,-1.7088574E-1,4.673675E-1,6.938514E-2,3.7138823E-1,-1.0443931E-1,-1.0355296E-2,4.93949E-2,-1.9986957E-1,3.79131E-2,-6.3137375E-2,-4.6291924E-1,-3.5189237E-2,2.0742657E-2,-4.356E-3,4.97673E-1,5.592969E-2,-1.7075032E-2,-2.9182428E-1,2.7332133E-2,2.4081446E-2,-2.9051605E-1,-5.2323246E-1,-2.1229242E-1,5.29725E-1,8.181375E-3,-4.1228067E-2,-2.7301456E-3,-3.6543787E-2,1.0285932E-2,-2.1854559E-2,-5.4583766E-2,-4.4862237E-2,3.8167045E-3,1.2108932E-2,5.598823E-2],"categories":[],"categories_nodes":[],"categories_segments":[],"categories_sizes":[],"default_left":[0,0,0,0,0,0,0,0,0,0,0,0,0,0,0,0,0,0,0,0,0,0,0,0,0,0,0,0,0,0,0,0,0,0,0,0,0,0,0,0,0,0,0,0,0],"id":7,"left_children":[1,3,5,7,9,11,13,15,17,19,21,23,-1,25,27,-1,-1,29,-1,-1,31,-1,-1,-1,33,-1,-1,35,-1,-1,37,39,41,43,-1,-1,-1,-1,-1,-1,-1,-1,-1,-1,-1],"loss_changes":[5.289369E1,6.13122E0,2.7895813E0,1.3251829E0,1.4117832E0,7.2652054E-1,1.0037626E0,6.3442403E-1,8.748199E-1,3.9460182E-1,9.1346395E-1,6.034384E-1,0E0,9.9960613E-1,7.2938424E-1,0E0,0E0,9.495278E-1,0E0,0E0,5.589657E-1,0E0,0E0,0E0,4.3049526E-1,0E0,0E0,1.9961476E-1,0E0,0E0,5.891776E-1,1.22086525E-1,6.2565154E-1,3.3668423E-1,0E0,0E0,0E0,0E0,0E0,0E0,0E0,0E0,0E0,0E0,0E0],"parents":[2147483647,0,0,1,1,2,2,3,3,4,4,5,5,6,6,7,7,8,8,9,9,10,10,11,11,13,13,14,14,17,17,20,20,24,24,27,27,30,30,31,31,32,32,33,33],"right_children":[2,4,6,8,10,12,14,16,18,20,22,24,-1,26,28,-1,-1,30,-1,-1,32,-1,-1,-1,34,-1,-1,36,-1,-1,38,40,42,44,-1,-1,-1,-1,-1,-1,-1,-1,-1,-1,-1],"split_conditions":[1.3058327E1,-8.312894E-1,-1.3776268E-1,-7.9162174E-1,-5.575625E-1,1.7546548E0,-4.323475E-1,-7.7040833E-1,1.4129269E0,-4.165289E-2,8.219648E-1,-7.1531475E-2,6.938514E-2,2.2805972E-2,2.3058144E-2,-1.0355296E-2,4.93949E-2,-5.9070665E-2,3.79131E-2,-6.3137375E-2,-3.4684324E-1,-3.5189237E-2,2.0742657E-2,-4.356E-3,4.6618957E-2,5.592969E-2,-1.7075032E-2,8.1794524E-1,2.7332133E-2,2.4081446E-2,9.520771E-1,-6.973549E-2,-2.8760323E-1,-7.94958E-2,8.181375E-3,-4.1228067E-2,-2.7301456E-3,-3.6543787E-2,1.0285932E-2,-2.1854559E-2,-5.4583766E-2,-4.4862237E-2,3.8167045E-3,1.2108932E-2,5.598823E-2],"split_indices":[18,1,3,8,15,4,40,33,35,22,23,13,0,26,39,0,0,13,0,0,40,0,0,0,13,0,0,9,0,0,29,42,43,27,0,0,0,0,0,0,0,0,0,0,0],"split_type":[0,0,0,0,0,0,0,0,0,0,0,0,0,0,0,0,0,0,0,0,0,0,0,0,0,0,0,0,0,0,0,0,0,0,0,0,0,0,0,0,0,0,0,0,0],"sum_hessian":[2.4107088E2,1.4109866E2,9.997222E1,3.025592E1,1.10842735E2,8.392016E1,1.6052061E1,7.209268E0,2.3046652E1,9.9568954E1,1.1273783E1,3.6572025E1,4.734813E1,7.874875E0,8.177186E0,2.077715E0,5.131553E0,2.1018661E1,2.02799E0,5.6242588E1,4.3326366E1,7.6726003E0,3.6011822E0,2.0233028E0,3.4548725E1,5.824438E0,2.050437E0,5.6179423E0,2.559244E0,3.3032162E0,1.7715446E1,3.404561E1,9.280755E0,3.1822243E1,2.7264807E0,3.4763336E0,2.1416087E0,1.4940849E1,2.7745967E0,3.088244E0,3.0957365E1,4.367987E0,4.9127674E0,2.531762E0,2.9290482E1],"tree_param":{"num_deleted":"0","num_feature":"46","num_nodes":"45","size_leaf_vector":"1"}},{"base_weights":[5.2726856E-3,-4.24843E-1,5.089856E-1,-1.8183841E-1,-5.803055E-1,6.12008E-1,1.250155E-1,-2.858144E-1,5.612297E-2,-1.8344194E-2,-5.9252758E-2,6.21875E-1,1.640971E-2,-4.427319E-2,3.6972383E-1,-8.793978E-3,-3.600813E-1,1.8048179E-1,-4.2178657E-2,6.791544E-2,5.1001066E-1,-1.6147304E-1,2.186088E-2,9.44246E-3,5.3535204E-2,-2.4761481E-2,1.5048242E-1,-4.235794E-1,4.324797E-3,-1.4063186E-2,3.2876414E-1,5.711531E-1,1.5842985E-1,1.0848078E-2,-2.6423445E-1,-8.186924E-3,3.4079056E-2,6.210744E-3,-4.7531318E-2,5.0030258E-2,-5.847021E-3,6.337691E-2,3.559042E-2,-4.98029E-3,3.451344E-2,-3.4572475E-2,-3.6802217E-3],"categories":[],"categories_nodes":[],"categories_segments":[],"categories_sizes":[],"default_left":[0,0,0,0,0,0,0,0,0,0,0,0,0,0,0,0,0,0,0,0,0,0,0,0,0,0,0,0,0,0,0,0,0,0,0,0,0,0,0,0,0,0,0,0,0,0,0],"id":8,"left_children":[1,3,5,7,9,11,13,15,17,-1,-1,19,-1,21,23,25,27,29,-1,-1,31,33,-1,-1,-1,-1,35,37,-1,-1,39,41,43,-1,45,-1,-1,-1,-1,-1,-1,-1,-1,-1,-1,-1,-1],"loss_changes":[4.9031944E1,4.5064907E0,4.046726E0,1.2305567E0,2.5021744E-1,2.6002884E-1,9.819019E-1,7.030082E-1,1.0129021E0,0E0,0E0,1.6495895E-1,0E0,4.8726764E-1,3.888967E-1,3.5228586E-1,7.109046E-1,6.751307E-1,0E0,0E0,5.767603E-1,3.2608402E-1,0E0,0E0,0E0,0E0,2.7509198E-1,6.189141E-1,0E0,0E0,6.493393E-1,1.2564373E-1,2.4976552E-1,0E0,1.3659066E-1,0E0,0E0,0E0,0E0,0E0,0E0,0E0,0E0,0E0,0E0,0E0,0E0],"parents":[2147483647,0,0,1,1,2,2,3,3,4,4,5,5,6,6,7,7,8,8,11,11,13,13,14,14,15,15,16,16,17,17,20,20,21,21,26,26,27,27,30,30,31,31,32,32,34,34],"right_children":[2,4,6,8,10,12,14,16,18,-1,-1,20,-1,22,24,26,28,30,-1,-1,32,34,-1,-1,-1,-1,36,38,-1,-1,40,42,44,-1,46,-1,-1,-1,-1,-1,-1,-1,-1,-1,-1,-1,-1],"split_conditions":[1.30174675E1,-7.647453E0,5.054097E-1,1.888449E0,-9.962497E-2,7.486607E-2,1.7270776E-2,-1.5000798E-1,5.907287E-1,-1.8344194E-2,-5.9252758E-2,-6.520616E-1,1.640971E-2,1.4470817E-2,1.3042637E0,1.9717629E-3,-6.587123E0,-7.7684706E-1,-4.2178657E-2,6.791544E-2,-1.6789824E-1,-1.594718E-2,2.186088E-2,9.44246E-3,5.3535204E-2,-2.4761481E-2,-6.318283E-1,-4.7735963E-2,4.324797E-3,-1.4063186E-2,-7.037374E-1,1.2880589E1,1.8455459E-2,1.0848078E-2,1.309759E1,-8.186924E-3,3.4079056E-2,6.210744E-3,-4.7531318E-2,5.0030258E-2,-5.847021E-3,6.337691E-2,3.559042E-2,-4.98029E-3,3.451344E-2,-3.4572475E-2,-3.6802217E-3],"split_indices":[18,0,24,2,26,13,42,2,37,0,0,24,0,27,15,28,18,33,0,0,31,17,0,0,0,0,4,13,0,0,11,14,45,0,18,0,0,0,0,0,0,0,0,0,0,0,0],"split_type":[0,0,0,0,0,0,0,0,0,0,0,0,0,0,0,0,0,0,0,0,0,0,0,0,0,0,0,0,0,0,0,0,0,0,0,0,0,0,0,0,0,0,0,0,0,0,0],"sum_hessian":[2.2431558E2,1.2108166E2,1.0323392E2,4.808668E1,7.299498E1,8.09267E1,2.2307219E1,3.332458E1,1.4762099E1,2.659124E0,7.033585E1,7.8802376E1,2.1243207E0,1.3669657E1,8.637561E0,7.2817144E0,2.6042866E1,1.2207807E1,2.5542924E0,4.8762573E1,3.0039804E1,9.721368E0,3.9482887E0,3.834365E0,4.803196E0,2.6914701E0,4.5902443E0,2.2457123E1,3.5857434E0,3.8727486E0,8.335058E0,2.5057583E1,4.982222E0,2.6649358E0,7.0564322E0,2.3233812E0,2.266863E0,2.1424904E0,2.0314632E1,5.5739164E0,2.7611415E0,1.7904732E1,7.152851E0,2.701961E0,2.280261E0,4.812105E0,2.2443273E0],"tree_param":{"num_deleted":"0","num_feature":"46","num_nodes":"47","size_leaf_vector":"1"}},{"base_weights":[-1.7027836E-2,-4.170812E-1,4.6045676E-1,-5.9973E-2,-5.094469E-1,5.724227E-1,6.76962E-2,2.5735822E-1,-2.1546416E-1,-2.3867195E-3,-5.2509797E-1,4.411233E-1,6.619797E-2,1.9045192E-1,-1.6943322E-1,-7.864201E-3,4.3830972E-2,-3.2853806E-1,9.728802E-2,-2.9748514E-1,-5.468034E-1,5.019474E-1,1.440145E-1,3.4855247E-1,-3.3561278E-3,-3.306424E-2,-9.1255334E-4,6.9457735E-3,-4.1489247E-2,3.7361443E-2,-1.9878898E-2,-4.413438E-2,-3.8880818E-3,-1.586719E-2,-5.5903167E-2,5.365042E-1,1.1806323E-2,5.0991934E-2,-1.842381E-2,3.078257E-3,4.5614906E-2,-2.2796756E-2,1.5115997E-1,5.7768818E-2,2.5753662E-2,2.7307633E-2,-1.7451087E-3],"categories":[],"categories_nodes":[],"categories_segments":[],"categories_sizes":[],"default_left":[0,0,0,0,0,0,0,0,0,0,0,0,0,0,0,0,0,0,0,0,0,0,0,0,0,0,0,0,0,0,0,0,0,0,0,0,0,0,0,0,0,0,0,0,0,0,0],"id":9,"left_children":[1,3,5,7,9,11,13,15,17,-1,19,21,-1,23,25,-1,-1,27,29,31,33,35,37,39,41,-1,-1,-1,-1,-1,-1,-1,-1,-1,-1,43,-1,-1,-1,-1,-1,-1,45,-1,-1,-1,-1],"loss_changes":[3.8493393E1,3.585411E0,4.001932E0,1.2229521E0,6.483879E-1,5.4717445E-1,6.586145E-1,5.3527033E-1,6.1279744E-1,0E0,2.533245E-1,5.048499E-1,0E0,4.5001936E-1,2.0033334E-1,0E0,0E0,4.5126152E-1,4.942104E-1,3.3714628E-1,2.704792E-1,2.8299236E-1,9.142179E-1,2.6211917E-1,2.9723915E-1,0E0,0E0,0E0,0E0,0E0,0E0,0E0,0E0,0E0,0E0,1.2315607E-1,0E0,0E0,0E0,0E0,0E0,0E0,1.0933652E-1,0E0,0E0,0E0,0E0],"parents":[2147483647,0,0,1,1,2,2,3,3,4,4,5,5,6,6,7,7,8,8,10,10,11,11,13,13,14,14,17,17,18,18,19,19,20,20,21,21,22,22,23,23,24,24,35,35,42,42],"right_children":[2,4,6,8,10,12,14,16,18,-1,20,22,-1,24,26,-1,-1,28,30,32,34,36,38,40,42,-1,-1,-1,-1,-1,-1,-1,-1,-1,-1,44,-1,-1,-1,-1,-1,-1,46,-1,-1,-1,-1],"split_conditions":[1.2725606E1,-8.9976E-1,5.054097E-1,-7.6196074E-1,-9.962497E-2,8.1586224E-1,4.7214827E-1,1.0955667E0,3.481974E-2,-2.3867195E-3,-1.6456345E0,1.4822717E0,6.619797E-2,-4.1414303E-1,1.0530549E0,-7.864201E-3,4.3830972E-2,-1.543066E0,-3.134385E-2,3.6347415E-3,-9.403959E-2,5.8707643E-2,-8.901459E-1,-3.3327702E-2,-2.0789337E-1,-3.306424E-2,-9.1255334E-4,6.9457735E-3,-4.1489247E-2,3.7361443E-2,-1.9878898E-2,-4.413438E-2,-3.8880818E-3,-1.586719E-2,-5.5903167E-2,8.2237613E-1,1.1806323E-2,5.0991934E-2,-1.842381E-2,3.078257E-3,4.5614906E-2,-2.2796756E-2,8.966626E-1,5.7768818E-2,2.5753662E-2,2.7307633E-2,-1.7451087E-3],"split_indices":[14,20,24,36,26,1,35,23,39,0,8,36,0,21,35,0,0,1,27,19,7,27,35,25,43,0,0,0,0,0,0,0,0,0,0,44,0,0,0,0,0,0,23,0,0,0,0],"split_type":[0,0,0,0,0,0,0,0,0,0,0,0,0,0,0,0,0,0,0,0,0,0,0,0,0,0,0,0,0,0,0,0,0,0,0,0,0,0,0,0,0,0,0,0,0,0,0],"sum_hessian":[1.9951031E2,1.0862607E2,9.088424E1,2.2661297E1,8.5964775E1,7.036698E1,2.0517254E1,7.2368917E0,1.5424406E1,2.7631097E0,8.320166E1,3.0936558E1,3.9430428E1,1.3648582E1,6.868672E0,2.7310781E0,4.5058136E0,1.1291536E1,4.1328692E0,8.523724E0,7.467794E1,2.5107178E1,5.829379E0,7.0770106E0,6.571572E0,2.894922E0,3.9737496E0,2.0480442E0,9.243492E0,2.002277E0,2.1305926E0,5.022903E0,3.5008206E0,2.7077692E0,7.197017E1,2.2668974E1,2.438203E0,2.4948838E0,3.3344953E0,2.1154497E0,4.9615607E0,2.4845524E0,4.0870194E0,1.8819801E1,3.8491743E0,2.0123796E0,2.0746398E0],"tree_param":{"num_deleted":"0","num_feature":"46","num_nodes":"47","size_leaf_vector":"1"}},{"base_weights":[-1.8096842E-2,-3.9970922E-1,4.9700218E-1,-1.5655304E-1,-5.561968E-1,5.9217596E-1,2.286972E-1,-1.9974147E-1,4.9475383E-2,-5.677491E-1,-1.7204061E-2,6.0411986E-2,1.6950987E-2,1.17096886E-1,4.463723E-1,-2.4517767E-1,1.8966265E-1,-5.7855137E-2,-1.5232409E-2,4.1638266E-2,2.284977E-3,1.3536515E-2,5.5392206E-2,-2.7387664E-1,1.6884651E-2,3.4193985E-2,-2.9421558E-3,-1.6945773E-1,2.286205E-1,-1.1192939E-2,-3.354202E-2,-3.4276597E-2,3.685702E-3,-4.3330076E-3,4.791373E-2],"categories":[],"categories_nodes":[],"categories_segments":[],"categories_sizes":[],"default_left":[0,0,0,0,0,0,0,0,0,0,0,0,0,0,0,0,0,0,0,0,0,0,0,0,0,0,0,0,0,0,0,0,0,0,0],"id":10,"left_children":[1,3,5,7,9,11,13,15,-1,17,-1,-1,-1,19,21,23,25,-1,-1,-1,27,-1,-1,29,-1,-1,-1,31,33,-1,-1,-1,-1,-1,-1],"loss_changes":[3.8356876E1,4.177065E0,1.9855099E0,1.372286E0,2.031765E-1,2.039299E-1,5.156249E-1,8.103E-1,0E0,2.0525742E-1,0E0,0E0,0E0,5.766552E-1,1.781435E-1,5.107703E-1,1.7935625E-1,0E0,0E0,0E0,5.500791E-1,0E0,0E0,3.306501E-1,0E0,0E0,0E0,3.0059868E-1,4.364084E-1,0E0,0E0,0E0,0E0,0E0,0E0],"parents":[2147483647,0,0,1,1,2,2,3,3,4,4,5,5,6,6,7,7,9,9,13,13,14,14,15,15,16,16,20,20,23,23,27,27,28,28],"right_children":[2,4,6,8,10,12,14,16,-1,18,-1,-1,-1,20,22,24,26,-1,-1,-1,28,-1,-1,30,-1,-1,-1,32,34,-1,-1,-1,-1,-1,-1],"split_conditions":[1.3060794E1,-7.659573E0,1.6819161E-1,2.3417344E0,2.883199E1,1.8145312E0,2.2484336E-2,6.83228E-2,4.9475383E-2,-6.555894E0,-1.7204061E-2,6.0411986E-2,1.6950987E-2,-9.000148E-1,-8.502501E-3,1.4908896E1,-4.1479248E-1,-5.7855137E-2,-1.5232409E-2,4.1638266E-2,1.38042355E-2,1.3536515E-2,5.5392206E-2,-1.804004E1,1.6884651E-2,3.4193985E-2,-2.9421558E-3,1.3115076E1,5.5622566E-3,-1.1192939E-2,-3.354202E-2,-3.4276597E-2,3.685702E-3,-4.3330076E-3,4.791373E-2],"split_indices":[18,0,5,40,0,44,42,45,0,18,0,0,0,43,17,16,40,0,0,0,27,0,0,0,0,0,0,18,17,0,0,0,0,0,0],"split_type":[0,0,0,0,0,0,0,0,0,0,0,0,0,0,0,0,0,0,0,0,0,0,0,0,0,0,0,0,0,0,0,0,0,0,0],"sum_hessian":[1.9312209E2,1.1106404E2,8.205805E1,4.4272385E1,6.679166E1,5.9680832E1,2.237722E1,4.2169434E1,2.10295E0,6.4377785E1,2.4138725E0,5.762318E1,2.0576515E0,1.58096695E1,6.56755E0,3.809485E1,4.074583E0,6.236348E1,2.0143044E0,3.6550984E0,1.2154572E1,2.2679198E0,4.2996306E0,3.594196E1,2.152892E0,2.0729704E0,2.0016127E0,7.0536113E0,5.1009603E0,1.0673673E1,2.5268286E1,3.474007E0,3.5796044E0,2.8424032E0,2.258557E0],"tree_param":{"num_deleted":"0","num_feature":"46","num_nodes":"35","size_leaf_vector":"1"}},{"base_weights":[5.186661E-3,-3.8118058E-1,4.6273643E-1,-4.7813687E-1,2.9435216E-2,5.5818737E-1,9.843181E-2,-3.5033427E-2,-5.0256634E-1,-3.0132642E-2,1.355633E-1,6.326474E-2,4.484609E-1,-9.887102E-3,2.918048E-1,2.0419229E-2,-2.6138896E-2,-3.5383612E-1,-5.4979384E-1,3.788503E-1,-3.8447745E-2,4.965278E-1,1.535451E-1,8.995706E-2,-2.1409554E-2,5.6254338E-3,4.7812935E-2,9.3979975E-3,-4.140366E-1,-1.6880793E-2,-5.68867E-2,5.242446E-2,4.151346E-3,3.0331854E-2,-2.0828873E-1,1.1599236E-2,5.2882046E-1,3.6281567E-2,-1.0353231E-2,2.9475335E-2,-1.3036355E-2,-4.5174476E-2,-7.7263787E-3,-3.249558E-2,6.0461056E-3,5.615712E-2,1.4495559E-2],"categories":[],"categories_nodes":[],"categories_segments":[],"categories_sizes":[],"default_left":[0,0,0,0,0,0,0,0,0,0,0,0,0,0,0,0,0,0,0,0,0,0,0,0,0,0,0,0,0,0,0,0,0,0,0,0,0,0,0,0,0,0,0,0,0,0,0],"id":11,"left_children":[1,3,5,7,9,11,13,15,17,-1,19,-1,21,23,25,-1,-1,27,29,31,33,35,37,39,-1,-1,-1,-1,41,-1,-1,-1,-1,-1,43,-1,45,-1,-1,-1,-1,-1,-1,-1,-1,-1,-1],"loss_changes":[3.1194036E1,3.823123E0,2.7540512E0,8.208618E-1,7.154634E-1,2.3750496E-1,3.7960014E-1,3.3074513E-1,3.2058716E-1,0E0,6.5971994E-1,0E0,3.3804464E-1,2.7402005E-1,2.579466E-1,0E0,0E0,5.9103394E-1,2.953186E-1,2.9443598E-1,6.315933E-1,2.4196053E-1,3.3578962E-1,4.4884664E-1,0E0,0E0,0E0,0E0,1.9670677E-1,0E0,0E0,0E0,0E0,0E0,2.4334452E-1,0E0,2.0108652E-1,0E0,0E0,0E0,0E0,0E0,0E0,0E0,0E0,0E0,0E0],"parents":[2147483647,0,0,1,1,2,2,3,3,4,4,5,5,6,6,7,7,8,8,10,10,12,12,13,13,14,14,17,17,18,18,19,19,20,20,21,21,22,22,23,23,28,28,34,34,36,36],"right_children":[2,4,6,8,10,12,14,16,18,-1,20,-1,22,24,26,-1,-1,28,30,32,34,36,38,40,-1,-1,-1,-1,42,-1,-1,-1,-1,-1,44,-1,46,-1,-1,-1,-1,-1,-1,-1,-1,-1,-1],"split_conditions":[1.30174675E1,1.7796674E0,4.1583496E-1,-8.125269E-2,-6.4231706E0,-5.525054E-1,1.3057326E0,7.849393E-2,-7.6176443E0,-3.0132642E-2,-2.113387E-2,6.326474E-2,1.535548E0,3.8715085E-1,-5.654142E-1,2.0419229E-2,-2.6138896E-2,2.5971964E-1,-1.0067633E0,2.0583716E-1,-8.565062E-1,-4.9200237E-1,-4.4831213E-1,-7.298691E-1,-2.1409554E-2,5.6254338E-3,4.7812935E-2,9.3979975E-3,-5.7075125E-1,-1.6880793E-2,-5.68867E-2,5.242446E-2,4.151346E-3,3.0331854E-2,-6.676351E0,1.1599236E-2,7.17714E-2,3.6281567E-2,-1.0353231E-2,2.9475335E-2,-1.3036355E-2,-4.5174476E-2,-7.7263787E-3,-3.249558E-2,6.0461056E-3,5.615712E-2,1.4495559E-2],"split_indices":[18,3,24,17,14,22,15,10,0,0,19,0,36,34,11,0,0,24,3,34,36,41,23,11,0,0,0,0,15,0,0,0,0,0,16,0,28,0,0,0,0,0,0,0,0,0,0],"split_type":[0,0,0,0,0,0,0,0,0,0,0,0,0,0,0,0,0,0,0,0,0,0,0,0,0,0,0,0,0,0,0,0,0,0,0,0,0,0,0,0,0,0,0,0,0,0,0],"sum_hessian":[1.7445682E2,9.467642E1,7.978039E1,7.645833E1,1.8218094E1,6.2795288E1,1.6985104E1,4.122275E0,7.233605E1,3.9786997E0,1.4239394E1,3.457031E1,2.822498E1,1.1494992E1,5.4901114E0,2.0517645E0,2.0705106E0,1.9480295E1,5.285576E1,5.44688E0,8.792514E0,2.3681604E1,4.543374E0,8.096053E0,3.3989396E0,2.9997544E0,2.4903567E0,2.2419412E0,1.7238354E1,2.9895768E0,4.9866184E1,3.41914E0,2.0277398E0,2.657999E0,6.134515E0,2.2116404E0,2.1469965E1,2.2778285E0,2.2655456E0,4.020764E0,4.075289E0,1.519553E1,2.042824E0,4.131743E0,2.0027714E0,1.9355633E1,2.1143322E0],"tree_param":{"num_deleted":"0","num_feature":"46","num_nodes":"47","size_leaf_vector":"1"}},{"base_weights":[6.340747E-3,-3.7221155E-1,4.4204265E-1,5.8951083E-4,-4.772099E-1,1.3805537E-1,5.440896E-1,-3.552186E-2,1.1310981E-1,-5.1918745E-1,-3.197547E-1,5.339801E-2,4.079629E-2,6.0424365E-2,4.00338E-1,1.9802815E-1,-2.646623E-2,-2.2565374E-2,-5.353409E-2,3.5780095E-3,-3.8672665E-1,1.8474476E-1,-9.427115E-2,4.510366E-1,1.654527E-5,-1.1168799E-2,3.0039272E-1,-1.695954E-1,-4.6335604E-2,2.96321E-1,-1.5525974E-2,1.8466253E-2,-2.0547345E-2,5.2906927E-2,1.9797933E-1,-5.0583505E-3,4.4720758E-2,-2.8235754E-2,6.7487464E-4,4.700876E-2,5.07628E-3,3.7646115E-2,-6.7209117E-3],"categories":[],"categories_nodes":[],"categories_segments":[],"categories_sizes":[],"default_left":[0,0,0,0,0,0,0,0,0,0,0,0,0,0,0,0,0,0,0,0,0,0,0,0,0,0,0,0,0,0,0,0,0,0,0,0,0,0,0,0,0,0,0],"id":12,"left_children":[1,3,5,7,9,11,13,-1,15,17,19,21,-1,-1,23,25,-1,-1,-1,-1,27,29,31,33,-1,-1,35,37,-1,39,-1,-1,-1,-1,41,-1,-1,-1,-1,-1,-1,-1,-1],"loss_changes":[2.835093E1,3.600957E0,2.4036608E0,8.8946193E-1,3.0838013E-1,4.6771407E-1,2.7246666E-1,0E0,5.9375685E-1,1.4028263E-1,4.3553984E-1,3.5603365E-1,0E0,0E0,4.1606903E-1,4.884991E-1,0E0,0E0,0E0,0E0,1.7079496E-1,4.093481E-1,3.1340206E-1,2.5474E-1,0E0,0E0,5.9233594E-1,1.11014485E-1,0E0,2.9850817E-1,0E0,0E0,0E0,0E0,3.040142E-1,0E0,0E0,0E0,0E0,0E0,0E0,0E0,0E0],"parents":[2147483647,0,0,1,1,2,2,3,3,4,4,5,5,6,6,8,8,9,9,10,10,11,11,14,14,15,15,20,20,21,21,22,22,23,23,26,26,27,27,29,29,34,34],"right_children":[2,4,6,8,10,12,14,-1,16,18,20,22,-1,-1,24,26,-1,-1,-1,-1,28,30,32,34,-1,-1,36,38,-1,40,-1,-1,-1,-1,42,-1,-1,-1,-1,-1,-1,-1,-1],"split_conditions":[1.2725606E1,-8.9976E-1,-2.3461822E-1,-6.427098E0,4.5971686E-1,3.701085E-2,-6.5339047E-1,-3.552186E-2,1.2501779E-1,-8.182944E-2,5.5208313E-1,-4.26111E-1,4.079629E-2,6.0424365E-2,1.8345033E-1,-2.1625037E-1,-2.646623E-2,-2.2565374E-2,-5.353409E-2,3.5780095E-3,5.054097E-1,3.5013262E-2,-3.4308188E-2,1.28869095E1,1.654527E-5,-1.1168799E-2,-6.417588E-1,6.7347184E-2,-4.6335604E-2,8.6756945E-2,-1.5525974E-2,1.8466253E-2,-2.0547345E-2,5.2906927E-2,-8.529938E-1,-5.0583505E-3,4.4720758E-2,-2.8235754E-2,6.7487464E-4,4.700876E-2,5.07628E-3,3.7646115E-2,-6.7209117E-3],"split_indices":[14,20,1,14,5,39,3,0,33,26,5,40,0,0,20,31,0,0,0,0,24,26,39,14,0,0,15,43,0,8,0,0,0,0,35,0,0,0,0,0,0,0,0],"split_type":[0,0,0,0,0,0,0,0,0,0,0,0,0,0,0,0,0,0,0,0,0,0,0,0,0,0,0,0,0,0,0,0,0,0,0,0,0,0,0,0,0,0,0],"sum_hessian":[1.6989296E2,9.098655E1,7.890642E1,2.0213182E1,7.077336E1,2.0422573E1,5.848384E1,4.3381844E0,1.5874998E1,5.4062847E1,1.6710516E1,1.6458233E1,3.9643402E0,3.897223E1,1.9511614E1,1.3349909E1,2.525089E0,3.600758E0,5.046209E1,2.7226255E0,1.398789E1,8.57764E0,7.880594E0,1.72048E1,2.3068142E0,3.2936122E0,1.0056297E1,4.487015E0,9.500875E0,6.5550175E0,2.022622E0,2.057949E0,5.822645E0,1.2316256E1,4.888545E0,3.1592476E0,6.8970494E0,2.3702202E0,2.1167948E0,3.3031886E0,3.251829E0,2.6711571E0,2.2173882E0],"tree_param":{"num_deleted":"0","num_feature":"46","num_nodes":"43","size_leaf_vector":"1"}},{"base_weights":[1.7306207E-3,-3.5770586E-1,4.4553134E-1,-4.390253E-1,5.6508858E-2,1.3108012E-1,5.510984E-1,-5.095795E-1,-2.8552926E-1,-1.969839E-1,2.3825026E-1,2.088677E-1,-2.3623122E-2,1.9633709E-2,5.627924E-2,-1.6225902E-2,-5.2309852E-2,-3.2066387E-1,5.6147673E-3,-3.175724E-2,5.012898E-5,3.598444E-2,-5.5008833E-3,3.2253128E-1,-1.1871302E-2,-1.4202377E-1,-4.0132247E-2,2.57921E-3,3.9522678E-1,-1.6365366E-2,1.4677417E-2,4.829025E-3,-3.660182E-2,4.874738E-2,1.2568059E-2],"categories":[],"categories_nodes":[],"categories_segments":[],"categories_sizes":[],"default_left":[0,0,0,0,0,0,0,0,0,0,0,0,0,0,0,0,0,0,0,0,0,0,0,0,0,0,0,0,0,0,0,0,0,0,0],"id":13,"left_children":[1,3,5,7,9,11,13,15,17,19,21,23,-1,-1,-1,-1,-1,25,-1,-1,-1,-1,-1,27,29,31,-1,-1,33,-1,-1,-1,-1,-1,-1],"loss_changes":[2.4811995E1,2.9196796E0,2.2382355E0,6.337366E-1,7.375025E-1,5.8666193E-1,1.0438061E-1,1.4060116E-1,3.1731367E-1,1.6225508E-1,3.4724534E-1,4.065194E-1,0E0,0E0,0E0,0E0,0E0,2.7090383E-1,0E0,0E0,0E0,0E0,0E0,2.191124E-1,1.786075E-1,3.8542056E-1,0E0,0E0,1.4930105E-1,0E0,0E0,0E0,0E0,0E0,0E0],"parents":[2147483647,0,0,1,1,2,2,3,3,4,4,5,5,6,6,7,7,8,8,9,9,10,10,11,11,17,17,23,23,24,24,25,25,28,28],"right_children":[2,4,6,8,10,12,14,16,18,20,22,24,-1,-1,-1,-1,-1,26,-1,-1,-1,-1,-1,28,30,32,-1,-1,34,-1,-1,-1,-1,-1,-1],"split_conditions":[1.30174675E1,1.8394314E0,-2.3461822E-1,-2.4582064E-1,-8.14223E-3,1.5729156E0,-8.96936E-2,-1.0859493E-2,-6.587123E0,9.1870856E-1,9.567127E-2,-1.7282425E-1,-2.3623122E-2,1.9633709E-2,5.627924E-2,-1.6225902E-2,-5.2309852E-2,5.2181035E-1,5.6147673E-3,-3.175724E-2,5.012898E-5,3.598444E-2,-5.5008833E-3,-3.3327702E-2,1.9717629E-3,-6.392E0,-4.0132247E-2,2.57921E-3,-8.516039E-2,-1.6365366E-2,1.4677417E-2,4.829025E-3,-3.660182E-2,4.874738E-2,1.2568059E-2],"split_indices":[18,3,1,3,26,36,39,10,18,35,12,31,0,0,0,0,0,24,0,0,0,0,0,25,28,14,0,0,29,0,0,0,0,0,0],"split_type":[0,0,0,0,0,0,0,0,0,0,0,0,0,0,0,0,0,0,0,0,0,0,0,0,0,0,0,0,0,0,0,0,0,0,0],"sum_hessian":[1.5354431E2,8.494274E1,6.860157E1,7.095318E1,1.3989563E1,1.7805683E1,5.0795887E1,4.7020485E1,2.3932695E1,5.806622E0,8.1829405E0,1.5049851E1,2.7558312E0,2.1886377E0,4.860725E1,2.248791E0,4.4771694E1,2.1756931E1,2.1757634E0,3.2276628E0,2.578959E0,5.6240044E0,2.558936E0,9.63E0,5.419852E0,7.6265936E0,1.4130338E1,2.1615324E0,7.468467E0,2.7537055E0,2.6661465E0,4.5473814E0,3.0792122E0,4.961866E0,2.5066016E0],"tree_param":{"num_deleted":"0","num_feature":"46","num_nodes":"35","size_leaf_vector":"1"}},{"base_weights":[-6.7409864E-3,-3.6424825E-1,4.1084492E-1,2.4119202E-2,-4.3921798E-1,8.629388E-2,5.179474E-1,-1.5495439E-1,2.2250086E-1,-5.015479E-1,-2.939296E-1,-2.2617523E-2,1.4190783E-1,5.9499897E-2,3.918586E-1,3.8998884E-3,-2.695308E-2,2.9243059E-3,3.925285E-2,-9.001906E-3,-5.209401E-2,-1.4268748E-1,-3.9963286E-2,5.5230215E-2,3.6956944E-2,8.940089E-3,4.2943403E-1,6.252929E-3,-2.588585E-2,2.8076569E-2,-4.4697225E-2,7.423747E-3,4.6902466E-1,-2.6005823E-2,4.9210247E-3,5.0399464E-2,1.5915198E-2],"categories":[],"categories_nodes":[],"categories_segments":[],"categories_sizes":[],"default_left":[0,0,0,0,0,0,0,0,0,0,0,0,0,0,0,0,0,0,0,0,0,0,0,0,0,0,0,0,0,0,0,0,0,0,0,0,0],"id":14,"left_children":[1,3,5,7,9,11,13,15,17,19,21,-1,23,-1,25,-1,-1,-1,-1,-1,-1,27,-1,29,-1,-1,31,-1,-1,-1,33,-1,35,-1,-1,-1,-1],"loss_changes":[2.1253273E1,2.2434416E0,2.2380562E0,5.08964E-1,4.3515778E-1,3.361073E-1,2.4461555E-1,1.7960909E-1,2.1022648E-1,3.010769E-1,2.903558E-1,0E0,2.8477415E-1,0E0,2.0688653E-1,0E0,0E0,0E0,0E0,0E0,0E0,2.6637357E-1,0E0,2.9148644E-1,0E0,0E0,2.3144126E-1,0E0,0E0,0E0,2.0369919E-1,0E0,1.0234952E-1,0E0,0E0,0E0,0E0],"parents":[2147483647,0,0,1,1,2,2,3,3,4,4,5,5,6,6,7,7,8,8,9,9,10,10,12,12,14,14,21,21,23,23,26,26,30,30,32,32],"right_children":[2,4,6,8,10,12,14,16,18,20,22,-1,24,-1,26,-1,-1,-1,-1,-1,-1,28,-1,30,-1,-1,32,-1,-1,-1,34,-1,36,-1,-1,-1,-1],"split_conditions":[1.2725606E1,-1.1045637E0,-2.3461822E-1,-6.7078967E0,-2.4582064E-1,-5.662324E-2,-5.525054E-1,-6.768501E0,3.4644836E-1,-1.2132337E0,-7.229675E-1,-2.2617523E-2,4.6835445E-2,5.9499897E-2,-4.875006E-1,3.8998884E-3,-2.695308E-2,2.9243059E-3,3.925285E-2,-9.001906E-3,-5.209401E-2,-1.1207515E-1,-3.9963286E-2,-8.426314E-1,3.6956944E-2,8.940089E-3,-6.529378E-2,6.252929E-3,-2.588585E-2,2.8076569E-2,-9.248569E-1,7.423747E-3,7.733599E-1,-2.6005823E-2,4.9210247E-3,5.0399464E-2,1.5915198E-2],"split_indices":[14,20,1,16,3,25,22,16,29,34,36,0,7,0,40,0,0,0,0,0,0,3,0,29,0,0,13,0,0,0,44,0,44,0,0,0,0],"split_type":[0,0,0,0,0,0,0,0,0,0,0,0,0,0,0,0,0,0,0,0,0,0,0,0,0,0,0,0,0,0,0,0,0,0,0,0,0],"sum_hessian":[1.4035992E2,7.568853E1,6.4671394E1,1.2356444E1,6.333209E1,1.6494394E1,4.8177E1,6.609311E0,5.7471333E0,4.260298E1,2.0729107E1,2.0287733E0,1.446562E1,2.7595053E1,2.0581947E1,2.6994119E0,3.909899E0,3.238341E0,2.5087922E0,2.1711075E0,4.0431873E1,9.494331E0,1.1234776E1,1.1376748E1,3.0888722E0,2.6478343E0,1.7934113E1,3.5987918E0,5.8955398E0,2.937389E0,8.43936E0,2.0868227E0,1.584729E1,2.0253217E0,6.4140377E0,1.3677311E1,2.1699796E0],"tree_param":{"num_deleted":"0","num_feature":"46","num_nodes":"37","size_leaf_vector":"1"}},{"base_weights":[-8.839226E-3,-3.2879195E-1,4.0428525E-1,2.298881E-2,-4.1358888E-1,5.184189E-1,1.5796612E-1,-1.7258528E-1,2.4024698E-1,-4.6662772E-1,-2.6038945E-1,3.660068E-1,5.944478E-2,2.2204794E-1,-7.427007E-3,8.38532E-3,-2.614449E-2,3.9900567E-2,6.676689E-2,-1.1909898E-2,-4.8080683E-2,1.2328022E-2,-3.2208276E-1,1.3275972E-1,4.6363616E-1,3.006809E-1,3.158848E-2,-9.100533E-3,2.030198E-2,-3.6735754E-2,-3.8165587E-3,-6.527616E-3,3.0581241E-2,1.8369416E-2,5.2821625E-2,3.901804E-2,1.1141506E-2,-1.830235E-2,2.4821118E-2],"categories":[],"categories_nodes":[],"categories_segments":[],"categories_sizes":[],"default_left":[0,0,0,0,0,0,0,0,0,0,0,0,0,0,0,0,0,0,0,0,0,0,0,0,0,0,0,0,0,0,0,0,0,0,0,0,0,0,0],"id":15,"left_children":[1,3,5,7,9,11,13,15,17,19,21,23,-1,25,-1,-1,-1,-1,27,-1,-1,-1,29,31,33,35,37,-1,-1,-1,-1,-1,-1,-1,-1,-1,-1,-1,-1],"loss_changes":[1.816188E1,2.3188696E0,1.6043158E0,7.2063494E-1,3.857994E-1,2.522993E-1,3.205331E-1,2.2686628E-1,1.9342661E-1,1.6504478E-1,4.7330773E-1,3.050182E-1,0E0,2.3405439E-1,0E0,0E0,0E0,0E0,1.2637171E-1,0E0,0E0,0E0,1.9239295E-1,2.3076226E-1,1.008687E-1,1.4951491E-1,3.1830162E-1,0E0,0E0,0E0,0E0,0E0,0E0,0E0,0E0,0E0,0E0,0E0,0E0],"parents":[2147483647,0,0,1,1,2,2,3,3,4,4,5,5,6,6,7,7,8,8,9,9,10,10,11,11,13,13,18,18,22,22,23,23,24,24,25,25,26,26],"right_children":[2,4,6,8,10,12,14,16,18,20,22,24,-1,26,-1,-1,-1,-1,28,-1,-1,-1,30,32,34,36,38,-1,-1,-1,-1,-1,-1,-1,-1,-1,-1,-1,-1],"split_conditions":[1.30174675E1,-1.1045637E0,-4.3046755E-1,-6.6977882E0,4.5971686E-1,1.7749883E0,1.5650934E0,-8.8564384E-1,-4.5649523E-1,-8.9056075E-2,5.647373E-1,-4.4524512E-1,5.944478E-2,5.663456E-1,-7.427007E-3,8.38532E-3,-2.614449E-2,3.9900567E-2,-1.7875226E-1,-1.1909898E-2,-4.8080683E-2,1.2328022E-2,1.3392028E-1,-2.4650948E-1,-1.6640157E-2,1.2868628E1,1.0824711E-2,-9.100533E-3,2.030198E-2,-3.6735754E-2,-3.8165587E-3,-6.527616E-3,3.0581241E-2,1.8369416E-2,5.2821625E-2,3.901804E-2,1.1141506E-2,-1.830235E-2,2.4821118E-2],"split_indices":[18,20,3,16,5,4,36,36,21,26,5,40,0,8,0,0,0,0,31,0,0,0,12,5,7,14,27,0,0,0,0,0,0,0,0,0,0,0,0],"split_type":[0,0,0,0,0,0,0,0,0,0,0,0,0,0,0,0,0,0,0,0,0,0,0,0,0,0,0,0,0,0,0,0,0,0,0,0,0,0,0],"sum_hessian":[1.3539667E2,7.641762E1,5.8979053E1,1.4984248E1,6.1433372E1,3.954907E1,1.9429989E1,7.9938602E0,6.9903884E0,4.411465E1,1.7318718E1,1.5097585E1,2.4451483E1,1.5262436E1,4.1675525E0,2.0716527E0,5.9222074E0,2.97126E0,4.0191283E0,2.097784E0,4.201687E1,2.2607675E0,1.5057951E1,5.151037E0,9.9465475E0,1.0392912E1,4.8695245E0,2.0163772E0,2.0027514E0,1.2733516E1,2.3244348E0,2.6925576E0,2.4584794E0,2.5850964E0,7.361451E0,6.3354683E0,4.0574436E0,2.5240288E0,2.3454955E0],"tree_param":{"num_deleted":"0","num_feature":"46","num_nodes":"39","size_leaf_vector":"1"}},{"base_weights":[-6.457341E-3,-2.6957428E-1,4.890605E-1,-4.6504873E-1,-8.48792E-2,5.8243394E-2,3.3387363E-1,-5.2256305E-2,-3.1890061E-1,-1.2522858E-1,2.39078E-1,2.6441427E-2,4.3239273E-2,-1.6273257E-3,-3.7079662E-2,-1.973638E-1,8.011964E-2,3.5935845E-2,3.7571997E-3,2.1739446E-2,-1.6640082E-2,1.890806E-2,-2.3486827E-1,1.8758708E-1,-1.7664572E-2,1.2122864E-2,-2.7273903E-2,-3.915489E-3,3.1462412E-2],"categories":[],"categories_nodes":[],"categories_segments":[],"categories_sizes":[],"default_left":[0,0,0,0,0,0,0,0,0,0,0,0,0,0,0,0,0,0,0,0,0,0,0,0,0,0,0,0,0],"id":16,"left_children":[1,3,5,7,9,-1,11,-1,13,15,17,19,-1,-1,-1,21,23,-1,-1,-1,-1,-1,25,27,-1,-1,-1,-1,-1],"loss_changes":[1.6413544E1,2.9286537E0,4.3829536E-1,1.6720295E-1,5.9848297E-1,0E0,5.5637956E-1,0E0,2.1041465E-1,5.9845906E-1,1.11589104E-1,2.4293391E-1,0E0,0E0,0E0,4.704758E-1,3.3491975E-1,0E0,0E0,0E0,0E0,0E0,4.0044892E-1,2.4836463E-1,0E0,0E0,0E0,0E0,0E0],"parents":[2147483647,0,0,1,1,2,2,3,3,4,4,6,6,8,8,9,9,10,10,11,11,15,15,16,16,22,22,23,23],"right_children":[2,4,6,8,10,-1,12,-1,14,16,18,20,-1,-1,-1,22,24,-1,-1,-1,-1,-1,26,28,-1,-1,-1,-1,-1],"split_conditions":[1.3108788E1,-2.3079732E-1,-4.1476473E-1,2.2915974E-2,1.3789283E0,5.8243394E-2,-4.54108E-1,-5.2256305E-2,-5.995E-2,1.4837879E1,-6.661931E0,-4.3848655E-1,4.3239273E-2,-1.6273257E-3,-3.7079662E-2,-8.336763E-2,1.3082666E1,3.5935845E-2,3.7571997E-3,2.1739446E-2,-1.6640082E-2,1.890806E-2,-5.52233E-2,-2.3285732E-1,-1.7664572E-2,1.2122864E-2,-2.7273903E-2,-3.915489E-3,3.1462412E-2],"split_indices":[18,3,22,13,5,0,40,0,42,16,18,41,0,0,0,17,18,0,0,0,0,0,19,8,0,0,0,0,0],"split_type":[0,0,0,0,0,0,0,0,0,0,0,0,0,0,0,0,0,0,0,0,0,0,0,0,0,0,0,0,0],"sum_hessian":[1.23879684E2,8.121238E1,4.26673E1,3.8717396E1,4.2494987E1,2.4920141E1,1.774716E1,2.5935368E1,1.2782027E1,3.833388E1,4.161105E0,4.614826E0,1.3132334E1,2.0633485E0,1.0718678E1,2.8397295E1,9.936587E0,2.1151767E0,2.0459285E0,2.2547991E0,2.3600273E0,2.1546216E0,2.6242672E1,7.1947107E0,2.7418768E0,2.3110316E0,2.393164E1,2.8319283E0,4.3627825E0],"tree_param":{"num_deleted":"0","num_feature":"46","num_nodes":"29","size_leaf_vector":"1"}},{"base_weights":[-1.0019083E-2,-2.5723684E-1,4.6464962E-1,-6.896596E-2,-4.3893367E-1,5.728671E-2,3.0329102E-1,7.0920736E-2,-1.5259933E-1,-1.1901533E-2,-4.5743135E-1,3.8850698E-1,7.6934904E-2,1.8370168E-1,-5.7470325E-2,-2.5617266E-1,4.7586847E-2,-4.7876228E-2,-1.2955643E-2,1.3572454E-2,4.4151165E-2,-1.217351E-2,2.769363E-2,-3.2362824E-3,2.9715324E-2,1.50253195E-2,-1.956252E-2,-3.3077487E-1,5.238347E-3,2.0192462E-1,-1.4523516E-2,-1.4888157E-2,-4.0828455E-2,3.1330474E-2,2.1185952E-3],"categories":[],"categories_nodes":[],"categories_segments":[],"categories_sizes":[],"default_left":[0,0,0,0,0,0,0,0,0,0,0,0,0,0,0,0,0,0,0,0,0,0,0,0,0,0,0,0,0,0,0,0,0,0,0],"id":17,"left_children":[1,3,5,7,9,-1,11,13,15,-1,17,19,21,23,25,27,29,-1,-1,-1,-1,-1,-1,-1,-1,-1,-1,31,-1,33,-1,-1,-1,-1,-1],"loss_changes":[1.371302E1,2.5973797E0,5.2520275E-1,4.6604604E-1,1.7577553E-1,0E0,3.2104576E-1,2.3125845E-1,5.236751E-1,0E0,1.927228E-1,1.13863945E-1,2.8097457E-1,2.1435842E-1,2.5580043E-1,3.9516532E-1,3.0474526E-1,0E0,0E0,0E0,0E0,0E0,0E0,0E0,0E0,0E0,0E0,1.2749958E-1,0E0,1.0526267E-1,0E0,0E0,0E0,0E0,0E0],"parents":[2147483647,0,0,1,1,2,2,3,3,4,4,6,6,7,7,8,8,10,10,11,11,12,12,13,13,14,14,15,15,16,16,27,27,29,29],"right_children":[2,4,6,8,10,-1,12,14,16,-1,18,20,22,24,26,28,30,-1,-1,-1,-1,-1,-1,-1,-1,-1,-1,32,-1,34,-1,-1,-1,-1,-1],"split_conditions":[1.230356E0,-7.647453E0,-6.5339047E-1,-1.8030779E1,-8.9056075E-2,5.728671E-2,5.325332E-1,-4.255437E-1,-6.587123E0,-1.1901533E-2,1.5604772E-1,-4.751481E-1,1.0321405E-1,-6.7235713E0,-2.2777108E-2,2.238144E0,-4.323475E-1,-4.7876228E-2,-1.2955643E-2,1.3572454E-2,4.4151165E-2,-1.217351E-2,2.769363E-2,-3.2362824E-3,2.9715324E-2,1.50253195E-2,-1.956252E-2,7.1172357E-1,5.238347E-3,3.1314856E-1,-1.4523516E-2,-1.4888157E-2,-4.0828455E-2,3.1330474E-2,2.1185952E-3],"split_indices":[4,0,3,0,26,0,33,40,18,0,10,40,10,16,7,40,40,0,0,0,0,0,0,0,0,0,0,5,0,34,0,0,0,0,0],"split_type":[0,0,0,0,0,0,0,0,0,0,0,0,0,0,0,0,0,0,0,0,0,0,0,0,0,0,0,0,0,0,0,0,0,0,0],"sum_hessian":[1.1484064E2,7.581343E1,3.9027206E1,3.7910667E1,3.790276E1,2.1833788E1,1.7193419E1,1.4241717E1,2.366895E1,2.4780946E0,3.5424667E1,1.1970537E1,5.222882E0,7.3524227E0,6.8892946E0,1.5414202E1,8.254748E0,3.2828697E1,2.59597E0,2.6921458E0,9.278391E0,2.8164797E0,2.406402E0,2.777505E0,4.5749183E0,2.716826E0,4.172469E0,1.2355016E1,3.0591857E0,4.5586915E0,3.6960564E0,4.5644207E0,7.790595E0,2.3667285E0,2.191963E0],"tree_param":{"num_deleted":"0","num_feature":"46","num_nodes":"35","size_leaf_vector":"1"}},{"base_weights":[-1.2287612E-2,-3.0019063E-1,4.1396323E-1,-1.2535219E-1,-4.5911875E-2,5.0292827E-2,1.6665117E-1,-6.205467E-2,-3.4134343E-2,-8.672749E-3,2.635768E-2,1.5916723E-1,-1.6449332E-1,-6.0373913E-3,2.778293E-1,3.1921826E-2,-2.3073974E-1,3.2775325E-3,3.9890196E-2,-1.1874374E-2,1.7616298E-2,-3.0991433E-2,-6.2410603E-3],"categories":[],"categories_nodes":[],"categories_segments":[],"categories_sizes":[],"default_left":[0,0,0,0,0,0,0,0,0,0,0,0,0,0,0,0,0,0,0,0,0,0,0],"id":18,"left_children":[1,3,5,7,-1,-1,9,11,-1,-1,-1,13,15,-1,17,19,21,-1,-1,-1,-1,-1,-1],"loss_changes":[1.3769326E1,1.8026152E0,9.1167545E-1,4.334321E-1,0E0,0E0,3.5355872E-1,6.3664556E-1,0E0,0E0,0E0,2.521244E-1,2.533406E-1,0E0,1.6621602E-1,1.4362426E-1,1.7067611E-1,0E0,0E0,0E0,0E0,0E0,0E0],"parents":[2147483647,0,0,1,1,2,2,3,3,6,6,7,7,11,11,12,12,14,14,15,15,16,16],"right_children":[2,4,6,8,-1,-1,10,12,-1,-1,-1,14,16,-1,18,20,22,-1,-1,-1,-1,-1,-1],"split_conditions":[1.3065855E1,-3.903969E-1,-4.3046755E-1,6.289186E-1,-4.5911875E-2,5.0292827E-2,-2.2366364E-2,-4.5649523E-1,-3.4134343E-2,-8.672749E-3,2.635768E-2,-5.8453906E-1,-1.804004E1,-6.0373913E-3,8.99292E-1,-9.241895E-3,-6.165519E-1,3.2775325E-3,3.9890196E-2,-1.1874374E-2,1.7616298E-2,-3.0991433E-2,-6.2410603E-3],"split_indices":[18,20,3,37,0,0,27,21,0,0,0,33,0,0,5,13,4,0,0,0,0,0,0],"split_type":[0,0,0,0,0,0,0,0,0,0,0,0,0,0,0,0,0,0,0,0,0,0,0],"sum_hessian":[1.1018953E2,6.594439E1,4.424514E1,3.225218E1,3.369221E1,3.177957E1,1.246557E1,2.5938152E1,6.3140273E0,3.4782083E0,8.987362E0,8.03416E0,1.7903992E1,2.991214E0,5.042946E0,4.646283E0,1.32577095E1,2.0878315E0,2.9551144E0,2.358992E0,2.2872908E0,8.444615E0,4.813094E0],"tree_param":{"num_deleted":"0","num_feature":"46","num_nodes":"23","size_leaf_vector":"1"}},{"base_weights":[-5.3628297E-3,-2.606383E-1,4.601588E-1,-1.0929985E-1,-4.3634903E-1,5.4846056E-2,2.9892159E-1,5.2446958E-2,-2.185328E-1,-9.0009095E-3,-4.5949336E-2,1.6405017E-3,3.75031E-2,3.4377463E-2,-4.415607E-2,-3.250934E-2,-7.354759E-2,-1.3027632E-1,2.756052E-2,-1.986753E-2,1.9332934E-2,-3.1672597E-2,-1.2019975E-3],"categories":[],"categories_nodes":[],"categories_segments":[],"categories_sizes":[],"default_left":[0,0,0,0,0,0,0,0,0,0,0,0,0,0,0,0,0,0,0,0,0,0,0],"id":19,"left_children":[1,3,5,7,9,-1,11,13,15,-1,-1,-1,-1,-1,17,-1,19,21,-1,-1,-1,-1,-1],"loss_changes":[1.290121E1,1.8164225E0,3.8352108E-1,7.0046043E-1,2.1598339E-1,0E0,3.3368266E-1,4.8027927E-1,3.3870423E-1,0E0,0E0,0E0,0E0,0E0,4.020769E-1,0E0,4.135903E-1,2.4214068E-1,0E0,0E0,0E0,0E0,0E0],"parents":[2147483647,0,0,1,1,2,2,3,3,4,4,6,6,7,7,8,8,14,14,16,16,17,17],"right_children":[2,4,6,8,10,-1,12,14,16,-1,-1,-1,-1,-1,18,-1,20,22,-1,-1,-1,-1,-1],"split_conditions":[1.3115076E1,-2.526318E0,-6.784806E-1,-6.7902905E-1,-7.675061E-2,5.4846056E-2,-7.415815E-1,-1.2003206E0,-5.943115E-1,-9.0009095E-3,-4.5949336E-2,1.6405017E-3,3.75031E-2,3.4377463E-2,1.4910278E1,-3.250934E-2,1.6474042E-2,-6.1053526E-1,2.756052E-2,-1.986753E-2,1.9332934E-2,-3.1672597E-2,-1.2019975E-3],"split_indices":[18,0,2,36,26,0,11,20,15,0,0,0,0,0,16,0,7,38,0,0,0,0,0],"split_type":[0,0,0,0,0,0,0,0,0,0,0,0,0,0,0,0,0,0,0,0,0,0,0],"sum_hessian":[1.06553665E2,6.9101166E1,3.74525E1,3.799682E1,3.1104347E1,2.2647816E1,1.4804685E1,1.55262165E1,2.2470602E1,2.254607E0,2.8849741E1,3.399894E0,1.1404791E1,3.2292056E0,1.2297011E1,1.2235531E1,1.0235071E1,1.015467E1,2.1423411E0,7.142023E0,3.0930486E0,3.2896779E0,6.864992E0],"tree_param":{"num_deleted":"0","num_feature":"46","num_nodes":"23","size_leaf_vector":"1"}},{"base_weights":[-7.215248E-3,-2.9826364E-1,3.772295E-1,-4.2823907E-2,-8.565793E-2,9.306559E-2,4.675686E-1,-1.7743903E-1,1.0206409E-1,-1.14900395E-2,1.8743926E-1,3.4213105E-1,5.638395E-2,4.807071E-2,-2.6132187E-1,3.166181E-2,-8.413009E-2,2.7177418E-2,-2.9465999E-3,3.7339678E-1,8.484866E-3,2.061583E-2,-1.1581923E-2,-3.0865846E-2,-3.40022E-3,1.0572112E-2,-2.3938647E-2,4.2271364E-2,1.2229823E-2],"categories":[],"categories_nodes":[],"categories_segments":[],"categories_sizes":[],"default_left":[0,0,0,0,0,0,0,0,0,0,0,0,0,0,0,0,0,0,0,0,0,0,0,0,0,0,0,0,0],"id":20,"left_children":[1,3,5,-1,7,9,11,13,15,-1,17,19,-1,21,23,-1,25,-1,-1,27,-1,-1,-1,-1,-1,-1,-1,-1,-1],"loss_changes":[1.1466837E1,1.5746703E0,1.0902286E0,0E0,4.2081922E-1,2.5513086E-1,2.0876789E-1,3.16424E-1,3.5861215E-1,0E0,1.6471907E-1,1.0495865E-1,0E0,1.585975E-1,1.17164195E-1,0E0,1.7973456E-1,0E0,0E0,1.3221788E-1,0E0,0E0,0E0,0E0,0E0,0E0,0E0,0E0,0E0],"parents":[2147483647,0,0,1,1,2,2,4,4,5,5,6,6,7,7,8,8,10,10,11,11,13,13,14,14,16,16,19,19],"right_children":[2,4,6,-1,8,10,12,14,16,-1,18,20,-1,22,24,-1,26,-1,-1,28,-1,-1,-1,-1,-1,-1,-1,-1,-1],"split_conditions":[1.30174675E1,5.614266E-1,-2.3461822E-1,-4.2823907E-2,1.8678147E0,6.546933E-2,1.7749883E0,5.4608125E-2,-3.0076557E-1,-1.14900395E-2,3.8715085E-1,1.504745E0,5.638395E-2,-6.410123E-1,-5.7075125E-1,3.166181E-2,-1.0914143E-2,2.7177418E-2,-2.9465999E-3,1.28869095E1,8.484866E-3,2.061583E-2,-1.1581923E-2,-3.0865846E-2,-3.40022E-3,1.0572112E-2,-2.3938647E-2,4.2271364E-2,1.2229823E-2],"split_indices":[18,23,1,0,3,10,4,12,32,0,34,36,0,15,15,0,45,0,0,14,0,0,0,0,0,0,0,0,0],"split_type":[0,0,0,0,0,0,0,0,0,0,0,0,0,0,0,0,0,0,0,0,0,0,0,0,0,0,0,0,0],"sum_hessian":[1.004757E2,5.731152E1,4.316418E1,3.4938065E1,2.2373455E1,1.090196E1,3.2262222E1,1.5063421E1,7.310034E0,3.3350947E0,7.5668654E0,1.5986381E1,1.627584E1,4.1997604E0,1.086366E1,3.0709107E0,4.239123E0,5.2663097E0,2.300556E0,1.3851762E1,2.134619E0,2.006445E0,2.1933155E0,8.695178E0,2.1684825E0,2.0506244E0,2.1884985E0,1.1006567E1,2.8451948E0],"tree_param":{"num_deleted":"0","num_feature":"46","num_nodes":"29","size_leaf_vector":"1"}},{"base_weights":[3.7038336E-3,-2.7984935E-1,3.8217866E-1,2.841359E-2,-3.8433698E-1,1.0997432E-1,4.7712618E-1,-2.0446716E-2,1.2698174E-1,-4.022739E-1,-6.352345E-3,1.894506E-2,2.8284812E-2,5.576956E-2,3.2355458E-1,2.1231854E-1,-8.255245E-3,-8.348637E-3,-4.1797844E-1,-1.4920558E-2,1.01350196E-1,4.3874953E-2,1.8985383E-1,4.427028E-4,3.436081E-2,-1.5964089E-2,-4.3650523E-2,2.0065403E-2,-5.06386E-3,2.939855E-2,-9.027091E-5],"categories":[],"categories_nodes":[],"categories_segments":[],"categories_sizes":[],"default_left":[0,0,0,0,0,0,0,0,0,0,0,0,0,0,0,0,0,0,0,0,0,0,0,0,0,0,0,0,0,0,0],"id":21,"left_children":[1,3,5,7,9,11,13,-1,15,17,-1,19,-1,-1,21,23,-1,-1,25,-1,27,-1,29,-1,-1,-1,-1,-1,-1,-1,-1],"loss_changes":[1.020098E1,1.7614818E0,9.996424E-1,3.6315727E-1,2.0841742E-1,1.8075724E-1,1.8928337E-1,0E0,2.1310948E-1,1.5694475E-1,0E0,1.3732536E-1,0E0,0E0,1.1175251E-1,2.1826258E-1,0E0,0E0,1.039114E-1,0E0,1.084797E-1,0E0,1.5170938E-1,0E0,0E0,0E0,0E0,0E0,0E0,0E0,0E0],"parents":[2147483647,0,0,1,1,2,2,3,3,4,4,5,5,6,6,8,8,9,9,11,11,14,14,15,15,18,18,20,20,22,22],"right_children":[2,4,6,8,10,12,14,-1,16,18,-1,20,-1,-1,22,24,-1,-1,26,-1,28,-1,30,-1,-1,-1,-1,-1,-1,-1,-1],"split_conditions":[1.30174675E1,-8.9976E-1,-2.4559572E-1,-8.715547E-1,-5.5538E-1,1.5531589E-2,-6.629315E-1,-2.0446716E-2,9.643437E-2,-7.675061E-2,-6.352345E-3,-3.869476E-1,2.8284812E-2,5.576956E-2,1.5945605E1,-1.4905584E0,-8.255245E-3,-8.348637E-3,-1.8687727E0,-1.4920558E-2,4.5668758E-3,4.3874953E-2,-5.5527824E-1,4.427028E-4,3.436081E-2,-1.5964089E-2,-4.3650523E-2,2.0065403E-2,-5.06386E-3,2.939855E-2,-9.027091E-5],"split_indices":[18,20,1,35,15,42,3,0,12,26,0,38,0,0,18,1,0,0,8,0,26,0,2,0,0,0,0,0,0,0,0],"split_type":[0,0,0,0,0,0,0,0,0,0,0,0,0,0,0,0,0,0,0,0,0,0,0,0,0,0,0,0,0,0,0],"sum_hessian":[9.3057396E1,5.334896E1,3.970843E1,1.3689576E1,3.9659386E1,1.082696E1,2.8881472E1,3.7515802E0,9.937996E0,3.7318935E1,2.3404496E0,7.8192215E0,3.0077379E0,1.7217192E1,1.1664281E1,7.052459E0,2.8855374E0,2.048679E0,3.5270256E1,2.3050497E0,5.5141716E0,5.0401597E0,6.624121E0,3.1299825E0,3.9224763E0,3.003685E0,3.226657E1,3.1414654E0,2.3727064E0,3.934934E0,2.6891875E0],"tree_param":{"num_deleted":"0","num_feature":"46","num_nodes":"31","size_leaf_vector":"1"}},{"base_weights":[-4.153698E-3,-2.3703744E-1,4.2353138E-1,-4.298659E-1,-7.579666E-2,2.7378768E-1,5.5527937E-2,-7.696278E-3,-4.5714013E-2,-1.1328297E-1,2.27465E-2,3.1613246E-1,-2.2800802E-3,-1.8433775E-1,6.2029276E-2,3.6851387E-2,7.6372945E-3,-3.1295978E-2,-2.5920153E-1,-1.1864304E-2,1.5901433E-1,-2.1777838E-2,6.956043E-3,-3.564901E-2,-1.1537112E-2,-1.2531033E-3,3.074126E-2],"categories":[],"categories_nodes":[],"categories_segments":[],"categories_sizes":[],"default_left":[0,0,0,0,0,0,0,0,0,0,0,0,0,0,0,0,0,0,0,0,0,0,0,0,0,0,0],"id":22,"left_children":[1,3,5,7,9,11,-1,-1,-1,13,-1,15,-1,17,19,-1,-1,21,23,-1,25,-1,-1,-1,-1,-1,-1],"loss_changes":[8.852002E0,1.7561448E0,4.6618748E-1,2.1492529E-1,3.9575106E-1,2.161783E-1,0E0,0E0,0E0,3.8056222E-1,0E0,1.5556216E-1,0E0,2.3636478E-1,1.817307E-1,0E0,0E0,1.6836932E-1,1.5745384E-1,0E0,1.6869459E-1,0E0,0E0,0E0,0E0,0E0,0E0],"parents":[2147483647,0,0,1,1,2,2,3,3,4,4,5,5,9,9,11,11,13,13,14,14,17,17,18,18,20,20],"right_children":[2,4,6,8,10,12,-1,-1,-1,14,-1,16,-1,18,20,-1,-1,22,24,-1,26,-1,-1,-1,-1,-1,-1],"split_conditions":[1.230356E0,-3.6411464E-1,8.019278E0,-1.8687727E0,1.3789283E0,3.6035176E-2,5.5527937E-2,-7.696278E-3,-4.5714013E-2,-6.5866847E0,2.27465E-2,1.2197679E0,-2.2800802E-3,-3.019709E-1,-3.6610243E-1,3.6851387E-2,7.6372945E-3,-4.54108E-1,6.62954E-3,-1.1864304E-2,9.9204445E-1,-2.1777838E-2,6.956043E-3,-3.564901E-2,-1.1537112E-2,-1.2531033E-3,3.074126E-2],"split_indices":[4,2,0,8,5,13,0,0,0,16,0,36,0,32,38,0,0,40,29,0,24,0,0,0,0,0,0],"split_type":[0,0,0,0,0,0,0,0,0,0,0,0,0,0,0,0,0,0,0,0,0,0,0,0,0,0,0],"sum_hessian":[8.6866776E1,5.6530476E1,3.0336296E1,2.4984922E1,3.1545553E1,1.5639118E1,1.4697178E1,2.0666163E0,2.2918306E1,2.8632704E1,2.9128509E0,1.3627574E1,2.011544E0,2.0338102E1,8.2946E0,1.07434E1,2.884175E0,7.146587E0,1.3191516E1,2.8192816E0,5.4753184E0,2.101551E0,5.0450363E0,6.9869304E0,6.2045856E0,2.9642563E0,2.511062E0],"tree_param":{"num_deleted":"0","num_feature":"46","num_nodes":"27","size_leaf_vector":"1"}},{"base_weights":[-6.880709E-3,-2.2466263E-1,4.2774266E-1,-7.32761E-2,-4.0159333E-1,5.2785512E-2,2.851094E-1,-1.06909946E-1,2.0955732E-2,-8.15212E-3,-4.247588E-2,7.545852E-2,3.7153523E-2,-1.8787019E-1,5.2813098E-2,1.8970959E-2,-7.554717E-3,-2.2967038E-1,7.235168E-3,1.6780771E-1,-1.0718084E-2,-2.8975531E-2,-9.787704E-3,2.8703306E-2,-6.078962E-3],"categories":[],"categories_nodes":[],"categories_segments":[],"categories_sizes":[],"default_left":[0,0,0,0,0,0,0,0,0,0,0,0,0,0,0,0,0,0,0,0,0,0,0,0,0],"id":23,"left_children":[1,3,5,7,9,-1,11,13,-1,-1,-1,15,-1,17,19,-1,-1,21,-1,23,-1,-1,-1,-1,-1],"loss_changes":[8.139574E0,1.5044682E0,2.5948286E-1,3.276167E-1,1.595068E-1,0E0,2.2591615E-1,3.892825E-1,0E0,0E0,0E0,1.0656516E-1,0E0,2.3076987E-1,2.139068E-1,0E0,0E0,1.0786456E-1,0E0,1.9693221E-1,0E0,0E0,0E0,0E0,0E0],"parents":[2147483647,0,0,1,1,2,2,3,3,4,4,6,6,7,7,11,11,13,13,14,14,17,17,19,19],"right_children":[2,4,6,8,10,-1,12,14,-1,-1,-1,16,-1,18,20,-1,-1,22,-1,24,-1,-1,-1,-1,-1],"split_conditions":[1.3108788E1,-3.903969E-1,-6.784806E-1,1.3789283E0,-1.1908696E0,5.2785512E-2,-4.4524512E-1,-6.587123E0,2.0955732E-2,-8.15212E-3,-4.247588E-2,-4.5320132E-1,3.7153523E-2,1.387404E0,-4.255437E-1,1.8970959E-2,-7.554717E-3,9.925986E-1,7.235168E-3,-1.9037257E-1,-1.0718084E-2,-2.8975531E-2,-9.787704E-3,2.8703306E-2,-6.078962E-3],"split_indices":[18,20,2,5,34,0,40,18,0,0,0,41,0,9,40,0,0,5,0,31,0,0,0,0,0],"split_type":[0,0,0,0,0,0,0,0,0,0,0,0,0,0,0,0,0,0,0,0,0,0,0,0,0],"sum_hessian":[8.397847E1,5.626712E1,2.7711351E1,3.1084534E1,2.5182587E1,1.4695782E1,1.301557E1,2.8336798E1,2.747737E0,2.0045948E0,2.3177992E1,4.3460546E0,8.669515E0,1.8688013E1,9.648784E0,2.328216E0,2.0178385E0,1.6202728E1,2.4852858E0,5.585444E0,4.06334E0,1.030575E1,5.8969774E0,3.5028825E0,2.0825615E0],"tree_param":{"num_deleted":"0","num_feature":"46","num_nodes":"25","size_leaf_vector":"1"}},{"base_weights":[-6.7985095E-3,-1.9847748E-1,4.369412E-1,-4.2895682E-2,-4.032291E-2,5.1942896E-2,2.901375E-1,-1.4607635E-1,5.2489232E-2,4.2445816E-2,1.4868034E-1,-2.7693552E-1,7.414895E-2,1.0507469E-1,-1.3031185E-2,-3.1446302E-4,2.4574539E-2,-3.7674125E-2,-9.8444745E-2,2.1308847E-2,-1.0326302E-2,2.665463E-2,2.3315024E-2,6.7834333E-3,-2.298939E-2,-9.69172E-3,1.2582632E-2],"categories":[],"categories_nodes":[],"categories_segments":[],"categories_sizes":[],"default_left":[0,0,0,0,0,0,0,0,0,0,0,0,0,0,0,0,0,0,0,0,0,0,0,0,0,0,0],"id":24,"left_children":[1,3,5,7,-1,-1,9,11,13,-1,15,17,19,21,-1,-1,-1,-1,23,-1,-1,-1,25,-1,-1,-1,-1],"loss_changes":[6.913149E0,1.7900481E0,1.4625502E-1,3.3597043E-1,0E0,0E0,1.475609E-1,4.8994166E-1,1.8738736E-1,0E0,1.0303837E-1,1.4868844E-1,1.9109873E-1,1.8635128E-1,0E0,0E0,0E0,0E0,1.2692901E-1,0E0,0E0,0E0,1.4504883E-1,0E0,0E0,0E0,0E0],"parents":[2147483647,0,0,1,1,2,2,3,3,6,6,7,7,8,8,10,10,11,11,12,12,13,13,18,18,22,22],"right_children":[2,4,6,8,-1,-1,10,12,14,-1,16,18,20,22,-1,-1,-1,-1,24,-1,-1,-1,26,-1,-1,-1,-1],"split_conditions":[1.3163136E1,-2.526318E0,-4.3711576E-1,-6.1917E-1,-4.032291E-2,5.1942896E-2,1.5945605E1,3.9008155E-1,3.1467147E-2,4.2445816E-2,6.4699336E-5,-2.245429E-1,-1.5330296E-2,-4.086827E-2,-1.3031185E-2,-3.1446302E-4,2.4574539E-2,-3.7674125E-2,-1.2902912E1,2.1308847E-2,-1.0326302E-2,2.665463E-2,3.159565E-1,6.7834333E-3,-2.298939E-2,-9.69172E-3,1.2582632E-2],"split_indices":[18,0,22,4,0,0,18,29,13,0,42,6,25,19,0,0,0,0,0,0,0,0,44,0,0,0,0],"split_type":[0,0,0,0,0,0,0,0,0,0,0,0,0,0,0,0,0,0,0,0,0,0,0,0,0,0,0],"sum_hessian":[7.925842E1,5.573549E1,2.3522932E1,3.2357754E1,2.3377737E1,1.3435425E1,1.0087506E1,1.52884E1,1.7069353E1,4.1480823E0,5.939424E0,9.42845E0,5.85995E0,1.358626E1,3.483094E0,2.6936834E0,3.245741E0,5.3347454E0,4.0937037E0,3.1735232E0,2.6864269E0,3.8071644E0,9.779096E0,2.021067E0,2.0726368E0,4.525662E0,5.2534337E0],"tree_param":{"num_deleted":"0","num_feature":"46","num_nodes":"27","size_leaf_vector":"1"}},{"base_weights":[-8.521466E-3,-2.740313E-1,3.2655987E-1,1.3900703E-2,-3.5247657E-1,6.971904E-2,4.376949E-1,-7.2505765E-2,2.416767E-2,-4.261966E-1,-2.345934E-1,1.0334251E-2,2.267099E-2,3.1490737E-1,5.3435236E-2,9.315142E-3,-1.6751687E-1,-4.5991886E-2,-1.24994125E-2,-3.1287327E-1,-6.7202464E-2,8.231194E-3,-1.2701395E-2,1.3255732E-1,3.9706808E-2,-2.7319122E-2,6.5163587E-4,-6.4494E-3,-3.811527E-2,-1.9940017E-2,5.405174E-3,-3.998431E-3,2.4530536E-2],"categories":[],"categories_nodes":[],"categories_segments":[],"categories_sizes":[],"default_left":[0,0,0,0,0,0,0,0,0,0,0,0,0,0,0,0,0,0,0,0,0,0,0,0,0,0,0,0,0,0,0,0,0],"id":25,"left_children":[1,3,5,7,9,11,13,15,-1,17,19,21,-1,23,-1,-1,25,-1,-1,27,29,-1,-1,31,-1,-1,-1,-1,-1,-1,-1,-1,-1],"loss_changes":[6.9817877E0,9.934313E-1,9.6008277E-1,2.2088526E-1,1.9925117E-1,1.0646193E-1,1.1696625E-1,1.4561504E-1,0E0,1.4525509E-1,1.8171644E-1,1.04524486E-1,0E0,1.4244485E-1,0E0,0E0,1.0489465E-1,0E0,0E0,1.4957023E-1,1.1022008E-1,0E0,0E0,1.1769123E-1,0E0,0E0,0E0,0E0,0E0,0E0,0E0,0E0,0E0],"parents":[2147483647,0,0,1,1,2,2,3,3,4,4,5,5,6,6,7,7,9,9,10,10,11,11,13,13,16,16,19,19,20,20,23,23],"right_children":[2,4,6,8,10,12,14,16,-1,18,20,22,-1,24,-1,-1,26,-1,-1,28,30,-1,-1,32,-1,-1,-1,-1,-1,-1,-1,-1,-1],"split_conditions":[-6.547878E0,-8.9976E-1,-2.3461822E-1,1.375191E0,2.5167108E-2,3.701085E-2,8.060134E0,-4.504609E-1,2.416767E-2,5.833415E-2,3.3230397E-1,1.0689114E-3,2.267099E-2,-4.4524512E-1,5.3435236E-2,9.315142E-3,-6.4692354E-1,-4.5991886E-2,-1.24994125E-2,-7.105172E-1,5.39932E-3,8.231194E-3,-1.2701395E-2,3.413894E-2,3.9706808E-2,-2.7319122E-2,6.5163587E-4,-6.4494E-3,-3.811527E-2,-1.9940017E-2,5.405174E-3,-3.998431E-3,2.4530536E-2],"split_indices":[18,20,1,5,22,39,0,41,0,45,29,39,0,40,0,0,11,0,0,37,27,0,0,24,0,0,0,0,0,0,0,0,0],"split_type":[0,0,0,0,0,0,0,0,0,0,0,0,0,0,0,0,0,0,0,0,0,0,0,0,0,0,0,0,0,0,0,0,0],"sum_hessian":[7.6469955E1,4.2765705E1,3.370425E1,9.332759E0,3.3432945E1,1.0670745E1,2.3033506E1,7.2602673E0,2.0724914E0,1.8960373E1,1.4472573E1,8.515444E0,2.1553018E0,1.2020898E1,1.1012609E1,2.6534326E0,4.6068344E0,1.657744E1,2.3829331E0,9.268888E0,5.2036853E0,5.85029E0,2.6651535E0,4.545613E0,7.475285E0,2.511853E0,2.0949817E0,2.4178958E0,6.850992E0,2.181174E0,3.0225115E0,2.0515032E0,2.4941094E0],"tree_param":{"num_deleted":"0","num_feature":"46","num_nodes":"33","size_leaf_vector":"1"}},{"base_weights":[1.4836162E-2,-2.275069E-1,3.4547544E-1,-3.7835637E-1,-6.600853E-2,2.1422045E-1,5.060641E-2,-1.0532435E-2,-4.030144E-1,-1.1358703E-1,2.1276867E-2,2.5476965E-1,-2.086468E-3,-1.0846741E-2,-4.312842E-2,1.2548374E-2,-1.490711E-1,3.16787E-2,6.596743E-2,-2.2881387E-2,-2.3381824E-2,-1.0162532E-2,2.1547442E-2,1.20383045E-2,-1.4480195E-2],"categories":[],"categories_nodes":[],"categories_segments":[],"categories_sizes":[],"default_left":[0,0,0,0,0,0,0,0,0,0,0,0,0,0,0,0,0,0,0,0,0,0,0,0,0],"id":26,"left_children":[1,3,5,7,9,11,-1,-1,13,15,-1,17,-1,-1,-1,-1,19,-1,21,23,-1,-1,-1,-1,-1],"loss_changes":[5.940604E0,1.0181718E0,5.5216074E-1,1.0518098E-1,3.1452245E-1,1.8622941E-1,0E0,0E0,1.17738724E-1,1.828672E-1,0E0,1.6951811E-1,0E0,0E0,0E0,0E0,1.7973861E-1,0E0,1.542953E-1,1.5824921E-1,0E0,0E0,0E0,0E0,0E0],"parents":[2147483647,0,0,1,1,2,2,3,3,4,4,5,5,8,8,9,9,11,11,16,16,18,18,19,19],"right_children":[2,4,6,8,10,12,-1,-1,14,16,-1,18,-1,-1,-1,-1,20,-1,22,24,-1,-1,-1,-1,-1],"split_conditions":[1.3035927E1,-2.0760873E-1,7.9389095E0,-7.074167E-2,1.3789283E0,1.0500518E0,5.060641E-2,-1.0532435E-2,-1.1831508E0,-6.8622775E-2,2.1276867E-2,1.28869095E1,-2.086468E-3,-1.0846741E-2,-4.312842E-2,1.2548374E-2,-6.6784817E-1,3.16787E-2,9.950172E-2,-1.18693635E-2,-2.3381824E-2,-1.0162532E-2,2.1547442E-2,1.20383045E-2,-1.4480195E-2],"split_indices":[18,3,0,25,5,5,0,0,34,17,0,14,0,0,0,0,36,0,10,39,0,0,0,0,0],"split_type":[0,0,0,0,0,0,0,0,0,0,0,0,0,0,0,0,0,0,0,0,0,0,0,0,0],"sum_hessian":[7.2157906E1,4.1818687E1,3.0339218E1,2.0927925E1,2.0890762E1,1.7978613E1,1.2360604E1,2.1701229E0,1.8757803E1,1.8351322E1,2.5394404E0,1.5262323E1,2.716291E0,2.0662384E0,1.6691565E1,2.0439634E0,1.630736E1,1.0978314E1,4.2840085E0,7.0619736E0,9.245385E0,2.1708336E0,2.1131747E0,3.252587E0,3.8093865E0],"tree_param":{"num_deleted":"0","num_feature":"46","num_nodes":"25","size_leaf_vector":"1"}},{"base_weights":[2.7118527E-4,-2.4473572E-1,3.4276104E-1,2.9739324E-2,-3.3660564E-1,2.009066E-1,5.136552E-2,2.1784743E-2,-8.742016E-2,-3.603029E-1,-5.52743E-4,2.4018328E-1,2.4277715E-3,1.739478E-2,-2.2275362E-2,-9.281086E-3,-3.792405E-2,2.7624587E-2,1.2996619E-3],"categories":[],"categories_nodes":[],"categories_segments":[],"categories_sizes":[],"default_left":[0,0,0,0,0,0,0,0,0,0,0,0,0,0,0,0,0,0,0],"id":27,"left_children":[1,3,5,7,9,11,-1,-1,13,15,-1,17,-1,-1,-1,-1,-1,-1,-1],"loss_changes":[5.9082637E0,1.0450552E0,6.0862565E-1,2.661502E-1,2.3992682E-1,1.16871774E-1,0E0,0E0,3.0837932E-1,1.1048865E-1,0E0,1.1403704E-1,0E0,0E0,0E0,0E0,0E0,0E0,0E0],"parents":[2147483647,0,0,1,1,2,2,3,3,4,4,5,5,8,8,9,9,11,11],"right_children":[2,4,6,8,10,12,-1,-1,14,16,-1,18,-1,-1,-1,-1,-1,-1,-1],"split_conditions":[1.30174675E1,-8.9976E-1,7.9389095E0,-7.8781724E-1,-9.670099E-2,9.117558E-1,5.136552E-2,2.1784743E-2,-2.2534676E-2,-2.8724846E-1,-5.52743E-4,1.7770891E-1,2.4277715E-3,1.739478E-2,-2.2275362E-2,-9.281086E-3,-3.792405E-2,2.7624587E-2,1.2996619E-3],"split_indices":[18,20,0,36,31,5,0,0,19,30,0,20,0,0,0,0,0,0,0],"split_type":[0,0,0,0,0,0,0,0,0,0,0,0,0,0,0,0,0,0,0],"sum_hessian":[6.841023E1,4.0047142E1,2.8363094E1,1.0212391E1,2.983475E1,1.6687168E1,1.1675927E1,3.5896065E0,6.6227846E0,2.775956E1,2.0751896E0,1.3357143E1,3.330024E0,2.1620042E0,4.4607806E0,2.2254987E0,2.5534061E1,1.1340983E1,2.0161595E0],"tree_param":{"num_deleted":"0","num_feature":"46","num_nodes":"19","size_leaf_vector":"1"}},{"base_weights":[-2.3389628E-2,-2.9254875E-1,3.0479997E-1,-1.1977756E-1,-4.0209148E-2,7.467157E-2,4.0486485E-1,-2.060195E-2,4.990502E-2,1.5271783E-2,-7.9915635E-3,2.790529E-1,5.1224303E-2,-1.20267E-2,1.8026425E-2,5.981322E-3,3.7176814E-2],"categories":[],"categories_nodes":[],"categories_segments":[],"categories_sizes":[],"default_left":[0,0,0,0,0,0,0,0,0,0,0,0,0,0,0,0,0],"id":28,"left_children":[1,3,5,7,-1,9,11,-1,13,-1,-1,15,-1,-1,-1,-1,-1],"loss_changes":[5.6292768E0,6.136284E-1,6.318004E-1,2.2967497E-1,0E0,1.3211335E-1,1.24688864E-1,0E0,1.5161148E-1,0E0,0E0,2.0784318E-1,0E0,0E0,0E0,0E0,0E0],"parents":[2147483647,0,0,1,1,2,2,3,3,5,5,6,6,8,8,11,11],"right_children":[2,4,6,8,-1,10,12,-1,14,-1,-1,16,-1,-1,-1,-1,-1],"split_conditions":[-5.3150123E-1,-7.647453E0,-2.3461822E-1,3.0401963E-1,-4.0209148E-2,5.6197304E-1,8.1586224E-1,-2.060195E-2,-6.5302235E-1,1.5271783E-2,-7.9915635E-3,-4.4524512E-1,5.1224303E-2,-1.20267E-2,1.8026425E-2,5.981322E-3,3.7176814E-2],"split_indices":[15,0,1,29,0,33,1,0,15,0,0,40,0,0,0,0,0],"split_type":[0,0,0,0,0,0,0,0,0,0,0,0,0,0,0,0,0],"sum_hessian":[6.171686E1,3.3967552E1,2.774931E1,1.3992291E1,1.997526E1,8.938605E0,1.8810705E1,9.135159E0,4.857133E0,5.9478264E0,2.9907794E0,1.0319006E1,8.491698E0,2.140424E0,2.716709E0,3.5558257E0,6.7631803E0],"tree_param":{"num_deleted":"0","num_feature":"46","num_nodes":"17","size_leaf_vector":"1"}},{"base_weights":[7.2072633E-3,-2.224306E-1,3.2288852E-1,2.0352188E-2,-2.9985443E-1,4.194615E-2,5.519764E-3,-1.6890597E-2,1.0368413E-1,-4.5871073E-3,-3.1988418E-1,-2.5698203E-3,2.23125E-2,-1.6235232E-1,-3.7639294E-2,-2.7628211E-2,7.2202655E-3],"categories":[],"categories_nodes":[],"categories_segments":[],"categories_sizes":[],"default_left":[0,0,0,0,0,0,0,0,0,0,0,0,0,0,0,0,0],"id":29,"left_children":[1,3,5,7,9,-1,-1,-1,11,-1,13,-1,-1,15,-1,-1,-1],"loss_changes":[4.6042333E0,6.975758E-1,6.680343E-1,1.7256083E-1,1.275394E-1,0E0,0E0,0E0,1.20790005E-1,0E0,1.6806388E-1,0E0,0E0,2.4856713E-1,0E0,0E0,0E0],"parents":[2147483647,0,0,1,1,2,2,3,3,4,4,8,8,10,10,13,13],"right_children":[2,4,6,8,10,-1,-1,-1,12,-1,14,-1,-1,16,-1,-1,-1],"split_conditions":[1.30174675E1,-8.9976E-1,4.5296445E-1,-2.1808769E-1,-7.0876844E-2,4.194615E-2,5.519764E-3,-1.6890597E-2,1.8801752E-1,-4.5871073E-3,5.7882763E-2,-2.5698203E-3,2.23125E-2,1.9283013E-2,-3.7639294E-2,-2.7628211E-2,7.2202655E-3],"split_indices":[18,20,24,31,26,0,0,0,29,0,12,0,0,19,0,0,0],"split_type":[0,0,0,0,0,0,0,0,0,0,0,0,0,0,0,0,0],"sum_hessian":[6.1522625E1,3.5786E1,2.5736624E1,8.831052E0,2.6954948E1,1.8496727E1,7.2398953E0,2.3857603E0,6.445291E0,2.2108474E0,2.47441E1,3.4706323E0,2.9746587E0,7.5551987E0,1.7188902E1,4.965446E0,2.5897524E0],"tree_param":{"num_deleted":"0","num_feature":"46","num_nodes":"17","size_leaf_vector":"1"}},{"base_weights":[-2.216689E-2,-2.1476999E-1,3.8818777E-1,-6.279716E-2,-4.1876115E-2,6.4725876E-3,4.252417E-2,-2.5708333E-2,-2.5242079E-2,9.412974E-2,-9.6433595E-2,-3.491144E-3,2.1277139E-2,-1.7273584E-2,5.813816E-3],"categories":[],"categories_nodes":[],"categories_segments":[],"categories_sizes":[],"default_left":[0,0,0,0,0,0,0,0,0,0,0,0,0,0,0],"id":30,"left_children":[1,3,5,7,-1,-1,-1,9,-1,11,13,-1,-1,-1,-1],"loss_changes":[4.6144094E0,1.2032144E0,1.9623184E-1,1.6162825E-1,0E0,0E0,0E0,1.8797268E-1,0E0,1.3510628E-1,1.724182E-1,0E0,0E0,0E0,0E0],"parents":[2147483647,0,0,1,1,2,2,3,3,7,7,9,9,10,10],"right_children":[2,4,6,8,-1,-1,-1,10,-1,12,14,-1,-1,-1,-1],"split_conditions":[1.230356E0,-2.526318E0,-2.3461822E-1,1.5819874E0,-4.1876115E-2,6.4725876E-3,4.252417E-2,-4.4629148E-1,-2.5242079E-2,-6.3774185E0,3.1471267E-2,-3.491144E-3,2.1277139E-2,-1.7273584E-2,5.813816E-3],"split_indices":[4,0,1,36,0,0,0,21,0,14,7,0,0,0,0],"split_type":[0,0,0,0,0,0,0,0,0,0,0,0,0,0,0],"sum_hessian":[5.6329094E1,3.866024E1,1.7668856E1,2.290438E1,1.5755857E1,2.098327E0,1.5570528E1,2.010716E1,2.7972205E0,7.3397107E0,1.276745E1,3.8538222E0,3.4858887E0,8.469222E0,4.2982287E0],"tree_param":{"num_deleted":"0","num_feature":"46","num_nodes":"15","size_leaf_vector":"1"}},{"base_weights":[-1.21129975E-2,-2.431029E-1,2.86508E-1,3.5551548E-2,-3.243653E-1,1.5687369E-1,4.7829643E-2,1.2611396E-2,-1.14594875E-2,-3.7652126E-1,-1.942167E-1,2.1134733E-1,-6.728904E-4,-4.1503783E-2,-1.0520226E-2,1.2928144E-3,-2.9868886E-2,2.7290145E-2,3.4396206E-3],"categories":[],"categories_nodes":[],"categories_segments":[],"categories_sizes":[],"default_left":[0,0,0,0,0,0,0,0,0,0,0,0,0,0,0,0,0,0,0],"id":31,"left_children":[1,3,5,7,9,11,-1,-1,-1,13,15,17,-1,-1,-1,-1,-1,-1,-1],"loss_changes":[4.058925E0,7.6219547E-1,5.6351256E-1,1.2848128E-1,1.0176301E-1,1.512587E-1,0E0,0E0,0E0,1.374209E-1,2.0807281E-1,1.2833256E-1,0E0,0E0,0E0,0E0,0E0,0E0,0E0],"parents":[2147483647,0,0,1,1,2,2,3,3,4,4,5,5,9,9,10,10,11,11],"right_children":[2,4,6,8,10,12,-1,-1,-1,14,16,18,-1,-1,-1,-1,-1,-1,-1],"split_conditions":[1.2725606E1,-8.9976E-1,7.9389095E0,9.567127E-2,-3.6411464E-1,1.2656779E0,4.7829643E-2,1.2611396E-2,-1.14594875E-2,2.366837E1,-1.718032E-1,8.159272E-1,-6.728904E-4,-4.1503783E-2,-1.0520226E-2,1.2928144E-3,-2.9868886E-2,2.7290145E-2,3.4396206E-3],"split_indices":[14,20,0,12,2,36,0,0,0,0,2,24,0,0,0,0,0,0,0],"split_type":[0,0,0,0,0,0,0,0,0,0,0,0,0,0,0,0,0,0,0],"sum_hessian":[5.6833652E1,3.215047E1,2.468318E1,7.3859715E0,2.47645E1,1.5812852E1,8.870328E0,4.706972E0,2.6789997E0,1.6328129E1,8.436372E0,1.1643995E1,4.168856E0,1.3834476E1,2.4936519E0,3.1221337E0,5.3142376E0,8.236581E0,3.4074144E0],"tree_param":{"num_deleted":"0","num_feature":"46","num_nodes":"19","size_leaf_vector":"1"}},{"base_weights":[-2.073821E-2,-2.0359348E-1,3.9842278E-1,-3.471635E-1,-8.211346E-2,4.8470642E-2,2.2147087E-2,-4.0743895E-2,-1.5615259E-1,-2.31881E-2,-1.9954915E-1,7.288241E-3,-3.1007472E-2,-1.0681654E-2,6.333103E-3,-9.573029E-4,-3.017568E-2],"categories":[],"categories_nodes":[],"categories_segments":[],"categories_sizes":[],"default_left":[0,0,0,0,0,0,0,0,0,0,0,0,0,0,0,0,0],"id":32,"left_children":[1,3,5,7,9,-1,-1,-1,11,13,15,-1,-1,-1,-1,-1,-1],"loss_changes":[4.218045E0,6.3847315E-1,1.4812231E-1,1.346097E-1,1.4778152E-1,0E0,0E0,0E0,2.2535588E-1,1.21065125E-1,1.3744414E-1,0E0,0E0,0E0,0E0,0E0,0E0],"parents":[2147483647,0,0,1,1,2,2,3,3,4,4,8,8,9,9,10,10],"right_children":[2,4,6,8,10,-1,-1,-1,12,14,16,-1,-1,-1,-1,-1,-1],"split_conditions":[1.3115076E1,-2.4582064E-1,-3.1364676E-1,5.54612E-1,2.994145E-1,4.8470642E-2,2.2147087E-2,-4.0743895E-2,-1.4661961E-2,-6.8375576E-1,-2.363492E-1,7.288241E-3,-3.1007472E-2,-1.0681654E-2,6.333103E-3,-9.573029E-4,-3.017568E-2],"split_indices":[18,3,22,44,33,0,0,0,28,33,30,0,0,0,0,0,0],"split_type":[0,0,0,0,0,0,0,0,0,0,0,0,0,0,0,0,0],"sum_hessian":[5.2974636E1,3.72423E1,1.573234E1,1.6217735E1,2.102456E1,9.406454E0,6.3258853E0,1.1466348E1,4.751388E0,1.4797246E1,6.2273154E0,2.1213431E0,2.6300447E0,7.405028E0,7.392218E0,2.5609224E0,3.6663933E0],"tree_param":{"num_deleted":"0","num_feature":"46","num_nodes":"17","size_leaf_vector":"1"}},{"base_weights":[-7.9069575E-3,-2.3489664E-1,3.0478385E-1,-8.68531E-5,-3.099441E-1,6.257134E-3,4.078144E-2,-2.2774285E-1,-4.1578207E-2,-2.7054122E-2,3.9907317E-3],"categories":[],"categories_nodes":[],"categories_segments":[],"categories_sizes":[],"default_left":[0,0,0,0,0,0,0,0,0,0,0],"id":33,"left_children":[1,3,5,-1,7,-1,-1,9,-1,-1,-1],"loss_changes":[3.8578808E0,5.524932E-1,5.452621E-1,0E0,1.1261201E-1,0E0,0E0,1.8975484E-1,0E0,0E0,0E0],"parents":[2147483647,0,0,1,1,2,2,4,4,7,7],"right_children":[2,4,6,-1,8,-1,-1,10,-1,-1,-1],"split_conditions":[1.30174675E1,-8.312894E-1,-2.3461822E-1,-8.68531E-5,5.1111925E-1,6.257134E-3,4.078144E-2,4.3618417E-1,-4.1578207E-2,-2.7054122E-2,3.9907317E-3],"split_indices":[18,1,1,0,20,0,0,1,0,0,0],"split_type":[0,0,0,0,0,0,0,0,0,0,0],"sum_hessian":[5.234484E1,3.0472744E1,2.1872097E1,7.6447887E0,2.2827953E1,7.0069346E0,1.4865163E1,1.4622723E1,8.205232E0,1.2597524E1,2.025199E0],"tree_param":{"num_deleted":"0","num_feature":"46","num_nodes":"11","size_leaf_vector":"1"}},{"base_weights":[1.8276868E-2,-2.0382397E-1,2.9519E-1,-3.4946967E-2,-5.288599E-2,4.743981E-2,1.5510893E-2,1.0488629E-2,-1.6650696E-1,-2.679926E-2,1.5335995E-3],"categories":[],"categories_nodes":[],"categories_segments":[],"categories_sizes":[],"default_left":[0,0,0,0,0,0,0,0,0,0,0],"id":34,"left_children":[1,3,5,-1,7,-1,-1,-1,9,-1,-1],"loss_changes":[3.2297008E0,6.2320065E-1,5.1247644E-1,0E0,2.9554614E-1,0E0,0E0,0E0,1.7766613E-1,0E0,0E0],"parents":[2147483647,0,0,1,1,2,2,4,4,8,8],"right_children":[2,4,6,-1,8,-1,-1,-1,10,-1,-1],"split_conditions":[-6.547878E0,-2.3079732E-1,-6.5339047E-1,-3.4946967E-2,-6.7902905E-1,4.743981E-2,1.5510893E-2,1.0488629E-2,1.8644733E0,-2.679926E-2,1.5335995E-3],"split_indices":[18,3,3,0,36,0,0,0,2,0,0],"split_type":[0,0,0,0,0,0,0,0,0,0,0],"sum_hessian":[5.0534924E1,2.8189339E1,2.2345585E1,1.3676782E1,1.4512557E1,8.756566E0,1.358902E1,6.1079836E0,8.404573E0,5.090072E0,3.3145013E0],"tree_param":{"num_deleted":"0","num_feature":"46","num_nodes":"11","size_leaf_vector":"1"}},{"base_weights":[4.108772E-3,-2.0085315E-1,2.7022448E-1,4.0068612E-3,-2.8294573E-2,1.6185634E-1,4.927526E-2,6.0978658E-3,2.3878859E-1,6.8266294E-3,3.2463152E-2],"categories":[],"categories_nodes":[],"categories_segments":[],"categories_sizes":[],"default_left":[0,0,0,0,0,0,0,0,0,0,0],"id":35,"left_children":[1,3,5,-1,-1,7,-1,-1,9,-1,-1],"loss_changes":[2.8312905E0,5.915257E-1,4.647243E-1,0E0,0E0,1.1483553E-1,0E0,0E0,1.1128473E-1,0E0,0E0],"parents":[2147483647,0,0,1,1,2,2,5,5,8,8],"right_children":[2,4,6,-1,-1,8,-1,-1,10,-1,-1],"split_conditions":[8.9766103E-1,-8.9976E-1,1.7749883E0,4.0068612E-3,-2.8294573E-2,-2.3461822E-1,4.927526E-2,6.0978658E-3,-4.4524512E-1,6.8266294E-3,3.2463152E-2],"split_indices":[4,20,4,0,0,1,0,0,40,0,0],"split_type":[0,0,0,0,0,0,0,0,0,0,0],"sum_hessian":[4.991369E1,2.8335201E1,2.157849E1,7.3313575E0,2.1003843E1,1.5673205E1,5.905283E0,7.5568657E0,8.11634E0,3.3188572E0,4.797483E0],"tree_param":{"num_deleted":"0","num_feature":"46","num_nodes":"11","size_leaf_vector":"1"}},{"base_weights":[6.212761E-3,-1.737938E-1,3.3596626E-1,-3.397436E-2,-2.4207331E-2,4.010306E-2,6.2106093E-3,-1.3346197E-1,5.8455665E-2,-2.2401644E-2,1.1686529E-3,1.4631584E-2,-5.516441E-3],"categories":[],"categories_nodes":[],"categories_segments":[],"categories_sizes":[],"default_left":[0,0,0,0,0,0,0,0,0,0,0,0,0],"id":36,"left_children":[1,3,5,-1,7,-1,-1,9,11,-1,-1,-1,-1],"loss_changes":[2.8158314E0,7.541062E-1,2.7346456E-1,0E0,1.6339137E-1,0E0,0E0,1.0415375E-1,1.1291789E-1,0E0,0E0,0E0,0E0],"parents":[2147483647,0,0,1,1,2,2,4,4,7,7,8,8],"right_children":[2,4,6,-1,8,-1,-1,10,12,-1,-1,-1,-1],"split_conditions":[1.1194707E0,4.5971686E-1,4.0396512E-1,-3.397436E-2,-9.174653E-3,4.010306E-2,6.2106093E-3,1.0085989E0,6.1232164E-3,-2.2401644E-2,1.1686529E-3,1.4631584E-2,-5.516441E-3],"split_indices":[4,5,24,0,28,0,0,5,19,0,0,0,0],"split_type":[0,0,0,0,0,0,0,0,0,0,0,0,0],"sum_hessian":[4.5454597E1,2.970961E1,1.57449875E1,1.3481805E1,1.6227806E1,1.2347159E1,3.3978288E0,6.724969E0,9.502837E0,3.806703E0,2.918266E0,5.1966248E0,4.306212E0],"tree_param":{"num_deleted":"0","num_feature":"46","num_nodes":"13","size_leaf_vector":"1"}},{"base_weights":[9.537612E-4,-1.8897305E-1,2.9274684E-1,-2.6421199E-2,2.9639907E-2,4.830168E-2,1.4859582E-2,-1.1840385E-2,1.0956402E-2],"categories":[],"categories_nodes":[],"categories_segments":[],"categories_sizes":[],"default_left":[0,0,0,0,0,0,0,0,0],"id":37,"left_children":[1,3,5,-1,7,-1,-1,-1,-1],"loss_changes":[2.5609667E0,4.6828806E-1,4.2790556E-1,0E0,1.0842265E-1,0E0,0E0,0E0,0E0],"parents":[2147483647,0,0,1,1,2,2,4,4],"right_children":[2,4,6,-1,8,-1,-1,-1,-1],"split_conditions":[1.3035927E1,9.530377E-1,-5.525054E-1,-2.6421199E-2,-8.7113494E-1,4.830168E-2,1.4859582E-2,-1.1840385E-2,1.0956402E-2],"split_indices":[18,23,22,0,35,0,0,0,0],"split_type":[0,0,0,0,0,0,0,0,0],"sum_hessian":[4.421249E1,2.6994356E1,1.7218134E1,1.9927444E1,7.066912E0,6.4085264E0,1.0809607E1,2.3088207E0,4.7580914E0],"tree_param":{"num_deleted":"0","num_feature":"46","num_nodes":"9","size_leaf_vector":"1"}},{"base_weights":[3.3255413E-3,-1.8446755E-1,2.764079E-1,-2.4872358E-1,6.4263972E-3,4.7191583E-2,1.4423902E-2,-3.048614E-1,-1.1911639E-2,-3.659412E-2,-1.22600235E-2],"categories":[],"categories_nodes":[],"categories_segments":[],"categories_sizes":[],"default_left":[0,0,0,0,0,0,0,0,0,0,0],"id":38,"left_children":[1,3,5,7,-1,-1,-1,9,-1,-1,-1],"loss_changes":[2.3194637E0,4.4447434E-1,4.0802133E-1,1.20198965E-1,0E0,0E0,0E0,1.1509359E-1,0E0,0E0,0E0],"parents":[2147483647,0,0,1,1,2,2,3,3,7,7],"right_children":[2,4,6,8,-1,-1,-1,10,-1,-1,-1],"split_conditions":[-5.3150123E-1,1.8056903E0,-6.784806E-1,5.3771955E-1,6.4263972E-3,4.7191583E-2,1.4423902E-2,2.6570559E-2,-1.1911639E-2,-3.659412E-2,-1.22600235E-2],"split_indices":[15,2,2,44,0,0,0,19,0,0,0],"split_type":[0,0,0,0,0,0,0,0,0,0,0],"sum_hessian":[4.323447E1,2.5809978E1,1.7424492E1,2.0511242E1,5.298736E0,5.991356E0,1.1433136E1,1.3368597E1,7.142645E0,9.258186E0,4.11041E0],"tree_param":{"num_deleted":"0","num_feature":"46","num_nodes":"11","size_leaf_vector":"1"}},{"base_weights":[1.796158E-2,-1.3282959E-1,3.6831252E-2,-2.6495516E-1,-3.3348884E-2,-3.4846704E-2,-7.306943E-3,-9.1215E-2,1.3278137E-2,5.9271213E-3,-1.7723413E-1,-7.059774E-4,-2.523434E-2],"categories":[],"categories_nodes":[],"categories_segments":[],"categories_sizes":[],"default_left":[0,0,0,0,0,0,0,0,0,0,0,0,0],"id":39,"left_children":[1,3,-1,5,7,-1,-1,9,-1,-1,11,-1,-1],"loss_changes":[2.2400038E0,3.819316E-1,0E0,1.7686146E-1,1.8615223E-1,0E0,0E0,1.9198915E-1,0E0,0E0,1.1544421E-1,0E0,0E0],"parents":[2147483647,0,0,1,1,3,3,4,4,7,7,10,10],"right_children":[2,4,-1,6,8,-1,-1,10,-1,-1,12,-1,-1],"split_conditions":[1.3140291E1,-2.3079732E-1,3.6831252E-2,2.3699475E-2,6.8150496E-1,-3.4846704E-2,-7.306943E-3,-3.0076557E-1,1.3278137E-2,5.9271213E-3,-1.1286067E0,-7.059774E-4,-2.523434E-2],"split_indices":[18,3,0,13,29,0,0,32,0,0,20,0,0],"split_type":[0,0,0,0,0,0,0,0,0,0,0,0,0],"sum_hessian":[4.0474316E1,2.8729845E1,1.174447E1,1.1625724E1,1.710412E1,7.531762E0,4.093962E0,1.3019976E1,4.084146E0,4.848579E0,8.171396E0,2.8371916E0,5.334205E0],"tree_param":{"num_deleted":"0","num_feature":"46","num_nodes":"13","size_leaf_vector":"1"}},{"base_weights":[9.041523E-3,-1.8347375E-1,2.750311E-1,-2.9547788E-2,-3.09448E-2,4.6350148E-2,1.4072159E-2,-2.0261422E-2,4.6272366E-3],"categories":[],"categories_nodes":[],"categories_segments":[],"categories_sizes":[],"default_left":[0,0,0,0,0,0,0,0,0],"id":40,"left_children":[1,3,5,7,-1,-1,-1,-1,-1],"loss_changes":[2.164176E0,4.6682245E-1,3.836248E-1,1.6884592E-1,0E0,0E0,0E0,0E0,0E0],"parents":[2147483647,0,0,1,1,2,2,3,3],"right_children":[2,4,6,8,-1,-1,-1,-1,-1],"split_conditions":[-6.547878E0,-7.647453E0,-7.031206E-1,-2.1625037E-1,-3.09448E-2,4.6350148E-2,1.4072159E-2,-2.0261422E-2,4.6272366E-3],"split_indices":[18,0,2,31,0,0,0,0,0],"split_type":[0,0,0,0,0,0,0,0,0],"sum_hessian":[4.0277805E1,2.354608E1,1.6731724E1,1.1152981E1,1.2393099E1,5.9422474E0,1.0789477E1,2.8881695E0,8.2648115E0],"tree_param":{"num_deleted":"0","num_feature":"46","num_nodes":"9","size_leaf_vector":"1"}},{"base_weights":[1.4926434E-2,-1.1584028E-1,3.614419E-2,-2.6518125E-2,-1.065919E-2,1.29081085E-2,-7.142769E-2,-1.9125396E-2,2.1386163E-3],"categories":[],"categories_nodes":[],"categories_segments":[],"categories_sizes":[],"default_left":[0,0,0,0,0,0,0,0,0],"id":41,"left_children":[1,3,-1,-1,5,-1,7,-1,-1],"loss_changes":[1.8540922E0,4.6516427E-1,0E0,0E0,1.6651542E-1,0E0,1.548217E-1,0E0,0E0],"parents":[2147483647,0,0,1,1,4,4,6,6],"right_children":[2,4,-1,-1,6,-1,8,-1,-1],"split_conditions":[1.3163136E1,-2.7614734E-1,3.614419E-2,-2.6518125E-2,-8.339137E-1,1.29081085E-2,-6.206063E-1,-1.9125396E-2,2.1386163E-3],"split_indices":[18,2,0,0,36,0,15,0,0],"split_type":[0,0,0,0,0,0,0,0,0],"sum_hessian":[3.8993717E1,2.8793451E1,1.0200266E1,1.1270247E1,1.7523203E1,4.9700875E0,1.2553116E1,5.016282E0,7.536834E0],"tree_param":{"num_deleted":"0","num_feature":"46","num_nodes":"9","size_leaf_vector":"1"}},{"base_weights":[-2.1282607E-3,-2.0231141E-1,2.6104987E-1,-2.7209574E-1,-5.573421E-2,6.7279446E-3,3.793524E-2,-3.1393892E-1,4.2718704E-4,-2.0768179E-2,5.7149297E-3,-3.5928935E-2,-7.8641465E-3],"categories":[],"categories_nodes":[],"categories_segments":[],"categories_sizes":[],"default_left":[0,0,0,0,0,0,0,0,0,0,0,0,0],"id":42,"left_children":[1,3,5,7,9,-1,-1,11,-1,-1,-1,-1,-1],"loss_changes":[2.1337757E0,2.2007596E-1,3.7566578E-1,1.7853367E-1,1.6066995E-1,0E0,0E0,1.1389387E-1,0E0,0E0,0E0,0E0,0E0],"parents":[2147483647,0,0,1,1,2,2,3,3,4,4,7,7],"right_children":[2,4,6,8,10,-1,-1,12,-1,-1,-1,-1,-1],"split_conditions":[-5.3150123E-1,5.3771955E-1,-2.4706786E0,8.533711E-1,5.39932E-3,6.7279446E-3,3.793524E-2,3.896508E-2,4.2718704E-4,-2.0768179E-2,5.7149297E-3,-3.5928935E-2,-7.8641465E-3],"split_indices":[15,44,0,29,27,0,0,27,0,0,0,0,0],"split_type":[0,0,0,0,0,0,0,0,0,0,0,0,0],"sum_hessian":[3.8499073E1,2.1997913E1,1.6501162E1,1.4322666E1,7.6752462E0,6.8500366E0,9.651125E0,1.2321235E1,2.0014317E0,2.9135945E0,4.7616515E0,9.888416E0,2.4328187E0],"tree_param":{"num_deleted":"0","num_feature":"46","num_nodes":"13","size_leaf_vector":"1"}},{"base_weights":[8.080989E-3,-1.7553239E-1,2.6588416E-1,8.208606E-3,-2.3935905E-2,1.5160784E-2,4.6611797E-2],"categories":[],"categories_nodes":[],"categories_segments":[],"categories_sizes":[],"default_left":[0,0,0,0,0,0,0],"id":43,"left_children":[1,3,5,-1,-1,-1,-1],"loss_changes":[1.8263129E0,3.9059502E-1,2.9627252E-1,0E0,0E0,0E0,0E0],"parents":[2147483647,0,0,1,1,2,2],"right_children":[2,4,6,-1,-1,-1,-1],"split_conditions":[-6.547878E0,-1.1286067E0,8.1586224E-1,8.208606E-3,-2.3935905E-2,1.5160784E-2,4.6611797E-2],"split_indices":[18,20,1,0,0,0,0],"split_type":[0,0,0,0,0,0,0],"sum_hessian":[3.6595856E1,2.1559677E1,1.5036178E1,4.2241197E0,1.7335558E1,1.06915245E1,4.3446536E0],"tree_param":{"num_deleted":"0","num_feature":"46","num_nodes":"7","size_leaf_vector":"1"}},{"base_weights":[-1.1086587E-2,-1.7315596E-1,2.3697399E-1,-3.7314467E-2,-3.0376231E-2,1.20148985E-2,4.5482833E-2,-2.2507472E-2,5.284334E-2,-6.7435973E-3,1.4099935E-2],"categories":[],"categories_nodes":[],"categories_segments":[],"categories_sizes":[],"default_left":[0,0,0,0,0,0,0,0,0,0,0],"id":44,"left_children":[1,3,5,7,-1,-1,-1,-1,9,-1,-1],"loss_changes":[1.4858408E0,3.8455838E-1,3.1753528E-1,2.1634948E-1,0E0,0E0,0E0,0E0,1.04616776E-1,0E0,0E0],"parents":[2147483647,0,0,1,1,2,2,3,3,8,8],"right_children":[2,4,6,8,-1,-1,-1,-1,10,-1,-1],"split_conditions":[1.4824008E1,-7.6176443E0,1.7749883E0,-2.1625037E-1,-3.0376231E-2,1.20148985E-2,4.5482833E-2,-2.2507472E-2,-9.400073E-2,-6.7435973E-3,1.4099935E-2],"split_indices":[16,0,4,31,0,0,0,0,29,0,0],"split_type":[0,0,0,0,0,0,0,0,0,0,0],"sum_hessian":[3.493778E1,2.1314196E1,1.3623583E1,1.1077929E1,1.0236267E1,9.877993E0,3.7455904E0,3.108272E0,7.9696565E0,3.470108E0,4.4995484E0],"tree_param":{"num_deleted":"0","num_feature":"46","num_nodes":"11","size_leaf_vector":"1"}},{"base_weights":[1.4876019E-2,-1.2528732E-1,3.1992618E-2,-2.5736604E-2,-1.7610576E-2,-1.7821075E-2,3.0255723E-3],"categories":[],"categories_nodes":[],"categories_segments":[],"categories_sizes":[],"default_left":[0,0,0,0,0,0,0],"id":45,"left_children":[1,3,-1,-1,5,-1,-1],"loss_changes":[1.5750022E0,3.5550162E-1,0E0,0E0,1.20852314E-1,0E0,0E0],"parents":[2147483647,0,0,1,1,4,4],"right_children":[2,4,-1,-1,6,-1,-1],"split_conditions":[1.230356E0,-2.7614734E-1,3.1992618E-2,-2.5736604E-2,-2.3287237E-1,-1.7821075E-2,3.0255723E-3],"split_indices":[4,2,0,0,31,0,0],"split_type":[0,0,0,0,0,0,0],"sum_hessian":[3.48988E1,2.4315632E1,1.0583169E1,1.0296069E1,1.4019563E1,2.5937989E0,1.1425763E1],"tree_param":{"num_deleted":"0","num_feature":"46","num_nodes":"7","size_leaf_vector":"1"}},{"base_weights":[-5.390843E-3,-1.6149041E-1,2.407612E-1,-3.5214823E-2,-2.7514193E-2,1.2094393E-2,4.300097E-2,1.0898418E-2,-1.1973975E-2],"categories":[],"categories_nodes":[],"categories_segments":[],"categories_sizes":[],"default_left":[0,0,0,0,0,0,0,0,0],"id":46,"left_children":[1,3,5,7,-1,-1,-1,-1,-1],"loss_changes":[1.3616387E0,3.012268E-1,2.6001853E-1,1.5210806E-1,0E0,0E0,0E0,0E0,0E0],"parents":[2147483647,0,0,1,1,2,2,3,3],"right_children":[2,4,6,8,-1,-1,-1,-1,-1],"split_conditions":[-5.3150123E-1,-7.6176443E0,7.9389095E0,-2.113387E-2,-2.7514193E-2,1.2094393E-2,4.300097E-2,1.0898418E-2,-1.1973975E-2],"split_indices":[15,0,0,19,0,0,0,0,0],"split_type":[0,0,0,0,0,0,0,0,0],"sum_hessian":[3.3425106E1,2.0664478E1,1.2760627E1,1.04090605E1,1.0255418E1,8.817287E0,3.943339E0,3.7397304E0,6.66933E0],"tree_param":{"num_deleted":"0","num_feature":"46","num_nodes":"9","size_leaf_vector":"1"}},{"base_weights":[-4.239906E-3,-1.6122684E-1,2.2039406E-1,4.4134823E-3,-2.1107074E-2,4.208147E-2,1.0929505E-2],"categories":[],"categories_nodes":[],"categories_segments":[],"categories_sizes":[],"default_left":[0,0,0,0,0,0,0],"id":47,"left_children":[1,3,5,-1,-1,-1,-1],"loss_changes":[1.2620932E0,2.2479475E-1,2.8200537E-1,0E0,0E0,0E0,0E0],"parents":[2147483647,0,0,1,1,2,2],"right_children":[2,4,6,-1,-1,-1,-1],"split_conditions":[-5.452745E-1,-1.0908759E0,-5.525054E-1,4.4134823E-3,-2.1107074E-2,4.208147E-2,1.0929505E-2],"split_indices":[15,20,22,0,0,0,0],"split_type":[0,0,0,0,0,0,0],"sum_hessian":[3.3781616E1,2.0051065E1,1.3730552E1,3.9385202E0,1.6112545E1,3.902595E0,9.827956E0],"tree_param":{"num_deleted":"0","num_feature":"46","num_nodes":"7","size_leaf_vector":"1"}},{"base_weights":[2.061919E-2,-1.0361226E-1,3.65226E-2,-2.3408943E-1,-5.6617204E-3,-1.7306237E-3,-2.8910726E-2,4.8208046E-3,-1.4248269E-2],"categories":[],"categories_nodes":[],"categories_segments":[],"categories_sizes":[],"default_left":[0,0,0,0,0,0,0,0,0],"id":48,"left_children":[1,3,-1,5,7,-1,-1,-1,-1],"loss_changes":[1.4687043E0,3.2259804E-1,0E0,1.2432581E-1,1.2112692E-1,0E0,0E0,0E0,0E0],"parents":[2147483647,0,0,1,1,3,3,4,4],"right_children":[2,4,-1,6,8,-1,-1,-1,-1],"split_conditions":[1.3140291E1,-1.9341198E-1,3.65226E-2,-4.0780544E-2,5.6197304E-1,-1.7306237E-3,-2.8910726E-2,4.8208046E-3,-1.4248269E-2],"split_indices":[18,3,0,7,33,0,0,0,0],"split_type":[0,0,0,0,0,0,0,0,0],"sum_hessian":[3.2422775E1,2.4345503E1,8.0772705E0,9.843447E0,1.4502055E1,2.2585974E0,7.58485E0,1.0869947E1,3.6321082E0],"tree_param":{"num_deleted":"0","num_feature":"46","num_nodes":"9","size_leaf_vector":"1"}},{"base_weights":[7.3043327E-3,-1.4611472E-1,2.571142E-1,3.5044514E-3,-1.9141442E-1,1.4917969E-2,4.377924E-2,-2.6046691E-2,-3.636615E-2,8.291447E-3,-1.625886E-2],"categories":[],"categories_nodes":[],"categories_segments":[],"categories_sizes":[],"default_left":[0,0,0,0,0,0,0,0,0,0,0],"id":49,"left_children":[1,3,5,-1,7,-1,-1,-1,9,-1,-1],"loss_changes":[1.2791691E0,1.7664576E-1,1.8213046E-1,0E0,1.6954291E-1,0E0,0E0,0E0,1.0854864E-1,0E0,0E0],"parents":[2147483647,0,0,1,1,2,2,4,4,8,8],"right_children":[2,4,6,-1,8,-1,-1,-1,10,-1,-1],"split_conditions":[1.3035927E1,-1.0908759E0,1.7749883E0,3.5044514E-3,5.3771955E-1,1.4917969E-2,4.377924E-2,-2.6046691E-2,-3.7257144E-1,8.291447E-3,-1.625886E-2],"split_indices":[18,20,4,0,44,0,0,0,38,0,0],"split_type":[0,0,0,0,0,0,0,0,0,0,0],"sum_hessian":[3.1396128E1,1.9707806E1,1.1688321E1,3.9875336E0,1.5720273E1,8.460066E0,3.228255E0,1.0405954E1,5.3143187E0,2.9086983E0,2.4056203E0],"tree_param":{"num_deleted":"0","num_feature":"46","num_nodes":"11","size_leaf_vector":"1"}},{"base_weights":[5.698044E-3,-1.0862882E-1,3.2863706E-2,-1.4298704E-1,1.8432535E-2,-2.0778175E-1,5.134669E-3,6.5283002E-3,-2.580091E-1,-6.0929195E-3,-3.0112464E-2],"categories":[],"categories_nodes":[],"categories_segments":[],"categories_sizes":[],"default_left":[0,0,0,0,0,0,0,0,0,0,0],"id":50,"left_children":[1,3,-1,5,-1,7,-1,-1,9,-1,-1],"loss_changes":[1.2381934E0,2.7603483E-1,0E0,2.9732046E-1,0E0,2.537176E-1,0E0,0E0,1.0732186E-1,0E0,0E0],"parents":[2147483647,0,0,1,1,3,3,5,5,8,8],"right_children":[2,4,-1,6,-1,8,-1,-1,10,-1,-1],"split_conditions":[1.3163136E1,-9.105998E-2,3.2863706E-2,-6.5903053E0,1.8432535E-2,-1.8030779E1,5.134669E-3,6.5283002E-3,-9.150944E-1,-6.0929195E-3,-3.0112464E-2],"split_indices":[18,31,0,18,0,0,0,0,35,0,0],"split_type":[0,0,0,0,0,0,0,0,0,0,0],"sum_hessian":[3.1569727E1,2.380567E1,7.7640576E0,2.1764948E1,2.040722E0,1.6270756E1,5.494191E0,2.4812908E0,1.3789466E1,2.9084015E0,1.0881064E1],"tree_param":{"num_deleted":"0","num_feature":"46","num_nodes":"11","size_leaf_vector":"1"}},{"base_weights":[-1.1814415E-2,-1.7001964E-1,2.0179003E-1,-2.539358E-1,-2.7935902E-2,1.0398447E-2,4.2103805E-2,-3.6288135E-2,-9.305181E-2,8.907725E-3,-1.376679E-2,8.098276E-3,-2.87503E-2],"categories":[],"categories_nodes":[],"categories_segments":[],"categories_sizes":[],"default_left":[0,0,0,0,0,0,0,0,0,0,0,0,0],"id":51,"left_children":[1,3,5,7,