{"learner":{"attributes":{"scikit_learn":"{\"_estimator_type\": \"ranker\"}"},"feature_names":[],"feature_types":[],"gradient_booster":{"model":{"gbtree_model_param":{"num_parallel_tree":"1","num_trees":"100"},"iteration_indptr":[0,1,2,3,4,5,6,7,8,9,10,11,12,13,14,15,16,17,18,19,20,21,22,23,24,25,26,27,28,29,30,31,32,33,34,35,36,37,38,39,40,41,42,43,44,45,46,47,48,49,50,51,52,53,54,55,56,57,58,59,60,61,62,63,64,65,66,67,68,69,70,71,72,73,74,75,76,77,78,79,80,81,82,83,84,85,86,87,88,89,90,91,92,93,94,95,96,97,98,99,100],"tree_info":[0,0,0,0,0,0,0,0,0,0,0,0,0,0,0,0,0,0,0,0,0,0,0,0,0,0,0,0,0,0,0,0,0,0,0,0,0,0,0,0,0,0,0,0,0,0,0,0,0,0,0,0,0,0,0,0,0,0,0,0,0,0,0,0,0,0,0,0,0,0,0,0,0,0,0,0,0,0,0,0,0,0,0,0,0,0,0,0,0,0,0,0,0,0,0,0,0,0,0,0],"trees":[{"base_weights":[-3.032681E-2,-8.2081735E-2,7.215039E-1,8.607487E-2,2.9692307E-1,-4.332661E-3,4.8304822E-2],"categories":[],"categories_nodes":[],"categories_segments":[],"categories_sizes":[],"default_left":[0,0,0,0,0,0,0],"id":0,"left_children":[1,-1,3,-1,5,-1,-1],"loss_changes":[2.899443E1,0E0,1.223979E0,0E0,5.090157E-1,0E0,0E0],"parents":[2147483647,0,0,2,2,4,4],"right_children":[2,-1,4,-1,6,-1,-1],"split_conditions":[4.5727944E0,-8.2081735E-2,-2.486882E-1,8.607487E-2,1.5920018E-1,-4.332661E-3,4.8304822E-2],"split_indices":[18,0,5,0,8,0,0],"split_type":[0,0,0,0,0,0,0],"sum_hessian":[4.678981E1,2.276376E1,2.402605E1,1.7318892E1,6.707159E0,2.642926E0,4.0642333E0],"tree_param":{"num_deleted":"0","num_feature":"48","num_nodes":"7","size_leaf_vector":"1"}},{"base_weights":[8.184378E-3,-4.7996694E-1,9.515046E-2,-8.221423E-2,-3.43008E-1,-1.3582978E-1,-7.9333234E-1,-4.7276574E-1,2.1931909E-1,-3.6464155E-2,-8.4044784E-2,-5.697889E-1,3.0331625E-2,-3.003905E-1,5.861685E-1,2.6820814E-2,-6.593135E-2,3.8426083E-2,-4.7644254E-2,-5.0386664E-2,8.123078E-2],"categories":[],"categories_nodes":[],"categories_segments":[],"categories_sizes":[],"default_left":[0,0,0,0,0,0,0,0,0,0,0,0,0,0,0,0,0,0,0,0,0],"id":1,"left_children":[1,3,-1,-1,5,7,9,11,13,-1,-1,15,-1,17,19,-1,-1,-1,-1,-1,-1],"loss_changes":[8.1053E1,5.154413E0,0E0,0E0,7.7815323E0,7.1784034E0,2.2753716E-1,2.4811563E0,5.7939854E0,0E0,0E0,2.247181E0,0E0,1.7324308E0,4.750716E0,0E0,0E0,0E0,0E0,0E0,0E0],"parents":[2147483647,0,0,1,1,4,4,5,5,6,6,7,7,8,8,11,11,13,13,14,14],"right_children":[2,4,-1,-1,6,8,10,12,14,-1,-1,16,-1,18,20,-1,-1,-1,-1,-1,-1],"split_conditions":[1.9449648E1,-1.595569E-1,9.515046E-2,-8.221423E-2,6.603364E-1,-1.3025278E-3,-4.857062E-2,3.9920002E-2,-2.516634E-1,-3.6464155E-2,-8.4044784E-2,-8.3579876E-2,3.0331625E-2,-1.2952468E-1,-3.9457526E-2,2.6820814E-2,-6.593135E-2,3.8426083E-2,-4.7644254E-2,-5.0386664E-2,8.123078E-2],"split_indices":[4,15,0,0,6,44,38,31,20,0,0,37,0,15,36,0,0,0,0,0,0],"split_type":[0,0,0,0,0,0,0,0,0,0,0,0,0,0,0,0,0,0,0,0,0],"sum_hessian":[1.7402559E2,1.1500418E2,5.902141E1,3.144352E1,8.356066E1,5.812229E1,2.5438374E1,2.9655973E1,2.8466318E1,3.3843555E0,2.2054018E1,2.6596752E1,3.0592213E0,1.1854046E1,1.6612272E1,2.3744795E0,2.4222271E1,2.1827729E0,9.671273E0,2.6432366E0,1.3969036E1],"tree_param":{"num_deleted":"0","num_feature":"48","num_nodes":"21","size_leaf_vector":"1"}},{"base_weights":[-2.4593908E-2,-3.3107787E-1,5.612628E-1,-6.0831237E-1,-1.4179644E-1,-7.837813E-2,8.665219E-2,3.7596382E-2,-6.8098056E-1,6.365351E-2,-2.3753156E-1,-7.797152E-1,-3.9944872E-1,5.493598E-2,-5.279325E-1,-8.2739756E-2,-2.7385393E-2,1.7243842E-2,-5.667914E-1,-6.703861E-2,3.156331E-1,-6.643564E-2,2.5193905E-2,-2.4314372E-2,-6.7907415E-2,4.925784E-2,-2.3585122E-2,4.5734674E-2,-3.6357384E-2],"categories":[],"categories_nodes":[],"categories_segments":[],"categories_sizes":[],"default_left":[0,0,0,0,0,0,0,0,0,0,0,0,0,0,0,0,0,0,0,0,0,0,0,0,0,0,0,0,0],"id":2,"left_children":[1,3,5,7,9,-1,-1,-1,11,-1,13,15,17,19,21,-1,-1,-1,23,-1,25,-1,27,-1,-1,-1,-1,-1,-1],"loss_changes":[2.466428E1,4.6435366E0,2.0056534E1,2.8499956E0,4.2395597E0,0E0,0E0,0E0,6.372156E-1,0E0,4.2404833E0,3.5753918E-1,1.1420082E0,5.0543356E0,1.9013553E0,0E0,0E0,0E0,1.5013409E-1,0E0,2.020928E0,0E0,1.1583053E0,0E0,0E0,0E0,0E0,0E0,0E0],"parents":[2147483647,0,0,1,1,2,2,3,3,4,4,8,8,10,10,11,11,12,12,13,13,14,14,18,18,20,20,22,22],"right_children":[2,4,6,8,10,-1,-1,-1,12,-1,14,16,18,20,22,-1,-1,-1,24,-1,26,-1,28,-1,-1,-1,-1,-1,-1],"split_conditions":[7.947671E-1,-1.0736541E-2,-2.1594682E0,-6.2497135E-2,-1.3136877E0,-7.837813E-2,8.665219E-2,3.7596382E-2,1.782196E-1,6.365351E-2,3.1752697E-1,4.2435493E-2,-2.0934308E-1,9.251259E0,4.4251785E-2,-8.2739756E-2,-2.7385393E-2,1.7243842E-2,1.7440228E-1,-6.703861E-2,5.033315E-1,-6.643564E-2,-2.5094187E-2,-2.4314372E-2,-6.7907415E-2,4.925784E-2,-2.3585122E-2,4.5734674E-2,-3.6357384E-2],"split_indices":[20,29,14,41,9,0,0,0,9,0,24,33,23,16,46,0,0,0,8,0,21,0,35,0,0,0,0,0,0],"split_type":[0,0,0,0,0,0,0,0,0,0,0,0,0,0,0,0,0,0,0,0,0,0,0,0,0,0,0,0,0],"sum_hessian":[1.3532796E2,8.913364E1,4.6194317E1,3.5266342E1,5.386729E1,8.254674E0,3.7939644E1,2.1377146E0,3.3128628E1,5.281281E0,4.858601E1,2.3216827E1,9.9117985E0,2.461085E1,2.3975163E1,2.0636055E1,2.5807722E0,2.2368839E0,7.674915E0,6.091452E0,1.8519396E1,1.9070494E1,4.904668E0,2.792159E0,4.8827558E0,1.4101654E1,4.4177427E0,2.2391906E0,2.6654773E0],"tree_param":{"num_deleted":"0","num_feature":"48","num_nodes":"29","size_leaf_vector":"1"}},{"base_weights":[9.195207E-3,-6.409609E-1,5.694747E-1,-1.2352722E-1,-7.044284E-1,2.4380147E-1,8.095686E-2,-4.4273626E-2,3.125299E-2,-1.8950813E-2,-7.4024044E-2,7.0772864E-2,9.667668E-2,-8.086698E-2,3.6494917E-1,1.1989406E-1,-2.7582708E-1,5.5682626E-2,-8.846765E-3,2.9778084E-2,-2.194523E-2,-3.6334153E-2,-2.950305E-3],"categories":[],"categories_nodes":[],"categories_segments":[],"categories_sizes":[],"default_left":[0,0,0,0,0,0,0,0,0,0,0,0,0,0,0,0,0,0,0,0,0,0,0],"id":3,"left_children":[1,3,5,7,9,11,-1,-1,-1,-1,-1,-1,13,15,17,19,21,-1,-1,-1,-1,-1,-1],"loss_changes":[4.2046608E1,1.6678009E0,4.6497784E0,1.1197925E0,7.3350143E-1,1.8248184E0,0E0,0E0,0E0,0E0,0E0,0E0,1.0877286E0,5.883962E-1,8.3481634E-1,5.293798E-1,1.5097862E-1,0E0,0E0,0E0,0E0,0E0,0E0],"parents":[2147483647,0,0,1,1,2,2,3,3,4,4,5,5,12,12,13,13,14,14,15,15,16,16],"right_children":[2,4,6,8,10,12,-1,-1,-1,-1,-1,-1,14,16,18,20,22,-1,-1,-1,-1,-1,-1],"split_conditions":[9.70152E0,-1.5904485E0,1.9891016E1,-1.6044617E0,-7.112459E-2,9.800997E0,8.095686E-2,-4.4273626E-2,3.125299E-2,-1.8950813E-2,-7.4024044E-2,7.0772864E-2,2.852587E-2,-4.434412E-3,-1.4415283E-2,2.7371794E-2,1.1884127E0,5.5682626E-2,-8.846765E-3,2.9778084E-2,-2.194523E-2,-3.6334153E-2,-2.950305E-3],"split_indices":[4,1,0,1,25,4,0,0,0,0,0,0,28,29,6,45,6,0,0,0,0,0,0],"split_type":[0,0,0,0,0,0,0,0,0,0,0,0,0,0,0,0,0,0,0,0,0,0,0],"sum_hessian":[1.1342528E2,5.243499E1,6.0990288E1,6.0507965E0,4.6384193E1,2.673766E1,3.4252625E1,3.4846175E0,2.5661788E0,3.425316E0,4.2958878E1,5.5202656E0,2.1217394E1,1.3188057E1,8.029338E0,6.68706E0,6.500997E0,5.4815755E0,2.5477622E0,4.4676085E0,2.2194517E0,4.4462647E0,2.0547323E0],"tree_param":{"num_deleted":"0","num_feature":"48","num_nodes":"23","size_leaf_vector":"1"}},{"base_weights":[1.9573044E-2,-6.221762E-1,5.1613134E-1,-3.936191E-3,-6.519386E-1,1.7947346E-1,7.706575E-2,-6.6864175E-1,-2.3687366E-2,-1.0394643E-1,3.55005E-1,-6.881438E-2,-2.5904998E-2,1.9129947E-2,-2.4785434E-1,8.812244E-2,5.5444443E-1,-3.867997E-2,7.3256255E-3,3.516849E-2,-2.2441348E-2,2.8035944E-2,6.8315096E-2],"categories":[],"categories_nodes":[],"categories_segments":[],"categories_sizes":[],"default_left":[0,0,0,0,0,0,0,0,0,0,0,0,0,0,0,0,0,0,0,0,0,0,0],"id":4,"left_children":[1,3,5,-1,7,9,-1,11,-1,13,15,-1,-1,-1,17,19,21,-1,-1,-1,-1,-1,-1],"loss_changes":[3.2525467E1,7.4689674E-1,4.790612E0,0E0,1.3494682E-1,1.3337976E0,0E0,1.4224625E-1,0E0,5.038998E-1,8.2006526E-1,0E0,0E0,0E0,3.7004426E-1,7.51983E-1,1.313932E-1,0E0,0E0,0E0,0E0,0E0,0E0],"parents":[2147483647,0,0,1,1,2,2,4,4,5,5,7,7,9,9,10,10,14,14,15,15,16,16],"right_children":[2,4,6,-1,8,10,-1,12,-1,14,16,-1,-1,-1,18,20,22,-1,-1,-1,-1,-1,-1],"split_conditions":[4.5699067E0,-2.5384955E0,1.9891016E1,-3.936191E-3,5.69116E-2,-1.3363824E-2,7.706575E-2,8.6111695E-2,-2.3687366E-2,-2.8651219E-2,1.5912233E-3,-6.881438E-2,-2.5904998E-2,1.9129947E-2,3.750719E-2,-2.486882E-1,2.2764835E-1,-3.867997E-2,7.3256255E-3,3.516849E-2,-2.2441348E-2,2.8035944E-2,6.8315096E-2],"split_indices":[18,9,0,0,17,10,0,19,0,13,13,0,0,0,33,5,5,0,0,0,0,0,0],"split_type":[0,0,0,0,0,0,0,0,0,0,0,0,0,0,0,0,0,0,0,0,0,0,0],"sum_hessian":[1.0005989E2,4.3538277E1,5.652161E1,2.2281754E0,4.1310104E1,2.5068718E1,3.145289E1,3.9124706E1,2.1853971E0,9.743811E0,1.5324907E1,3.669735E1,2.4273582E0,3.0850692E0,6.658741E0,7.1709094E0,8.153998E0,4.504894E0,2.1538475E0,3.8222947E0,3.3486147E0,3.6210766E0,4.532922E0],"tree_param":{"num_deleted":"0","num_feature":"48","num_nodes":"23","size_leaf_vector":"1"}},{"base_weights":[-8.706257E-3,-5.946785E-1,4.9102184E-1,-2.4045444E-1,-6.353136E-2,1.7819971E-1,7.132124E-2,-4.1796286E-2,6.974311E-3,5.653249E-2,4.0287606E-2,2.2615832E-1,-2.1306743E-1,-1.46900965E-2,3.3780983E-1,-3.672343E-2,3.17356E-3,-2.0709422E-3,4.8662912E-2],"categories":[],"categories_nodes":[],"categories_segments":[],"categories_sizes":[],"default_left":[0,0,0,0,0,0,0,0,0,0,0,0,0,0,0,0,0,0,0],"id":5,"left_children":[1,3,5,7,-1,9,-1,-1,-1,-1,11,13,15,-1,17,-1,-1,-1,-1],"loss_changes":[2.7046652E1,4.5907593E-1,3.3384886E0,3.5860908E-1,0E0,1.1539207E0,0E0,0E0,0E0,0E0,8.6415756E-1,4.8614144E-1,3.0782267E-1,0E0,4.5660162E-1,0E0,0E0,0E0,0E0],"parents":[2147483647,0,0,1,1,2,2,3,3,5,5,10,10,11,11,12,12,14,14],"right_children":[2,4,6,8,-1,10,-1,-1,-1,-1,12,14,16,-1,18,-1,-1,-1,-1],"split_conditions":[4.5699067E0,-1.5711111E0,1.9438557E1,3.4464153E-3,-6.353136E-2,1.1137364E1,7.132124E-2,-4.1796286E-2,6.974311E-3,5.653249E-2,-2.4249936E-4,-3.4527877E-1,2.5815766E-3,-1.46900965E-2,-1.9775496E0,-3.672343E-2,3.17356E-3,-2.0709422E-3,4.8662912E-2],"split_indices":[18,1,4,30,0,18,0,0,0,0,34,22,30,0,14,0,0,0,0],"split_type":[0,0,0,0,0,0,0,0,0,0,0,0,0,0,0,0,0,0,0],"sum_hessian":[9.036682E1,4.150675E1,4.8860077E1,4.983347E0,3.65234E1,2.1039948E1,2.7820127E1,2.9486141E0,2.0347328E0,4.7125235E0,1.6327425E1,9.479936E0,6.847489E0,2.1109486E0,7.3689866E0,3.8946664E0,2.9528222E0,2.414083E0,4.954904E0],"tree_param":{"num_deleted":"0","num_feature":"48","num_nodes":"19","size_leaf_vector":"1"}},{"base_weights":[-5.3318914E-2,-5.8443654E-1,4.6655288E-1,-6.922353E-2,-4.3012437E-1,1.8222114E-1,7.008523E-2,-2.061578E-1,-5.0317604E-2,5.6177296E-2,5.2866913E-2,-3.4096945E-2,9.7141287E-4,4.792365E-2,-5.726786E-2,1.550862E-1,-2.1454863E-2,-2.0508144E-2,4.094198E-2],"categories":[],"categories_nodes":[],"categories_segments":[],"categories_sizes":[],"default_left":[0,0,0,0,0,0,0,0,0,0,0,0,0,0,0,0,0,0,0],"id":6,"left_children":[1,3,5,-1,7,9,-1,11,-1,-1,13,-1,-1,-1,15,17,-1,-1,-1],"loss_changes":[2.1115639E1,3.307686E-1,2.4506674E0,0E0,1.9371653E-1,8.950963E-1,0E0,1.8274209E-1,0E0,0E0,7.389684E-1,0E0,0E0,0E0,4.6529436E-1,6.4130676E-1,0E0,0E0,0E0],"parents":[2147483647,0,0,1,1,2,2,4,4,5,5,7,7,10,10,14,14,15,15],"right_children":[2,4,6,-1,8,10,-1,12,-1,-1,14,-1,-1,-1,16,18,-1,-1,-1],"split_conditions":[5.171146E0,-4.5732155E0,1.9891016E1,-6.922353E-2,-3.1583194E-2,9.800997E0,7.008523E-2,-5.079028E-3,-5.0317604E-2,5.6177296E-2,-7.11114E-2,-3.4096945E-2,9.7141287E-4,4.792365E-2,-6.0916024E-1,1.1060156E-1,-2.1454863E-2,-2.0508144E-2,4.094198E-2],"split_indices":[4,4,0,0,37,4,0,34,0,0,43,0,0,0,6,8,0,0,0],"split_type":[0,0,0,0,0,0,0,0,0,0,0,0,0,0,0,0,0,0,0],"sum_hessian":[7.448707E1,3.678359E1,3.770348E1,1.9603271E1,1.7180319E1,1.783623E1,1.9867252E1,5.1655416E0,1.2014777E1,3.6839278E0,1.4152301E1,2.823052E0,2.3424895E0,2.2172399E0,1.1935061E1,5.084343E0,6.850718E0,2.1844893E0,2.899854E0],"tree_param":{"num_deleted":"0","num_feature":"48","num_nodes":"19","size_leaf_vector":"1"}},{"base_weights":[-8.2080895E-3,-5.5681336E-1,4.7897124E-1,-5.8214456E-1,-1.2009251E-2,6.427961E-1,1.9584648E-1,-6.4638466E-2,-4.0223262E-1,6.7738526E-2,2.2827618E-2,3.5516924E-1,-1.8000163E-2,-7.897034E-3,-4.6737645E-2,4.8671967E-1,-6.8755406E-3,1.8044699E-2,5.911788E-2],"categories":[],"categories_nodes":[],"categories_segments":[],"categories_sizes":[],"default_left":[0,0,0,0,0,0,0,0,0,0,0,0,0,0,0,0,0,0,0],"id":7,"left_children":[1,3,5,7,-1,9,11,-1,13,-1,-1,15,-1,-1,-1,17,-1,-1,-1],"loss_changes":[1.9538767E1,3.1039906E-1,1.6704893E0,1.1254215E-1,0E0,1.9084644E-1,1.0001154E0,0E0,1.974423E-1,0E0,0E0,6.6453254E-1,0E0,0E0,0E0,1.7357922E-1,0E0,0E0,0E0],"parents":[2147483647,0,0,1,1,2,2,3,3,5,5,6,6,8,8,11,11,15,15],"right_children":[2,4,6,8,-1,10,12,-1,14,-1,-1,16,-1,-1,-1,18,-1,-1,-1],"split_conditions":[4.5699067E0,2.0447924E0,-6.900006E-1,4.4171047E0,-1.2009251E-2,-5.313711E-1,5.4726386E-1,-6.4638466E-2,4.444108E0,6.7738526E-2,2.2827618E-2,2.0163065E-2,-1.8000163E-2,-7.897034E-3,-4.6737645E-2,2.9280087E-2,-6.8755406E-3,1.8044699E-2,5.911788E-2],"split_indices":[18,2,3,18,0,5,6,0,18,0,0,41,0,0,0,22,0,0,0],"split_type":[0,0,0,0,0,0,0,0,0,0,0,0,0,0,0,0,0,0,0],"sum_hessian":[7.110734E1,3.337797E1,3.7729362E1,3.1233353E1,2.1446214E0,2.3095325E1,1.4634039E1,2.11048E1,1.0128553E1,2.0731283E1,2.3640413E0,1.031606E1,4.3179793E0,2.06981E0,8.0587435E0,7.7599106E0,2.556149E0,2.6671894E0,5.0927215E0],"tree_param":{"num_deleted":"0","num_feature":"48","num_nodes":"19","size_leaf_vector":"1"}},{"base_weights":[1.9896396E-2,-5.0696397E-1,4.6310443E-1,-5.4033708E-2,-1.5482037E-2,2.0552202E-1,6.5955125E-2,3.1467783E-1,-1.7621938E-2,-7.037013E-4,4.033911E-1,1.2134366E-2,4.569198E-2],"categories":[],"categories_nodes":[],"categories_segments":[],"categories_sizes":[],"default_left":[0,0,0,0,0,0,0,0,0,0,0,0,0],"id":8,"left_children":[1,3,5,-1,-1,7,-1,9,-1,-1,11,-1,-1],"loss_changes":[1.5735312E1,2.7837753E-1,1.7151995E0,0E0,0E0,7.7540696E-1,0E0,3.9655042E-1,0E0,0E0,1.0806763E-1,0E0,0E0],"parents":[2147483647,0,0,1,1,2,2,5,5,7,7,10,10],"right_children":[2,4,6,-1,-1,8,-1,10,-1,-1,12,-1,-1],"split_conditions":[4.5699067E0,1.3292111E0,1.9891016E1,-5.4033708E-2,-1.5482037E-2,6.603364E-1,6.5955125E-2,-2.168709E-2,-1.7621938E-2,-7.037013E-4,-2.2273907E-2,1.2134366E-2,4.569198E-2],"split_indices":[18,22,0,0,0,6,0,42,0,0,27,0,0],"split_type":[0,0,0,0,0,0,0,0,0,0,0,0,0],"sum_hessian":[6.538097E1,2.9805746E1,3.557522E1,2.6737387E1,3.0683591E0,1.6277824E1,1.9297394E1,1.2794904E1,3.48292E0,2.9645963E0,9.830307E0,2.08917E0,7.7411375E0],"tree_param":{"num_deleted":"0","num_feature":"48","num_nodes":"13","size_leaf_vector":"1"}},{"base_weights":[-4.0177993E-2,-5.2395993E-1,4.009982E-1,-5.6821782E-2,-1.46377385E-2,9.997339E-2,6.4127654E-2,-1.1597387E-1,2.838516E-1,-2.157124E-2,8.543988E-3,3.9621692E-2,-3.4125713E-3],"categories":[],"categories_nodes":[],"categories_segments":[],"categories_sizes":[],"default_left":[0,0,0,0,0,0,0,0,0,0,0,0,0],"id":9,"left_children":[1,3,5,-1,-1,7,-1,9,11,-1,-1,-1,-1],"loss_changes":[1.290945E1,3.983245E-1,2.2278023E0,0E0,0E0,6.3847387E-1,0E0,1.7358443E-1,3.181787E-1,0E0,0E0,0E0,0E0],"parents":[2147483647,0,0,1,1,2,2,5,5,7,7,8,8],"right_children":[2,4,6,-1,-1,8,-1,10,12,-1,-1,-1,-1],"split_conditions":[4.5727944E0,1.3658167E0,1.9891016E1,-5.6821782E-2,-1.46377385E-2,2.0545314E-1,6.4127654E-2,5.5289203E-3,3.298434E-1,-2.157124E-2,8.543988E-3,3.9621692E-2,-3.4125713E-3],"split_indices":[18,23,0,0,0,8,0,44,6,0,0,0,0],"split_type":[0,0,0,0,0,0,0,0,0,0,0,0,0],"sum_hessian":[5.8500343E1,2.781334E1,3.0687004E1,2.4443361E1,3.369979E0,1.4250192E1,1.6436813E1,6.7234435E0,7.5267477E0,4.449229E0,2.274215E0,5.379656E0,2.1470919E0],"tree_param":{"num_deleted":"0","num_feature":"48","num_nodes":"13","size_leaf_vector":"1"}},{"base_weights":[-1.9100022E-2,-4.950673E-1,3.9050156E-1,-6.186477E-2,-3.6315013E-2,6.139304E-2,1.11394376E-1,-5.67385E-2,2.4254045E-1,-1.671545E-2,1.28755495E-2,3.6697976E-2,-9.727274E-5],"categories":[],"categories_nodes":[],"categories_segments":[],"categories_sizes":[],"default_left":[0,0,0,0,0,0,0,0,0,0,0,0,0],"id":10,"left_children":[1,3,5,-1,-1,-1,7,9,11,-1,-1,-1,-1],"loss_changes":[1.11537895E1,2.0644331E-1,1.8507967E0,0E0,0E0,0E0,3.4240678E-1,1.7189118E-1,2.5983447E-1,0E0,0E0,0E0,0E0],"parents":[2147483647,0,0,1,1,2,2,6,6,7,7,8,8],"right_children":[2,4,6,-1,-1,-1,8,10,12,-1,-1,-1,-1],"split_conditions":[4.566008E0,-1.1046476E-1,-8.443427E-1,-6.186477E-2,-3.6315013E-2,6.139304E-2,-7.4532987E-3,3.2818408E-3,-5.846034E-3,-1.671545E-2,1.28755495E-2,3.6697976E-2,-9.727274E-5],"split_indices":[18,3,24,0,0,0,42,13,40,0,0,0,0],"split_type":[0,0,0,0,0,0,0,0,0,0,0,0,0],"sum_hessian":[5.521992E1,2.5444324E1,2.9775597E1,1.1232253E1,1.4212071E1,1.587102E1,1.3904576E1,6.341703E0,7.5628734E0,4.0373335E0,2.3043694E0,4.669605E0,2.8932686E0],"tree_param":{"num_deleted":"0","num_feature":"48","num_nodes":"13","size_leaf_vector":"1"}},{"base_weights":[1.3212795E-2,-4.886441E-2,3.861802E-1,1.478485E-1,6.063537E-2,-9.982657E-3,2.8066164E-1,4.0007655E-2,-8.299867E-3],"categories":[],"categories_nodes":[],"categories_segments":[],"categories_sizes":[],"default_left":[0,0,0,0,0,0,0,0,0],"id":11,"left_children":[1,-1,3,5,-1,-1,7,-1,-1],"loss_changes":[9.398098E0,0E0,1.4207678E0,5.2618665E-1,0E0,0E0,4.7270292E-1,0E0,0E0],"parents":[2147483647,0,0,2,2,3,3,6,6],"right_children":[2,-1,4,6,-1,-1,8,-1,-1],"split_conditions":[4.566008E0,-4.886441E-2,1.9868265E1,-1.898234E-2,6.063537E-2,-9.982657E-3,6.603364E-1,4.0007655E-2,-8.299867E-3],"split_indices":[18,0,0,30,0,0,6,0,0],"split_type":[0,0,0,0,0,0,0,0,0],"sum_hessian":[4.8201717E1,2.0417805E1,2.778391E1,1.4144449E1,1.3639462E1,5.023954E0,9.120495E0,6.790549E0,2.329946E0],"tree_param":{"num_deleted":"0","num_feature":"48","num_nodes":"9","size_leaf_vector":"1"}},{"base_weights":[1.5506516E-2,-4.221515E-1,4.0026256E-1,-5.7690658E-2,-2.7816528E-1,8.5250095E-2,5.7943583E-2,6.9132866E-3,-3.4750342E-2,-2.0253945E-2,1.8040416E-1,2.7224666E-1,-6.776992E-3,4.679963E-3,3.7358735E-2],"categories":[],"categories_nodes":[],"categories_segments":[],"categories_sizes":[],"default_left":[0,0,0,0,0,0,0,0,0,0,0,0,0,0,0],"id":12,"left_children":[1,3,5,-1,7,9,-1,-1,-1,-1,11,13,-1,-1,-1],"loss_changes":[8.245147E0,3.5034227E-1,1.4201336E0,0E0,3.5649967E-1,3.2714865E-1,0E0,0E0,0E0,0E0,2.1228617E-1,1.2888396E-1,0E0,0E0,0E0],"parents":[2147483647,0,0,1,1,2,2,4,4,5,5,10,10,11,11],"right_children":[2,4,6,-1,8,10,-1,-1,-1,-1,12,14,-1,-1,-1],"split_conditions":[4.569809E0,-1.252605E-1,1.9407473E1,-5.7690658E-2,-7.139993E-1,-3.6381055E-2,5.7943583E-2,6.9132866E-3,-3.4750342E-2,-2.0253945E-2,4.864481E-1,5.3909887E-3,-6.776992E-3,4.679963E-3,3.7358735E-2],"split_indices":[18,3,4,0,8,13,0,0,0,0,6,27,0,0,0],"split_type":[0,0,0,0,0,0,0,0,0,0,0,0,0,0,0],"sum_hessian":[4.6960686E1,2.1924494E1,2.5036192E1,9.11794E0,1.2806555E1,9.612257E0,1.5423936E1,2.131807E0,1.0674747E1,2.1080387E0,7.504218E0,5.4064417E0,2.0977764E0,2.1299236E0,3.276518E0],"tree_param":{"num_deleted":"0","num_feature":"48","num_nodes":"15","size_leaf_vector":"1"}},{"base_weights":[-3.1513951E-3,-4.2720556E-1,3.5932684E-1,-4.6508368E-2,-1.0775142E-2,1.20016165E-1,5.794626E-2,1.9140469E-1,-1.5837628E-2,5.1526174E-2,3.2979246E-2,-7.2423033E-3,2.035156E-2],"categories":[],"categories_nodes":[],"categories_segments":[],"categories_sizes":[],"default_left":[0,0,0,0,0,0,0,0,0,0,0,0,0],"id":13,"left_children":[1,3,5,-1,-1,7,-1,9,-1,11,-1,-1,-1],"loss_changes":[6.5732384E0,1.8831778E-1,1.1453047E0,0E0,0E0,2.7496886E-1,0E0,1.8143287E-1,0E0,1.3310471E-1,0E0,0E0,0E0],"parents":[2147483647,0,0,1,1,2,2,5,5,7,7,9,9],"right_children":[2,4,6,-1,-1,8,-1,10,-1,12,-1,-1,-1],"split_conditions":[4.5699067E0,6.974924E-2,1.9891016E1,-4.6508368E-2,-1.0775142E-2,3.518447E-2,5.794626E-2,1.5550826E-2,-1.5837628E-2,2.1651672E-2,3.2979246E-2,-7.2423033E-3,2.035156E-2],"split_indices":[18,19,0,0,0,12,0,42,0,33,0,0,0],"split_type":[0,0,0,0,0,0,0,0,0,0,0,0,0],"sum_hessian":[4.076511E1,1.8704554E1,2.2060556E1,1.6314278E1,2.390276E0,1.1310284E1,1.0750273E1,9.250604E0,2.0596793E0,5.283013E0,3.967591E0,3.1982782E0,2.0847347E0],"tree_param":{"num_deleted":"0","num_feature":"48","num_nodes":"13","size_leaf_vector":"1"}},{"base_weights":[7.2713727E-3,-4.0971372E-1,3.6264855E-1,-4.5941245E-2,-3.3415419E-3,1.1699258E-1,5.6227118E-2,-1.026564E-2,2.2235216E-1,-3.451544E-4,3.073079E-2],"categories":[],"categories_nodes":[],"categories_segments":[],"categories_sizes":[],"default_left":[0,0,0,0,0,0,0,0,0,0,0],"id":14,"left_children":[1,3,5,-1,-1,7,-1,-1,9,-1,-1],"loss_changes":[5.8379016E0,3.2379627E-1,9.766836E-1,0E0,0E0,2.7259767E-1,0E0,0E0,1.4704579E-1,0E0,0E0],"parents":[2147483647,0,0,1,1,2,2,5,5,8,8],"right_children":[2,4,6,-1,-1,8,-1,-1,10,-1,-1],"split_conditions":[4.5727944E0,2.018854E0,1.9449648E1,-4.5941245E-2,-3.3415419E-3,-1.6214961E-2,5.6227118E-2,-1.026564E-2,-2.496807E-2,-3.451544E-4,3.073079E-2],"split_indices":[18,2,4,0,0,19,0,0,42,0,0],"split_type":[0,0,0,0,0,0,0,0,0,0,0],"sum_hessian":[3.7392845E1,1.713474E1,2.0258102E1,1.49406185E1,2.1941214E0,9.79295E0,1.0465154E1,3.182945E0,6.610005E0,2.0693243E0,4.540681E0],"tree_param":{"num_deleted":"0","num_feature":"48","num_nodes":"11","size_leaf_vector":"1"}},{"base_weights":[5.6397617E-3,-4.2136264E-1,3.6204985E-1,-5.556504E-2,-2.835425E-1,8.216293E-2,5.6850564E-2,1.96978E-3,-3.6262963E-2,3.202308E-2,-1.8539095E-2,-1.7718825E-2,1.325562E-2],"categories":[],"categories_nodes":[],"categories_segments":[],"categories_sizes":[],"default_left":[0,0,0,0,0,0,0,0,0,0,0,0,0],"id":15,"left_children":[1,3,5,-1,7,9,-1,-1,-1,-1,11,-1,-1],"loss_changes":[5.9111576E0,1.6960216E-1,1.1761224E0,0E0,2.6532888E-1,2.4932885E-1,0E0,0E0,0E0,0E0,2.1716876E-1,0E0,0E0],"parents":[2147483647,0,0,1,1,2,2,4,4,5,5,10,10],"right_children":[2,4,6,-1,8,10,-1,-1,-1,-1,12,-1,-1],"split_conditions":[4.569809E0,-1.00772195E-1,1.9449648E1,-5.556504E-2,-5.464312E-1,9.800997E0,5.6850564E-2,1.96978E-3,-3.6262963E-2,3.202308E-2,1.5920018E-1,-1.7718825E-2,1.325562E-2],"split_indices":[18,3,4,0,8,4,0,0,0,0,8,0,0],"split_type":[0,0,0,0,0,0,0,0,0,0,0,0,0],"sum_hessian":[3.6838753E1,1.667672E1,2.0162033E1,6.911073E0,9.765647E0,9.152369E0,1.10096655E1,2.1754289E0,7.5902185E0,2.0725968E0,7.079772E0,3.3693173E0,3.710455E0],"tree_param":{"num_deleted":"0","num_feature":"48","num_nodes":"13","size_leaf_vector":"1"}},{"base_weights":[-2.7008856E-2,-4.0257433E-1,3.377203E-1,-5.472983E-2,-2.2190906E-1,9.13272E-2,5.3554058E-2,-3.079011E-2,-5.2695577E-3,1.8325756E-1,-1.1331831E-2,2.8665438E-2,-1.185793E-3],"categories":[],"categories_nodes":[],"categories_segments":[],"categories_sizes":[],"default_left":[0,0,0,0,0,0,0,0,0,0,0,0,0],"id":16,"left_children":[1,3,5,-1,7,9,-1,-1,-1,11,-1,-1,-1],"loss_changes":[4.72398E0,3.2194757E-1,8.058243E-1,0E0,1.1800063E-1,1.9036435E-1,0E0,0E0,0E0,1.3660201E-1,0E0,0E0,0E0],"parents":[2147483647,0,0,1,1,2,2,4,4,5,5,9,9],"right_children":[2,4,6,-1,8,10,-1,-1,-1,12,-1,-1,-1],"split_conditions":[4.5699067E0,-4.1746155E1,1.985264E1,-5.472983E-2,1.4442361E-2,5.033315E-1,5.3554058E-2,-3.079011E-2,-5.2695577E-3,1.9244952E-2,-1.1331831E-2,2.8665438E-2,-1.185793E-3],"split_indices":[18,18,0,0,42,21,0,0,0,38,0,0,0],"split_type":[0,0,0,0,0,0,0,0,0,0,0,0,0],"sum_hessian":[3.2494183E1,1.5958147E1,1.6536036E1,7.733659E0,8.224487E0,8.014866E0,8.521169E0,4.9097943E0,3.3146932E0,5.6025944E0,2.4122717E0,3.3553524E0,2.2472417E0],"tree_param":{"num_deleted":"0","num_feature":"48","num_nodes":"13","size_leaf_vector":"1"}},{"base_weights":[-7.706708E-3,-3.9559862E-1,3.3089465E-1,-4.5438062E-2,-1.7142994E-2,1.1959452E-2,5.3500213E-2],"categories":[],"categories_nodes":[],"categories_segments":[],"categories_sizes":[],"default_left":[0,0,0,0,0,0,0],"id":17,"left_children":[1,3,5,-1,-1,-1,-1],"loss_changes":[4.3357363E0,1.24726534E-1,6.967046E-1,0E0,0E0,0E0,0E0],"parents":[2147483647,0,0,1,1,2,2],"right_children":[2,4,6,-1,-1,-1,-1],"split_conditions":[4.5727944E0,1.0488392E0,1.9891016E1,-4.5438062E-2,-1.7142994E-2,1.1959452E-2,5.3500213E-2],"split_indices":[18,5,0,0,0,0,0],"split_type":[0,0,0,0,0,0,0],"sum_hessian":[3.1014706E1,1.4376767E1,1.663794E1,1.0576433E1,3.8003337E0,8.954168E0,7.6837707E0],"tree_param":{"num_deleted":"0","num_feature":"48","num_nodes":"7","size_leaf_vector":"1"}},{"base_weights":[1.581248E-2,-3.6526513E-1,3.3164206E-1,-4.8215903E-2,-2.240437E-1,1.2452157E-1,5.322968E-2,-1.3684162E-5,-3.1772476E-2,-6.3765943E-3,2.2303621E-1,3.3314046E-2,4.41073E-3],"categories":[],"categories_nodes":[],"categories_segments":[],"categories_sizes":[],"default_left":[0,0,0,0,0,0,0,0,0,0,0,0,0],"id":18,"left_children":[1,3,5,-1,7,9,-1,-1,-1,-1,11,-1,-1],"loss_changes":[3.9401526E0,1.3721728E-1,6.7660093E-1,0E0,1.8026292E-1,2.0159003E-1,0E0,0E0,0E0,0E0,1.2033236E-1,0E0,0E0],"parents":[2147483647,0,0,1,1,2,2,4,4,5,5,10,10],"right_children":[2,4,6,-1,8,10,-1,-1,-1,-1,12,-1,-1],"split_conditions":[4.5727944E0,3.907438E-1,1.9891016E1,-4.8215903E-2,3.4491596E-1,-1.3363824E-2,5.322968E-2,-1.3684162E-5,-3.1772476E-2,-6.3765943E-3,-6.234739E-5,3.3314046E-2,4.41073E-3],"split_indices":[18,22,0,0,2,10,0,0,0,0,11,0,0],"split_type":[0,0,0,0,0,0,0,0,0,0,0,0,0],"sum_hessian":[3.0731104E1,1.3856014E1,1.687509E1,6.260103E0,7.595911E0,9.101197E0,7.7738924E0,2.5360253E0,5.059886E0,3.2473605E0,5.853837E0,3.0903347E0,2.7635021E0],"tree_param":{"num_deleted":"0","num_feature":"48","num_nodes":"13","size_leaf_vector":"1"}},{"base_weights":[1.0902098E-2,-3.7970206E-1,3.372292E-1,-4.702359E-2,-1.7152447E-2,5.222791E-2,1.1004804E-1,-2.8447032E-3,2.5096966E-2],"categories":[],"categories_nodes":[],"categories_segments":[],"categories_sizes":[],"default_left":[0,0,0,0,0,0,0,0,0],"id":19,"left_children":[1,3,5,-1,-1,-1,7,-1,-1],"loss_changes":[3.814653E0,1.7632556E-1,6.272458E-1,0E0,0E0,0E0,1.7456284E-1,0E0,0E0],"parents":[2147483647,0,0,1,1,2,2,6,6],"right_children":[2,4,6,-1,-1,-1,8,-1,-1],"split_conditions":[4.5699067E0,8.866247E-1,-8.443427E-1,-4.702359E-2,-1.7152447E-2,5.222791E-2,2.1925573E-1,-2.8447032E-3,2.5096966E-2],"split_indices":[18,22,24,0,0,0,8,0,0],"split_type":[0,0,0,0,0,0,0,0,0],"sum_hessian":[2.792256E1,1.2635121E1,1.5287439E1,7.9283576E0,4.7067637E0,7.7090755E0,7.578364E0,4.224622E0,3.353742E0],"tree_param":{"num_deleted":"0","num_feature":"48","num_nodes":"9","size_leaf_vector":"1"}},{"base_weights":[-4.5766165E-3,-3.719372E-1,3.2082182E-1,-4.7148585E-2,-1.8834993E-2,1.02106005E-1,5.0884154E-2,-7.071122E-3,1.9909648E-2],"categories":[],"categories_nodes":[],"categories_segments":[],"categories_sizes":[],"default_left":[0,0,0,0,0,0,0,0,0],"id":20,"left_children":[1,3,5,-1,-1,7,-1,-1,-1],"loss_changes":[3.5101714E0,1.6316628E-1,5.8869994E-1,0E0,0E0,1.5575925E-1,0E0,0E0,0E0],"parents":[2147483647,0,0,1,1,2,2,5,5],"right_children":[2,4,6,-1,-1,8,-1,-1,-1],"split_conditions":[4.5727944E0,-4.558714E0,1.9449648E1,-4.7148585E-2,-1.8834993E-2,-1.1545083E-2,5.0884154E-2,-7.071122E-3,1.9909648E-2],"split_indices":[18,4,4,0,0,19,0,0,0],"split_type":[0,0,0,0,0,0,0,0,0],"sum_hessian":[2.7366125E1,1.2787067E1,1.4579059E1,7.2743998E0,5.512667E0,7.4526944E0,7.1263638E0,2.7764945E0,4.6762E0],"tree_param":{"num_deleted":"0","num_feature":"48","num_nodes":"9","size_leaf_vector":"1"}},{"base_weights":[-4.9524773E-3,-3.811916E-1,3.0429992E-1,-4.734161E-2,-1.6712457E-2,1.0068057E-1,5.0559796E-2,-1.2508373E-2,2.0168057E-2],"categories":[],"categories_nodes":[],"categories_segments":[],"categories_sizes":[],"default_left":[0,0,0,0,0,0,0,0,0],"id":21,"left_children":[1,3,5,-1,-1,7,-1,-1,-1],"loss_changes":[3.14046E0,1.6115904E-1,5.5666804E-1,0E0,0E0,2.2172958E-1,0E0,0E0,0E0],"parents":[2147483647,0,0,1,1,2,2,5,5],"right_children":[2,4,6,-1,-1,8,-1,-1,-1],"split_conditions":[4.5699067E0,-4.4612465E0,1.9891016E1,-4.734161E-2,-1.6712457E-2,-1.3363824E-2,5.0559796E-2,-1.2508373E-2,2.0168057E-2],"split_indices":[18,4,0,0,0,10,0,0,0],"split_type":[0,0,0,0,0,0,0,0,0],"sum_hessian":[2.4993893E1,1.117079E1,1.3823102E1,6.9605207E0,4.2102695E0,7.617707E0,6.205395E0,2.2808633E0,5.3368435E0],"tree_param":{"num_deleted":"0","num_feature":"48","num_nodes":"9","size_leaf_vector":"1"}},{"base_weights":[-2.687682E-3,-3.6220465E-2,3.1165573E-1,7.73599E-2,4.713317E-2,-1.0439616E-2,1.8137641E-2],"categories":[],"categories_nodes":[],"categories_segments":[],"categories_sizes":[],"default_left":[0,0,0,0,0,0,0],"id":22,"left_children":[1,-1,3,5,-1,-1,-1],"loss_changes":[2.8733149E0,0E0,4.711827E-1,1.4552617E-1,0E0,0E0,0E0],"parents":[2147483647,0,0,2,2,3,3],"right_children":[2,-1,4,6,-1,-1,-1],"split_conditions":[4.5699067E0,-3.6220465E-2,6.6754574E-1,-1.3579747E-1,4.713317E-2,-1.0439616E-2,1.8137641E-2],"split_indices":[18,0,1,24,0,0,0],"split_type":[0,0,0,0,0,0,0],"sum_hessian":[2.3426048E1,1.0856793E1,1.2569255E1,5.6959496E0,6.8733053E0,2.0719037E0,3.624046E0],"tree_param":{"num_deleted":"0","num_feature":"48","num_nodes":"7","size_leaf_vector":"1"}},{"base_weights":[2.9692124E-4,-3.2728887E-1,3.0989912E-1,-4.765042E-2,-1.3531092E-2,1.188724E-2,4.9103223E-2],"categories":[],"categories_nodes":[],"categories_segments":[],"categories_sizes":[],"default_left":[0,0,0,0,0,0,0],"id":23,"left_children":[1,3,5,-1,-1,-1,-1],"loss_changes":[2.5685656E0,2.8803945E-1,3.9212966E-1,0E0,0E0,0E0,0E0],"parents":[2147483647,0,0,1,1,2,2],"right_children":[2,4,6,-1,-1,-1,-1],"split_conditions":[9.731417E0,-1.8746546E-1,1.9891016E1,-4.765042E-2,-1.3531092E-2,1.188724E-2,4.9103223E-2],"split_indices":[4,15,0,0,0,0,0],"split_type":[0,0,0,0,0,0,0],"sum_hessian":[2.3325655E1,1.1305906E1,1.201975E1,5.527537E0,5.77837E0,6.656226E0,5.363523E0],"tree_param":{"num_deleted":"0","num_feature":"48","num_nodes":"7","size_leaf_vector":"1"}},{"base_weights":[2.4362676E-2,-3.1507015E-1,3.1114918E-1,-4.5603044E-2,-1.5450775E-2,1.195095E-1,4.8061565E-2,-4.1988464E-3,1.979258E-2],"categories":[],"categories_nodes":[],"categories_segments":[],"categories_sizes":[],"default_left":[0,0,0,0,0,0,0,0,0],"id":24,"left_children":[1,3,5,-1,-1,7,-1,-1,-1],"loss_changes":[2.372336E0,1.8294871E-1,3.7017655E-1,0E0,0E0,1.0341974E-1,0E0,0E0,0E0],"parents":[2147483647,0,0,1,1,2,2,5,5],"right_children":[2,4,6,-1,-1,8,-1,-1,-1],"split_conditions":[4.5699067E0,-1.3529687E0,1.9449648E1,-4.5603044E-2,-1.5450775E-2,-2.168709E-2,4.8061565E-2,-4.1988464E-3,1.979258E-2],"split_indices":[18,15,4,0,0,42,0,0,0],"split_type":[0,0,0,0,0,0,0,0,0],"sum_hessian":[2.2363377E1,1.0196476E1,1.21669E1,4.449757E0,5.7467194E0,6.5101566E0,5.656743E0,2.27969E0,4.230467E0],"tree_param":{"num_deleted":"0","num_feature":"48","num_nodes":"9","size_leaf_vector":"1"}},{"base_weights":[2.6422727E-3,-3.135368E-1,2.931804E-1,-4.481384E-2,-1.4537516E-2,1.1126433E-2,4.597188E-2],"categories":[],"categories_nodes":[],"categories_segments":[],"categories_sizes":[],"default_left":[0,0,0,0,0,0,0],"id":25,"left_children":[1,3,5,-1,-1,-1,-1],"loss_changes":[2.126838E0,1.8589616E-1,3.1424344E-1,0E0,0E0,0E0,0E0],"parents":[2147483647,0,0,1,1,2,2],"right_children":[2,4,6,-1,-1,-1,-1],"split_conditions":[4.5699067E0,-1.3529687E0,1.2592678E1,-4.481384E-2,-1.4537516E-2,1.1126433E-2,4.597188E-2],"split_indices":[18,15,18,0,0,0,0],"split_type":[0,0,0,0,0,0,0],"sum_hessian":[2.1151854E1,1.0091063E1,1.106079E1,4.680068E0,5.4109945E0,6.083575E0,4.9772153E0],"tree_param":{"num_deleted":"0","num_feature":"48","num_nodes":"7","size_leaf_vector":"1"}},{"base_weights":[1.526356E-2,-3.0717456E-1,2.8323263E-1,-3.943948E-2,-4.086926E-3,9.4677515E-2,4.578518E-2,-4.453355E-3,1.971785E-2],"categories":[],"categories_nodes":[],"categories_segments":[],"categories_sizes":[],"default_left":[0,0,0,0,0,0,0,0,0],"id":26,"left_children":[1,3,5,-1,-1,7,-1,-1,-1],"loss_changes":[1.7972149E0,2.0368892E-1,3.2969534E-1,0E0,0E0,1.0450368E-1,0E0,0E0,0E0],"parents":[2147483647,0,0,1,1,2,2,5,5],"right_children":[2,4,6,-1,-1,8,-1,-1,-1],"split_conditions":[4.5699067E0,1.0134434E0,1.9449648E1,-3.943948E-2,-4.086926E-3,2.9280087E-2,4.578518E-2,-4.453355E-3,1.971785E-2],"split_indices":[18,23,4,0,0,22,0,0,0],"split_type":[0,0,0,0,0,0,0,0,0],"sum_hessian":[1.8793343E1,8.46336E0,1.0329982E1,6.012998E0,2.4503622E0,5.7083044E0,4.621677E0,2.6604974E0,3.0478072E0],"tree_param":{"num_deleted":"0","num_feature":"48","num_nodes":"9","size_leaf_vector":"1"}},{"base_weights":[1.6696478E-3,-3.0460078E-2,2.7393055E-1,8.175529E-3,4.6187878E-2],"categories":[],"categories_nodes":[],"categories_segments":[],"categories_sizes":[],"default_left":[0,0,0,0,0],"id":27,"left_children":[1,-1,3,-1,-1],"loss_changes":[1.7081517E0,0E0,3.5381913E-1,0E0,0E0],"parents":[2147483647,0,0,2,2],"right_children":[2,-1,4,-1,-1],"split_conditions":[9.70152E0,-3.0460078E-2,1.9891016E1,8.175529E-3,4.6187878E-2],"split_indices":[4,0,0,0,0],"split_type":[0,0,0,0,0],"sum_hessian":[1.848436E1,8.642969E0,9.84139E0,5.575491E0,4.2658987E0],"tree_param":{"num_deleted":"0","num_feature":"48","num_nodes":"5","size_leaf_vector":"1"}},{"base_weights":[1.1994212E-2,-2.7350774E-1,2.762176E-1,-3.6386225E-2,-9.895585E-3,8.22211E-3,4.469673E-2],"categories":[],"categories_nodes":[],"categories_segments":[],"categories_sizes":[],"default_left":[0,0,0,0,0,0,0],"id":28,"left_children":[1,3,5,-1,-1,-1,-1],"loss_changes":[1.4557726E0,1.1061615E-1,2.9449576E-1,0E0,0E0,0E0,0E0],"parents":[2147483647,0,0,1,1,2,2],"right_children":[2,4,6,-1,-1,-1,-1],"split_conditions":[9.70152E0,8.2941294E-1,1.9438557E1,-3.6386225E-2,-9.895585E-3,8.22211E-3,4.469673E-2],"split_indices":[4,23,4,0,0,0,0],"split_type":[0,0,0,0,0,0,0],"sum_hessian":[1.7296562E1,8.2966385E0,8.999925E0,4.752182E0,3.5444562E0,4.906713E0,4.0932117E0],"tree_param":{"num_deleted":"0","num_feature":"48","num_nodes":"7","size_leaf_vector":"1"}},{"base_weights":[3.0556638E-3,-2.7961147E-1,2.8580457E-1,-3.6454115E-2,-1.0313807E-2,1.13914665E-2,4.469974E-2],"categories":[],"categories_nodes":[],"categories_segments":[],"categories_sizes":[],"default_left":[0,0,0,0,0,0,0],"id":29,"left_children":[1,3,5,-1,-1,-1,-1],"loss_changes":[1.5743269E0,1.10119045E-1,2.2178108E-1,0E0,0E0,0E0,0E0],"parents":[2147483647,0,0,1,1,2,2],"right_children":[2,4,6,-1,-1,-1,-1],"split_conditions":[9.70152E0,8.398611E-1,1.9868265E1,-3.6454115E-2,-1.0313807E-2,1.13914665E-2,4.469974E-2],"split_indices":[4,23,0,0,0,0,0],"split_type":[0,0,0,0,0,0,0],"sum_hessian":[1.7697962E1,8.855809E0,8.842152E0,5.2591085E0,3.596701E0,5.105035E0,3.7371173E0],"tree_param":{"num_deleted":"0","num_feature":"48","num_nodes":"7","size_leaf_vector":"1"}},{"base_weights":[1.4883716E-2,-2.5339028E-1,2.676014E-1,-3.90335E-2,-9.381922E-3,4.2789042E-2,8.761501E-3],"categories":[],"categories_nodes":[],"categories_segments":[],"categories_sizes":[],"default_left":[0,0,0,0,0,0,0],"id":30,"left_children":[1,3,5,-1,-1,-1,-1],"loss_changes":[1.2425886E0,1.5827703E-1,2.3395681E-1,0E0,0E0,0E0,0E0],"parents":[2147483647,0,0,1,1,2,2],"right_children":[2,4,6,-1,-1,-1,-1],"split_conditions":[9.70152E0,-1.3529687E0,-8.443427E-1,-3.90335E-2,-9.381922E-3,4.2789042E-2,8.761501E-3],"split_indices":[4,15,24,0,0,0,0],"split_type":[0,0,0,0,0,0,0],"sum_hessian":[1.6327772E1,7.9188294E0,8.408943E0,3.4832954E0,4.435534E0,3.7193146E0,4.6896286E0],"tree_param":{"num_deleted":"0","num_feature":"48","num_nodes":"7","size_leaf_vector":"1"}},{"base_weights":[3.2145565E-3,-2.7299038E-1,2.608323E-1,-4.005422E-2,-1.08235935E-2,8.225601E-3,4.1911602E-2],"categories":[],"categories_nodes":[],"categories_segments":[],"categories_sizes":[],"default_left":[0,0,0,0,0,0,0],"id":31,"left_children":[1,3,5,-1,-1,-1,-1],"loss_changes":[1.2551074E0,1.3565242E-1,2.2331417E-1,0E0,0E0,0E0,0E0],"parents":[2147483647,0,0,1,1,2,2],"right_children":[2,4,6,-1,-1,-1,-1],"split_conditions":[4.5699067E0,-1.3529687E0,1.985264E1,-4.005422E-2,-1.08235935E-2,8.225601E-3,4.1911602E-2],"split_indices":[18,15,0,0,0,0,0],"split_type":[0,0,0,0,0,0,0],"sum_hessian":[1.5638294E1,7.518094E0,8.120199E0,3.4308252E0,4.087269E0,4.5295825E0,3.5906172E0],"tree_param":{"num_deleted":"0","num_feature":"48","num_nodes":"7","size_leaf_vector":"1"}},{"base_weights":[2.6742187E-3,-2.7295843E-2,2.7535278E-1,9.6615115E-3,3.9895304E-2],"categories":[],"categories_nodes":[],"categories_segments":[],"categories_sizes":[],"default_left":[0,0,0,0,0],"id":32,"left_children":[1,-1,3,-1,-1],"loss_changes":[1.2610958E0,0E0,1.476869E-1,0E0,0E0],"parents":[2147483647,0,0,2,2],"right_children":[2,-1,4,-1,-1],"split_conditions":[4.5727944E0,-2.7295843E-2,6.6754574E-1,9.6615115E-3,3.9895304E-2],"split_indices":[18,0,1,0,0],"split_type":[0,0,0,0,0],"sum_hessian":[1.4779003E1,7.3491797E0,7.429824E0,3.7657974E0,3.6640263E0],"tree_param":{"num_deleted":"0","num_feature":"48","num_nodes":"5","size_leaf_vector":"1"}},{"base_weights":[2.6952438E-3,-3.0601943E-2,2.635546E-1,9.138021E-3,4.1804213E-2],"categories":[],"categories_nodes":[],"categories_segments":[],"categories_sizes":[],"default_left":[0,0,0,0,0],"id":33,"left_children":[1,-1,3,-1,-1],"loss_changes":[1.2771184E0,0E0,1.9028336E-1,0E0,0E0],"parents":[2147483647,0,0,2,2],"right_children":[2,-1,4,-1,-1],"split_conditions":[4.54225E0,-3.0601943E-2,1.9438557E1,9.138021E-3,4.1804213E-2],"split_indices":[18,0,4,0,0],"split_type":[0,0,0,0,0],"sum_hessian":[1.3857184E1,6.267168E0,7.5900164E0,4.3421974E0,3.247819E0],"tree_param":{"num_deleted":"0","num_feature":"48","num_nodes":"5","size_leaf_vector":"1"}},{"base_weights":[3.8013803E-3,-2.4855731E-2,2.5572282E-1,7.6162624E-3,4.13058E-2],"categories":[],"categories_nodes":[],"categories_segments":[],"categories_sizes":[],"default_left":[0,0,0,0,0],"id":34,"left_children":[1,-1,3,-1,-1],"loss_changes":[9.5808464E-1,0E0,1.813907E-1,0E0,0E0],"parents":[2147483647,0,0,2,2],"right_children":[2,-1,4,-1,-1],"split_conditions":[9.731417E0,-2.4855731E-2,1.9891016E1,7.6162624E-3,4.13058E-2],"split_indices":[4,0,0,0,0],"split_type":[0,0,0,0,0],"sum_hessian":[1.3070452E1,6.536231E0,6.534221E0,3.7446656E0,2.7895555E0],"tree_param":{"num_deleted":"0","num_feature":"48","num_nodes":"5","size_leaf_vector":"1"}},{"base_weights":[1.4647778E-2,-2.3948202E-1,2.59158E-1,-3.758517E-2,-6.519124E-3,1.0253574E-2,4.0652297E-2],"categories":[],"categories_nodes":[],"categories_segments":[],"categories_sizes":[],"default_left":[0,0,0,0,0,0,0],"id":35,"left_children":[1,3,5,-1,-1,-1,-1],"loss_changes":[9.609131E-1,1.564425E-1,1.3955909E-1,0E0,0E0,0E0,0E0],"parents":[2147483647,0,0,1,1,2,2],"right_children":[2,4,6,-1,-1,-1,-1],"split_conditions":[4.5699067E0,-1.3529687E0,1.9891016E1,-3.758517E-2,-6.519124E-3,1.0253574E-2,4.0652297E-2],"split_indices":[18,15,0,0,0,0,0],"split_type":[0,0,0,0,0,0,0],"sum_hessian":[1.346553E1,6.6129627E0,6.852567E0,3.0612764E0,3.5516863E0,4.1440196E0,2.7085476E0],"tree_param":{"num_deleted":"0","num_feature":"48","num_nodes":"7","size_leaf_vector":"1"}},{"base_weights":[6.2623257E-3,-2.444067E-1,2.443791E-1,-7.467389E-3,-3.959569E-2,9.2654945E-3,3.978254E-2],"categories":[],"categories_nodes":[],"categories_segments":[],"categories_sizes":[],"default_left":[0,0,0,0,0,0,0],"id":36,"left_children":[1,3,5,-1,-1,-1,-1],"loss_changes":[8.939637E-1,1.5843585E-1,1.4165598E-1,0E0,0E0,0E0,0E0],"parents":[2147483647,0,0,1,1,2,2],"right_children":[2,4,6,-1,-1,-1,-1],"split_conditions":[9.70152E0,-2.2420141E1,1.9891016E1,-7.467389E-3,-3.959569E-2,9.2654945E-3,3.978254E-2],"split_indices":[4,0,0,0,0,0,0],"split_type":[0,0,0,0,0,0,0],"sum_hessian":[1.2976493E1,6.308757E0,6.667736E0,3.6799874E0,2.6287692E0,4.15912E0,2.5086157E0],"tree_param":{"num_deleted":"0","num_feature":"48","num_nodes":"7","size_leaf_vector":"1"}},{"base_weights":[1.3244073E-2,-2.600582E-2,2.656259E-1,3.88061E-2,9.954779E-3],"categories":[],"categories_nodes":[],"categories_segments":[],"categories_sizes":[],"default_left":[0,0,0,0,0],"id":37,"left_children":[1,-1,3,-1,-1],"loss_changes":[9.5433E-1,0E0,1.0710436E-1,0E0,0E0],"parents":[2147483647,0,0,2,2],"right_children":[2,-1,4,-1,-1],"split_conditions":[9.70152E0,-2.600582E-2,-8.443427E-1,3.88061E-2,9.954779E-3],"split_indices":[4,0,24,0,0],"split_type":[0,0,0,0,0],"sum_hessian":[1.1834105E1,5.6669707E0,6.167134E0,2.7806108E0,3.3865228E0],"tree_param":{"num_deleted":"0","num_feature":"48","num_nodes":"5","size_leaf_vector":"1"}},{"base_weights":[-6.2944344E-3,-2.5935337E-2,2.3447213E-1,7.5307093E-3,3.8637858E-2],"categories":[],"categories_nodes":[],"categories_segments":[],"categories_sizes":[],"default_left":[0,0,0,0,0],"id":38,"left_children":[1,-1,3,-1,-1],"loss_changes":[8.241468E-1,0E0,1.3882902E-1,0E0,0E0],"parents":[2147483647,0,0,2,2],"right_children":[2,-1,4,-1,-1],"split_conditions":[4.5699067E0,-2.5935337E-2,1.9891016E1,7.5307093E-3,3.8637858E-2],"split_indices":[18,0,0,0,0],"split_type":[0,0,0,0,0],"sum_hessian":[1.15284605E1,5.583108E0,5.9453526E0,3.633734E0,2.3116188E0],"tree_param":{"num_deleted":"0","num_feature":"48","num_nodes":"5","size_leaf_vector":"1"}},{"base_weights":[-1.1742231E-2,-1.5061864E-1,3.4453627E-2,-3.418625E-2,-2.4317044E-3],"categories":[],"categories_nodes":[],"categories_segments":[],"categories_sizes":[],"default_left":[0,0,0,0,0],"id":39,"left_children":[1,3,-1,-1,-1],"loss_changes":[6.332278E-1,2.126925E-1,0E0,0E0,0E0],"parents":[2147483647,0,0,1,1],"right_children":[2,4,-1,-1,-1],"split_conditions":[1.9419071E1,-1.3571169E0,3.4453627E-2,-3.418625E-2,-2.4317044E-3],"split_indices":[4,15,0,0,0],"split_type":[0,0,0,0,0],"sum_hessian":[1.07491865E1,8.1497E0,2.5994866E0,2.5626543E0,5.5870457E0],"tree_param":{"num_deleted":"0","num_feature":"48","num_nodes":"5","size_leaf_vector":"1"}},{"base_weights":[-5.833728E-3,-2.3610875E-2,2.1984936E-1,6.823306E-3,3.700413E-2],"categories":[],"categories_nodes":[],"categories_segments":[],"categories_sizes":[],"default_left":[0,0,0,0,0],"id":40,"left_children":[1,-1,3,-1,-1],"loss_changes":[6.674232E-1,0E0,1.2275213E-1,0E0,0E0],"parents":[2147483647,0,0,2,2],"right_children":[2,-1,4,-1,-1],"split_conditions":[4.5699067E0,-2.3610875E-2,1.9891016E1,6.823306E-3,3.700413E-2],"split_indices":[18,0,0,0,0],"split_type":[0,0,0,0,0],"sum_hessian":[1.0843843E1,5.3444524E0,5.499391E0,3.4604397E0,2.0389512E0],"tree_param":{"num_deleted":"0","num_feature":"48","num_nodes":"5","size_leaf_vector":"1"}},{"base_weights":[1.1039253E-2,-2.0727016E-1,2.4307085E-2,-2.9614557E-2,-1.1025671E-3],"categories":[],"categories_nodes":[],"categories_segments":[],"categories_sizes":[],"default_left":[0,0,0,0,0],"id":41,"left_children":[1,3,-1,-1,-1],"loss_changes":[6.4630806E-1,1.1186886E-1,0E0,0E0,0E0],"parents":[2147483647,0,0,1,1],"right_children":[2,4,-1,-1,-1],"split_conditions":[9.70152E0,9.0165E-1,2.4307085E-2,-2.9614557E-2,-1.1025671E-3],"split_indices":[4,23,0,0,0],"split_type":[0,0,0,0,0],"sum_hessian":[1.0764495E1,5.6012316E0,5.1632633E0,3.504876E0,2.0963557E0],"tree_param":{"num_deleted":"0","num_feature":"48","num_nodes":"5","size_leaf_vector":"1"}},{"base_weights":[-1.1651324E-3,-2.4275975E-2,2.2092153E-1,3.550434E-2,6.849119E-3],"categories":[],"categories_nodes":[],"categories_segments":[],"categories_sizes":[],"default_left":[0,0,0,0,0],"id":42,"left_children":[1,-1,3,-1,-1],"loss_changes":[6.8794674E-1,0E0,1.1231777E-1,0E0,0E0],"parents":[2147483647,0,0,2,2],"right_children":[2,-1,4,-1,-1],"split_conditions":[4.566008E0,-2.4275975E-2,-8.443427E-1,3.550434E-2,6.849119E-3],"split_indices":[18,0,24,0,0],"split_type":[0,0,0,0,0],"sum_hessian":[1.0822132E1,5.138828E0,5.683305E0,2.3161397E0,3.3671653E0],"tree_param":{"num_deleted":"0","num_feature":"48","num_nodes":"5","size_leaf_vector":"1"}},{"base_weights":[2.1967166E-3,-1.9806464E-1,2.1684799E-1,-3.806966E-3,-3.345187E-2,3.3539608E-3,3.5319977E-2],"categories":[],"categories_nodes":[],"categories_segments":[],"categories_sizes":[],"default_left":[0,0,0,0,0,0,0],"id":43,"left_children":[1,3,5,-1,-1,-1,-1],"loss_changes":[4.86243E-1,1.1514942E-1,1.2449202E-1,0E0,0E0,0E0,0E0],"parents":[2147483647,0,0,1,1,2,2],"right_children":[2,4,6,-1,-1,-1,-1],"split_conditions":[4.5727944E0,-2.2447859E1,1.985007E1,-3.806966E-3,-3.345187E-2,3.3539608E-3,3.5319977E-2],"split_indices":[18,0,0,0,0,0,0],"split_type":[0,0,0,0,0,0,0],"sum_hessian":[9.312415E0,4.857669E0,4.454746E0,2.8246756E0,2.0329936E0,2.431657E0,2.0230887E0],"tree_param":{"num_deleted":"0","num_feature":"48","num_nodes":"7","size_leaf_vector":"1"}},{"base_weights":[-1.9860035E-2,-2.4585642E-2,2.2373628E-2],"categories":[],"categories_nodes":[],"categories_segments":[],"categories_sizes":[],"default_left":[0,0,0],"id":44,"left_children":[1,-1,-1],"loss_changes":[6.2029135E-1,0E0,0E0],"parents":[2147483647,0,0],"right_children":[2,-1,-1],"split_conditions":[4.5727944E0,-2.4585642E-2,2.2373628E-2],"split_indices":[18,0,0],"split_type":[0,0,0],"sum_hessian":[9.268211E0,4.802975E0,4.4652367E0],"tree_param":{"num_deleted":"0","num_feature":"48","num_nodes":"3","size_leaf_vector":"1"}},{"base_weights":[1.4731701E-3,-2.2334827E-2,2.016107E-2],"categories":[],"categories_nodes":[],"categories_segments":[],"categories_sizes":[],"default_left":[0,0,0],"id":45,"left_children":[1,-1,-1],"loss_changes":[4.939647E-1,0E0,0E0],"parents":[2147483647,0,0],"right_children":[2,-1,-1],"split_conditions":[4.5727944E0,-2.2334827E-2,2.016107E-2],"split_indices":[18,0,0],"split_type":[0,0,0],"sum_hessian":[8.977403E0,4.1733546E0,4.804048E0],"tree_param":{"num_deleted":"0","num_feature":"48","num_nodes":"3","size_leaf_vector":"1"}},{"base_weights":[3.0915136E-3,-2.861811E-2,1.5403298E-1,4.3223817E-3,3.0513037E-2],"categories":[],"categories_nodes":[],"categories_segments":[],"categories_sizes":[],"default_left":[0,0,0,0,0],"id":46,"left_children":[1,-1,3,-1,-1],"loss_changes":[5.0016457E-1,0E0,1.12617925E-1,0E0,0E0],"parents":[2147483647,0,0,2,2],"right_children":[2,-1,4,-1,-1],"split_conditions":[-4.547609E0,-2.861811E-2,1.9419071E1,4.3223817E-3,3.0513037E-2],"split_indices":[4,0,4,0,0],"split_type":[0,0,0,0,0],"sum_hessian":[9.445476E0,2.9314697E0,6.5140057E0,4.4999657E0,2.01404E0],"tree_param":{"num_deleted":"0","num_feature":"48","num_nodes":"5","size_leaf_vector":"1"}},{"base_weights":[-7.018115E-3,-2.9874543E-2,1.6094527E-1,3.4081233E-3,2.912438E-2],"categories":[],"categories_nodes":[],"categories_segments":[],"categories_sizes":[],"default_left":[0,0,0,0,0],"id":47,"left_children":[1,-1,3,-1,-1],"loss_changes":[5.419631E-1,0E0,1.0655217E-1,0E0,0E0],"parents":[2147483647,0,0,2,2],"right_children":[2,-1,4,-1,-1],"split_conditions":[4.4173493E0,-2.9874543E-2,1.9782661E1,3.4081233E-3,2.912438E-2],"split_indices":[18,0,0,0,0],"split_type":[0,0,0,0,0],"sum_hessian":[9.079316E0,3.0329318E0,6.046384E0,3.7027733E0,2.3436105E0],"tree_param":{"num_deleted":"0","num_feature":"48","num_nodes":"5","size_leaf_vector":"1"}},{"base_weights":[1.704754E-2,-2.683769E-2,1.667544E-1,3.6415637E-3,3.2160275E-2],"categories":[],"categories_nodes":[],"categories_segments":[],"categories_sizes":[],"default_left":[0,0,0,0,0],"id":48,"left_children":[1,-1,3,-1,-1],"loss_changes":[4.5390853E-1,0E0,1.2750389E-1,0E0,0E0],"parents":[2147483647,0,0,2,2],"right_children":[2,-1,4,-1,-1],"split_conditions":[4.4173493E0,-2.683769E-2,1.2569433E1,3.6415637E-3,3.2160275E-2],"split_indices":[18,0,18,0,0],"split_type":[0,0,0,0,0],"sum_hessian":[8.575371E0,2.6776326E0,5.8977385E0,3.8729627E0,2.0247755E0],"tree_param":{"num_deleted":"0","num_feature":"48","num_nodes":"5","size_leaf_vector":"1"}},{"base_weights":[-1.4083163E-2,-2.3688298E-2,1.6382E-2],"categories":[],"categories_nodes":[],"categories_segments":[],"categories_sizes":[],"default_left":[0,0,0],"id":49,"left_children":[1,-1,-1],"loss_changes":[4.0845737E-1,0E0,0E0],"parents":[2147483647,0,0],"right_children":[2,-1,-1],"split_conditions":[3.0627915E-1,-2.3688298E-2,1.6382E-2],"split_indices":[4,0,0],"split_type":[0,0,0],"sum_hessian":[8.325962E0,3.5493503E0,4.776612E0],"tree_param":{"num_deleted":"0","num_feature":"48","num_nodes":"3","size_leaf_vector":"1"}},{"base_weights":[-1.5062685E-3,-2.296493E-2,2.1097114E-2],"categories":[],"categories_nodes":[],"categories_segments":[],"categories_sizes":[],"default_left":[0,0,0],"id":50,"left_children":[1,-1,-1],"loss_changes":[4.9387783E-1,0E0,0E0],"parents":[2147483647,0,0],"right_children":[2,-1,-1],"split_conditions":[4.566008E0,-2.296493E-2,2.1097114E-2],"split_indices":[18,0,0],"split_type":[0,0,0],"sum_hessian":[8.188784E0,3.9098494E0,4.278934E0],"tree_param":{"num_deleted":"0","num_feature":"48","num_nodes":"3","size_leaf_vector":"1"}},{"base_weights":[-1.0308313E-2,-1.3879752E-1,3.034825E-2,-2.80861E-2,-8.992309E-4],"categories":[],"categories_nodes":[],"categories_segments":[],"categories_sizes":[],"default_left":[0,0,0,0,0],"id":51,"left_children":[1,3,-1,-1,-1],"loss_changes":[4.1674045E-1,1.3169023E-1,0E0,0E0,0E0],"parents":[2147483647,0,0,1,1],"right_children":[2,4,-1,-1,-1],"split_conditions":[1.9419071E1,-1.595569E-1,3.034825E-2,-2.80861E-2,-8.992309E-4],"split_indices":[4,15,0,0,0],"split_type":[0,0,0,0,0],"sum_hessian":[8.291409E0,6.278287E0,2.013121E0,2.4419827E0,3.8363044E0],"tree_param":{"num_deleted":"0","num_feature":"48","num_nodes":"5","size_leaf_vector":"1"}},{"base_weights":[1.1703201E-3,-2.4496688E-2,1.4166953E-2],"categories":[],"categories_nodes":[],"categories_segments":[],"categories_sizes":[],"default_left":[0,0,0],"id":52,"left_children":[1,-1,-1],"loss_changes":[3.3339572E-1,0E0,0E0],"parents":[2147483647,0,0],"right_children":[2,-1,-1],"split_conditions":[-4.468835E0,-2.4496688E-2,1.4166953E-2],"split_indices":[4,0,0],"split_type":[0,0,0],"sum_hessian":[7.6371717E0,2.505064E0,5.1321077E0],"tree_param":{"num_deleted":"0","num_feature":"48","num_nodes":"3","size_leaf_vector":"1"}},{"base_weights":[-6.1708973E-3,-1.3199978E-2,2.3012314E-2],"categories":[],"categories_nodes":[],"categories_segments":[],"categories_sizes":[],"default_left":[0,0,0],"id":53,"left_children":[1,-1,-1],"loss_changes":[2.850488E-1,0E0,0E0],"parents":[2147483647,0,0],"right_children":[2,-1,-1],"split_conditions":[1.1961731E1,-1.3199978E-2,2.3012314E-2],"split_indices":[18,0,0],"split_type":[0,0,0],"sum_hessian":[7.5654297E0,5.2246356E0,2.3407946E0],"tree_param":{"num_deleted":"0","num_feature":"48","num_nodes":"3","size_leaf_vector":"1"}},{"base_weights":[1.2750579E-2,-1.688906E-2,1.9240176E-2],"categories":[],"categories_nodes":[],"categories_segments":[],"categories_sizes":[],"default_left":[0,0,0],"id":54,"left_children":[1,-1,-1],"loss_changes":[3.0875596E-1,0E0,0E0],"parents":[2147483647,0,0],"right_children":[2,-1,-1],"split_conditions":[9.70152E0,-1.688906E-2,1.9240176E-2],"split_indices":[4,0,0],"split_type":[0,0,0],"sum_hessian":[7.465944E0,3.7421944E0,3.7237494E0],"tree_param":{"num_deleted":"0","num_feature":"48","num_nodes":"3","size_leaf_vector":"1"}},{"base_weights":[3.7431468E-3,-2.5528813E-2,1.4021275E-2],"categories":[],"categories_nodes":[],"categories_segments":[],"categories_sizes":[],"default_left":[0,0,0],"id":55,"left_children":[1,-1,-1],"loss_changes":[3.3635882E-1,0E0,0E0],"parents":[2147483647,0,0],"right_children":[2,-1,-1],"split_conditions":[-4.547609E0,-2.5528813E-2,1.4021275E-2],"split_indices":[4,0,0],"split_type":[0,0,0],"sum_hessian":[7.5025487E0,2.2883675E0,5.2141814E0],"tree_param":{"num_deleted":"0","num_feature":"48","num_nodes":"3","size_leaf_vector":"1"}},{"base_weights":[-1.12742465E-2,-2.6263107E-2,1.3052751E-2],"categories":[],"categories_nodes":[],"categories_segments":[],"categories_sizes":[],"default_left":[0,0,0],"id":56,"left_children":[1,-1,-1],"loss_changes":[3.2326007E-1,0E0,0E0],"parents":[2147483647,0,0],"right_children":[2,-1,-1],"split_conditions":[-1.595569E-1,-2.6263107E-2,1.3052751E-2],"split_indices":[15,0,0],"split_type":[0,0,0],"sum_hessian":[7.107647E0,2.2562082E0,4.851439E0],"tree_param":{"num_deleted":"0","num_feature":"48","num_nodes":"3","size_leaf_vector":"1"}},{"base_weights":[-4.893064E-3,-2.667815E-2,1.1983958E-2],"categories":[],"categories_nodes":[],"categories_segments":[],"categories_sizes":[],"default_left":[0,0,0],"id":57,"left_children":[1,-1,-1],"loss_changes":[3.0855018E-1,0E0,0E0],"parents":[2147483647,0,0],"right_children":[2,-1,-1],"split_conditions":[-4.548607E0,-2.667815E-2,1.1983958E-2],"split_indices":[4,0,0],"split_type":[0,0,0],"sum_hessian":[7.466872E0,2.0415695E0,5.425303E0],"tree_param":{"num_deleted":"0","num_feature":"48","num_nodes":"3","size_leaf_vector":"1"}},{"base_weights":[-8.181052E-3,-1.1755175E-2,1.9684812E-2],"categories":[],"categories_nodes":[],"categories_segments":[],"categories_sizes":[],"default_left":[0,0,0],"id":58,"left_children":[1,-1,-1],"loss_changes":[1.9672975E-1,0E0,0E0],"parents":[2147483647,0,0],"right_children":[2,-1,-1],"split_conditions":[1.1961731E1,-1.1755175E-2,1.9684812E-2],"split_indices":[18,0,0],"split_type":[0,0,0],"sum_hessian":[6.741193E0,4.674361E0,2.0668316E0],"tree_param":{"num_deleted":"0","num_feature":"48","num_nodes":"3","size_leaf_vector":"1"}},{"base_weights":[-1.8664604E-2,-2.2291346E-2,1.7283557E-2],"categories":[],"categories_nodes":[],"categories_segments":[],"categories_sizes":[],"default_left":[0,0,0],"id":59,"left_children":[1,-1,-1],"loss_changes":[3.5773107E-1,0E0,0E0],"parents":[2147483647,0,0],"right_children":[2,-1,-1],"split_conditions":[4.569809E0,-2.2291346E-2,1.7283557E-2],"split_indices":[18,0,0],"split_type":[0,0,0],"sum_hessian":[7.16092E0,3.3857417E0,3.7751782E0],"tree_param":{"num_deleted":"0","num_feature":"48","num_nodes":"3","size_leaf_vector":"1"}},{"base_weights":[1.5617646E-3,-2.446904E-2,1.39331315E-2],"categories":[],"categories_nodes":[],"categories_segments":[],"categories_sizes":[],"default_left":[0,0,0],"id":60,"left_children":[1,-1,-1],"loss_changes":[3.0036342E-1,0E0,0E0],"parents":[2147483647,0,0],"right_children":[2,-1,-1],"split_conditions":[4.4173493E0,-2.446904E-2,1.39331315E-2],"split_indices":[18,0,0],"split_type":[0,0,0],"sum_hessian":[6.8485527E0,2.1785257E0,4.6700273E0],"tree_param":{"num_deleted":"0","num_feature":"48","num_nodes":"3","size_leaf_vector":"1"}},{"base_weights":[4.2565516E-3,-1.1670679E-2,2.2335751E-2],"categories":[],"categories_nodes":[],"categories_segments":[],"categories_sizes":[],"default_left":[0,0,0],"id":61,"left_children":[1,-1,-1],"loss_changes":[2.3140025E-1,0E0,0E0],"parents":[2147483647,0,0],"right_children":[2,-1,-1],"split_conditions":[1.1961731E1,-1.1670679E-2,2.2335751E-2],"split_indices":[18,0,0],"split_type":[0,0,0],"sum_hessian":[6.7474804E0,4.648455E0,2.0990252E0],"tree_param":{"num_deleted":"0","num_feature":"48","num_nodes":"3","size_leaf_vector":"1"}},{"base_weights":[3.1889263E-3,-1.3286787E-2,2.4942266E-2],"categories":[],"categories_nodes":[],"categories_segments":[],"categories_sizes":[],"default_left":[0,0,0],"id":62,"left_children":[1,-1,-1],"loss_changes":[2.859874E-1,0E0,0E0],"parents":[2147483647,0,0],"right_children":[2,-1,-1],"split_conditions":[1.4652174E1,-1.3286787E-2,2.4942266E-2],"split_indices":[4,0,0],"split_type":[0,0,0],"sum_hessian":[6.5472765E0,4.5136514E0,2.0336251E0],"tree_param":{"num_deleted":"0","num_feature":"48","num_nodes":"3","size_leaf_vector":"1"}},{"base_weights":[-3.8662717E-2,-1.9071613E-2,2.360463E-2],"categories":[],"categories_nodes":[],"categories_segments":[],"categories_sizes":[],"default_left":[0,0,0],"id":63,"left_children":[1,-1,-1],"loss_changes":[3.4545934E-1,0E0,0E0],"parents":[2147483647,0,0],"right_children":[2,-1,-1],"split_conditions":[1.1952341E1,-1.9071613E-2,2.360463E-2],"split_indices":[18,0,0],"split_type":[0,0,0],"sum_hessian":[6.192683E0,4.183074E0,2.0096092E0],"tree_param":{"num_deleted":"0","num_feature":"48","num_nodes":"3","size_leaf_vector":"1"}},{"base_weights":[-8.520964E-3,-2.0317337E-2,1.0958694E-2],"categories":[],"categories_nodes":[],"categories_segments":[],"categories_sizes":[],"default_left":[0,0,0],"id":64,"left_children":[1,-1,-1],"loss_changes":[1.9389068E-1,0E0,0E0],"parents":[2147483647,0,0],"right_children":[2,-1,-1],"split_conditions":[4.4173493E0,-2.0317337E-2,1.0958694E-2],"split_indices":[18,0,0],"split_type":[0,0,0],"sum_hessian":[6.4652295E0,2.1694865E0,4.295743E0],"tree_param":{"num_deleted":"0","num_feature":"48","num_nodes":"3","size_leaf_vector":"1"}},{"base_weights":[1.1861156E-2,-1.3499153E-2,9.484257E-3],"categories":[],"categories_nodes":[],"categories_segments":[],"categories_sizes":[],"default_left":[0,0,0],"id":65,"left_children":[1,-1,-1],"loss_changes":[1.0189634E-1,0E0,0E0],"parents":[2147483647,0,0],"right_children":[2,-1,-1],"split_conditions":[-2.0621748E0,-1.3499153E-2,9.484257E-3],"split_indices":[14,0,0],"split_type":[0,0,0],"sum_hessian":[6.3111014E0,2.052324E0,4.2587776E0],"tree_param":{"num_deleted":"0","num_feature":"48","num_nodes":"3","size_leaf_vector":"1"}},{"base_weights":[1.24390805E-2,-1.5588278E-2,1.6994512E-2],"categories":[],"categories_nodes":[],"categories_segments":[],"categories_sizes":[],"default_left":[0,0,0],"id":66,"left_children":[1,-1,-1],"loss_changes":[2.2498845E-1,0E0,0E0],"parents":[2147483647,0,0],"right_children":[2,-1,-1],"split_conditions":[4.5727944E0,-1.5588278E-2,1.6994512E-2],"split_indices":[18,0,0],"split_type":[0,0,0],"sum_hessian":[6.487142E0,3.140883E0,3.3462589E0],"tree_param":{"num_deleted":"0","num_feature":"48","num_nodes":"3","size_leaf_vector":"1"}},{"base_weights":[1.6502196E-2],"categories":[],"categories_nodes":[],"categories_segments":[],"categories_sizes":[],"default_left":[0],"id":67,"left_children":[-1],"loss_changes":[0E0],"parents":[2147483647],"right_children":[-1],"split_conditions":[1.6502197E-3],"split_indices":[0],"split_type":[0],"sum_hessian":[5.8361106E0],"tree_param":{"num_deleted":"0","num_feature":"48","num_nodes":"1","size_leaf_vector":"1"}},{"base_weights":[-2.8966293E-2,-1.3635859E-2,1.6763194E-2],"categories":[],"categories_nodes":[],"categories_segments":[],"categories_sizes":[],"default_left":[0,0,0],"id":68,"left_children":[1,-1,-1],"loss_changes":[1.7686146E-1,0E0,0E0],"parents":[2147483647,0,0],"right_children":[2,-1,-1],"split_conditions":[1.193597E1,-1.3635859E-2,1.6763194E-2],"split_indices":[18,0,0],"split_type":[0,0,0],"sum_hessian":[6.2942E0,4.2687783E0,2.0254216E0],"tree_param":{"num_deleted":"0","num_feature":"48","num_nodes":"3","size_leaf_vector":"1"}},{"base_weights":[-7.7074405E-4,-1.8090336E-2,1.4872136E-2],"categories":[],"categories_nodes":[],"categories_segments":[],"categories_sizes":[],"default_left":[0,0,0],"id":69,"left_children":[1,-1,-1],"loss_changes":[2.0649096E-1,0E0,0E0],"parents":[2147483647,0,0],"right_children":[2,-1,-1],"split_conditions":[9.70152E0,-1.8090336E-2,1.4872136E-2],"split_indices":[4,0,0],"split_type":[0,0,0],"sum_hessian":[5.669046E0,2.4757435E0,3.1933022E0],"tree_param":{"num_deleted":"0","num_feature":"48","num_nodes":"3","size_leaf_vector":"1"}},{"base_weights":[1.2470674E-2,-1.6457288E-2,1.3390899E-2],"categories":[],"categories_nodes":[],"categories_segments":[],"categories_sizes":[],"default_left":[0,0,0],"id":70,"left_children":[1,-1,-1],"loss_changes":[1.704623E-1,0E0,0E0],"parents":[2147483647,0,0],"right_children":[2,-1,-1],"split_conditions":[2.7226835E-1,-1.6457288E-2,1.3390899E-2],"split_indices":[4,0,0],"split_type":[0,0,0],"sum_hessian":[5.903507E0,2.257348E0,3.6461592E0],"tree_param":{"num_deleted":"0","num_feature":"48","num_nodes":"3","size_leaf_vector":"1"}},{"base_weights":[1.3827576E-2,-1.227304E-2,1.37392795E-2],"categories":[],"categories_nodes":[],"categories_segments":[],"categories_sizes":[],"default_left":[0,0,0],"id":71,"left_children":[1,-1,-1],"loss_changes":[1.3319254E-1,0E0,0E0],"parents":[2147483647,0,0],"right_children":[2,-1,-1],"split_conditions":[4.5699067E0,-1.227304E-2,1.37392795E-2],"split_indices":[18,0,0],"split_type":[0,0,0],"sum_hessian":[5.89413E0,2.803073E0,3.0910573E0],"tree_param":{"num_deleted":"0","num_feature":"48","num_nodes":"3","size_leaf_vector":"1"}},{"base_weights":[-1.1812417E-3,-1.9285223E-2,1.1494721E-2],"categories":[],"categories_nodes":[],"categories_segments":[],"categories_sizes":[],"default_left":[0,0,0],"id":72,"left_children":[1,-1,-1],"loss_changes":[1.7743747E-1,0E0,0E0],"parents":[2147483647,0,0],"right_children":[2,-1,-1],"split_conditions":[-1.5832056E-1,-1.9285223E-2,1.1494721E-2],"split_indices":[15,0,0],"split_type":[0,0,0],"sum_hessian":[5.97576E0,2.0053058E0,3.9704545E0],"tree_param":{"num_deleted":"0","num_feature":"48","num_nodes":"3","size_leaf_vector":"1"}},{"base_weights":[4.065231E-2,-7.4774185E-3,2.0565506E-2],"categories":[],"categories_nodes":[],"categories_segments":[],"categories_sizes":[],"default_left":[0,0,0],"id":73,"left_children":[1,-1,-1],"loss_changes":[1.4295067E-1,0E0,0E0],"parents":[2147483647,0,0],"right_children":[2,-1,-1],"split_conditions":[1.1952341E1,-7.4774185E-3,2.0565506E-2],"split_indices":[18,0,0],"split_type":[0,0,0],"sum_hessian":[5.6982594E0,3.6745706E0,2.023689E0],"tree_param":{"num_deleted":"0","num_feature":"48","num_nodes":"3","size_leaf_vector":"1"}},{"base_weights":[-2.1369033E-3,-1.685662E-2,1.4663959E-2],"categories":[],"categories_nodes":[],"categories_segments":[],"categories_sizes":[],"default_left":[0,0,0],"id":74,"left_children":[1,-1,-1],"loss_changes":[1.8984601E-1,0E0,0E0],"parents":[2147483647,0,0],"right_children":[2,-1,-1],"split_conditions":[4.530128E0,-1.685662E-2,1.4663959E-2],"split_indices":[18,0,0],"split_type":[0,0,0],"sum_hessian":[5.6689186E0,2.6129346E0,3.0559843E0],"tree_param":{"num_deleted":"0","num_feature":"48","num_nodes":"3","size_leaf_vector":"1"}},{"base_weights":[-6.8605472E-3,-1.83278E-2,1.0454393E-2],"categories":[],"categories_nodes":[],"categories_segments":[],"categories_sizes":[],"default_left":[0,0,0],"id":75,"left_children":[1,-1,-1],"loss_changes":[1.56028E-1,0E0,0E0],"parents":[2147483647,0,0],"right_children":[2,-1,-1],"split_conditions":[-1.595569E-1,-1.83278E-2,1.0454393E-2],"split_indices":[15,0,0],"split_type":[0,0,0],"sum_hessian":[5.9639535E0,2.058695E0,3.9052584E0],"tree_param":{"num_deleted":"0","num_feature":"48","num_nodes":"3","size_leaf_vector":"1"}},{"base_weights":[-5.3212694E-3,-1.2605019E-2,1.6128197E-2],"categories":[],"categories_nodes":[],"categories_segments":[],"categories_sizes":[],"default_left":[0,0,0],"id":76,"left_children":[1,-1,-1],"loss_changes":[1.4899462E-1,0E0,0E0],"parents":[2147483647,0,0],"right_children":[2,-1,-1],"split_conditions":[1.4596435E1,-1.2605019E-2,1.6128197E-2],"split_indices":[4,0,0],"split_type":[0,0,0],"sum_hessian":[5.396842E0,3.270377E0,2.1264653E0],"tree_param":{"num_deleted":"0","num_feature":"48","num_nodes":"3","size_leaf_vector":"1"}},{"base_weights":[2.3229329E-2],"categories":[],"categories_nodes":[],"categories_segments":[],"categories_sizes":[],"default_left":[0],"id":77,"left_children":[-1],"loss_changes":[0E0],"parents":[2147483647],"right_children":[-1],"split_conditions":[2.322933E-3],"split_indices":[0],"split_type":[0],"sum_hessian":[5.5466423E0],"tree_param":{"num_deleted":"0","num_feature":"48","num_nodes":"1","size_leaf_vector":"1"}},{"base_weights":[2.1709304E-2,-1.1545144E-2,1.4568537E-2],"categories":[],"categories_nodes":[],"categories_segments":[],"categories_sizes":[],"default_left":[0,0,0],"id":78,"left_children":[1,-1,-1],"loss_changes":[1.24824665E-1,0E0,0E0],"parents":[2147483647,0,0],"right_children":[2,-1,-1],"split_conditions":[4.5699067E0,-1.1545144E-2,1.4568537E-2],"split_indices":[18,0,0],"split_type":[0,0,0],"sum_hessian":[5.3515034E0,2.5732982E0,2.778205E0],"tree_param":{"num_deleted":"0","num_feature":"48","num_nodes":"3","size_leaf_vector":"1"}},{"base_weights":[3.458714E-4,-1.4103997E-2,1.0565206E-2],"categories":[],"categories_nodes":[],"categories_segments":[],"categories_sizes":[],"default_left":[0,0,0],"id":79,"left_children":[1,-1,-1],"loss_changes":[1.1306951E-1,0E0,0E0],"parents":[2147483647,0,0],"right_children":[2,-1,-1],"split_conditions":[3.0627915E-1,-1.4103997E-2,1.0565206E-2],"split_indices":[4,0,0],"split_type":[0,0,0],"sum_hessian":[5.5934343E0,2.242835E0,3.3505995E0],"tree_param":{"num_deleted":"0","num_feature":"48","num_nodes":"3","size_leaf_vector":"1"}},{"base_weights":[-2.0536581E-2,-1.6374944E-2,1.3032548E-2],"categories":[],"categories_nodes":[],"categories_segments":[],"categories_sizes":[],"default_left":[0,0,0],"id":80,"left_children":[1,-1,-1],"loss_changes":[1.6141748E-1,0E0,0E0],"parents":[2147483647,0,0],"right_children":[2,-1,-1],"split_conditions":[9.723711E0,-1.6374944E-2,1.3032548E-2],"split_indices":[4,0,0],"split_type":[0,0,0],"sum_hessian":[5.4834185E0,2.7692008E0,2.714218E0],"tree_param":{"num_deleted":"0","num_feature":"48","num_nodes":"3","size_leaf_vector":"1"}},{"base_weights":[-2.3208315E-2,-1.5101053E-2,1.1146401E-2],"categories":[],"categories_nodes":[],"categories_segments":[],"categories_sizes":[],"default_left":[0,0,0],"id":81,"left_children":[1,-1,-1],"loss_changes":[1.2321642E-1,0E0,0E0],"parents":[2147483647,0,0],"right_children":[2,-1,-1],"split_conditions":[4.5727944E0,-1.5101053E-2,1.1146401E-2],"split_indices":[18,0,0],"split_type":[0,0,0],"sum_hessian":[5.1810226E0,2.5960696E0,2.5849533E0],"tree_param":{"num_deleted":"0","num_feature":"48","num_nodes":"3","size_leaf_vector":"1"}},{"base_weights":[2.4009705E-2,-1.048862E-2,1.3502257E-2],"categories":[],"categories_nodes":[],"categories_segments":[],"categories_sizes":[],"default_left":[0,0,0],"id":82,"left_children":[1,-1,-1],"loss_changes":[1.00152746E-1,0E0,0E0],"parents":[2147483647,0,0],"right_children":[2,-1,-1],"split_conditions":[4.5727944E0,-1.048862E-2,1.3502257E-2],"split_indices":[18,0,0],"split_type":[0,0,0],"sum_hessian":[5.009514E0,2.3435872E0,2.6659265E0],"tree_param":{"num_deleted":"0","num_feature":"48","num_nodes":"3","size_leaf_vector":"1"}},{"base_weights":[6.531786E-3,-1.1813201E-2,1.2649779E-2],"categories":[],"categories_nodes":[],"categories_segments":[],"categories_sizes":[],"default_left":[0,0,0],"id":83,"left_children":[1,-1,-1],"loss_changes":[1.08921774E-1,0E0,0E0],"parents":[2147483647,0,0],"right_children":[2,-1,-1],"split_conditions":[4.54225E0,-1.1813201E-2,1.2649779E-2],"split_indices":[18,0,0],"split_type":[0,0,0],"sum_hessian":[5.2838993E0,2.5987115E0,2.6851878E0],"tree_param":{"num_deleted":"0","num_feature":"48","num_nodes":"3","size_leaf_vector":"1"}},{"base_weights":[1.6260076E-2,-1.1201835E-2,1.3884275E-2],"categories":[],"categories_nodes":[],"categories_segments":[],"categories_sizes":[],"default_left":[0,0,0],"id":84,"left_children":[1,-1,-1],"loss_changes":[1.1008783E-1,0E0,0E0],"parents":[2147483647,0,0],"right_children":[2,-1,-1],"split_conditions":[4.5699067E0,-1.1201835E-2,1.3884275E-2],"split_indices":[18,0,0],"split_type":[0,0,0],"sum_hessian":[5.011868E0,2.4911494E0,2.5207186E0],"tree_param":{"num_deleted":"0","num_feature":"48","num_nodes":"3","size_leaf_vector":"1"}},{"base_weights":[-2.3359603E-3],"categories":[],"categories_nodes":[],"categories_segments":[],"categories_sizes":[],"default_left":[0],"id":85,"left_children":[-1],"loss_changes":[0E0],"parents":[2147483647],"right_children":[-1],"split_conditions":[-2.3359603E-4],"split_indices":[0],"split_type":[0],"sum_hessian":[4.8427553E0],"tree_param":{"num_deleted":"0","num_feature":"48","num_nodes":"1","size_leaf_vector":"1"}},{"base_weights":[-2.265507E-3,-1.0734367E-2,1.5036794E-2],"categories":[],"categories_nodes":[],"categories_segments":[],"categories_sizes":[],"default_left":[0,0,0],"id":86,"left_children":[1,-1,-1],"loss_changes":[1.1899155E-1,0E0,0E0],"parents":[2147483647,0,0],"right_children":[2,-1,-1],"split_conditions":[1.1925734E1,-1.0734367E-2,1.5036794E-2],"split_indices":[18,0,0],"split_type":[0,0,0],"sum_hessian":[5.412749E0,3.3815176E0,2.0312314E0],"tree_param":{"num_deleted":"0","num_feature":"48","num_nodes":"3","size_leaf_vector":"1"}},{"base_weights":[-4.8796204E-3,-1.6583024E-2,1.124365E-2],"categories":[],"categories_nodes":[],"categories_segments":[],"categories_sizes":[],"default_left":[0,0,0],"id":87,"left_children":[1,-1,-1],"loss_changes":[1.3693114E-1,0E0,0E0],"parents":[2147483647,0,0],"right_children":[2,-1,-1],"split_conditions":[2.7226835E-1,-1.6583024E-2,1.124365E-2],"split_indices":[4,0,0],"split_type":[0,0,0],"sum_hessian":[5.264439E0,2.0451221E0,3.2193172E0],"tree_param":{"num_deleted":"0","num_feature":"48","num_nodes":"3","size_leaf_vector":"1"}},{"base_weights":[6.4646252E-3],"categories":[],"categories_nodes":[],"categories_segments":[],"categories_sizes":[],"default_left":[0],"id":88,"left_children":[-1],"loss_changes":[0E0],"parents":[2147483647],"right_children":[-1],"split_conditions":[6.4646255E-4],"split_indices":[0],"split_type":[0],"sum_hessian":[5.224775E0],"tree_param":{"num_deleted":"0","num_feature":"48","num_nodes":"1","size_leaf_vector":"1"}},{"base_weights":[7.3256986E-3,-1.0038914E-2,1.5151723E-2],"categories":[],"categories_nodes":[],"categories_segments":[],"categories_sizes":[],"default_left":[0,0,0],"id":89,"left_children":[1,-1,-1],"loss_changes":[1.09910555E-1,0E0,0E0],"parents":[2147483647,0,0],"right_children":[2,-1,-1],"split_conditions":[1.1925734E1,-1.0038914E-2,1.5151723E-2],"split_indices":[18,0,0],"split_type":[0,0,0],"sum_hessian":[5.0972514E0,3.091557E0,2.0056944E0],"tree_param":{"num_deleted":"0","num_feature":"48","num_nodes":"3","size_leaf_vector":"1"}},{"base_weights":[4.730056E-3],"categories":[],"categories_nodes":[],"categories_segments":[],"categories_sizes":[],"default_left":[0],"id":90,"left_children":[-1],"loss_changes":[0E0],"parents":[2147483647],"right_children":[-1],"split_conditions":[4.730056E-4],"split_indices":[0],"split_type":[0],"sum_hessian":[4.823956E0],"tree_param":{"num_deleted":"0","num_feature":"48","num_nodes":"1","size_leaf_vector":"1"}},{"base_weights":[2.1700785E-2],"categories":[],"categories_nodes":[],"categories_segments":[],"categories_sizes":[],"default_left":[0],"id":91,"left_children":[-1],"loss_changes":[0E0],"parents":[2147483647],"right_children":[-1],"split_conditions":[2.1700785E-3],"split_indices":[0],"split_type":[0],"sum_hessian":[5.0017786E0],"tree_param":{"num_deleted":"0","num_feature":"48","num_nodes":"1","size_leaf_vector":"1"}},{"base_weights":[-3.7517287E-2],"categories":[],"categories_nodes":[],"categories_segments":[],"categories_sizes":[],"default_left":[0],"id":92,"left_children":[-1],"loss_changes":[0E0],"parents":[2147483647],"right_children":[-1],"split_conditions":[-3.7517287E-3],"split_indices":[0],"split_type":[0],"sum_hessian":[5.10904E0],"tree_param":{"num_deleted":"0","num_feature":"48","num_nodes":"1","size_leaf_vector":"1"}},{"base_weights":[8.1273E-3],"categories":[],"categories_nodes":[],"categories_segments":[],"categories_sizes":[],"default_left":[0],"id":93,"left_children":[-1],"loss_changes":[0E0],"parents":[2147483647],"right_children":[-1],"split_conditions":[8.1273E-4],"split_indices":[0],"split_type":[0],"sum_hessian":[4.6005955E0],"tree_param":{"num_deleted":"0","num_feature":"48","num_nodes":"1","size_leaf_vector":"1"}},{"base_weights":[4.8300195E-3],"categories":[],"categories_nodes":[],"categories_segments":[],"categories_sizes":[],"default_left":[0],"id":94,"left_children":[-1],"loss_changes":[0E0],"parents":[2147483647],"right_children":[-1],"split_conditions":[4.8300196E-4],"split_indices":[0],"split_type":[0],"sum_hessian":[5.0397387E0],"tree_param":{"num_deleted":"0","num_feature":"48","num_nodes":"1","size_leaf_vector":"1"}},{"base_weights":[2.5834518E-3,-1.27136065E-2,1.2750034E-2],"categories":[],"categories_nodes":[],"categories_segments":[],"categories_sizes":[],"default_left":[0,0,0],"id":95,"left_children":[1,-1,-1],"loss_changes":[1.1286418E-1,0E0,0E0],"parents":[2147483647,0,0],"right_children":[2,-1,-1],"split_conditions":[4.566008E0,-1.27136065E-2,1.2750034E-2],"split_indices":[18,0,0],"split_type":[0,0,0],"sum_hessian":[4.964783E0,2.4268568E0,2.5379267E0],"tree_param":{"num_deleted":"0","num_feature":"48","num_nodes":"3","size_leaf_vector":"1"}},{"base_weights":[6.96075E-3],"categories":[],"categories_nodes":[],"categories_segments":[],"categories_sizes":[],"default_left":[0],"id":96,"left_children":[-1],"loss_changes":[0E0],"parents":[2147483647],"right_children":[-1],"split_conditions":[6.9607503E-4],"split_indices":[0],"split_type":[0],"sum_hessian":[5.079919E0],"tree_param":{"num_deleted":"0","num_feature":"48","num_nodes":"1","size_leaf_vector":"1"}},{"base_weights":[-1.1697707E-2,-1.6851803E-2,1.2563141E-2],"categories":[],"categories_nodes":[],"categories_segments":[],"categories_sizes":[],"default_left":[0,0,0],"id":97,"left_children":[1,-1,-1],"loss_changes":[1.4824711E-1,0E0,0E0],"parents":[2147483647,0,0],"right_children":[2,-1,-1],"split_conditions":[4.5699067E0,-1.6851803E-2,1.2563141E-2],"split_indices":[18,0,0],"split_type":[0,0,0],"sum_hessian":[4.90063E0,2.181919E0,2.7187107E0],"tree_param":{"num_deleted":"0","num_feature":"48","num_nodes":"3","size_leaf_vector":"1"}},{"base_weights":[-1.27243055E-2],"categories":[],"categories_nodes":[],"categories_segments":[],"categories_sizes":[],"default_left":[0],"id":98,"left_children":[-1],"loss_changes":[0E0],"parents":[2147483647],"right_children":[-1],"split_conditions":[-1.2724305E-3],"split_indices":[0],"split_type":[0],"sum_hessian":[4.560696E0],"tree_param":{"num_deleted":"0","num_feature":"48","num_nodes":"1","size_leaf_vector":"1"}},{"base_weights":[-6.9022686E-3],"categories":[],"categories_nodes":[],"categories_segments":[],"categories_sizes":[],"default_left":[0],"id":99,"left_children":[-1],"loss_changes":[0E0],"parents":[2147483647],"right_children":[-1],"split_conditions":[-6.9022685E-4],"split_indices":[0],"split_type":[0],"sum_hessian":[4.7279553E0],"tree_param":{"num_deleted":"0","num_feature":"48","num_nodes":"1","size_leaf_vector":"1"}}]},"name":"gbtree"},"learner_model_param":{"base_score":"-2.5963337E-10","boost_from_average":"1","num_class":"0","num_feature":"48","num_target":"1"},"objective":{"lambdarank_param":{"lambdarank_bias_norm":"1","lambdarank_normalization":"1","lambdarank_num_pair_per_sample":"4294967295","lambdarank_pair_method":"topk","lambdarank_score_normalization":"1","lambdarank_unbiased":"0","ndcg_exp_gain":"1"},"name":"rank:ndcg"}},"version":[3,0,3]}