{"learner":{"attributes":{"scikit_learn":"{\"_estimator_type\": \"ranker\"}"},"feature_names":[],"feature_types":[],"gradient_booster":{"model":{"gbtree_model_param":{"num_parallel_tree":"1","num_trees":"100"},"iteration_indptr":[0,1,2,3,4,5,6,7,8,9,10,11,12,13,14,15,16,17,18,19,20,21,22,23,24,25,26,27,28,29,30,31,32,33,34,35,36,37,38,39,40,41,42,43,44,45,46,47,48,49,50,51,52,53,54,55,56,57,58,59,60,61,62,63,64,65,66,67,68,69,70,71,72,73,74,75,76,77,78,79,80,81,82,83,84,85,86,87,88,89,90,91,92,93,94,95,96,97,98,99,100],"tree_info":[0,0,0,0,0,0,0,0,0,0,0,0,0,0,0,0,0,0,0,0,0,0,0,0,0,0,0,0,0,0,0,0,0,0,0,0,0,0,0,0,0,0,0,0,0,0,0,0,0,0,0,0,0,0,0,0,0,0,0,0,0,0,0,0,0,0,0,0,0,0,0,0,0,0,0,0,0,0,0,0,0,0,0,0,0,0,0,0,0,0,0,0,0,0,0,0,0,0,0,0],"trees":[{"base_weights":[-4.3925397E-2,-9.2947744E-2,5.85109E-1,1.2743944E-1,9.292406E-2,3.1238645E-1,-1.02040775E-1,6.49243E-3,5.3304978E-2,-2.3511568E-2,4.8398427E-3],"categories":[],"categories_nodes":[],"categories_segments":[],"categories_sizes":[],"default_left":[0,0,0,0,0,0,0,0,0,0,0],"id":0,"left_children":[1,-1,3,5,-1,7,9,-1,-1,-1,-1],"loss_changes":[2.3812881E1,0E0,3.824916E0,5.371402E-1,0E0,3.3880347E-1,1.3283059E-1,0E0,0E0,0E0,0E0],"parents":[2147483647,0,0,2,2,3,3,5,5,6,6],"right_children":[2,-1,4,6,-1,8,10,-1,-1,-1,-1],"split_conditions":[-1.7094905E0,-9.2947744E-2,1.6966946E1,2.4491835E0,9.292406E-2,-7.0651784E-3,-1.9626354E-3,6.49243E-3,5.3304978E-2,-2.3511568E-2,4.8398427E-3],"split_indices":[4,0,0,4,0,26,28,0,0,0,0],"split_type":[0,0,0,0,0,0,0,0,0,0,0],"sum_hessian":[4.0772446E1,1.6735147E1,2.4037298E1,1.0904903E1,1.3132394E1,5.8383074E0,5.0665965E0,3.362107E0,2.4762003E0,2.3897865E0,2.6768098E0],"tree_param":{"num_deleted":"0","num_feature":"48","num_nodes":"11","size_leaf_vector":"1"}},{"base_weights":[-4.610285E-2,-5.1864654E-1,8.9083505E-1,-8.651136E-2,-1.3705191E-1,2.1379465E-2,9.166995E-2,8.0402724E-2,-2.9394805E-1,-5.599759E-1,2.0205109E-1,-6.23116E-1,-1.1765767E-2,-6.1716236E-2,4.9105006E-1,-6.6193886E-2,-2.1774715E-2,-1.7015075E-2,7.029026E-2],"categories":[],"categories_nodes":[],"categories_segments":[],"categories_sizes":[],"default_left":[0,0,0,0,0,0,0,0,0,0,0,0,0,0,0,0,0,0,0],"id":1,"left_children":[1,3,5,-1,7,-1,-1,-1,9,11,13,15,-1,-1,17,-1,-1,-1,-1],"loss_changes":[6.296902E1,1.2372698E1,6.393089E-1,0E0,7.050356E0,0E0,0E0,0E0,5.428996E0,6.664343E-1,3.80681E0,2.1698189E-1,0E0,0E0,1.7300396E0,0E0,0E0,0E0,0E0],"parents":[2147483647,0,0,1,1,2,2,4,4,8,8,9,9,10,10,11,11,14,14],"right_children":[2,4,6,-1,8,-1,-1,-1,10,12,14,16,-1,-1,18,-1,-1,-1,-1],"split_conditions":[5.0804305E0,-1.7094905E0,1.0488567E1,-8.651136E-2,-1.06662E0,2.1379465E-2,9.166995E-2,8.0402724E-2,1.8690717E-1,5.3682677E-2,6.744811E-3,5.5392552E-2,-1.1765767E-2,-6.1716236E-2,-3.0363567E-2,-6.6193886E-2,-2.1774715E-2,-1.7015075E-2,7.029026E-2],"split_indices":[18,4,4,0,6,0,0,0,5,30,30,27,0,0,42,0,0,0,0],"split_type":[0,0,0,0,0,0,0,0,0,0,0,0,0,0,0,0,0,0,0],"sum_hessian":[1.4018086E2,9.3480515E1,4.670036E1,4.833127E1,4.5149242E1,2.0593643E0,4.4640995E1,5.8622546E0,3.928699E1,2.5487726E1,1.3799263E1,2.19462E1,3.5415273E0,3.302444E0,1.0496819E1,1.9450466E1,2.495734E0,2.5948923E0,7.9019265E0],"tree_param":{"num_deleted":"0","num_feature":"48","num_nodes":"19","size_leaf_vector":"1"}},{"base_weights":[3.93592E-3,-7.887308E-1,4.1909984E-1,-2.1493869E-2,-8.1886195E-2,7.249845E-1,4.294239E-2,-6.0374316E-2,8.1915385E-1,-6.1484564E-2,1.5596403E-1,3.547894E-2,8.43349E-2,-4.2628355E-2,2.5529587E-1,1.1166356E-2,5.3187656E-1,-1.7759165E-2,4.698723E-2,5.817519E-3,6.363968E-2],"categories":[],"categories_nodes":[],"categories_segments":[],"categories_sizes":[],"default_left":[0,0,0,0,0,0,0,0,0,0,0,0,0,0,0,0,0,0,0,0,0],"id":2,"left_children":[1,3,5,-1,-1,7,9,-1,11,-1,13,-1,-1,-1,15,17,19,-1,-1,-1,-1],"loss_changes":[3.5898216E1,4.722824E-1,8.205262E0,0E0,0E0,5.426527E0,2.5616517E0,0E0,1.1910248E-1,0E0,1.7919211E0,0E0,0E0,0E0,1.7148829E0,1.3439722E0,5.5350876E-1,0E0,0E0,0E0,0E0],"parents":[2147483647,0,0,1,1,2,2,5,5,6,6,8,8,10,10,14,14,15,15,16,16],"right_children":[2,4,6,-1,-1,8,10,-1,12,-1,14,-1,-1,-1,16,18,20,-1,-1,-1,-1],"split_conditions":[-3.864136E0,-3.974923E0,-6.4234805E-1,-2.1493869E-2,-8.1886195E-2,-2.1757076E1,1.3317891E0,-6.0374316E-2,1.701933E1,-6.1484564E-2,-5.8642223E-2,3.547894E-2,8.43349E-2,-4.2628355E-2,1.7193627E-3,7.552779E-1,-4.1719887E-1,-1.7759165E-2,4.698723E-2,5.817519E-3,6.363968E-2],"split_indices":[0,14,5,0,0,14,16,0,0,0,13,0,0,0,24,8,15,0,0,0,0],"split_type":[0,0,0,0,0,0,0,0,0,0,0,0,0,0,0,0,0,0,0,0,0],"sum_hessian":[1.0707993E2,3.649697E1,7.058296E1,2.226718E0,3.4270252E1,3.8416218E1,3.2166744E1,2.1843143E0,3.6231903E1,4.0654836E0,2.810126E1,2.5700512E0,3.3661854E1,3.6157174E0,2.4485542E1,1.3558357E1,1.0927186E1,1.0039807E1,3.5185497E0,2.2565866E0,8.670599E0],"tree_param":{"num_deleted":"0","num_feature":"48","num_nodes":"21","size_leaf_vector":"1"}},{"base_weights":[-3.1637286E-3,-7.764267E-2,4.7789377E-1,6.3238986E-2,7.97543E-2,3.506234E-1,-1.5641883E-1,-2.0943915E-2,5.1755595E-1,-2.8639624E-1,2.754173E-2,6.2472582E-2,8.872389E-3,-4.2874407E-2,8.42484E-3],"categories":[],"categories_nodes":[],"categories_segments":[],"categories_sizes":[],"default_left":[0,0,0,0,0,0,0,0,0,0,0,0,0,0,0],"id":3,"left_children":[1,-1,3,5,-1,7,9,-1,11,13,-1,-1,-1,-1,-1],"loss_changes":[3.50912E1,0E0,7.6583033E0,1.7216054E0,0E0,1.2066472E0,9.57673E-1,0E0,3.737116E-1,6.969304E-1,0E0,0E0,0E0,0E0,0E0],"parents":[2147483647,0,0,2,2,3,3,5,5,6,6,8,8,9,9],"right_children":[2,-1,4,6,-1,8,10,-1,12,14,-1,-1,-1,-1,-1],"split_conditions":[-1.6936222E0,-7.764267E-2,1.6966946E1,-4.0661168E-1,7.97543E-2,-4.7245524E-3,4.4449437E-2,-2.0943915E-2,4.1014872E-2,2.540904E-2,2.754173E-2,6.2472582E-2,8.872389E-3,-4.2874407E-2,8.42484E-3],"split_indices":[4,0,0,21,0,30,41,0,40,35,0,0,0,0,0],"split_type":[0,0,0,0,0,0,0,0,0,0,0,0,0,0,0],"sum_hessian":[9.233777E1,3.5177937E1,5.715983E1,2.5403622E1,3.1756207E1,1.0746913E1,1.465671E1,2.4092364E0,8.337676E0,1.1524708E1,3.132002E0,6.305144E0,2.0325325E0,8.213515E0,3.3111918E0],"tree_param":{"num_deleted":"0","num_feature":"48","num_nodes":"15","size_leaf_vector":"1"}},{"base_weights":[1.9684823E-2,-7.18401E-2,4.5401192E-1,9.481178E-2,7.574739E-2,-8.100245E-2,3.509129E-1,4.7595035E-2,-2.0096576E-1,3.1487586E-3,5.113986E-1,1.7996114E-2,-3.1975943E-1,1.9020004E-2,6.2326666E-2,-4.0539794E-2,-1.9893106E-3],"categories":[],"categories_nodes":[],"categories_segments":[],"categories_sizes":[],"default_left":[0,0,0,0,0,0,0,0,0,0,0,0,0,0,0,0,0],"id":4,"left_children":[1,-1,3,5,-1,7,9,-1,11,-1,13,-1,15,-1,-1,-1,-1],"loss_changes":[2.6683523E1,0E0,5.6371326E0,1.1598171E0,0E0,1.1454014E0,5.178461E-1,0E0,6.743377E-1,0E0,1.2820208E-1,0E0,2.680018E-1,0E0,0E0,0E0,0E0],"parents":[2147483647,0,0,2,2,3,3,5,5,6,6,8,8,10,10,12,12],"right_children":[2,-1,4,6,-1,8,10,-1,12,-1,14,-1,16,-1,-1,-1,-1],"split_conditions":[3.3194199E0,-7.18401E-2,1.6966946E1,1.7193627E-3,7.574739E-2,-6.9555216E-2,-1.5406092E-2,4.7595035E-2,-7.165288E-1,3.1487586E-3,8.534555E-2,1.7996114E-2,1.8128641E-2,1.9020004E-2,6.2326666E-2,-4.0539794E-2,-1.9893106E-3],"split_indices":[18,0,0,24,0,34,26,0,2,0,1,0,36,0,0,0,0],"split_type":[0,0,0,0,0,0,0,0,0,0,0,0,0,0,0,0,0],"sum_hessian":[8.122013E1,2.9846167E1,5.1373966E1,2.4127409E1,2.7246557E1,1.4711575E1,9.415833E0,2.081295E0,1.263028E1,3.5487413E0,5.8670926E0,2.8800693E0,9.75021E0,2.213074E0,3.6540186E0,7.3104877E0,2.4397225E0],"tree_param":{"num_deleted":"0","num_feature":"48","num_nodes":"17","size_leaf_vector":"1"}},{"base_weights":[2.1639649E-2,-6.9856636E-2,4.4369113E-1,5.784225E-2,7.195629E-2,4.2204714E-1,-1.5413524E-1,1.1312026E-2,5.4531194E-2,-2.7363086E-1,2.8278152E-2,-1.2716743E-3,-3.642812E-2],"categories":[],"categories_nodes":[],"categories_segments":[],"categories_sizes":[],"default_left":[0,0,0,0,0,0,0,0,0,0,0,0,0],"id":5,"left_children":[1,-1,3,5,-1,7,9,-1,-1,11,-1,-1,-1],"loss_changes":[2.1614498E1,0E0,4.727477E0,1.5910528E0,0E0,2.2541428E-1,7.67933E-1,0E0,0E0,2.5303787E-1,0E0,0E0,0E0],"parents":[2147483647,0,0,2,2,3,3,5,5,6,6,9,9],"right_children":[2,-1,4,6,-1,8,10,-1,-1,12,-1,-1,-1],"split_conditions":[-1.7094905E0,-6.9856636E-2,5.0804305E0,-3.9473757E-1,7.195629E-2,-3.5232198E-1,2.558808E-1,1.1312026E-2,5.4531194E-2,-2.8755846E-2,2.8278152E-2,-1.2716743E-3,-3.642812E-2],"split_indices":[4,0,18,6,0,15,5,0,0,11,0,0,0],"split_type":[0,0,0,0,0,0,0,0,0,0,0,0,0],"sum_hessian":[6.908905E1,2.528556E1,4.380349E1,1.8766016E1,2.5037476E1,6.539428E0,1.2226588E1,2.4120462E0,4.127382E0,9.894258E0,2.3323307E0,2.8452387E0,7.0490184E0],"tree_param":{"num_deleted":"0","num_feature":"48","num_nodes":"13","size_leaf_vector":"1"}},{"base_weights":[-2.7744556E-2,-6.598307E-2,3.7684566E-1,9.358573E-3,6.8828575E-2,3.3031094E-1,-2.519635E-1,9.640562E-2,5.5999514E-2,-1.0103886E-3,-3.2358207E-2,-1.742748E-2,3.205299E-2],"categories":[],"categories_nodes":[],"categories_segments":[],"categories_sizes":[],"default_left":[0,0,0,0,0,0,0,0,0,0,0,0,0],"id":6,"left_children":[1,-1,3,5,-1,7,9,11,-1,-1,-1,-1,-1],"loss_changes":[1.4894686E1,0E0,4.0628877E0,1.5362169E0,0E0,3.8696235E-1,1.7196143E-1,3.7583718E-1,0E0,0E0,0E0,0E0,0E0],"parents":[2147483647,0,0,2,2,3,3,5,5,6,6,7,7],"right_children":[2,-1,4,6,-1,8,10,12,-1,-1,-1,-1,-1],"split_conditions":[-1.7094905E0,-6.598307E-2,1.6966946E1,-4.0661168E-1,6.8828575E-2,7.319587E-1,-2.8755846E-2,-9.882817E-2,5.5999514E-2,-1.0103886E-3,-3.2358207E-2,-1.742748E-2,3.205299E-2],"split_indices":[4,0,0,21,0,8,11,24,0,0,0,0,0],"split_type":[0,0,0,0,0,0,0,0,0,0,0,0,0],"sum_hessian":[5.627015E1,2.1714695E1,3.4555454E1,1.632392E1,1.8231535E1,7.2076173E0,9.116302E0,4.274397E0,2.9332204E0,2.3434446E0,6.7728567E0,2.0368555E0,2.2375414E0],"tree_param":{"num_deleted":"0","num_feature":"48","num_nodes":"13","size_leaf_vector":"1"}},{"base_weights":[-3.7418354E-2,-6.1136097E-1,3.630119E-1,-6.4449884E-2,-1.796399E-2,2.6472583E-2,6.6439696E-2,2.8289047E-1,-1.358689E-1,-1.3643956E-3,4.4521596E-2,2.1286523E-2,-2.884546E-2],"categories":[],"categories_nodes":[],"categories_segments":[],"categories_sizes":[],"default_left":[0,0,0,0,0,0,0,0,0,0,0,0,0],"id":7,"left_children":[1,3,5,-1,-1,7,-1,9,11,-1,-1,-1,-1],"loss_changes":[1.2759628E1,2.1029091E-1,3.3053432E0,0E0,0E0,7.2609967E-1,0E0,3.299579E-1,6.356067E-1,0E0,0E0,0E0,0E0],"parents":[2147483647,0,0,1,1,2,2,5,5,7,7,8,8],"right_children":[2,4,6,-1,-1,8,-1,10,12,-1,-1,-1,-1],"split_conditions":[3.3226738E0,1.4636557E0,1.6966946E1,-6.4449884E-2,-1.796399E-2,-6.423048E-1,6.6439696E-2,-4.3942602E-3,-9.275555E-1,-1.3643956E-3,4.4521596E-2,2.1286523E-2,-2.884546E-2],"split_indices":[18,9,0,0,0,6,0,30,9,0,0,0,0],"split_type":[0,0,0,0,0,0,0,0,0,0,0,0,0],"sum_hessian":[5.355347E1,2.1791965E1,3.1761505E1,1.9780783E1,2.0111835E0,1.5519552E1,1.6241953E1,5.728632E0,9.79092E0,2.3505747E0,3.3780572E0,2.859801E0,6.9311194E0],"tree_param":{"num_deleted":"0","num_feature":"48","num_nodes":"13","size_leaf_vector":"1"}},{"base_weights":[7.5972406E-4,-5.9078433E-2,3.771514E-1,2.165263E-2,6.297558E-2,2.3923248E-1,-2.344562E-2,-8.318442E-3,3.657184E-2],"categories":[],"categories_nodes":[],"categories_segments":[],"categories_sizes":[],"default_left":[0,0,0,0,0,0,0,0,0],"id":8,"left_children":[1,-1,3,5,-1,7,-1,-1,-1],"loss_changes":[1.1258901E1,0E0,2.761415E0,8.2911545E-1,0E0,3.5648093E-1,0E0,0E0,0E0],"parents":[2147483647,0,0,2,2,3,3,5,5],"right_children":[2,-1,4,6,-1,8,-1,-1,-1],"split_conditions":[3.3194199E0,-5.9078433E-2,5.0804305E0,4.240706E0,6.297558E-2,-1.0946769E-2,-2.344562E-2,-8.318442E-3,3.657184E-2],"split_indices":[18,0,18,18,0,19,0,0,0],"split_type":[0,0,0,0,0,0,0,0,0],"sum_hessian":[4.8566467E1,1.8664072E1,2.9902395E1,1.28723755E1,1.703002E1,6.9953227E0,5.877053E0,2.0675106E0,4.927812E0],"tree_param":{"num_deleted":"0","num_feature":"48","num_nodes":"9","size_leaf_vector":"1"}},{"base_weights":[5.808843E-3,-5.8814794E-2,3.514007E-1,6.44231E-2,6.258305E-2,2.7677426E-1,-8.6887024E-2,5.868002E-3,4.493239E-2,1.2841691E-2,-2.1132035E-2],"categories":[],"categories_nodes":[],"categories_segments":[],"categories_sizes":[],"default_left":[0,0,0,0,0,0,0,0,0,0,0],"id":9,"left_children":[1,-1,3,5,-1,7,9,-1,-1,-1,-1],"loss_changes":[9.676193E0,0E0,2.305789E0,5.277566E-1,0E0,2.2808766E-1,2.927736E-1,0E0,0E0,0E0,0E0],"parents":[2147483647,0,0,2,2,3,3,5,5,6,6],"right_children":[2,-1,4,6,-1,8,10,-1,-1,-1,-1],"split_conditions":[3.2884176E0,-5.8814794E-2,1.6966946E1,-6.423048E-1,6.258305E-2,7.319587E-1,-2.6146173E-1,5.868002E-3,4.493239E-2,1.2841691E-2,-2.1132035E-2],"split_indices":[18,0,0,6,0,8,23,0,0,0,0],"split_type":[0,0,0,0,0,0,0,0,0,0,0],"sum_hessian":[4.513277E1,1.6342913E1,2.8789856E1,1.467677E1,1.4113086E1,5.761625E0,8.915146E0,3.136862E0,2.6247625E0,3.2535658E0,5.66158E0],"tree_param":{"num_deleted":"0","num_feature":"48","num_nodes":"11","size_leaf_vector":"1"}},{"base_weights":[3.6678065E-2,-5.0224763E-1,3.8473928E-1,-5.6700535E-2,-6.213359E-3,6.7491546E-2,6.1363667E-2,2.7874757E-2,-9.9575244E-2,9.781166E-3,-2.1559974E-2],"categories":[],"categories_nodes":[],"categories_segments":[],"categories_sizes":[],"default_left":[0,0,0,0,0,0,0,0,0,0,0],"id":10,"left_children":[1,3,5,-1,-1,7,-1,-1,9,-1,-1],"loss_changes":[8.177349E0,4.5316505E-1,1.8776934E0,0E0,0E0,4.5833573E-1,0E0,0E0,1.9397788E-1,0E0,0E0],"parents":[2147483647,0,0,1,1,2,2,5,5,8,8],"right_children":[2,4,6,-1,-1,8,-1,-1,10,-1,-1],"split_conditions":[3.3494067E0,3.2884176E0,1.6966946E1,-5.6700535E-2,-6.213359E-3,4.240706E0,6.1363667E-2,2.7874757E-2,-3.0577509E-2,9.781166E-3,-2.1559974E-2],"split_indices":[18,18,0,0,0,18,0,0,11,0,0],"split_type":[0,0,0,0,0,0,0,0,0,0,0],"sum_hessian":[4.1563984E1,1.6136229E1,2.5427753E1,1.3815171E1,2.321058E0,1.1199836E1,1.4227919E1,4.650631E0,6.5492043E0,2.4826186E0,4.066586E0],"tree_param":{"num_deleted":"0","num_feature":"48","num_nodes":"11","size_leaf_vector":"1"}},{"base_weights":[-1.616518E-2,-5.018614E-1,3.4575567E-1,-5.54741E-2,-1.1936396E-2,7.066321E-2,5.848515E-2,2.6747776E-2,-1.07159905E-1,-1.99641E-2,5.820403E-3],"categories":[],"categories_nodes":[],"categories_segments":[],"categories_sizes":[],"default_left":[0,0,0,0,0,0,0,0,0,0,0],"id":11,"left_children":[1,3,5,-1,-1,7,-1,-1,9,-1,-1],"loss_changes":[6.322713E0,2.4414802E-1,1.316041E0,0E0,0E0,4.043184E-1,0E0,0E0,1.0877364E-1,0E0,0E0],"parents":[2147483647,0,0,1,1,2,2,5,5,8,8],"right_children":[2,4,6,-1,-1,8,-1,-1,10,-1,-1],"split_conditions":[3.3494067E0,1.4554192E0,1.6966946E1,-5.54741E-2,-1.1936396E-2,4.240706E0,5.848515E-2,2.6747776E-2,6.5218472E0,-1.99641E-2,5.820403E-3],"split_indices":[18,9,0,0,0,18,0,0,4,0,0],"split_type":[0,0,0,0,0,0,0,0,0,0,0],"sum_hessian":[3.3981606E1,1.434458E1,1.9637024E1,1.2206712E1,2.137868E0,9.733575E0,9.90345E0,4.380766E0,5.3528085E0,3.2999837E0,2.052825E0],"tree_param":{"num_deleted":"0","num_feature":"48","num_nodes":"11","size_leaf_vector":"1"}},{"base_weights":[1.5420812E-3,-5.4516304E-2,3.163985E-1,2.4530927E-2,5.803759E-2,-9.388368E-2,2.3316568E-2,1.1587782E-2,-2.1009138E-2],"categories":[],"categories_nodes":[],"categories_segments":[],"categories_sizes":[],"default_left":[0,0,0,0,0,0,0,0,0],"id":12,"left_children":[1,-1,3,5,-1,7,-1,-1,-1],"loss_changes":[6.0339413E0,0E0,1.6993032E0,3.0862978E-1,0E0,2.2220355E-1,0E0,0E0,0E0],"parents":[2147483647,0,0,2,2,3,3,5,5],"right_children":[2,-1,4,6,-1,8,-1,-1,-1],"split_conditions":[-1.7094905E0,-5.4516304E-2,7.961116E-1,3.7286124E-1,5.803759E-2,-6.573387E-1,2.3316568E-2,1.1587782E-2,-2.1009138E-2],"split_indices":[4,0,1,8,0,8,0,0,0],"split_type":[0,0,0,0,0,0,0,0,0],"sum_hessian":[3.305176E1,1.1811405E1,2.1240355E1,1.0606342E1,1.0634013E1,7.1169763E0,3.4893656E0,2.538207E0,4.578769E0],"tree_param":{"num_deleted":"0","num_feature":"48","num_nodes":"9","size_leaf_vector":"1"}},{"base_weights":[2.4942583E-3,-5.2936997E-2,3.0057278E-1,3.8367104E-2,5.6468774E-2,1.6558622E-1,-1.1147008E-1,3.0680237E-2,-1.7563117E-3,5.74376E-3,-2.1488475E-2],"categories":[],"categories_nodes":[],"categories_segments":[],"categories_sizes":[],"default_left":[0,0,0,0,0,0,0,0,0,0,0],"id":13,"left_children":[1,-1,3,5,-1,7,9,-1,-1,-1,-1],"loss_changes":[5.1007104E0,0E0,1.4058294E0,2.3608561E-1,0E0,1.7548645E-1,1.14353195E-1,0E0,0E0,0E0,0E0],"parents":[2147483647,0,0,2,2,3,3,5,5,6,6],"right_children":[2,-1,4,6,-1,8,10,-1,-1,-1,-1],"split_conditions":[-1.7094905E0,-5.2936997E-2,1.6966946E1,4.2296543E0,5.6468774E-2,1.8060528E-2,-2.0906487E-2,3.0680237E-2,-1.7563117E-3,5.74376E-3,-2.1488475E-2],"split_indices":[4,0,0,18,0,23,11,0,0,0,0],"split_type":[0,0,0,0,0,0,0,0,0,0,0],"sum_hessian":[3.0169931E1,1.05570135E1,1.9612917E1,1.0416743E1,9.196174E0,5.576724E0,4.8400197E0,2.7676196E0,2.8091042E0,2.0068355E0,2.8331842E0],"tree_param":{"num_deleted":"0","num_feature":"48","num_nodes":"11","size_leaf_vector":"1"}},{"base_weights":[-4.9496614E-3,-5.0594267E-2,2.9445058E-1,1.6721265E-2,5.4398574E-2,-1.3002393E-2,1.9517541E-2],"categories":[],"categories_nodes":[],"categories_segments":[],"categories_sizes":[],"default_left":[0,0,0,0,0,0,0],"id":14,"left_children":[1,-1,3,5,-1,-1,-1],"loss_changes":[4.342576E0,0E0,1.2474997E0,2.7711228E-1,0E0,0E0,0E0],"parents":[2147483647,0,0,2,2,3,3],"right_children":[2,-1,4,6,-1,-1,-1],"split_conditions":[-1.7094905E0,-5.0594267E-2,5.0804305E0,1.7193627E-3,5.4398574E-2,-1.3002393E-2,1.9517541E-2],"split_indices":[4,0,18,24,0,0,0],"split_type":[0,0,0,0,0,0,0],"sum_hessian":[2.6957817E1,9.825963E0,1.7131853E1,8.612863E0,8.518991E0,4.87526E0,3.7376027E0],"tree_param":{"num_deleted":"0","num_feature":"48","num_nodes":"7","size_leaf_vector":"1"}},{"base_weights":[8.242436E-4,-4.9157493E-2,2.8542694E-1,2.3572426E-2,5.4104965E-2,1.6901633E-2,-9.5086275E-3],"categories":[],"categories_nodes":[],"categories_segments":[],"categories_sizes":[],"default_left":[0,0,0,0,0,0,0],"id":15,"left_children":[1,-1,3,5,-1,-1,-1],"loss_changes":[3.8601787E0,0E0,1.1555617E0,1.8291588E-1,0E0,0E0,0E0],"parents":[2147483647,0,0,2,2,3,3],"right_children":[2,-1,4,6,-1,-1,-1],"split_conditions":[-4.6419234E0,-4.9157493E-2,1.6966946E1,-2.2629176E-1,5.4104965E-2,1.6901633E-2,-9.5086275E-3],"split_indices":[18,0,0,6,0,0,0],"split_type":[0,0,0,0,0,0,0],"sum_hessian":[2.5544312E1,9.090078E0,1.6454233E1,8.667572E0,7.7866616E0,3.70358E0,4.9639916E0],"tree_param":{"num_deleted":"0","num_feature":"48","num_nodes":"7","size_leaf_vector":"1"}},{"base_weights":[2.4150193E-3,-4.7349695E-2,2.913204E-1,1.9146424E-2,5.1601965E-2,1.394659E-1,-1.8696135E-2,-3.2878537E-3,2.584337E-2],"categories":[],"categories_nodes":[],"categories_segments":[],"categories_sizes":[],"default_left":[0,0,0,0,0,0,0,0,0],"id":16,"left_children":[1,-1,3,5,-1,7,-1,-1,-1],"loss_changes":[3.4792728E0,0E0,9.527968E-1,2.2835916E-1,0E0,1.25841E-1,0E0,0E0,0E0],"parents":[2147483647,0,0,2,2,3,3,5,5],"right_children":[2,-1,4,6,-1,8,-1,-1,-1],"split_conditions":[-4.6419234E0,-4.7349695E-2,5.0804305E0,4.3183726E-1,5.1601965E-2,-1.2408097E-2,-1.8696135E-2,-3.2878537E-3,2.584337E-2],"split_indices":[18,0,18,1,0,26,0,0,0],"split_type":[0,0,0,0,0,0,0,0,0],"sum_hessian":[2.3301752E1,8.56075E0,1.4741002E1,7.157032E0,7.5839696E0,4.7231407E0,2.4338913E0,2.2243862E0,2.4987543E0],"tree_param":{"num_deleted":"0","num_feature":"48","num_nodes":"9","size_leaf_vector":"1"}},{"base_weights":[3.6460427E-3,-4.2474512E-2,2.7967528E-1,3.0216485E-2,5.1477384E-2,1.9045455E-2,-1.5081595E-2],"categories":[],"categories_nodes":[],"categories_segments":[],"categories_sizes":[],"default_left":[0,0,0,0,0,0,0],"id":17,"left_children":[1,-1,3,5,-1,-1,-1],"loss_changes":[2.731288E0,0E0,8.077924E-1,2.5712898E-1,0E0,0E0,0E0],"parents":[2147483647,0,0,2,2,3,3],"right_children":[2,-1,4,6,-1,-1,-1],"split_conditions":[3.3194199E0,-4.2474512E-2,1.6966946E1,4.240706E0,5.1477384E-2,1.9045455E-2,-1.5081595E-2],"split_indices":[18,0,0,18,0,0,0],"split_type":[0,0,0,0,0,0,0],"sum_hessian":[2.1093283E1,8.054348E0,1.3038936E1,6.8737993E0,6.1651363E0,3.6187084E0,3.2550907E0],"tree_param":{"num_deleted":"0","num_feature":"48","num_nodes":"7","size_leaf_vector":"1"}},{"base_weights":[9.1998475E-3,-4.4033784E-2,2.610532E-1,3.5915773E-2,5.0919462E-2,1.4758384E-1,-9.759732E-3,-1.3935635E-3,2.6340386E-2],"categories":[],"categories_nodes":[],"categories_segments":[],"categories_sizes":[],"default_left":[0,0,0,0,0,0,0,0,0],"id":18,"left_children":[1,-1,3,5,-1,7,-1,-1,-1],"loss_changes":[2.6573358E0,0E0,8.208294E-1,1.4785591E-1,0E0,1.02301165E-1,0E0,0E0,0E0],"parents":[2147483647,0,0,2,2,3,3,5,5],"right_children":[2,-1,4,6,-1,8,-1,-1,-1],"split_conditions":[-1.7094905E0,-4.4033784E-2,1.6966946E1,4.2296543E0,5.0919462E-2,7.290659E-4,-9.759732E-3,-1.3935635E-3,2.6340386E-2],"split_indices":[4,0,0,18,0,13,0,0,0],"split_type":[0,0,0,0,0,0,0,0,0],"sum_hessian":[2.1455736E1,7.435531E0,1.40202055E1,7.9510226E0,6.069183E0,4.27233E0,3.6786926E0,2.1515353E0,2.1207945E0],"tree_param":{"num_deleted":"0","num_feature":"48","num_nodes":"9","size_leaf_vector":"1"}},{"base_weights":[1.1251107E-2,-3.6625576E-1,3.019773E-1,-4.377457E-2,-8.390806E-3,4.601205E-2,5.0026298E-2,1.9800927E-2,-1.1235445E-2],"categories":[],"categories_nodes":[],"categories_segments":[],"categories_sizes":[],"default_left":[0,0,0,0,0,0,0,0,0],"id":19,"left_children":[1,3,5,-1,-1,7,-1,-1,-1],"loss_changes":[2.2782664E0,1.458391E-1,5.7110786E-1,0E0,0E0,1.7175546E-1,0E0,0E0,0E0],"parents":[2147483647,0,0,1,1,2,2,5,5],"right_children":[2,4,6,-1,-1,8,-1,-1,-1],"split_conditions":[3.3931384E0,-5.570295E0,1.6966946E1,-4.377457E-2,-8.390806E-3,4.3183726E-1,5.0026298E-2,1.9800927E-2,-1.1235445E-2],"split_indices":[18,4,0,0,0,1,0,0,0],"split_type":[0,0,0,0,0,0,0,0,0],"sum_hessian":[1.8750736E1,8.044799E0,1.0705936E1,5.980235E0,2.0645638E0,5.2110662E0,5.4948707E0,2.5312738E0,2.6797922E0],"tree_param":{"num_deleted":"0","num_feature":"48","num_nodes":"9","size_leaf_vector":"1"}},{"base_weights":[-1.0134648E-2,-2.5279132E-1,4.6440724E-2,-4.5777034E-2,-5.239678E-2,1.1365843E-2,-1.8753117E-2],"categories":[],"categories_nodes":[],"categories_segments":[],"categories_sizes":[],"default_left":[0,0,0,0,0,0,0],"id":20,"left_children":[1,3,-1,-1,5,-1,-1],"loss_changes":[2.3771148E0,5.359692E-1,0E0,0E0,2.0133331E-1,0E0,0E0],"parents":[2147483647,0,0,1,1,4,4],"right_children":[2,4,-1,-1,6,-1,-1],"split_conditions":[5.0804305E0,-4.70854E0,4.6440724E-2,-4.5777034E-2,-4.0661168E-1,1.1365843E-2,-1.8753117E-2],"split_indices":[18,18,0,0,21,0,0],"split_type":[0,0,0,0,0,0,0],"sum_hessian":[1.8623985E1,1.2631944E1,5.9920416E0,5.6096325E0,7.022311E0,3.2219958E0,3.8003151E0],"tree_param":{"num_deleted":"0","num_feature":"48","num_nodes":"7","size_leaf_vector":"1"}},{"base_weights":[-4.311161E-3,-2.3246235E-1,4.7686953E-2,-3.9507754E-2,1.3007573E-3,1.38733825E-2,-1.016077E-2],"categories":[],"categories_nodes":[],"categories_segments":[],"categories_sizes":[],"default_left":[0,0,0,0,0,0,0],"id":21,"left_children":[1,3,-1,-1,5,-1,-1],"loss_changes":[2.1236851E0,4.9886364E-1,0E0,0E0,1.0425908E-1,0E0,0E0],"parents":[2147483647,0,0,1,1,4,4],"right_children":[2,4,-1,-1,6,-1,-1],"split_conditions":[5.0804305E0,-1.7094905E0,4.7686953E-2,-3.9507754E-2,-2.2629176E-1,1.38733825E-2,-1.016077E-2],"split_indices":[18,4,0,0,6,0,0],"split_type":[0,0,0,0,0,0,0],"sum_hessian":[1.7334808E1,1.2109837E1,5.2249713E0,6.734775E0,5.375062E0,2.152412E0,3.2226498E0],"tree_param":{"num_deleted":"0","num_feature":"48","num_nodes":"7","size_leaf_vector":"1"}},{"base_weights":[-8.481466E-3,-4.1635644E-2,2.67721E-1,3.129895E-3,4.756323E-2],"categories":[],"categories_nodes":[],"categories_segments":[],"categories_sizes":[],"default_left":[0,0,0,0,0],"id":22,"left_children":[1,-1,3,-1,-1],"loss_changes":[2.005961E0,0E0,5.0789386E-1,0E0,0E0],"parents":[2147483647,0,0,2,2],"right_children":[2,-1,4,-1,-1],"split_conditions":[3.2884176E0,-4.1635644E-2,7.5410223E-1,3.129895E-3,4.756323E-2],"split_indices":[18,0,1,0,0],"split_type":[0,0,0,0,0],"sum_hessian":[1.5816612E1,6.1812205E0,9.635391E0,5.046924E0,4.588467E0],"tree_param":{"num_deleted":"0","num_feature":"48","num_nodes":"5","size_leaf_vector":"1"}},{"base_weights":[2.552822E-3,-3.7375236E-1,2.6552096E-1,-4.741926E-2,-8.613265E-3,5.5723626E-2,4.653607E-2,-7.125472E-3,1.703081E-2],"categories":[],"categories_nodes":[],"categories_segments":[],"categories_sizes":[],"default_left":[0,0,0,0,0,0,0,0,0],"id":23,"left_children":[1,3,5,-1,-1,7,-1,-1,-1],"loss_changes":[1.7593358E0,1.7051315E-1,4.1260445E-1,0E0,0E0,1.0290823E-1,0E0,0E0,0E0],"parents":[2147483647,0,0,1,1,2,2,5,5],"right_children":[2,4,6,-1,-1,8,-1,-1,-1],"split_conditions":[-1.7094905E0,3.1318493E-2,1.6966946E1,-4.741926E-2,-8.613265E-3,-2.2273163E-1,4.653607E-2,-7.125472E-3,1.703081E-2],"split_indices":[4,36,0,0,0,24,0,0,0],"split_type":[0,0,0,0,0,0,0,0,0],"sum_hessian":[1.5776064E1,6.3162622E0,9.459802E0,4.200661E0,2.1156006E0,5.2388024E0,4.2209992E0,2.6643798E0,2.5744226E0],"tree_param":{"num_deleted":"0","num_feature":"48","num_nodes":"9","size_leaf_vector":"1"}},{"base_weights":[8.090836E-3,-4.071514E-2,2.550331E-1,1.5832931E-3,4.6875086E-2],"categories":[],"categories_nodes":[],"categories_segments":[],"categories_sizes":[],"default_left":[0,0,0,0,0],"id":24,"left_children":[1,-1,3,-1,-1],"loss_changes":[1.7108685E0,0E0,5.2641344E-1,0E0,0E0],"parents":[2147483647,0,0,2,2],"right_children":[2,-1,4,-1,-1],"split_conditions":[3.3194199E0,-4.071514E-2,7.566275E-1,1.5832931E-3,4.6875086E-2],"split_indices":[18,0,1,0,0],"split_type":[0,0,0,0,0],"sum_hessian":[1.4672107E1,5.229591E0,9.442516E0,4.962453E0,4.480063E0],"tree_param":{"num_deleted":"0","num_feature":"48","num_nodes":"5","size_leaf_vector":"1"}},{"base_weights":[-4.8429617E-3,-2.213248E-1,4.2882446E-2,-3.8251795E-2,7.254141E-4],"categories":[],"categories_nodes":[],"categories_segments":[],"categories_sizes":[],"default_left":[0,0,0,0,0],"id":25,"left_children":[1,3,-1,-1,-1],"loss_changes":[1.4738035E0,3.880539E-1,0E0,0E0,0E0],"parents":[2147483647,0,0,1,1],"right_children":[2,4,-1,-1,-1],"split_conditions":[5.0804305E0,-1.7094905E0,4.2882446E-2,-3.8251795E-2,7.254141E-4],"split_indices":[18,4,0,0,0],"split_type":[0,0,0,0,0],"sum_hessian":[1.3687661E1,9.456652E0,4.231009E0,5.150837E0,4.3058147E0],"tree_param":{"num_deleted":"0","num_feature":"48","num_nodes":"5","size_leaf_vector":"1"}},{"base_weights":[5.6045625E-4,-3.5286356E-2,2.310657E-1,3.179783E-3,4.3344267E-2],"categories":[],"categories_nodes":[],"categories_segments":[],"categories_sizes":[],"default_left":[0,0,0,0,0],"id":26,"left_children":[1,-1,3,-1,-1],"loss_changes":[1.1722952E0,0E0,3.3739036E-1,0E0,0E0],"parents":[2147483647,0,0,2,2],"right_children":[2,-1,4,-1,-1],"split_conditions":[-1.7094905E0,-3.5286356E-2,1.6966946E1,3.179783E-3,4.3344267E-2],"split_indices":[4,0,0,0,0],"split_type":[0,0,0,0,0],"sum_hessian":[1.2389137E1,4.6810513E0,7.7080855E0,4.4669156E0,3.2411697E0],"tree_param":{"num_deleted":"0","num_feature":"48","num_nodes":"5","size_leaf_vector":"1"}},{"base_weights":[-1.0900156E-2,-3.6755927E-2,2.0721687E-1,2.3590124E-3,4.2226505E-2],"categories":[],"categories_nodes":[],"categories_segments":[],"categories_sizes":[],"default_left":[0,0,0,0,0],"id":27,"left_children":[1,-1,3,-1,-1],"loss_changes":[1.0884494E0,0E0,3.3414072E-1,0E0,0E0],"parents":[2147483647,0,0,2,2],"right_children":[2,-1,4,-1,-1],"split_conditions":[-1.7094905E0,-3.6755927E-2,1.0186697E1,2.3590124E-3,4.2226505E-2],"split_indices":[4,0,0,0,0],"split_type":[0,0,0,0,0],"sum_hessian":[1.2012471E1,4.2985125E0,7.7139587E0,4.7595444E0,2.9544146E0],"tree_param":{"num_deleted":"0","num_feature":"48","num_nodes":"5","size_leaf_vector":"1"}},{"base_weights":[3.3627782E-2,-2.786464E-2,2.5561282E-1,5.310702E-3,4.2067196E-2],"categories":[],"categories_nodes":[],"categories_segments":[],"categories_sizes":[],"default_left":[0,0,0,0,0],"id":28,"left_children":[1,-1,3,-1,-1],"loss_changes":[8.970217E-1,0E0,2.2783428E-1,0E0,0E0],"parents":[2147483647,0,0,2,2],"right_children":[2,-1,4,-1,-1],"split_conditions":[3.3494067E0,-2.786464E-2,7.5410223E-1,5.310702E-3,4.2067196E-2],"split_indices":[18,0,1,0,0],"split_type":[0,0,0,0,0],"sum_hessian":[1.0912779E1,4.4282103E0,6.4845686E0,3.5055122E0,2.9790561E0],"tree_param":{"num_deleted":"0","num_feature":"48","num_nodes":"5","size_leaf_vector":"1"}},{"base_weights":[-2.1412086E-2,-2.0135063E-1,4.1432675E-2,-3.560342E-2,-2.7970047E-4],"categories":[],"categories_nodes":[],"categories_segments":[],"categories_sizes":[],"default_left":[0,0,0,0,0],"id":29,"left_children":[1,3,-1,-1,-1],"loss_changes":[1.0235145E0,2.8029644E-1,0E0,0E0,0E0],"parents":[2147483647,0,0,1,1],"right_children":[2,4,-1,-1,-1],"split_conditions":[1.0488567E1,-5.570295E0,4.1432675E-2,-3.560342E-2,-2.7970047E-4],"split_indices":[4,4,0,0,0],"split_type":[0,0,0,0,0],"sum_hessian":[1.0989987E1,8.158741E0,2.8312461E0,4.1401844E0,4.018557E0],"tree_param":{"num_deleted":"0","num_feature":"48","num_nodes":"5","size_leaf_vector":"1"}},{"base_weights":[-4.3329042E-3,-3.4897503E-2,2.140179E-1,3.18541E-3,4.0734187E-2],"categories":[],"categories_nodes":[],"categories_segments":[],"categories_sizes":[],"default_left":[0,0,0,0,0],"id":30,"left_children":[1,-1,3,-1,-1],"loss_changes":[9.603683E-1,0E0,2.6258135E-1,0E0,0E0],"parents":[2147483647,0,0,2,2],"right_children":[2,-1,4,-1,-1],"split_conditions":[-1.7094905E0,-3.4897503E-2,7.961116E-1,3.18541E-3,4.0734187E-2],"split_indices":[4,0,1,0,0],"split_type":[0,0,0,0,0],"sum_hessian":[1.0769402E1,3.94478E0,6.824621E0,4.1134253E0,2.7111957E0],"tree_param":{"num_deleted":"0","num_feature":"48","num_nodes":"5","size_leaf_vector":"1"}},{"base_weights":[1.4358249E-2,-3.222073E-2,2.2037202E-1,4.5575593E-3,3.9737858E-2],"categories":[],"categories_nodes":[],"categories_segments":[],"categories_sizes":[],"default_left":[0,0,0,0,0],"id":31,"left_children":[1,-1,3,-1,-1],"loss_changes":[8.203737E-1,0E0,2.0768616E-1,0E0,0E0],"parents":[2147483647,0,0,2,2],"right_children":[2,-1,4,-1,-1],"split_conditions":[-1.7094905E0,-3.222073E-2,1.6966946E1,4.5575593E-3,3.9737858E-2],"split_indices":[4,0,0,0,0],"split_type":[0,0,0,0,0],"sum_hessian":[9.807604E0,3.509732E0,6.2978716E0,3.801408E0,2.4964635E0],"tree_param":{"num_deleted":"0","num_feature":"48","num_nodes":"5","size_leaf_vector":"1"}},{"base_weights":[2.4977452E-3,-2.9991133E-2,1.9095708E-1,2.6325919E-3,3.7808336E-2],"categories":[],"categories_nodes":[],"categories_segments":[],"categories_sizes":[],"default_left":[0,0,0,0,0],"id":32,"left_children":[1,-1,3,-1,-1],"loss_changes":[6.3358396E-1,0E0,2.0079023E-1,0E0,0E0],"parents":[2147483647,0,0,2,2],"right_children":[2,-1,4,-1,-1],"split_conditions":[-5.550441E0,-2.9991133E-2,7.961116E-1,2.6325919E-3,3.7808336E-2],"split_indices":[4,0,1,0,0],"split_type":[0,0,0,0,0],"sum_hessian":[9.11222E0,3.2714083E0,5.8408117E0,3.7139843E0,2.1268275E0],"tree_param":{"num_deleted":"0","num_feature":"48","num_nodes":"5","size_leaf_vector":"1"}},{"base_weights":[-1.6997684E-2,-3.14018E-2,2.0226187E-1,4.21477E-3,3.701358E-2],"categories":[],"categories_nodes":[],"categories_segments":[],"categories_sizes":[],"default_left":[0,0,0,0,0],"id":33,"left_children":[1,-1,3,-1,-1],"loss_changes":[7.2163814E-1,0E0,1.5701887E-1,0E0,0E0],"parents":[2147483647,0,0,2,2],"right_children":[2,-1,4,-1,-1],"split_conditions":[3.3194199E0,-3.14018E-2,6.626633E0,4.21477E-3,3.701358E-2],"split_indices":[18,0,4,0,0],"split_type":[0,0,0,0,0],"sum_hessian":[9.105626E0,3.6835387E0,5.422087E0,3.4155164E0,2.0065708E0],"tree_param":{"num_deleted":"0","num_feature":"48","num_nodes":"5","size_leaf_vector":"1"}},{"base_weights":[3.1527262E-2,-1.2044454E-1,3.7226792E-2,-2.4548223E-2,3.7501014E-3],"categories":[],"categories_nodes":[],"categories_segments":[],"categories_sizes":[],"default_left":[0,0,0,0,0],"id":34,"left_children":[1,3,-1,-1,-1],"loss_changes":[5.216476E-1,1.4988568E-1,0E0,0E0,0E0],"parents":[2147483647,0,0,1,1],"right_children":[2,4,-1,-1,-1],"split_conditions":[5.1267095E0,3.3194199E0,3.7226792E-2,-2.4548223E-2,3.7501014E-3],"split_indices":[18,18,0,0,0],"split_type":[0,0,0,0,0],"sum_hessian":[8.207851E0,6.1233377E0,2.0845137E0,3.1083724E0,3.0149653E0],"tree_param":{"num_deleted":"0","num_feature":"48","num_nodes":"5","size_leaf_vector":"1"}},{"base_weights":[-8.660762E-3,-3.6278673E-2,1.750126E-1,2.4123183E-3,3.6747877E-2],"categories":[],"categories_nodes":[],"categories_segments":[],"categories_sizes":[],"default_left":[0,0,0,0,0],"id":35,"left_children":[1,-1,3,-1,-1],"loss_changes":[6.903297E-1,0E0,1.9501567E-1,0E0,0E0],"parents":[2147483647,0,0,2,2],"right_children":[2,-1,4,-1,-1],"split_conditions":[-4.70854E0,-3.6278673E-2,1.6966946E1,2.4123183E-3,3.6747877E-2],"split_indices":[18,0,0,0,0],"split_type":[0,0,0,0,0],"sum_hessian":[8.637203E0,2.6167953E0,6.0204077E0,4.0055094E0,2.0148978E0],"tree_param":{"num_deleted":"0","num_feature":"48","num_nodes":"5","size_leaf_vector":"1"}},{"base_weights":[4.2906176E-2,-2.494522E-2,2.1235022E-1,4.3300097E-3,3.6971245E-2],"categories":[],"categories_nodes":[],"categories_segments":[],"categories_sizes":[],"default_left":[0,0,0,0,0],"id":36,"left_children":[1,-1,3,-1,-1],"loss_changes":[4.9121296E-1,0E0,1.4734769E-1,0E0,0E0],"parents":[2147483647,0,0,2,2],"right_children":[2,-1,4,-1,-1],"split_conditions":[-1.6856997E0,-2.494522E-2,7.566275E-1,4.3300097E-3,3.6971245E-2],"split_indices":[4,0,1,0,0],"split_type":[0,0,0,0,0],"sum_hessian":[7.8465085E0,2.7057807E0,5.140728E0,3.0930774E0,2.0476506E0],"tree_param":{"num_deleted":"0","num_feature":"48","num_nodes":"5","size_leaf_vector":"1"}},{"base_weights":[1.2238042E-2,-2.6153792E-2,1.9496677E-2],"categories":[],"categories_nodes":[],"categories_segments":[],"categories_sizes":[],"default_left":[0,0,0],"id":37,"left_children":[1,-1,-1],"loss_changes":[4.6622726E-1,0E0,0E0],"parents":[2147483647,0,0],"right_children":[2,-1,-1],"split_conditions":[-1.7094905E0,-2.6153792E-2,1.9496677E-2],"split_indices":[4,0,0],"split_type":[0,0,0],"sum_hessian":[7.3002834E0,2.749506E0,4.5507774E0],"tree_param":{"num_deleted":"0","num_feature":"48","num_nodes":"3","size_leaf_vector":"1"}},{"base_weights":[2.095369E-2,-1.4199649E-2,3.321759E-2],"categories":[],"categories_nodes":[],"categories_segments":[],"categories_sizes":[],"default_left":[0,0,0],"id":38,"left_children":[1,-1,-1],"loss_changes":[4.7111875E-1,0E0,0E0],"parents":[2147483647,0,0],"right_children":[2,-1,-1],"split_conditions":[5.0804305E0,-1.4199649E-2,3.321759E-2],"split_indices":[18,0,0],"split_type":[0,0,0],"sum_hessian":[7.359691E0,5.1874065E0,2.1722844E0],"tree_param":{"num_deleted":"0","num_feature":"48","num_nodes":"3","size_leaf_vector":"1"}},{"base_weights":[2.234169E-2,-2.3100968E-2,2.0372745E-2],"categories":[],"categories_nodes":[],"categories_segments":[],"categories_sizes":[],"default_left":[0,0,0],"id":39,"left_children":[1,-1,-1],"loss_changes":[3.869284E-1,0E0,0E0],"parents":[2147483647,0,0],"right_children":[2,-1,-1],"split_conditions":[-1.6096916E0,-2.3100968E-2,2.0372745E-2],"split_indices":[4,0,0],"split_type":[0,0,0],"sum_hessian":[6.395721E0,2.5543454E0,3.8413756E0],"tree_param":{"num_deleted":"0","num_feature":"48","num_nodes":"3","size_leaf_vector":"1"}},{"base_weights":[2.817336E-2,-1.3459163E-2,3.3234775E-2],"categories":[],"categories_nodes":[],"categories_segments":[],"categories_sizes":[],"default_left":[0,0,0],"id":40,"left_children":[1,-1,-1],"loss_changes":[4.3162176E-1,0E0,0E0],"parents":[2147483647,0,0],"right_children":[2,-1,-1],"split_conditions":[6.553748E0,-1.3459163E-2,3.3234775E-2],"split_indices":[4,0,0],"split_type":[0,0,0],"sum_hessian":[6.81456E0,4.802331E0,2.012229E0],"tree_param":{"num_deleted":"0","num_feature":"48","num_nodes":"3","size_leaf_vector":"1"}},{"base_weights":[-3.8347738E-3,-2.5407681E-2,1.6870467E-2],"categories":[],"categories_nodes":[],"categories_segments":[],"categories_sizes":[],"default_left":[0,0,0],"id":41,"left_children":[1,-1,-1],"loss_changes":[3.8103697E-1,0E0,0E0],"parents":[2147483647,0,0],"right_children":[2,-1,-1],"split_conditions":[-5.570295E0,-2.5407681E-2,1.6870467E-2],"split_indices":[4,0,0],"split_type":[0,0,0],"sum_hessian":[6.832318E0,2.595447E0,4.236871E0],"tree_param":{"num_deleted":"0","num_feature":"48","num_nodes":"3","size_leaf_vector":"1"}},{"base_weights":[6.518945E-3,-1.5376651E-1,3.0948952E-2,-2.645185E-2,5.895249E-4],"categories":[],"categories_nodes":[],"categories_segments":[],"categories_sizes":[],"default_left":[0,0,0,0,0],"id":42,"left_children":[1,3,-1,-1,-1],"loss_changes":[4.2452562E-1,1.0313754E-1,0E0,0E0,0E0],"parents":[2147483647,0,0,1,1],"right_children":[2,4,-1,-1,-1],"split_conditions":[5.078871E0,-5.550441E0,3.0948952E-2,-2.645185E-2,5.895249E-4],"split_indices":[18,4,0,0,0],"split_type":[0,0,0,0,0],"sum_hessian":[6.7619996E0,4.744441E0,2.0175583E0,2.4135203E0,2.330921E0],"tree_param":{"num_deleted":"0","num_feature":"48","num_nodes":"5","size_leaf_vector":"1"}},{"base_weights":[1.7646464E-2,-1.3099785E-2,2.6155775E-2],"categories":[],"categories_nodes":[],"categories_segments":[],"categories_sizes":[],"default_left":[0,0,0],"id":43,"left_children":[1,-1,-1],"loss_changes":[2.897271E-1,0E0,0E0],"parents":[2147483647,0,0],"right_children":[2,-1,-1],"split_conditions":[6.495263E0,-1.3099785E-2,2.6155775E-2],"split_indices":[4,0,0],"split_type":[0,0,0],"sum_hessian":[6.0461E0,4.044333E0,2.0017672E0],"tree_param":{"num_deleted":"0","num_feature":"48","num_nodes":"3","size_leaf_vector":"1"}},{"base_weights":[7.814813E-3,-2.1109601E-2,1.9548796E-2],"categories":[],"categories_nodes":[],"categories_segments":[],"categories_sizes":[],"default_left":[0,0,0],"id":44,"left_children":[1,-1,-1],"loss_changes":[3.2578588E-1,0E0,0E0],"parents":[2147483647,0,0],"right_children":[2,-1,-1],"split_conditions":[3.3485906E0,-2.1109601E-2,1.9548796E-2],"split_indices":[18,0,0],"split_type":[0,0,0],"sum_hessian":[5.9253564E0,2.677448E0,3.2479084E0],"tree_param":{"num_deleted":"0","num_feature":"48","num_nodes":"3","size_leaf_vector":"1"}},{"base_weights":[-1.2219242E-2,-2.5244776E-2,1.9465411E-2],"categories":[],"categories_nodes":[],"categories_segments":[],"categories_sizes":[],"default_left":[0,0,0],"id":45,"left_children":[1,-1,-1],"loss_changes":[4.0119025E-1,0E0,0E0],"parents":[2147483647,0,0],"right_children":[2,-1,-1],"split_conditions":[3.3494067E0,-2.5244776E-2,1.9465411E-2],"split_indices":[18,0,0],"split_type":[0,0,0],"sum_hessian":[6.083951E0,2.7131019E0,3.3708491E0],"tree_param":{"num_deleted":"0","num_feature":"48","num_nodes":"3","size_leaf_vector":"1"}},{"base_weights":[4.8608682E-4,-2.3288643E-2,1.7134706E-2],"categories":[],"categories_nodes":[],"categories_segments":[],"categories_sizes":[],"default_left":[0,0,0],"id":46,"left_children":[1,-1,-1],"loss_changes":[3.3368868E-1,0E0,0E0],"parents":[2147483647,0,0],"right_children":[2,-1,-1],"split_conditions":[-1.7094905E0,-2.3288643E-2,1.7134706E-2],"split_indices":[4,0,0],"split_type":[0,0,0],"sum_hessian":[6.367768E0,2.5380814E0,3.8296862E0],"tree_param":{"num_deleted":"0","num_feature":"48","num_nodes":"3","size_leaf_vector":"1"}},{"base_weights":[-2.071277E-2,-2.3075847E-2,1.8119661E-2],"categories":[],"categories_nodes":[],"categories_segments":[],"categories_sizes":[],"default_left":[0,0,0],"id":47,"left_children":[1,-1,-1],"loss_changes":[3.3474353E-1,0E0,0E0],"parents":[2147483647,0,0],"right_children":[2,-1,-1],"split_conditions":[3.3854008E0,-2.3075847E-2,1.8119661E-2],"split_indices":[18,0,0],"split_type":[0,0,0],"sum_hessian":[5.9070864E0,2.8251796E0,3.0819068E0],"tree_param":{"num_deleted":"0","num_feature":"48","num_nodes":"3","size_leaf_vector":"1"}},{"base_weights":[-1.1973346E-2,-2.3152648E-2,1.5406653E-2],"categories":[],"categories_nodes":[],"categories_segments":[],"categories_sizes":[],"default_left":[0,0,0],"id":48,"left_children":[1,-1,-1],"loss_changes":[2.802899E-1,0E0,0E0],"parents":[2147483647,0,0],"right_children":[2,-1,-1],"split_conditions":[3.2884176E0,-2.3152648E-2,1.5406653E-2],"split_indices":[18,0,0],"split_type":[0,0,0],"sum_hessian":[5.7102523E0,2.2890534E0,3.4211988E0],"tree_param":{"num_deleted":"0","num_feature":"48","num_nodes":"3","size_leaf_vector":"1"}},{"base_weights":[2.856991E-2,-1.2476882E-2,2.2922767E-2],"categories":[],"categories_nodes":[],"categories_segments":[],"categories_sizes":[],"default_left":[0,0,0],"id":49,"left_children":[1,-1,-1],"loss_changes":[2.2208072E-1,0E0,0E0],"parents":[2147483647,0,0],"right_children":[2,-1,-1],"split_conditions":[2.5185087E0,-1.2476882E-2,2.2922767E-2],"split_indices":[4,0,0],"split_type":[0,0,0],"sum_hessian":[5.2882357E0,3.2119372E0,2.0762985E0],"tree_param":{"num_deleted":"0","num_feature":"48","num_nodes":"3","size_leaf_vector":"1"}},{"base_weights":[1.898633E-2,-1.7076692E-2,1.4673466E-2],"categories":[],"categories_nodes":[],"categories_segments":[],"categories_sizes":[],"default_left":[0,0,0],"id":50,"left_children":[1,-1,-1],"loss_changes":[1.784256E-1,0E0,0E0],"parents":[2147483647,0,0],"right_children":[2,-1,-1],"split_conditions":[-1.7094905E0,-1.7076692E-2,1.4673466E-2],"split_indices":[4,0,0],"split_type":[0,0,0],"sum_hessian":[5.3268976E0,2.007813E0,3.319085E0],"tree_param":{"num_deleted":"0","num_feature":"48","num_nodes":"3","size_leaf_vector":"1"}},{"base_weights":[-1.2345703E-2,-2.4632035E-2,1.5789108E-2],"categories":[],"categories_nodes":[],"categories_segments":[],"categories_sizes":[],"default_left":[0,0,0],"id":51,"left_children":[1,-1,-1],"loss_changes":[2.911694E-1,0E0,0E0],"parents":[2147483647,0,0],"right_children":[2,-1,-1],"split_conditions":[-1.6518129E0,-2.4632035E-2,1.5789108E-2],"split_indices":[4,0,0],"split_type":[0,0,0],"sum_hessian":[5.333687E0,2.0580966E0,3.2755902E0],"tree_param":{"num_deleted":"0","num_feature":"48","num_nodes":"3","size_leaf_vector":"1"}},{"base_weights":[1.6167334E-3,-1.8871056E-2,1.4727913E-2],"categories":[],"categories_nodes":[],"categories_segments":[],"categories_sizes":[],"default_left":[0,0,0],"id":52,"left_children":[1,-1,-1],"loss_changes":[1.9315922E-1,0E0,0E0],"parents":[2147483647,0,0],"right_children":[2,-1,-1],"split_conditions":[3.3485906E0,-1.8871056E-2,1.4727913E-2],"split_indices":[18,0,0],"split_type":[0,0,0],"sum_hessian":[4.9648285E0,2.0242903E0,2.9405382E0],"tree_param":{"num_deleted":"0","num_feature":"48","num_nodes":"3","size_leaf_vector":"1"}},{"base_weights":[-3.2202255E-2,-2.3932474E-2,1.2395995E-2],"categories":[],"categories_nodes":[],"categories_segments":[],"categories_sizes":[],"default_left":[0,0,0],"id":53,"left_children":[1,-1,-1],"loss_changes":[2.3145281E-1,0E0,0E0],"parents":[2147483647,0,0],"right_children":[2,-1,-1],"split_conditions":[-4.6419234E0,-2.3932474E-2,1.2395995E-2],"split_indices":[18,0,0],"split_type":[0,0,0],"sum_hessian":[5.2386146E0,2.0229619E0,3.2156527E0],"tree_param":{"num_deleted":"0","num_feature":"48","num_nodes":"3","size_leaf_vector":"1"}},{"base_weights":[-2.081238E-2,-1.5897628E-2,1.565626E-2],"categories":[],"categories_nodes":[],"categories_segments":[],"categories_sizes":[],"default_left":[0,0,0],"id":54,"left_children":[1,-1,-1],"loss_changes":[1.682897E-1,0E0,0E0],"parents":[2147483647,0,0],"right_children":[2,-1,-1],"split_conditions":[2.4491835E0,-1.5897628E-2,1.565626E-2],"split_indices":[4,0,0],"split_type":[0,0,0],"sum_hessian":[4.851431E0,2.785461E0,2.06597E0],"tree_param":{"num_deleted":"0","num_feature":"48","num_nodes":"3","size_leaf_vector":"1"}},{"base_weights":[-1.1796835E-2,-2.1777669E-2,1.4939316E-2],"categories":[],"categories_nodes":[],"categories_segments":[],"categories_sizes":[],"default_left":[0,0,0],"id":55,"left_children":[1,-1,-1],"loss_changes":[2.2984096E-1,0E0,0E0],"parents":[2147483647,0,0],"right_children":[2,-1,-1],"split_conditions":[-1.6518129E0,-2.1777669E-2,1.4939316E-2],"split_indices":[4,0,0],"split_type":[0,0,0],"sum_hessian":[4.942632E0,2.0157323E0,2.9268997E0],"tree_param":{"num_deleted":"0","num_feature":"48","num_nodes":"3","size_leaf_vector":"1"}},{"base_weights":[1.6981387E-3,-1.5881943E-2,1.3571153E-2],"categories":[],"categories_nodes":[],"categories_segments":[],"categories_sizes":[],"default_left":[0,0,0],"id":56,"left_children":[1,-1,-1],"loss_changes":[1.4585964E-1,0E0,0E0],"parents":[2147483647,0,0],"right_children":[2,-1,-1],"split_conditions":[3.3485906E0,-1.5881943E-2,1.3571153E-2],"split_indices":[18,0,0],"split_type":[0,0,0],"sum_hessian":[4.778583E0,2.0900626E0,2.6885207E0],"tree_param":{"num_deleted":"0","num_feature":"48","num_nodes":"3","size_leaf_vector":"1"}},{"base_weights":[1.1057604E-2,-1.4418438E-2,1.4317748E-2],"categories":[],"categories_nodes":[],"categories_segments":[],"categories_sizes":[],"default_left":[0,0,0],"id":57,"left_children":[1,-1,-1],"loss_changes":[1.3899076E-1,0E0,0E0],"parents":[2147483647,0,0],"right_children":[2,-1,-1],"split_conditions":[3.3854008E0,-1.4418438E-2,1.4317748E-2],"split_indices":[18,0,0],"split_type":[0,0,0],"sum_hessian":[4.7700453E0,2.1511319E0,2.6189132E0],"tree_param":{"num_deleted":"0","num_feature":"48","num_nodes":"3","size_leaf_vector":"1"}},{"base_weights":[-2.9473819E-2,-1.7079556E-2,1.101815E-2],"categories":[],"categories_nodes":[],"categories_segments":[],"categories_sizes":[],"default_left":[0,0,0],"id":58,"left_children":[1,-1,-1],"loss_changes":[1.2326654E-1,0E0,0E0],"parents":[2147483647,0,0],"right_children":[2,-1,-1],"split_conditions":[3.3931384E0,-1.7079556E-2,1.101815E-2],"split_indices":[18,0,0],"split_type":[0,0,0],"sum_hessian":[4.2921705E0,2.022529E0,2.2696419E0],"tree_param":{"num_deleted":"0","num_feature":"48","num_nodes":"3","size_leaf_vector":"1"}},{"base_weights":[-1.5596635E-2,-1.5937254E-2,1.7302992E-2],"categories":[],"categories_nodes":[],"categories_segments":[],"categories_sizes":[],"default_left":[0,0,0],"id":59,"left_children":[1,-1,-1],"loss_changes":[1.8726598E-1,0E0,0E0],"parents":[2147483647,0,0],"right_children":[2,-1,-1],"split_conditions":[2.5023293E0,-1.5937254E-2,1.7302992E-2],"split_indices":[4,0,0],"split_type":[0,0,0],"sum_hessian":[4.888276E0,2.8619304E0,2.0263457E0],"tree_param":{"num_deleted":"0","num_feature":"48","num_nodes":"3","size_leaf_vector":"1"}},{"base_weights":[-1.0432107E-2,-1.7141849E-2,1.4262517E-2],"categories":[],"categories_nodes":[],"categories_segments":[],"categories_sizes":[],"default_left":[0,0,0],"id":60,"left_children":[1,-1,-1],"loss_changes":[1.593846E-1,0E0,0E0],"parents":[2147483647,0,0],"right_children":[2,-1,-1],"split_conditions":[3.3931384E0,-1.7141849E-2,1.4262517E-2],"split_indices":[18,0,0],"split_type":[0,0,0],"sum_hessian":[4.4762683E0,2.1231575E0,2.3531106E0],"tree_param":{"num_deleted":"0","num_feature":"48","num_nodes":"3","size_leaf_vector":"1"}},{"base_weights":[2.620682E-2,-1.1054814E-2,1.8233534E-2],"categories":[],"categories_nodes":[],"categories_segments":[],"categories_sizes":[],"default_left":[0,0,0],"id":61,"left_children":[1,-1,-1],"loss_changes":[1.4430547E-1,0E0,0E0],"parents":[2147483647,0,0],"right_children":[2,-1,-1],"split_conditions":[1.0681477E-2,-1.1054814E-2,1.8233534E-2],"split_indices":[36,0,0],"split_type":[0,0,0],"sum_hessian":[4.814557E0,2.7221406E0,2.0924165E0],"tree_param":{"num_deleted":"0","num_feature":"48","num_nodes":"3","size_leaf_vector":"1"}},{"base_weights":[1.4530431E-2],"categories":[],"categories_nodes":[],"categories_segments":[],"categories_sizes":[],"default_left":[0],"id":62,"left_children":[-1],"loss_changes":[0E0],"parents":[2147483647],"right_children":[-1],"split_conditions":[1.4530431E-3],"split_indices":[0],"split_type":[0],"sum_hessian":[4.4638505E0],"tree_param":{"num_deleted":"0","num_feature":"48","num_nodes":"1","size_leaf_vector":"1"}},{"base_weights":[1.0636181E-2,-1.3601548E-2,1.3712469E-2],"categories":[],"categories_nodes":[],"categories_segments":[],"categories_sizes":[],"default_left":[0,0,0],"id":63,"left_children":[1,-1,-1],"loss_changes":[1.19623475E-1,0E0,0E0],"parents":[2147483647,0,0],"right_children":[2,-1,-1],"split_conditions":[3.4133663E0,-1.3601548E-2,1.3712469E-2],"split_indices":[18,0,0],"split_type":[0,0,0],"sum_hessian":[4.44333E0,2.0227826E0,2.4205472E0],"tree_param":{"num_deleted":"0","num_feature":"48","num_nodes":"3","size_leaf_vector":"1"}},{"base_weights":[3.6692285E-4,-1.788683E-2,1.6092008E-2],"categories":[],"categories_nodes":[],"categories_segments":[],"categories_sizes":[],"default_left":[0,0,0],"id":64,"left_children":[1,-1,-1],"loss_changes":[1.8850216E-1,0E0,0E0],"parents":[2147483647,0,0],"right_children":[2,-1,-1],"split_conditions":[3.3931384E0,-1.788683E-2,1.6092008E-2],"split_indices":[18,0,0],"split_type":[0,0,0],"sum_hessian":[4.550262E0,2.0961392E0,2.4541228E0],"tree_param":{"num_deleted":"0","num_feature":"48","num_nodes":"3","size_leaf_vector":"1"}},{"base_weights":[-3.0402686E-2,-1.6287576E-2,1.143209E-2],"categories":[],"categories_nodes":[],"categories_segments":[],"categories_sizes":[],"default_left":[0,0,0],"id":65,"left_children":[1,-1,-1],"loss_changes":[1.1826028E-1,0E0,0E0],"parents":[2147483647,0,0],"right_children":[2,-1,-1],"split_conditions":[5.6558326E-3,-1.6287576E-2,1.143209E-2],"split_indices":[36,0,0],"split_type":[0,0,0],"sum_hessian":[4.197178E0,2.1258497E0,2.0713282E0],"tree_param":{"num_deleted":"0","num_feature":"48","num_nodes":"3","size_leaf_vector":"1"}},{"base_weights":[1.4537646E-2],"categories":[],"categories_nodes":[],"categories_segments":[],"categories_sizes":[],"default_left":[0],"id":66,"left_children":[-1],"loss_changes":[0E0],"parents":[2147483647],"right_children":[-1],"split_conditions":[1.4537646E-3],"split_indices":[0],"split_type":[0],"sum_hessian":[4.234184E0],"tree_param":{"num_deleted":"0","num_feature":"48","num_nodes":"1","size_leaf_vector":"1"}},{"base_weights":[9.873968E-3],"categories":[],"categories_nodes":[],"categories_segments":[],"categories_sizes":[],"default_left":[0],"id":67,"left_children":[-1],"loss_changes":[0E0],"parents":[2147483647],"right_children":[-1],"split_conditions":[9.873968E-4],"split_indices":[0],"split_type":[0],"sum_hessian":[4.418864E0],"tree_param":{"num_deleted":"0","num_feature":"48","num_nodes":"1","size_leaf_vector":"1"}},{"base_weights":[2.6758865E-2],"categories":[],"categories_nodes":[],"categories_segments":[],"categories_sizes":[],"default_left":[0],"id":68,"left_children":[-1],"loss_changes":[0E0],"parents":[2147483647],"right_children":[-1],"split_conditions":[2.6758865E-3],"split_indices":[0],"split_type":[0],"sum_hessian":[4.36646E0],"tree_param":{"num_deleted":"0","num_feature":"48","num_nodes":"1","size_leaf_vector":"1"}},{"base_weights":[2.2980586E-2],"categories":[],"categories_nodes":[],"categories_segments":[],"categories_sizes":[],"default_left":[0],"id":69,"left_children":[-1],"loss_changes":[0E0],"parents":[2147483647],"right_children":[-1],"split_conditions":[2.2980587E-3],"split_indices":[0],"split_type":[0],"sum_hessian":[4.1179843E0],"tree_param":{"num_deleted":"0","num_feature":"48","num_nodes":"1","size_leaf_vector":"1"}},{"base_weights":[-4.1511944E-3,-1.40329525E-2,1.24787325E-2],"categories":[],"categories_nodes":[],"categories_segments":[],"categories_sizes":[],"default_left":[0,0,0],"id":70,"left_children":[1,-1,-1],"loss_changes":[1.0991552E-1,0E0,0E0],"parents":[2147483647,0,0],"right_children":[2,-1,-1],"split_conditions":[3.432586E0,-1.40329525E-2,1.24787325E-2],"split_indices":[18,0,0],"split_type":[0,0,0],"sum_hessian":[4.2626066E0,2.0301356E0,2.2324708E0],"tree_param":{"num_deleted":"0","num_feature":"48","num_nodes":"3","size_leaf_vector":"1"}},{"base_weights":[1.8257881E-3,-1.411391E-2,1.3931214E-2],"categories":[],"categories_nodes":[],"categories_segments":[],"categories_sizes":[],"default_left":[0,0,0],"id":71,"left_children":[1,-1,-1],"loss_changes":[1.2090027E-1,0E0,0E0],"parents":[2147483647,0,0],"right_children":[2,-1,-1],"split_conditions":[3.4678802E0,-1.411391E-2,1.3931214E-2],"split_indices":[18,0,0],"split_type":[0,0,0],"sum_hessian":[4.1505556E0,2.0217133E0,2.1288424E0],"tree_param":{"num_deleted":"0","num_feature":"48","num_nodes":"3","size_leaf_vector":"1"}},{"base_weights":[-1.0294625E-2,-1.4089483E-2,1.124183E-2],"categories":[],"categories_nodes":[],"categories_segments":[],"categories_sizes":[],"default_left":[0,0,0],"id":72,"left_children":[1,-1,-1],"loss_changes":[1.0106247E-1,0E0,0E0],"parents":[2147483647,0,0],"right_children":[2,-1,-1],"split_conditions":[3.4133663E0,-1.4089483E-2,1.124183E-2],"split_indices":[18,0,0],"split_type":[0,0,0],"sum_hessian":[4.3177047E0,2.019857E0,2.297848E0],"tree_param":{"num_deleted":"0","num_feature":"48","num_nodes":"3","size_leaf_vector":"1"}},{"base_weights":[1.9942855E-2],"categories":[],"categories_nodes":[],"categories_segments":[],"categories_sizes":[],"default_left":[0],"id":73,"left_children":[-1],"loss_changes":[0E0],"parents":[2147483647],"right_children":[-1],"split_conditions":[1.9942855E-3],"split_indices":[0],"split_type":[0],"sum_hessian":[4.035989E0],"tree_param":{"num_deleted":"0","num_feature":"48","num_nodes":"1","size_leaf_vector":"1"}},{"base_weights":[-5.5718686E-2],"categories":[],"categories_nodes":[],"categories_segments":[],"categories_sizes":[],"default_left":[0],"id":74,"left_children":[-1],"loss_changes":[0E0],"parents":[2147483647],"right_children":[-1],"split_conditions":[-5.5718687E-3],"split_indices":[0],"split_type":[0],"sum_hessian":[3.9833748E0],"tree_param":{"num_deleted":"0","num_feature":"48","num_nodes":"1","size_leaf_vector":"1"}},{"base_weights":[2.659037E-3],"categories":[],"categories_nodes":[],"categories_segments":[],"categories_sizes":[],"default_left":[0],"id":75,"left_children":[-1],"loss_changes":[0E0],"parents":[2147483647],"right_children":[-1],"split_conditions":[2.659037E-4],"split_indices":[0],"split_type":[0],"sum_hessian":[4.1198616E0],"tree_param":{"num_deleted":"0","num_feature":"48","num_nodes":"1","size_leaf_vector":"1"}},{"base_weights":[-8.772481E-3,-1.576716E-2,1.4192402E-2],"categories":[],"categories_nodes":[],"categories_segments":[],"categories_sizes":[],"default_left":[0,0,0],"id":76,"left_children":[1,-1,-1],"loss_changes":[1.3673781E-1,0E0,0E0],"parents":[2147483647,0,0],"right_children":[2,-1,-1],"split_conditions":[2.425485E0,-1.576716E-2,1.4192402E-2],"split_indices":[4,0,0],"split_type":[0,0,0],"sum_hessian":[4.096598E0,2.0373058E0,2.059292E0],"tree_param":{"num_deleted":"0","num_feature":"48","num_nodes":"3","size_leaf_vector":"1"}},{"base_weights":[5.196003E-3,-1.254411E-2,1.315061E-2],"categories":[],"categories_nodes":[],"categories_segments":[],"categories_sizes":[],"default_left":[0,0,0],"id":77,"left_children":[1,-1,-1],"loss_changes":[1.0123181E-1,0E0,0E0],"parents":[2147483647,0,0],"right_children":[2,-1,-1],"split_conditions":[4.2225723E0,-1.254411E-2,1.315061E-2],"split_indices":[18,0,0],"split_type":[0,0,0],"sum_hessian":[4.135243E0,2.0361845E0,2.0990582E0],"tree_param":{"num_deleted":"0","num_feature":"48","num_nodes":"3","size_leaf_vector":"1"}},{"base_weights":[5.063808E-2],"categories":[],"categories_nodes":[],"categories_segments":[],"categories_sizes":[],"default_left":[0],"id":78,"left_children":[-1],"loss_changes":[0E0],"parents":[2147483647],"right_children":[-1],"split_conditions":[5.063808E-3],"split_indices":[0],"split_type":[0],"sum_hessian":[3.9563222E0],"tree_param":{"num_deleted":"0","num_feature":"48","num_nodes":"1","size_leaf_vector":"1"}},{"base_weights":[1.605954E-2],"categories":[],"categories_nodes":[],"categories_segments":[],"categories_sizes":[],"default_left":[0],"id":79,"left_children":[-1],"loss_changes":[0E0],"parents":[2147483647],"right_children":[-1],"split_conditions":[1.605954E-3],"split_indices":[0],"split_type":[0],"sum_hessian":[3.7984915E0],"tree_param":{"num_deleted":"0","num_feature":"48","num_nodes":"1","size_leaf_vector":"1"}},{"base_weights":[-3.615635E-2],"categories":[],"categories_nodes":[],"categories_segments":[],"categories_sizes":[],"default_left":[0],"id":80,"left_children":[-1],"loss_changes":[0E0],"parents":[2147483647],"right_children":[-1],"split_conditions":[-3.615635E-3],"split_indices":[0],"split_type":[0],"sum_hessian":[3.7995381E0],"tree_param":{"num_deleted":"0","num_feature":"48","num_nodes":"1","size_leaf_vector":"1"}},{"base_weights":[-3.3014854E-3,-1.4538062E-2,1.3882977E-2],"categories":[],"categories_nodes":[],"categories_segments":[],"categories_sizes":[],"default_left":[0,0,0],"id":81,"left_children":[1,-1,-1],"loss_changes":[1.2283009E-1,0E0,0E0],"parents":[2147483647,0,0],"right_children":[2,-1,-1],"split_conditions":[2.424062E0,-1.4538062E-2,1.3882977E-2],"split_indices":[4,0,0],"split_type":[0,0,0],"sum_hessian":[4.0830703E0,2.0304768E0,2.0525937E0],"tree_param":{"num_deleted":"0","num_feature":"48","num_nodes":"3","size_leaf_vector":"1"}},{"base_weights":[-1.1971697E-2],"categories":[],"categories_nodes":[],"categories_segments":[],"categories_sizes":[],"default_left":[0],"id":82,"left_children":[-1],"loss_changes":[0E0],"parents":[2147483647],"right_children":[-1],"split_conditions":[-1.1971698E-3],"split_indices":[0],"split_type":[0],"sum_hessian":[3.8444262E0],"tree_param":{"num_deleted":"0","num_feature":"48","num_nodes":"1","size_leaf_vector":"1"}},{"base_weights":[8.1728315E-3],"categories":[],"categories_nodes":[],"categories_segments":[],"categories_sizes":[],"default_left":[0],"id":83,"left_children":[-1],"loss_changes":[0E0],"parents":[2147483647],"right_children":[-1],"split_conditions":[8.172832E-4],"split_indices":[0],"split_type":[0],"sum_hessian":[4.011898E0],"tree_param":{"num_deleted":"0","num_feature":"48","num_nodes":"1","size_leaf_vector":"1"}},{"base_weights":[2.200461E-2],"categories":[],"categories_nodes":[],"categories_segments":[],"categories_sizes":[],"default_left":[0],"id":84,"left_children":[-1],"loss_changes":[0E0],"parents":[2147483647],"right_children":[-1],"split_conditions":[2.200461E-3],"split_indices":[0],"split_type":[0],"sum_hessian":[3.9670022E0],"tree_param":{"num_deleted":"0","num_feature":"48","num_nodes":"1","size_leaf_vector":"1"}},{"base_weights":[3.2316618E-2],"categories":[],"categories_nodes":[],"categories_segments":[],"categories_sizes":[],"default_left":[0],"id":85,"left_children":[-1],"loss_changes":[0E0],"parents":[2147483647],"right_children":[-1],"split_conditions":[3.2316619E-3],"split_indices":[0],"split_type":[0],"sum_hessian":[3.6705675E0],"tree_param":{"num_deleted":"0","num_feature":"48","num_nodes":"1","size_leaf_vector":"1"}},{"base_weights":[1.2377396E-2],"categories":[],"categories_nodes":[],"categories_segments":[],"categories_sizes":[],"default_left":[0],"id":86,"left_children":[-1],"loss_changes":[0E0],"parents":[2147483647],"right_children":[-1],"split_conditions":[1.2377397E-3],"split_indices":[0],"split_type":[0],"sum_hessian":[4.068683E0],"tree_param":{"num_deleted":"0","num_feature":"48","num_nodes":"1","size_leaf_vector":"1"}},{"base_weights":[-6.272294E-3],"categories":[],"categories_nodes":[],"categories_segments":[],"categories_sizes":[],"default_left":[0],"id":87,"left_children":[-1],"loss_changes":[0E0],"parents":[2147483647],"right_children":[-1],"split_conditions":[-6.272294E-4],"split_indices":[0],"split_type":[0],"sum_hessian":[4.102703E0],"tree_param":{"num_deleted":"0","num_feature":"48","num_nodes":"1","size_leaf_vector":"1"}},{"base_weights":[-8.772889E-3],"categories":[],"categories_nodes":[],"categories_segments":[],"categories_sizes":[],"default_left":[0],"id":88,"left_children":[-1],"loss_changes":[0E0],"parents":[2147483647],"right_children":[-1],"split_conditions":[-8.772889E-4],"split_indices":[0],"split_type":[0],"sum_hessian":[4.005212E0],"tree_param":{"num_deleted":"0","num_feature":"48","num_nodes":"1","size_leaf_vector":"1"}},{"base_weights":[5.8015166E-3],"categories":[],"categories_nodes":[],"categories_segments":[],"categories_sizes":[],"default_left":[0],"id":89,"left_children":[-1],"loss_changes":[0E0],"parents":[2147483647],"right_children":[-1],"split_conditions":[5.801517E-4],"split_indices":[0],"split_type":[0],"sum_hessian":[4.008105E0],"tree_param":{"num_deleted":"0","num_feature":"48","num_nodes":"1","size_leaf_vector":"1"}},{"base_weights":[1.4381073E-2],"categories":[],"categories_nodes":[],"categories_segments":[],"categories_sizes":[],"default_left":[0],"id":90,"left_children":[-1],"loss_changes":[0E0],"parents":[2147483647],"right_children":[-1],"split_conditions":[1.4381073E-3],"split_indices":[0],"split_type":[0],"sum_hessian":[3.7391818E0],"tree_param":{"num_deleted":"0","num_feature":"48","num_nodes":"1","size_leaf_vector":"1"}},{"base_weights":[-1.8961962E-2],"categories":[],"categories_nodes":[],"categories_segments":[],"categories_sizes":[],"default_left":[0],"id":91,"left_children":[-1],"loss_changes":[0E0],"parents":[2147483647],"right_children":[-1],"split_conditions":[-1.8961963E-3],"split_indices":[0],"split_type":[0],"sum_hessian":[3.964615E0],"tree_param":{"num_deleted":"0","num_feature":"48","num_nodes":"1","size_leaf_vector":"1"}},{"base_weights":[1.8494362E-2],"categories":[],"categories_nodes":[],"categories_segments":[],"categories_sizes":[],"default_left":[0],"id":92,"left_children":[-1],"loss_changes":[0E0],"parents":[2147483647],"right_children":[-1],"split_conditions":[1.8494362E-3],"split_indices":[0],"split_type":[0],"sum_hessian":[4.1603084E0],"tree_param":{"num_deleted":"0","num_feature":"48","num_nodes":"1","size_leaf_vector":"1"}},{"base_weights":[4.291115E-3],"categories":[],"categories_nodes":[],"categories_segments":[],"categories_sizes":[],"default_left":[0],"id":93,"left_children":[-1],"loss_changes":[0E0],"parents":[2147483647],"right_children":[-1],"split_conditions":[4.291115E-4],"split_indices":[0],"split_type":[0],"sum_hessian":[3.9150808E0],"tree_param":{"num_deleted":"0","num_feature":"48","num_nodes":"1","size_leaf_vector":"1"}},{"base_weights":[4.468932E-3],"categories":[],"categories_nodes":[],"categories_segments":[],"categories_sizes":[],"default_left":[0],"id":94,"left_children":[-1],"loss_changes":[0E0],"parents":[2147483647],"right_children":[-1],"split_conditions":[4.468932E-4],"split_indices":[0],"split_type":[0],"sum_hessian":[4.0415907E0],"tree_param":{"num_deleted":"0","num_feature":"48","num_nodes":"1","size_leaf_vector":"1"}},{"base_weights":[-4.208269E-3],"categories":[],"categories_nodes":[],"categories_segments":[],"categories_sizes":[],"default_left":[0],"id":95,"left_children":[-1],"loss_changes":[0E0],"parents":[2147483647],"right_children":[-1],"split_conditions":[-4.2082692E-4],"split_indices":[0],"split_type":[0],"sum_hessian":[3.9594054E0],"tree_param":{"num_deleted":"0","num_feature":"48","num_nodes":"1","size_leaf_vector":"1"}},{"base_weights":[4.9385574E-2],"categories":[],"categories_nodes":[],"categories_segments":[],"categories_sizes":[],"default_left":[0],"id":96,"left_children":[-1],"loss_changes":[0E0],"parents":[2147483647],"right_children":[-1],"split_conditions":[4.9385573E-3],"split_indices":[0],"split_type":[0],"sum_hessian":[4.022755E0],"tree_param":{"num_deleted":"0","num_feature":"48","num_nodes":"1","size_leaf_vector":"1"}},{"base_weights":[1.50541235E-2],"categories":[],"categories_nodes":[],"categories_segments":[],"categories_sizes":[],"default_left":[0],"id":97,"left_children":[-1],"loss_changes":[0E0],"parents":[2147483647],"right_children":[-1],"split_conditions":[1.5054124E-3],"split_indices":[0],"split_type":[0],"sum_hessian":[4.1710777E0],"tree_param":{"num_deleted":"0","num_feature":"48","num_nodes":"1","size_leaf_vector":"1"}},{"base_weights":[-1.2170446E-2],"categories":[],"categories_nodes":[],"categories_segments":[],"categories_sizes":[],"default_left":[0],"id":98,"left_children":[-1],"loss_changes":[0E0],"parents":[2147483647],"right_children":[-1],"split_conditions":[-1.2170447E-3],"split_indices":[0],"split_type":[0],"sum_hessian":[3.8596709E0],"tree_param":{"num_deleted":"0","num_feature":"48","num_nodes":"1","size_leaf_vector":"1"}},{"base_weights":[-3.444136E-2],"categories":[],"categories_nodes":[],"categories_segments":[],"categories_sizes":[],"default_left":[0],"id":99,"left_children":[-1],"loss_changes":[0E0],"parents":[2147483647],"right_children":[-1],"split_conditions":[-3.444136E-3],"split_indices":[0],"split_type":[0],"sum_hessian":[3.7438166E0],"tree_param":{"num_deleted":"0","num_feature":"48","num_nodes":"1","size_leaf_vector":"1"}}]},"name":"gbtree"},"learner_model_param":{"base_score":"-3.1829395E-9","boost_from_average":"1","num_class":"0","num_feature":"48","num_target":"1"},"objective":{"lambdarank_param":{"lambdarank_bias_norm":"1","lambdarank_normalization":"1","lambdarank_num_pair_per_sample":"4294967295","lambdarank_pair_method":"topk","lambdarank_score_normalization":"1","lambdarank_unbiased":"0","ndcg_exp_gain":"1"},"name":"rank:ndcg"}},"version":[3,0,3]}